0.7 197 21 10 
0.092669
0.029504
0.008164
1.771795
0.087664
-0.058715
0.809160
-0.807753
-0.449858
0.619930
-0.193409
1.160239
-1.083104
0.436888
-1.201392
1.030973
0.887124
0.290407
1.864478
-0.145783
-0.592922
-0.319533
-0.533029
-0.635216
-0.802374
-0.007481
0.784903
0.983687
-1.273977
0.234079
-0.291847
0.406218
0.838048
0.372874
-0.878797
-0.080715
-0.628860
0.456784
-1.260458
1.176484
1.615703
0.966085
-0.868585
-0.333407
0.548279
-0.382376
-0.104525
0.531889
-0.393429
-0.845109
0.416687
-0.782198
-0.050641
1.021454
0.183489
0.707565
-0.329660
-0.244941
0.118388
-0.494814
-0.372317
-0.262594
-0.161073
-0.472032
-0.077820
0.267498
-1.059349
-0.493756
0.673810
-0.600310
0.676241
-0.306787
-0.655057
0.121298
1.034328
-0.152119
-0.300554
0.694757
0.489361
0.599974
-0.489775
-0.280943
-0.224517
-0.757123
-0.322123
-0.182294
-0.036077
-0.950405
-0.868233
0.312299
-0.322909
0.081557
-1.074080
-0.162394
-0.503623
-0.001933
0.595337
0.055325
-0.271290
-0.195122
-0.049716
0.627457
0.206840
0.856056
0.399770
-0.600142
-0.033547
-0.047253
-0.006917
-0.592697
0.603926
0.044899
-1.570081
-1.466783
-0.362682
1.687417
-0.150332
0.880116
-0.104722
-0.494048
-0.044812
0.941116
-0.806244
-0.644800
1.601940
-0.739874
-0.427688
0.280358
0.600049
-0.183427
0.719530
0.585257
0.265232
-0.691052
0.806663
-1.196322
0.362838
0.021601
1.748721
0.960036
0.327922
0.765012
0.581349
-0.766305
-1.409276
0.584279
-0.514112
-0.431091
-0.804915
-0.557251
-0.529107
-0.519671
-0.088093
-0.764536
-0.813006
0.688644
-0.863545
0.304137
0.473606
1.478530
-0.469434
1.005633
0.010776
-0.527376
0.213118
-1.174880
0.750876
0.318594
-0.483323
-0.222085
-0.411075
0.305078
1.156647
-0.046139
-0.163734
-0.360784
0.325919
-1.453388
1.061029
1.094953
0.943357
-0.229577
-0.536057
0.302675
0.029423
-0.649304
0.081627
-0.576421
0.181386
0.163219
0.977470
0.471549
-0.114517
-0.108486
0.862156
-0.333771
-0.995800
-0.931625
0.246200
0.829172
0.172356
-0.378311
-0.334785
-0.551585
0.497441
-0.726190
-0.304483
-0.468514
0.483458
0.362717
-1.075447
-0.026528
0.218344
0.283137
-0.118572
0.622506
0.014429
-0.448521
-0.832115
0.169216
0.436518
-0.129251
0.509293
-1.516211
0.312807
0.336051
-0.025886
0.366910
0.001568
0.012980
0.149466
1.052009
-1.162802
0.818219
-1.031729
-0.553943
1.819522
-1.107213
-1.201673
0.417489
1.034731
-0.182025
0.225440
0.533434
-1.896259
-0.302300
-1.371888
0.375796
0.312993
0.975802
-0.516435
0.986368
0.521356
-0.123465
0.409677
-1.684244
-0.470074
1.162897
-1.427122
0.692621
0.464096
1.128228
0.016385
0.059742
0.674553
-0.217559
0.307600
-0.415366
0.600823
0.945153
0.593568
-0.476038
-0.345068
0.463203
0.307632
1.036647
-0.520407
0.283996
-0.697560
1.353285
1.008410
-0.293769
-0.754561
-0.141713
-1.673247
-1.092957
-0.310874
0.285435
-0.535495
-0.550959
-0.067564
1.145595
0.316546
-0.148968
-0.178261
-0.980453
1.410025
0.125722
1.360637
-0.660840
-0.174726
0.626274
0.908292
0.230451
-0.786778
0.621050
-1.833792
-0.483361
-0.510714
0.815088
0.774895
1.278939
0.012983
-1.410802
-0.187415
0.676383
-0.645789
1.621813
-0.756032
0.548730
0.826848
0.528200
-0.818677
-0.863084
0.842628
-0.358311
0.739828
-0.053141
-1.148483
-0.251144
1.081163
-0.244630
0.171442
0.692431
0.950657
-0.849529
-0.568285
0.672486
-0.169944
0.549024
-0.127374
-0.596161
-0.149465
-0.088118
0.250875
-0.559574
0.007922
-0.110340
0.035064
-0.439115
0.520653
0.278336
0.531753
0.304450
0.870820
-0.820950
0.338568
-0.501875
-0.663069
0.092691
-0.008420
0.863050
-0.076020
-0.725163
-0.074652
-0.434592
-0.330265
0.588601
-0.790106
0.326281
-0.058300
-1.712719
-1.010780
0.027560
0.049617
0.520705
0.444511
-0.471458
0.990632
0.636491
0.600457
-1.305733
0.695410
0.039191
0.244718
-0.909218
1.332908
0.128195
0.609108
0.289250
1.357067
-0.255228
-0.598090
-0.535710
-0.302536
-0.850330
-0.414110
0.019300
0.712546
-0.313107
0.300775
-0.291667
-0.688065
0.284890
0.158839
0.342973
-0.399514
0.737794
-0.798546
0.496387
-0.613033
-0.164875
0.214228
-0.994522
-1.027289
-0.326783
0.524968
-0.542194
-0.348463
0.133423
-1.426873
0.056790
-1.162534
1.066174
-0.977298
0.173759
0.495835
0.959750
-0.578450
-0.456486
-0.658636
-0.784142
0.706376
0.343213
-1.195108
0.384672
-0.894474
0.416240
0.158634
-0.375663
-0.955678
-0.773786
0.449145
-0.301594
0.021036
0.288549
0.179274
1.722835
0.459372
0.444278
0.406990
0.528179
0.186961
-0.345895
0.600960
-0.903614
1.365720
-0.350665
-0.753352
-0.619083
0.398906
-0.468130
-0.259858
-0.492401
-1.024225
-0.540260
0.685901
-1.103486
0.215493
0.426811
0.410923
-0.400692
-0.678927
-0.238677
-0.441557
-0.183914
-0.898099
-0.330588
-0.288572
0.224311
1.152503
-0.982286
0.917221
-0.176307
-0.003057
0.408573
-0.280131
-0.712354
-0.166010
0.840640
-0.247166
-0.746443
0.118743
0.865715
0.219819
-0.465945
0.610877
0.405283
0.526575
-0.689321
-0.632140
-0.045899
0.630624
-0.947683
-0.467710
-0.561060
-0.277802
0.316102
-0.580989
0.120023
0.068594
0.428984
-1.178353
0.677862
-0.679976
-0.215302
0.330077
0.524119
0.358244
-0.268934
0.641429
-0.034136
0.109334
-1.256832
-0.078753
0.450360
0.140093
0.722082
-1.220987
0.741640
0.931193
-0.146814
-0.457492
1.010212
-0.263343
0.685920
-1.147130
0.055119
-0.116836
0.703661
-0.795388
-0.206274
0.161500
0.430358
-1.017484
0.097938
0.051570
-0.242937
1.587342
0.710100
0.029222
0.035902
-0.684378
-0.012844
-0.286341
-0.590887
0.756183
-0.747947
0.691792
0.839042
-0.325720
-0.277992
-0.038353
0.070114
-0.377211
0.547435
0.892185
-1.260821
0.617270
-0.064135
-0.209927
-0.611588
-0.360366
1.205640
1.705950
-0.751678
-0.470723
0.379639
0.329820
-0.347090
-0.252331
0.264699
-0.133466
-0.084839
-0.749958
-0.575143
-0.228158
-0.826426
-0.625969
0.065185
0.943537
-0.145325
-1.033309
0.830241
-0.800368
-0.694499
0.640573
0.556616
-0.122294
0.021421
0.031594
-0.453621
0.141021
0.854543
0.521663
2.067466
0.032207
0.169620
-0.529997
0.042758
0.959992
0.310820
-0.563295
-0.519409
-0.317618
0.551922
-0.967759
0.374359
0.588782
-0.571002
1.334867
-1.539873
-1.438533
-0.065045
-0.257089
-1.555966
-0.827110
0.803875
0.765712
-0.811273
0.197676
0.936093
0.784838
-0.126877
1.080664
1.194323
-0.376446
-0.040792
-0.499648
-0.010698
-0.373085
-0.052210
-0.151456
-0.757829
-0.621231
-1.270887
-0.254946
-1.409672
0.188053
0.699622
0.444091
-0.435244
-0.398877
0.576683
0.155016
-0.085669
1.123710
-0.086542
-0.867747
0.640410
0.107514
0.009531
0.708214
0.602006
-0.267622
0.146840
-0.320417
-0.335053
-0.513683
0.244600
-0.262392
-0.801656
-0.679292
-0.561776
1.155774
-0.377299
-0.381271
0.156949
-0.334660
0.938912
0.888478
-0.055156
0.682175
0.883814
-0.180227
-0.244318
0.664520
-0.460054
0.272675
0.775902
0.860001
-0.142472
-0.541872
-0.760047
-0.238483
0.188051
1.085854
0.535919
-0.128530
0.927296
0.830574
0.287809
-0.673675
-0.331237
0.694171
-0.292897
0.235664
-1.195065
0.686529
-0.519736
-0.783431
-1.191100
-0.232949
-0.428634
-0.157444
0.421783
0.437711
-0.135019
0.339690
0.450665
-0.193907
0.356490
-1.261705
-0.372847
-0.751843
-0.358872
0.587026
0.540567
0.487410
0.405677
0.330878
0.604204
0.025756
0.022603
-0.470882
-0.529107
-0.195078
1.037772
0.238936
0.213810
0.435798
-0.442661
0.085391
-0.541771
0.270406
0.046017
-0.945421
0.521221
1.189803
0.584663
0.102590
0.092079
-0.116971
0.427704
0.518683
0.862403
-0.997419
-0.068070
-1.065611
-0.691078
-0.871267
0.174129
0.609140
0.519041
-0.352671
-0.460432
0.151272
-0.180631
-0.226691
0.220571
0.179908
0.488880
-0.868644
-0.309966
-0.147810
0.600552
0.050027
0.096227
-0.555291
0.174828
0.464790
0.104926
0.142996
-1.332566
-0.358886
0.491192
0.160083
-0.093853
-0.658194
-1.003645
0.931654
0.135241
1.224391
0.706717
0.047784
-0.872065
0.106497
0.914163
-0.733429
-0.351940
-0.744722
1.557039
-0.125999
-0.954540
0.670103
-0.354598
0.756550
0.541787
0.934502
-0.607158
0.205585
0.588860
0.518578
-0.216081
-0.066103
-0.628061
-1.178981
-0.556030
-0.418654
-0.370318
-0.933203
0.801317
-0.054616
1.107825
-0.114304
-0.366270
0.367634
-1.212033
-1.301467
1.468402
0.320137
0.418466
0.814127
-0.175208
-0.769644
-1.229982
0.752836
-0.530224
0.369465
0.228529
0.446673
0.405777
-0.119766
-0.750920
1.074389
0.151786
-0.080002
-1.325017
0.960840
-0.154316
-0.304351
-0.565587
0.387611
0.067708
-0.772165
-0.507651
-0.428627
-1.692950
-0.309948
0.247047
0.912972
-0.038786
0.779274
0.920556
-0.304945
-0.704206
-0.174899
0.146678
-0.587246
-0.739264
0.502978
1.770013
0.570913
0.354685
-0.927756
0.203497
0.112782
0.263334
-0.552071
0.830973
0.670721
0.984576
-0.147281
0.095730
0.900837
0.796123
0.870398
-1.262629
-1.020306
0.670471
-0.857884
0.407053
-1.186399
0.932584
0.049424
0.167626
-1.333997
0.422951
1.097482
1.140089
0.360090
0.166452
0.244415
-0.736221
1.193440
0.373501
0.460286
-0.047189
0.576591
-0.938381
0.016648
-0.158544
0.958327
-0.125162
0.575927
0.309287
-0.473025
-0.162338
0.530335
-0.540135
0.010047
-0.107539
0.374074
-0.394003
0.031705
0.165190
1.118146
0.063145
0.415973
0.964142
1.431227
-0.258319
0.488990
0.667234
-0.462684
0.266370
0.023637
-0.213261
-0.258112
-0.733975
-0.929583
-0.865818
0.306096
1.087651
-0.429845
-0.253116
-0.263204
0.082282
0.019851
0.015301
-0.279044
1.359046
-0.889419
-1.032935
-0.373557
0.167083
0.569391
0.274710
-0.367036
0.490512
1.787584
0.524949
0.551090
-0.173042
-1.006452
-0.876993
-0.492564
-0.400404
-0.134188
0.045243
0.363477
-0.046326
-0.446124
0.476081
0.835154
0.018818
0.379311
0.918765
-0.280581
0.853094
-0.565921
-0.078649
0.088813
-0.302255
-0.030776
-0.382371
-0.319161
-0.958072
0.753527
-0.296125
0.637664
-0.415391
0.265081
0.353723
0.502052
-1.066923
-0.515921
0.726634
-0.444863
0.579906
0.335538
-0.107988
0.871648
-1.214607
0.394892
-0.906833
0.421997
0.150955
-0.058767
-0.485981
-0.352527
0.205179
0.259605
0.644609
1.022447
0.399161
-1.502974
0.167600
0.370978
0.257497
-0.345696
0.061350
0.430987
1.307608
-0.203630
0.292691
-0.644212
0.756695
-0.155854
-1.482495
-0.672806
-0.771762
0.656544
-1.013799
1.230222
-0.440386
0.029127
-0.685348
-0.683781
-0.039714
0.179505
0.381547
0.890961
0.199251
0.339916
-0.317664
0.277686
0.418324
1.461614
0.816707
0.006348
0.161528
-0.164764
0.555860
-0.151695
-0.378382
0.948215
0.671152
-0.901123
-1.386607
0.884025
0.614623
0.153287
1.187859
-0.076165
1.068162
-0.622734
0.720284
0.200314
0.606013
0.986881
-0.485632
0.679978
-0.618156
-0.060966
0.865110
0.898130
1.410873
0.779877
-0.033133
0.171060
0.302207
-0.070055
0.880954
0.967285
0.142615
-0.466776
-0.716908
-0.450347
0.009214
0.015960
-0.116891
0.399715
-1.291132
1.060549
-0.018050
0.797529
0.200112
0.522991
0.182161
0.087008
-0.585140
0.485805
-0.188557
-0.485602
0.281178
-0.604317
-0.226144
-1.059741
0.474940
-0.387292
0.128151
0.868808
0.059910
0.099147
0.392622
-0.732607
0.506451
0.226346
-0.310585
-0.140100
-0.460833
-0.533404
0.568178
0.108521
0.538254
1.146325
-0.425989
-0.991123
-0.660867
-0.901663
-0.096687
1.107931
0.410957
-0.013729
1.223529
0.590864
-0.669326
0.558784
-0.359449
-0.342983
1.192926
-0.398291
-0.702825
0.672617
-1.339595
-0.556052
0.156975
-0.259579
-0.597486
-0.701774
-1.472711
-0.386386
-0.972272
0.656894
-1.044381
0.456793
-0.534256
-1.139736
-0.994114
0.731147
-0.183901
-0.053278
0.708551
-0.198677
0.104806
0.519177
-0.337908
-0.791591
0.263256
-0.568533
-0.020684
0.688373
-0.498327
0.287002
0.098257
-0.533914
0.901031
1.059817
0.029906
-0.483976
-0.745599
-1.524781
-0.908861
0.211332
-0.458970
0.764807
-0.573408
-0.428053
0.479007
-0.289430
-0.896164
0.624749
-0.174229
-0.829887
-0.061131
0.845054
-0.496566
-0.656415
-0.041134
0.143514
-0.056862
-0.259278
-1.311924
0.228637
0.478137
-1.296988
0.091989
0.543791
-0.196789
0.160661
-0.077223
-1.070966
-0.328609
-0.713544
-1.240907
-0.346472
-0.229912
-0.747478
0.262815
1.034902
0.292476
-0.653858
0.609286
0.780266
0.045034
-0.350360
-0.664437
0.222166
0.351739
0.011349
-0.458363
0.242953
0.055632
0.046600
-0.954342
-0.247338
-0.108236
-0.480463
-0.258508
-0.073171
0.422434
-0.809442
0.556819
-0.520088
1.031484
-1.322626
-0.639682
0.856045
-0.518481
-0.459982
-0.325581
0.165461
0.865061
0.209600
-0.853807
-0.938148
0.927562
0.368465
0.962863
-0.491690
0.393899
-0.689050
-0.243318
-0.134905
0.717190
0.912738
0.059281
0.030585
-0.366991
-0.267580
0.344669
0.997614
0.830896
-0.682943
0.143334
0.577596
-0.156614
0.102696
0.528838
-0.524446
-0.524949
-0.033104
-0.026883
-0.359441
-0.343016
-0.730658
0.015103
1.076862
-0.722478
0.215749
-1.051592
-0.537884
-1.400250
0.567154
-0.240744
0.302730
0.023350
0.032389
0.082454
0.183075
0.038789
0.248565
0.263490
-0.989124
0.226235
0.460694
0.184217
1.368611
0.279165
-0.884542
-1.413092
-1.088505
0.684130
0.456829
0.675048
0.034253
0.981294
0.207678
-0.603972
0.138815
-0.576723
0.109333
-1.420498
-1.166527
-0.253524
-1.111695
0.097217
-0.315900
0.120594
-0.233069
0.275290
0.418599
-0.642013
0.348125
0.287282
1.485156
-1.312497
0.218932
0.010259
0.326201
0.764074
0.327886
0.446025
-1.504150
-1.182232
-0.213764
-0.788973
0.301021
0.792022
-0.902123
0.509131
-0.496829
-0.331029
-0.017298
-0.423288
-0.068998
0.946078
-0.406822
0.626701
0.352529
0.105155
0.141473
-0.149654
0.835765
-0.691611
-1.204442
-1.367494
0.441534
0.012779
0.205558
-0.156678
1.295730
0.642940
0.823817
0.240444
0.119097
-0.997392
0.339088
0.007271
0.813464
0.516196
0.130390
-0.200267
0.804182
-0.445445
-0.908939
-0.297574
0.958232
-0.139912
-0.242809
-1.020043
0.005601
0.587142
-0.465849
-0.587012
-0.235533
-1.340215
-0.946970
-0.299426
-1.287594
0.404868
0.419363
-0.923750
0.049563
-0.429714
-0.959500
-0.877822
-0.718903
1.270429
1.489088
0.960477
-0.219127
0.375889
0.117854
0.163005
-1.714177
0.482312
-0.291627
0.053287
1.271421
-1.515353
1.282235
-0.595250
-0.348977
-0.282758
-0.719432
-0.324210
-1.206663
-0.200936
-0.047894
-0.218473
1.501544
-0.518995
0.253344
0.009677
0.848977
-0.743508
-0.703672
-0.530914
-0.783969
0.147616
0.165833
-1.199255
-0.407045
0.604459
0.657229
-0.634847
0.323459
-0.848314
0.374576
-1.313319
-0.695161
-1.103879
0.528670
-1.256441
0.725718
0.467637
-0.615594
1.124312
0.191502
-0.788697
-0.954996
1.845230
0.647570
-0.283312
-0.019287
-0.628833
-0.355962
-0.575011
1.063299
-0.629153
1.016561
-0.697361
-0.456413
-0.042213
-1.123975
1.067069
-0.281988
-0.055639
0.351348
0.778442
-0.872247
-0.724406
1.768976
-0.546485
0.158739
0.504506
-0.238442
0.294070
0.616043
0.379909
0.655559
-0.115256
-0.080214
-0.400000
1.084792
-0.992854
0.956314
0.034541
0.073788
0.088596
0.469594
-0.059011
-0.227749
-0.025381
0.182679
0.149862
1.371965
-0.202654
-0.747050
0.300945
0.461921
1.454398
0.668094
0.505565
-0.576381
0.059468
-0.850385
-0.428615
-0.238388
-0.784233
0.462585
0.976114
0.204480
0.328329
0.753337
-0.482437
0.918483
-0.269515
-0.209488
-0.862900
-0.723853
0.502548
-0.405199
-0.021138
0.548304
-0.442222
0.051723
0.168966
0.091184
0.111534
-0.188117
0.022017
-0.034351
-0.569606
0.045016
0.614641
1.052539
-0.038328
-0.173394
0.114353
-0.127740
-0.690896
-0.678148
-0.655957
1.036365
1.251615
0.374062
0.199224
-1.177637
-0.617336
0.874803
-0.332414
-0.400693
0.755279
0.594472
-0.279753
0.846179
0.259316
-0.090071
-0.681651
-0.483210
0.467711
0.633581
-0.731325
-1.574981
0.772407
0.729655
1.611091
0.027029
-0.127051
-0.006101
0.106183
0.768841
-0.614987
0.110711
-0.052577
1.050446
0.410814
-0.450534
-0.198727
0.073957
0.962541
-0.440876
-0.503963
-0.615249
-0.080938
0.545529
1.029877
-0.528421
1.141761
0.450095
0.152852
0.180815
0.761446
0.742268
1.301102
0.507084
-0.556019
1.799125
1.205237
-0.327056
-0.814566
0.081080
0.807464
0.855587
0.563817
0.490909
0.821748
0.334228
0.980915
1.194321
0.675113
0.755463
-0.486444
-0.826631
-0.385641
0.673064
0.011319
1.268303
-0.353844
0.281807
-0.698485
-0.545957
-0.770962
1.509319
-0.470379
-0.805139
0.016745
0.347116
0.186656
-0.115952
0.019927
-1.005658
-0.093872
-0.966791
0.419049
0.055265
0.730997
-0.003503
0.157796
-1.301849
-0.665931
-0.544517
-0.308650
-0.766799
-0.304296
-0.859578
0.268429
-0.598972
1.040924
0.623787
-0.153218
0.305333
-0.729988
0.958325
1.031004
0.429349
-0.169701
-1.339052
0.149417
0.386125
-0.063961
-0.490198
0.220627
0.216450
-0.331547
0.160128
-0.133488
-0.562444
0.712270
0.532284
-0.009591
0.159074
-0.243267
-0.436214
1.037237
-1.206377
-0.248573
-0.865419
-1.309891
-0.227796
0.096465
-0.343170
0.100340
0.523560
-1.035032
-0.103369
-0.598846
0.870829
1.074422
0.378629
-0.019740
0.915867
-0.279157
0.114890
0.131117
0.704712
-0.025399
0.446318
-0.418605
-0.072919
-0.896661
0.885437
0.286486
-0.644827
0.039545
-0.861455
-0.313868
0.135759
-0.206323
-0.855421
-1.141074
-2.044811
0.309302
0.920398
0.959281
0.357075
-0.477746
0.695248
0.608613
0.060472
-0.603261
0.166447
0.192158
0.324262
-0.993972
-0.783500
0.664808
-1.019806
0.646735
-0.256101
-1.057536
0.131191
-1.278304
-0.480922
-1.273703
-0.531268
0.449734
-0.211878
0.458584
-0.025135
0.815167
1.267775
-1.240288
-0.157293
1.302442
0.707390
0.701085
0.496302
-0.998864
-0.685417
0.692531
0.529233
-0.096000
-0.166063
-0.108607
0.928040
-0.510526
-1.574490
0.768155
0.797375
-0.184598
1.062477
0.408370
-0.972612
0.306982
0.470910
-0.445506
-0.252451
0.123887
1.277785
-0.340485
-0.654006
-1.026340
0.123517
0.062574
-0.355377
0.793931
-0.474413
-0.911267
0.322831
0.015208
-0.357320
-0.647693
0.350056
0.100037
0.192470
-0.590638
-0.551692
-0.577016
0.475079
1.119749
-0.661856
-0.487760
0.268876
0.621205
-0.281293
0.530395
0.177734
-0.596686
-0.313596
0.321249
0.201408
1.147365
0.539344
0.638293
0.619711
0.426614
0.392165
0.298396
-0.204159
0.888011
-0.276578
-1.240775
0.998999
0.076215
-0.461701
-0.034235
0.354726
-0.257189
-0.400151
-0.792607
0.747161
0.101966
0.326111
0.931284
0.233230
-0.730646
0.325282
0.125792
0.410055
0.085709
-0.276567
0.190679
0.771028
-0.305890
-0.326090
-1.026079
0.014918
0.660982
0.526966
-0.852961
0.549980
0.232304
0.411189
0.022926
0.348222
1.253895
-0.501310
-1.273017
0.933516
1.461900
-0.209984
-0.008277
0.539312
0.476725
0.836291
-0.552969
-0.362563
0.084236
-0.994011
0.391763
0.089583
0.758797
0.096369
-0.530482
-0.544841
-0.018785
-0.036762
-1.031928
0.276527
0.295435
0.817453
-0.241303
-0.620335
0.820930
0.797135
-0.016095
0.445951
0.487274
-0.253199
-0.531854
-0.469875
0.859272
-0.084708
0.320040
-0.575788
-0.800622
0.326704
0.329008
0.004329
-0.454852
-0.771438
-0.498811
-0.253801
-0.441837
-0.291916
0.482746
0.373840
-0.669479
-1.451073
0.441821
-0.227017
-0.380503
0.231980
0.496501
1.355720
0.648513
-0.187848
-0.549508
-0.280383
0.864588
1.165427
-0.584113
0.665009
0.337839
0.537641
-0.682095
0.393989
0.806937
0.146386
-1.076355
-0.500193
0.348493
-0.736600
1.007378
-0.721782
0.784558
0.407679
0.154248
0.579877
-0.906189
-1.320924
-0.025820
0.139909
-0.061722
-0.746700
0.659024
1.326697
-0.626172
-0.244506
0.226562
-0.473730
0.049869
-0.318819
-1.163062
0.304779
-0.292097
0.075349
0.737463
1.344145
0.760319
-0.497009
-0.009289
0.180586
-0.402025
0.000996
-0.710564
-0.717553
-1.040091
0.795176
0.546669
-0.904427
0.135215
0.454359
1.175900
0.698043
-0.648438
0.625920
1.177482
-0.251844
-1.163156
0.675948
0.834378
-0.171592
0.413355
0.134804
1.750328
-0.833134
-0.445770
0.120798
0.151059
-0.665447
-0.911190
-0.777090
0.713093
-0.287582
1.183483
0.701161
0.724585
0.555207
-0.768453
-0.771965
-0.362477
-1.427356
-0.530253
-0.884058
-0.998609
-0.513586
0.330655
-0.532494
0.652179
-0.068012
-0.672708
0.134828
1.387617
-0.269251
0.494563
-0.712184
-0.190595
0.780189
-0.167252
0.632639
-0.452426
0.097359
0.073149
0.191166
0.012228
-0.547320
0.078913
0.235124
-0.956808
-0.803696
-0.106942
-0.699598
-0.992190
0.117915
-0.213874
0.026473
-1.440222
0.123326
0.059782
0.663812
-0.594117
-0.822852
-0.521482
1.861350
-1.910176
-0.153756
-0.005325
0.710056
1.073244
0.927845
-1.328834
-0.551427
-0.798377
1.443718
0.989415
-0.290578
-1.246900
0.236773
0.420425
-0.245408
0.259655
-0.555852
-0.775196
0.631628
0.407497
-0.564583
-0.424381
0.114695
-0.170022
0.878235
-0.242041
0.125773
0.691884
-0.805341
0.158489
0.024204
0.166161
0.108965
-0.269839
-0.970577
-0.348934
-0.477769
-1.157433
-0.713005
-0.743772
-0.245941
-0.182099
0.521241
0.354936
0.312176
0.367331
0.412659
0.717549
0.062672
-0.783797
0.754491
0.076099
-0.246569
-0.614772
0.223160
0.116161
0.843813
0.708957
0.741221
0.013121
-0.473432
0.626316
0.369131
-1.103057
-0.006499
0.412210
-0.170843
-1.089718
-0.690519
-0.799376
0.942548
-0.194556
-0.843929
-0.697673
-0.537084
0.138547
-0.363315
-1.289002
0.745327
0.808002
0.049690
1.067211
0.212298
-1.041824
0.441128
0.837009
0.350611
-0.345210
1.102614
-1.317260
0.651566
-0.824551
0.111859
-0.683474
-0.158031
-0.334561
-0.166981
-0.343359
0.122161
0.132673
-0.528906
-0.076516
1.179912
0.743436
-0.802531
-0.468071
0.036802
1.961089
-1.403698
-0.034386
-1.273002
0.648383
-0.459969
-1.152364
-1.241273
-0.351528
0.141955
-0.514868
0.238881
-0.663053
0.658316
1.223166
-0.581605
-1.083362
-0.486658
0.708035
0.383181
0.980051
0.799939
-0.573322
0.595063
-0.489735
-0.660789
0.347050
-0.534516
0.078664
-0.015119
1.170846
-0.136949
0.697219
-0.142756
0.493469
0.225573
-0.770628
-0.735558
0.505664
-0.882134
-0.037318
0.359109
0.491651
-1.153666
-0.083724
0.080394
2.040123
-0.095284
-0.777778
-0.693103
0.702707
0.343228
-0.667541
-0.508756
-0.155458
0.213591
0.290552
-0.087723
0.805681
-0.830481
-0.596712
-0.468791
-0.114135
0.019329
0.902505
0.302916
1.431055
-0.975691
0.413952
0.222035
0.501448
0.268278
0.667471
-0.586932
0.395732
-0.321216
1.103889
-0.473710
-0.043810
-0.578449
0.516938
0.768249
-0.287331
0.200551
-0.280346
-0.905337
-0.222153
0.444655
-0.552552
0.269050
0.783909
-0.186299
0.473275
-0.503710
0.351406
-0.449625
0.163561
0.292749
0.398794
0.605701
-0.773369
-0.286074
0.473347
-0.266465
0.171096
1.210735
0.232536
-0.132985
-0.494057
0.093269
0.037516
0.714991
-0.738779
-0.272856
1.346264
-0.228139
-0.191689
1.044065
1.479337
-0.228031
0.238106
-0.201555
0.209976
-0.226300
0.785864
-0.429135
-0.581168
-0.839201
1.129235
-0.665167
-0.520980
0.549549
-0.146924
-1.181837
-0.644778
-1.154666
0.218699
0.455876
0.206076
1.106101
0.095301
0.106833
-0.079882
-1.432806
0.297534
-1.050685
0.279217
0.949867
0.298943
0.296231
0.666464
1.072292
-0.913231
0.803238
0.649427
0.597015
1.057398
0.417367
0.713547
1.738654
0.910945
-0.700035
-1.263787
-0.836481
0.928598
-0.347279
-0.189970
-0.507129
0.154594
0.348768
-1.196139
-0.811444
-0.284521
0.578592
-0.077282
0.505913
0.038322
-0.556791
0.048453
-0.527555
0.489824
-0.753824
-0.297758
-0.453325
-0.294962
1.049259
-1.153923
-1.760215
1.406606
1.186308
0.755790
1.434003
0.881106
-0.540944
-0.674095
0.026256
0.361045
-0.800770
-0.705187
0.922989
-1.021278
0.068907
0.172608
0.824292
-1.855239
-0.268214
-0.284447
-0.274669
0.497161
-0.951376
-1.016127
0.140580
-0.892658
-0.736499
-0.173503
0.179842
-0.341088
0.811705
-0.208971
-0.564385
0.209254
0.027674
0.621136
-0.890184
0.409127
0.148896
0.253899
0.165485
1.305525
0.275484
1.568676
-1.228790
0.001610
0.341467
0.866564
-0.776781
0.833788
0.109253
0.103835
0.075353
0.546149
0.432837
-0.849392
0.682203
0.594924
0.584267
-0.130433
0.273291
-0.054038
-0.483268
-0.678962
0.353571
-0.059368
0.908002
-0.399522
1.081590
-0.379524
-0.420019
-0.197145
-0.400980
0.162249
0.451180
-0.189313
-0.732225
-0.884401
-0.660925
-0.218328
0.764739
0.908891
-0.573635
0.448860
0.636630
0.018586
-0.017128
-0.230801
1.259194
-1.340982
0.654105
0.133476
-1.310886
-1.045012
0.338329
-0.596070
0.145819
0.374718
-0.014265
0.558561
1.364683
-0.327166
0.290999
0.915593
-1.399866
1.152087
0.007651
0.336099
-0.684836
-0.250643
-0.435901
1.150242
0.384846
0.389305
-0.242086
0.989733
-0.371609
-0.193039
-0.121737
0.802814
-0.360738
-0.195458
0.135164
-0.397938
-0.030687
-0.976853
-0.211173
1.187949
1.025473
-0.761164
0.802462
0.709624
0.679092
0.696699
0.732073
0.499412
0.292160
-0.641040
-0.579473
-1.109729
-1.521414
-0.123731
0.111083
-1.143029
0.572920
0.179820
0.319676
-0.491219
0.181470
-1.009619
0.258038
0.315608
-0.268535
0.801878
-0.354928
-0.708110
-1.795314
-0.425694
-0.938918
-0.397912
-0.653177
-0.623994
1.112878
0.294543
1.212310
-1.151115
-0.814125
-0.702953
-0.202130
1.828003
-1.201127
0.077145
0.838909
-0.041496
0.123204
0.698621
0.780725
0.306126
-0.371304
0.987131
-0.361044
-0.959023
0.068694
0.494832
0.240194
-0.173915
0.181512
1.622271
0.172645
0.257504
-0.275609
2.072460
-0.510766
0.668627
0.166601
-0.381793
-0.235806
0.117456
-0.258654
0.518576
-0.204608
0.469706
-0.380575
-1.018153
0.912788
0.616619
-0.322205
0.209051
0.871916
0.967106
-1.847533
1.012140
-0.275259
0.060744
0.806961
-0.647626
-0.426000
0.454482
0.427133
1.012982
0.051641
0.810476
-0.444187
-0.297599
0.572159
-0.606315
0.725089
-0.248681
0.654888
-1.183528
1.103218
-0.157905
0.346218
-0.557948
0.625856
-0.722285
0.638667
0.673799
-0.938871
0.918158
0.762758
1.403033
0.523600
0.706090
-1.133759
-0.036906
0.353065
0.653487
0.144199
0.860464
-0.257902
-0.175797
-0.091094
0.509610
-0.092667
1.136203
0.353795
-0.803772
-1.002965
-0.524698
0.218569
-0.062262
1.018317
-0.071213
-0.195844
-0.799253
-0.193847
0.160153
0.334681
-0.650223
-0.064753
-0.203030
0.255643
-0.927928
0.053940
-0.664360
-0.891001
-0.194477
0.099176
-0.270435
0.620808
-0.879068
-0.938777
-0.270988
-0.936767
-1.550447
1.508099
0.309835
-0.490582
-0.530572
-0.580553
0.523175
0.673638
-1.379397
-0.681517
0.876604
0.150248
1.568079
0.610053
-0.508707
-0.788491
0.419535
1.671266
1.440728
-0.857462
-1.316930
-0.713039
-1.108899
0.207023
0.382136
-0.490147
-0.485602
1.364259
0.216261
0.770130
0.663503
-1.100965
-2.022823
0.544592
-0.880920
1.652280
-1.010072
-0.885796
1.348706
-0.548357
-0.024484
-0.364080
-0.321881
0.363805
0.204671
0.704968
-0.559624
0.623470
-0.373771
0.729528
-0.653899
-0.873982
-0.049389
-0.494670
0.495259
-0.633686
-0.400766
-1.888438
0.057359
-0.836992
-0.030042
-0.252372
1.000329
-1.052116
0.461002
0.404825
0.967945
0.073783
0.319514
0.709284
0.506518
-0.557052
-0.498452
-0.719670
0.121619
-0.416722
0.679795
0.225999
-0.119327
-0.963560
1.265428
0.424353
-0.279868
0.527393
1.010449
-0.009390
-0.151494
0.645377
-0.067006
-1.452768
-0.254936
0.331431
0.028830
1.103936
-0.500206
1.565296
0.348969
0.991864
-0.874380
-1.724049
-0.348457
-0.528549
0.614403
-0.793796
-0.404283
-0.285209
0.095897
0.584036
1.076088
0.228182
-0.996548
-0.082698
1.169309
0.462337
-0.348621
0.534302
-0.137472
-0.222662
1.016306
-0.919320
-0.988235
0.324203
0.617600
-1.319860
0.463139
0.664235
0.959419
-0.727652
0.249945
-0.424268
0.560651
-0.173765
-0.153017
0.977162
0.622610
0.239743
-0.100427
0.374777
-0.389740
0.424886
-1.398179
-0.421527
-0.378113
-1.098790
-0.472375
-0.555827
1.222037
0.787733
-0.079623
-1.314533
0.197546
-0.642201
-1.211212
0.205138
0.565690
0.268457
0.903831
-0.111648
-0.066836
-0.477788
0.295398
-0.191270
0.613165
0.628231
0.136946
-0.141734
-0.060390
0.805972
0.741003
0.568683
-0.298828
1.246595
-0.170460
-0.010026
-0.870163
-1.174280
-0.507588
1.768525
-0.602611
-0.305180
0.395559
0.039029
-0.214871
-0.557668
0.009057
-0.961846
-0.842820
-0.045253
0.020567
1.113543
-0.198001
1.278929
0.055016
-0.341946
-0.002029
0.131229
0.559681
-1.580851
0.354113
0.765589
1.433786
0.006307
-0.343994
-0.637714
0.830122
-0.779119
-0.175270
-0.751534
-0.530303
0.845703
-0.504208
0.570832
0.270230
0.310797
-0.480769
0.784218
-0.522869
0.584216
-0.035049
-0.499311
0.563691
0.159159
1.083350
0.867464
-1.054791
-0.932397
0.879077
1.088738
0.198416
-0.810599
0.738471
-0.757705
0.572299
-0.880324
0.734120
-0.947356
-0.021897
0.004701
-0.047169
-0.146166
-1.365211
1.042773
1.256160
-0.183281
-0.078143
-1.468019
0.457651
-0.768039
-0.435888
-0.209456
0.942358
0.015214
-1.119749
0.140925
0.329735
-0.008354
-0.874658
-0.698935
0.170665
-0.477833
-0.152652
-0.705757
0.022501
-0.563184
1.083807
0.356490
-0.165914
-0.330372
-0.515831
-0.402404
0.231527
-0.502143
-0.798941
-0.607794
-0.884835
0.578606
0.686395
-1.159502
0.167755
-0.039036
0.343389
-0.468645
-0.714914
0.625137
0.459033
0.720778
-0.176718
0.261803
-0.504270
0.778484
0.545467
1.836643
0.195863
1.197024
-0.415814
0.636607
0.604281
-1.069830
-0.085821
-1.613944
-0.202278
0.340291
-1.588215
0.012555
-1.883865
1.163807
0.837289
0.685710
0.243611
-0.206394
0.572502
-0.201264
-0.177817
-0.483849
0.479135
1.213703
-1.207906
-0.429365
1.800188
1.475814
-0.335944
0.982854
-0.969449
0.025014
0.212691
-0.991232
-0.883059
0.578664
-1.297110
0.511922
-0.791411
0.767424
0.207045
0.180922
-0.760132
0.184350
-0.598716
-1.093436
-1.164711
1.080398
-0.446927
-0.240231
-0.033405
0.444322
-1.688699
-0.171087
0.219654
-1.742620
-0.883820
-0.060099
-1.321367
-0.132660
0.853536
-0.173327
-0.258557
-0.563512
-0.262406
0.935094
-0.032830
-0.242853
0.621383
0.448931
0.393901
0.439341
-1.286406
0.209082
-0.103169
-0.190677
-0.162021
-0.104623
0.519096
-1.046995
-0.067279
0.417799
-0.461297
-0.140223
-0.598045
-0.170374
0.049938
0.415639
1.077922
0.300569
-0.349358
-1.337677
0.189422
0.214591
-0.536854
-0.334417
-0.935542
0.677729
0.279509
0.028142
0.677024
0.708767
0.193003
-0.262486
0.405007
-0.014038
-0.430191
-0.935499
0.437221
0.899139
0.865662
0.542745
-0.144429
0.257151
-0.513090
-0.599600
-0.429413
0.052462
0.680213
-0.233401
0.001760
0.011040
0.089603
-0.386375
1.370179
-1.047716
0.378374
0.093579
-0.132396
-0.192269
1.491986
0.320046
0.401647
1.813951
0.330717
-0.234589
1.245975
-0.192604
0.002361
-0.011577
0.225063
0.227994
-0.189339
-0.621421
0.829421
0.274353
-0.549293
-0.465212
-0.739875
-0.453889
0.598829
-0.267681
-0.093914
0.305989
-0.433310
-0.344101
-0.173405
-0.009602
0.477498
0.720526
-1.154601
-0.185410
1.197050
1.215875
0.402678
-0.662112
0.373312
0.009941
-0.149053
0.376457
0.025046
-0.759317
-0.673751
0.742346
1.082995
1.444593
0.073673
1.050766
-0.219542
-0.215895
-0.344024
0.342076
-0.181011
1.348511
1.017230
-0.953107
0.750978
1.268646
-0.686455
0.138015
-0.766635
0.086276
-0.789401
-0.928961
0.478302
-1.137795
1.419959
0.128908
-0.892631
0.625650
-0.154333
1.764180
-1.157049
0.143268
-1.004516
0.139983
-0.323178
-0.043742
1.546848
0.990100
0.034463
-0.629005
-1.196414
-1.003880
-1.165371
1.550332
0.750822
0.298868
0.148241
1.077255
0.648975
-0.877925
0.710445
0.368155
0.179803
0.421297
-0.558157
-0.036470
0.607279
0.332789
0.014490
-1.068248
0.023812
-0.816669
-0.025569
-0.045505
1.098898
-0.553927
0.472032
-0.515643
-0.416888
0.201811
-0.992315
0.541836
-0.217977
0.557510
0.416622
-0.185914
0.748405
-0.144230
-0.597131
1.097841
0.714665
0.536606
0.614536
0.806276
1.118992
-0.867469
0.526440
-0.864975
-0.807372
0.270564
-0.206504
-0.529703
0.520817
0.025165
0.441203
-0.451924
0.184028
-1.558120
-0.804029
-0.537650
0.571127
0.564249
0.094475
-0.145741
-0.759352
0.547439
0.389667
-0.681408
0.007886
-0.154053
0.195769
1.207795
-0.809023
-0.298524
-0.165312
0.818323
0.883082
-0.601248
-1.921058
-0.232798
0.654233
0.001352
0.435750
1.446877
-0.894040
1.177909
-0.370980
-0.194660
-0.413057
-1.092250
-1.405284
0.018142
-0.041584
-1.972616
-0.632886
0.563771
1.517646
1.144566
1.203094
-0.294367
0.981845
1.204344
0.238619
-1.202063
0.328995
0.645934
0.523261
-0.294397
0.295705
0.951416
0.141745
0.593840
0.090854
-1.510256
-0.855936
0.259337
-1.006756
-0.297035
-0.441684
-0.260001
-0.432426
-0.589131
0.644111
0.463219
-1.727302
0.457719
0.129761
0.082884
-0.396778
1.261432
-0.169162
0.572990
1.335879
-0.388182
-0.003083
0.165845
-0.046257
-1.004169
-0.566711
0.062355
0.741825
-0.652733
-0.620834
-0.171091
0.321313
-0.873821
0.154844
-0.903608
-0.919408
-0.633336
-0.033309
0.339333
-0.056950
-0.364205
-0.452911
0.646458
0.520695
0.727679
0.024729
1.036834
-1.125244
0.528298
0.031698
0.335518
0.463675
-0.366791
-0.547964
1.087001
-0.087748
-0.450709
-0.129011
0.949702
-0.482523
0.613046
-0.101113
0.137383
1.080475
0.159303
0.536480
0.308092
-0.580824
0.223142
0.561450
-0.914442
0.041534
-0.162433
-0.315312
-1.575670
0.053066
-0.290211
0.269898
0.913803
0.075372
0.536406
-0.383997
0.147374
0.952324
1.007081
0.628441
0.459502
0.560340
-0.118209
0.774059
-0.448029
-0.498584
0.932036
1.255099
-1.015444
-0.534240
0.695900
0.436366
0.709850
0.208188
-0.995924
-0.777265
0.610006
-0.423881
0.566640
1.170202
-1.204601
1.507206
0.535258
-0.767594
0.702610
-0.803868
-0.436136
-0.676541
0.332533
-0.146450
-0.380356
0.563407
0.470225
0.127974
0.109716
0.752236
-0.452836
-0.734228
-0.215623
0.853543
0.665609
0.366482
1.168025
0.193713
-0.119389
1.140095
0.141666
-1.642078
-0.408277
-0.190290
-0.910625
-0.822201
-0.513270
0.798210
-0.296560
-0.189152
-0.254069
0.064977
0.501375
0.279159
-0.560828
0.742727
0.415730
-0.254747
0.580965
-0.495766
-0.364330
0.728984
-0.446328
0.851372
0.803617
-0.187535
-0.175716
-0.685145
-0.692731
0.294420
-1.110505
1.320437
-0.427827
-0.820933
0.577103
-0.315976
0.499979
0.323939
1.100785
1.000086
-0.078166
0.475215
0.590733
-0.668620
-0.631532
0.051678
1.273519
0.442815
0.392095
-1.115386
-0.403668
-0.881147
0.932579
-0.044166
-1.398821
-0.531447
-0.337107
0.404793
0.870590
-0.793550
1.118287
1.571011
-0.188941
0.037540
-1.331343
0.997493
0.035859
1.202871
0.021824
0.727618
0.572585
-0.963182
0.872752
0.751091
0.530658
-0.295303
0.519353
-0.754815
1.350121
-0.752423
-0.439472
0.086292
0.899105
-1.405457
-0.257431
0.062854
0.851848
-0.380726
0.522850
0.061387
-0.764206
-0.682209
-0.099100
0.581914
-0.236736
0.107308
-0.920413
-0.462723
0.375545
0.281384
-0.448252
-1.288182
0.213535
1.496057
0.065224
-0.003337
0.252243
0.497578
0.388588
0.192565
0.983051
1.289521
0.326445
0.213047
0.445920
-0.738704
0.143484
-0.385720
-0.808871
-0.747061
0.999058
-0.527397
1.095561
0.944843
1.042020
0.401949
0.767909
-1.328921
-0.648113
0.614534
1.003084
0.209493
1.279560
0.455068
1.221775
-0.492974
-0.722651
-1.470464
-2.076459
-0.843650
-1.115001
0.924729
-0.969698
-2.149553
-0.856379
0.596504
0.895186
0.682973
-0.300139
0.784117
0.413409
0.172473
-0.421808
-0.035736
-0.896161
-0.955051
1.234356
0.892206
0.356397
-1.987933
0.397984
0.560535
0.838894
0.917660
0.045579
-0.026552
0.031835
-0.089791
0.653073
0.084367
0.055094
-0.224405
1.412012
0.446335
-0.345427
0.705056
-0.457494
0.577422
0.490702
-0.576600
-0.068038
-0.378268
0.047831
-0.899892
-0.119162
-0.562174
-1.013008
0.509442
-0.615323
0.526127
-0.201584
0.392283
-0.628638
0.768419
0.797202
-0.324155
-0.104659
0.124858
-0.131167
-0.313399
0.454365
-1.381147
-0.043023
-0.160219
-0.750904
-0.448916
-1.330862
-0.496208
-0.600360
0.640268
1.082026
-0.150520
-0.814177
-0.885341
-0.563166
0.271981
-0.843313
0.012007
-1.218888
-0.921646
0.651426
0.620333
0.021649
0.737696
-0.809267
-0.160084
0.127514
-0.756185
0.709726
0.427013
0.128734
0.142332
1.117053
0.390422
0.648327
-1.078150
-0.557691
0.385772
0.500596
-0.154232
-1.086695
0.874490
-0.442270
0.059955
-1.256779
-0.666180
1.346863
-0.333561
-0.499688
-0.744915
0.359953
-0.762307
-0.190347
0.030811
0.078616
-0.150210
0.141043
0.628274
-0.002426
-0.179114
-0.988692
1.237684
0.257422
-1.200995
0.397419
0.318987
0.034621
0.196363
-0.368437
-1.117501
0.170639
0.518150
-0.315428
0.506307
-0.330584
0.824778
0.797618
0.467838
0.318092
1.431199
0.879844
-0.161953
1.448653
0.570524
0.828473
-0.320440
0.697542
-1.648289
0.653493
-0.355644
-1.024906
0.373919
-0.489164
0.145985
0.243029
-1.413742
-0.351107
-0.198446
-0.024924
0.662470
-0.001022
0.347252
-0.865366
-0.388322
0.790341
0.335395
0.305462
0.360243
-0.927062
0.356953
0.644938
-0.603585
-0.619026
0.483944
-0.853657
-1.259424
0.879955
-0.934386
0.571459
0.468319
0.469335
0.288468
0.672505
0.057700
-0.062410
0.142734
0.256323
-0.889163
-0.063277
-0.590862
0.533714
-0.515541
-1.201827
-0.667998
0.305350
-0.292642
-0.464047
-0.283252
0.285287
-0.074093
0.785894
0.013906
-0.125799
-0.498794
-0.506610
1.483273
-0.420194
-1.135428
-0.760804
-0.503967
0.039888
1.170201
-0.691109
0.530027
0.573149
-0.202090
-0.114456
-0.341937
0.898442
0.396078
1.278083
-0.340325
0.389798
-0.538777
-0.331711
0.636233
1.322908
0.672288
0.080798
0.319192
0.090112
-1.279114
0.817714
0.395126
-0.435566
0.224814
0.674589
-1.052473
1.080890
0.097719
0.452457
0.565909
-0.179661
0.524890
-0.151262
0.722503
0.032159
-0.766106
-1.017408
-1.161178
-0.234020
0.942000
-1.135024
0.686018
0.685394
-0.389225
-0.042818
0.397518
-0.000453
-0.250185
-0.207522
0.674639
0.643693
-0.472148
0.648642
0.095274
-0.820501
0.163671
0.867297
0.102079
-0.152269
-0.524181
-0.947756
-1.070045
-0.023149
0.386982
-0.923170
0.169248
-0.424825
0.203552
0.419369
0.689397
-0.904995
-0.063747
1.408074
0.316738
0.588881
-0.018188
1.568984
0.126314
-0.175869
0.172351
-0.503458
-0.842404
0.022261
-0.494306
-0.949163
-2.347486
-1.764760
0.131632
1.147094
0.481598
-0.598701
-0.813542
0.749593
1.788638
0.630257
-0.555912
0.312281
-0.596439
-0.111853
-0.616076
0.943247
-1.143055
0.558295
-0.989149
-0.619654
-0.063757
0.242317
-0.329592
0.803482
0.491582
0.384286
-0.402772
0.609072
-0.183940
0.193432
0.980341
-0.860693
-1.103256
0.023458
-0.334319
-0.376246
-0.261421
-1.348214
-0.364121
-0.510227
-0.309500
-0.387969
-0.777272
-0.804141
0.518100
0.057360
-0.720622
1.437637
-0.580386
0.147717
0.011599
0.702439
0.020678
-0.513674
-1.146651
-0.320894
1.003778
-0.383763
0.285209
0.623942
0.264750
-0.686383
-0.147869
0.249376
-0.729024
0.281620
0.840135
0.631606
0.339147
-0.932587
0.443635
-0.201247
-0.168389
-0.385953
0.380239
-0.908782
-1.014999
0.756577
0.498931
-0.085208
0.456675
-1.211345
-0.165499
0.408525
-0.144940
0.458981
-0.473593
0.571371
-0.566089
0.378874
-0.718959
0.065237
-0.960918
-0.073939
-0.431622
0.273106
-0.087203
-0.633038
-0.051560
-0.335878
1.076753
0.358091
-0.296131
0.862209
0.710853
1.204496
0.143866
-0.238970
0.297381
-0.978209
0.025440
-0.553348
0.272675
-0.553219
-0.804202
0.878840
0.535366
-1.039416
-0.875034
-0.359645
-0.485053
1.320869
0.277932
0.649114
1.629422
-1.646964
0.722974
0.223355
-1.616005
-0.500111
-1.282566
-0.118838
-0.192237
-0.567824
-0.491711
-1.994298
0.046990
1.455136
0.113234
0.860915
-0.682532
-0.541493
1.434123
-0.741875
0.259163
1.420212
-0.187756
-1.384331
0.422729
-0.781978
-0.936737
-0.487901
0.306864
-0.256355
-0.079927
-0.806101
-1.469510
-0.418825
1.408973
-0.541278
-0.026499
-1.093244
-1.070624
2.060897
-0.068937
-0.299487
1.965454
-0.433636
-0.243412
-0.115045
-0.142334
0.084925
-0.193745
0.007898
-0.383628
-0.447636
-0.652128
-1.062275
1.096591
0.423344
-1.111259
-0.099083
-0.390910
-0.456883
1.594675
0.216321
-0.248387
1.804184
-1.193294
-0.205782
0.268940
0.716173
-1.246761
0.063931
-0.132291
0.544298
0.118003
-0.236286
-0.086269
0.789445
1.534261
-0.758265
-0.158582
-0.633829
-0.404586
1.854147
-0.795403
-0.074801
0.124013
-0.118697
-0.088819
0.302021
1.062074
-0.402511
-1.277108
-0.357112
-0.166320
-0.212287
-1.658318
-0.785914
0.282109
1.369848
-1.110018
-0.078290
0.059448
-1.041886
0.663595
-1.094275
0.391994
0.520727
-0.879373
0.586282
1.223175
0.772365
-0.991596
-0.639606
0.557803
-0.683013
0.068366
-0.040998
-1.485918
-0.512254
0.429177
-0.049349
0.373322
-0.283084
0.324802
0.314680
0.969110
0.168450
2.308157
-0.835257
-0.135947
0.061513
0.111651
-0.680727
-0.950116
0.525113
0.011328
0.526823
-0.698276
0.357966
-0.752635
0.631267
-1.607670
0.332042
-1.198704
0.595306
0.616815
-0.875857
0.500936
0.348331
0.559462
0.442830
-0.283646
-1.051503
-0.854795
-0.636591
-0.154502
-0.530779
-0.401538
-0.258584
-0.696588
0.476878
0.220971
0.135290
-1.387100
1.066699
0.398621
1.285191
-0.039531
-1.017806
0.285569
0.092323
-1.400099
-0.821361
0.150571
-0.018201
1.188588
0.622932
-0.724592
0.112244
0.221840
0.559473
-0.412806
1.491024
-0.209522
-0.645364
-1.206058
0.116261
1.021058
0.256894
-0.436117
0.004106
-0.603413
-0.089261
-1.301198
0.629010
-0.196875
0.795286
1.770861
0.087096
-1.248567
-2.489371
0.014979
-2.520831
3.283724
-3.675798
-0.296945
3.717191
4.426431
-2.237945
2.343613
-3.170673
-6.559121
2.057587
-4.231879
-2.382664
-1.632681
4.220831
3.895617
-0.513197
-2.837925
2.736507
-3.519742
-1.202087
-2.963585
-4.284372
2.348220
-2.053317
2.731806
3.269004
-2.833481
-2.865204
2.807164
0.907988
-4.015106
0.926117
2.649139
1.272039
0.567522
-3.983938
1.919857
-3.970152
1.098573
-6.343987
-1.378139
-1.832220
-0.761455
-6.491126
0.313290
3.061456
-0.265624
2.376525
-3.925489
4.800042
-3.260794
-3.438109
2.184099
-4.142216
-1.222652
-2.168313
-1.132766
-3.682844
-5.036524
-2.841410
-3.550461
1.979692
3.278261
3.615596
3.556661
-1.319015
-8.292606
-5.788864
2.706435
1.377082
-0.018442
0.672082
-7.139839
1.006482
1.094225
-0.525597
1.096195
-2.233827
-0.851924
-0.340489
0.581511
-3.575128
-0.818242
1.690234
-2.603748
3.275918
-2.986870
-1.471881
-1.265691
-2.061261
8.683711
-2.394577
2.524387
-4.017221
-5.293962
-3.528747
1.828082
0.101217
-5.752950
-0.289839
0.751980
0.167408
-6.647843
-0.707602
-2.049093
-1.698713
3.930429
-2.537506
2.085425
-0.378930
-2.570665
-0.988417
-0.326296
4.505794
-8.541213
-4.178819
1.559001
2.492504
-2.885535
-4.413827
3.974855
4.503097
0.343714
-5.353832
1.361999
-9.425122
-1.240584
-2.183633
-1.535436
-2.461153
-2.903723
6.981744
-1.702813
-3.850563
-2.624208
4.942890
-4.907398
4.285188
-1.507935
-4.083638
4.516856
-3.750028
-3.787144
3.900601
-5.796188
2.372831
-6.005424
4.548321
3.457309
-4.373368
-6.457939
2.844162
-0.991233
3.821740
-1.929907
-4.084045
0.635656
-0.758240
2.158155
-2.278707
-3.107876
-5.909588
-1.457749
-3.136732
2.321682
-3.949030
-2.476121
2.479296
3.895467
4.102598
-3.059597
-0.236085
-2.210247
-4.409881
-2.946712
0.375148
-3.034233
-3.499513
-2.455166
2.855999
2.788305
-5.714706
3.997307
-0.178844
-0.281409
-0.870337
-0.502276
0.257412
-5.499861
-0.456182
-2.644281
1.378813
2.880983
-2.378813
-4.968658
3.886509
-2.059325
-2.052581
-2.304834
-2.490776
-2.924677
-3.675651
-2.097748
-3.059497
-3.295636
-1.537434
