0.4 197 24 10 
-0.869102
-0.400254
0.357448
-0.015256
0.354454
0.745803
0.111406
0.278523
0.439303
-0.217684
-1.035820
-1.665759
0.105783
1.109522
-1.129430
-0.833612
0.034667
1.762534
-0.226202
1.449770
0.389676
0.760784
-0.433147
0.272741
-0.479415
0.579733
-1.051912
0.576039
0.442898
-0.140002
0.358591
1.232584
-0.448086
-0.243428
-0.893312
0.554254
-0.161101
1.376516
0.831649
0.242017
0.360319
0.132316
0.496877
-0.472186
0.181014
1.050085
-0.535587
0.285231
-0.294996
-0.036236
-0.202888
-0.172044
0.668847
-0.632666
0.745204
-0.775530
-0.830209
0.259723
-0.057671
0.763607
0.340175
-0.139327
-0.078187
-0.360318
-0.294706
-0.663760
0.779797
-1.132795
0.850155
0.696337
0.509745
0.089861
0.166103
-1.063001
-0.148856
1.153812
-0.546205
0.395276
-0.260489
0.138618
-0.083953
0.678641
-0.012905
0.879651
-0.083694
0.241156
-0.387052
0.581708
-0.670114
-1.146975
-1.069980
-1.537069
-0.572889
-0.712089
1.020473
-0.635948
-1.080532
0.402554
0.289489
-0.208505
-0.711991
-0.043289
-0.098543
0.733247
-0.407948
0.586920
-0.061037
0.531850
0.063915
-1.096206
0.055681
0.414279
-0.690498
0.193191
-0.212475
-0.122016
0.756435
-0.756793
0.307577
0.469864
0.234792
0.384521
-0.188315
0.846873
0.225838
-0.391583
0.413557
0.869574
0.727942
0.643102
0.471049
0.806397
0.899985
-0.295316
0.111670
-0.613633
-0.317948
-1.391106
-0.614493
0.396285
0.868444
0.713799
-0.529747
-0.265951
-1.573684
-1.370107
1.125333
0.034895
-0.166475
0.974904
-0.381530
0.979874
-0.066138
1.292070
0.234267
0.394919
0.289160
0.153811
-0.765739
-0.886425
0.462643
-1.608199
-0.659845
-1.483038
0.709538
1.110623
0.160053
0.537791
-0.819319
0.024006
0.149169
-0.401117
-0.105442
-0.047731
0.918274
0.033119
0.741897
0.222708
0.605755
0.872359
-0.422692
-0.165594
0.307316
-0.542327
-0.919336
-0.587529
0.176089
-0.387085
0.893907
1.172686
1.422111
0.864576
-0.415374
-1.391575
0.651061
0.043432
0.298109
0.573998
0.041996
0.842429
-0.109236
0.224457
0.564381
0.341409
0.620946
-0.083363
-0.725191
-0.160347
-0.279207
-0.989667
-0.166428
-0.092872
-0.364775
-0.229037
1.487575
0.454638
0.264979
-0.167553
-0.492136
-0.695646
0.010644
0.628464
0.052617
1.591853
-0.287340
1.129050
-0.346007
-0.112926
0.764021
-0.778696
-0.701825
-0.249842
-0.389838
-1.036616
0.223360
-0.056292
0.066894
0.911734
-0.495777
-0.785601
0.536313
-0.465843
0.351505
0.257413
-0.097881
-0.301897
-0.180917
0.595908
0.033990
-0.219143
-0.573134
1.117662
0.102460
0.015043
0.834171
-0.384365
-0.335807
-0.239415
-0.022582
-0.291404
-0.160828
0.773223
0.083916
-0.970639
-0.235188
-0.014207
0.316433
0.824214
0.304698
0.199302
0.201563
0.581337
-0.152843
-0.374626
-0.455587
1.299139
0.880579
-0.927780
0.993300
-0.491053
-0.644260
-0.699857
-0.793111
0.655238
0.334936
-0.712878
0.791769
-0.371135
0.830824
0.654227
0.505728
1.061921
-0.426923
-0.460310
-0.396133
0.406893
-0.843136
0.591251
-1.077261
-0.513944
0.562472
-0.583925
-0.841463
0.557527
0.729784
-1.253093
-0.351940
0.221121
-0.652943
-1.171214
-0.051063
-0.348816
0.179508
0.594096
-1.038289
0.036198
1.119538
0.674572
0.091350
1.150459
0.508924
0.744020
0.901219
1.107946
-1.372685
0.729075
1.352019
0.535427
-0.325222
1.030903
0.616730
0.666592
-0.788623
-1.421607
0.731111
0.557358
-0.578323
-0.880998
0.729433
0.101683
-0.327384
0.162216
-0.314767
0.332651
1.231108
0.435442
-0.674774
0.130891
0.158152
0.067972
-0.603104
-0.755230
-1.154505
0.653008
0.850389
-0.469018
0.193001
-0.506607
-1.455775
-0.457774
0.534392
-0.431034
-1.016145
-0.203518
1.372022
-0.676390
-0.413347
-0.000967
-0.642316
1.963843
-0.038022
-0.342381
0.050133
0.270286
0.458579
0.132014
-0.128693
-0.637149
-0.067952
0.474122
-0.738458
0.809002
1.263938
0.091088
0.672345
0.811345
0.834151
-0.066007
-0.307880
-1.117062
0.745885
-0.461297
-0.791907
-0.024894
-0.408932
-0.612592
-0.247394
-0.055533
-0.030947
-0.626456
0.373500
0.833150
0.194221
0.278612
0.824972
0.306079
-0.369833
-0.669565
-0.766230
-1.291787
-0.362505
0.682453
0.163147
-0.525889
0.458543
0.270281
-0.293552
-0.207780
0.521183
0.040359
-0.379985
0.899269
0.541116
0.950153
-0.141703
0.399988
0.245412
-0.541076
-0.273313
-0.093422
-1.061709
-0.178818
-0.104899
-0.277656
0.076026
-0.077932
-0.238996
0.606783
0.986806
1.367713
0.679379
-0.404950
0.998591
1.450795
-0.014393
0.740448
0.332616
0.173127
0.315225
-1.128123
-0.147306
0.305148
0.784255
-0.239605
0.664424
-0.057158
0.502921
-0.579071
1.050941
0.210977
0.894344
-0.893982
-0.104328
-0.302080
-0.326834
-0.445979
0.495297
-0.150423
-0.398329
-0.212950
0.480077
-0.016114
0.447307
0.333102
0.783619
-0.114358
0.943346
-0.277288
-0.074251
-0.482913
0.387153
0.490536
-0.196362
-0.153898
0.336518
-0.538607
-0.228686
-0.886646
1.292016
1.678744
-0.908127
-0.606643
0.687570
1.096660
-1.076510
0.306159
0.096469
-0.255411
0.647283
-1.773747
-0.507074
-0.618009
-0.255367
-0.180882
0.273143
0.193878
-0.487273
0.165456
-0.160405
-0.128167
0.519620
0.265431
0.751087
0.131545
1.147489
-1.123863
-0.876956
1.422452
-0.303121
0.070000
0.170825
0.094828
-0.203028
-0.274788
-0.656202
0.483689
0.132231
-0.374707
-0.005739
-1.165080
1.110466
-0.356877
0.433114
-0.267746
-0.617943
-0.365735
0.362204
-0.185399
0.539173
-1.541516
0.528441
0.282750
0.745687
-0.375303
-0.431811
-0.356369
0.194460
-0.152942
0.078992
-0.495503
-0.436649
-0.554548
-0.323155
0.764310
-0.615106
0.255150
0.241072
-0.989046
0.499684
0.557324
0.011007
1.472014
0.682654
0.017725
-0.152456
-0.463041
0.339553
-0.548404
-0.050406
-0.025247
-0.882769
-0.370205
0.585691
0.969219
0.335041
0.588361
0.789947
-0.567132
0.005322
-0.874036
-0.771431
-0.568996
0.472932
-0.689851
0.078953
0.378155
-0.509146
-0.568267
-0.708491
-0.545859
-0.578743
-0.104039
0.354633
0.114369
0.540658
0.484956
0.985399
-0.742580
0.027283
0.208736
-0.461585
-0.690515
0.785389
-0.001686
-0.092991
0.655261
-1.119599
-0.274991
0.051736
0.046566
0.399051
1.480422
0.505778
-0.697315
0.603366
0.278350
-1.124691
-0.171265
-0.777334
0.924582
-0.435202
-0.062549
-1.260603
-0.015736
-0.780999
-0.685912
-0.266040
0.628511
0.003514
0.259828
0.458633
-0.312972
-0.495428
0.448338
1.434373
0.903227
0.085404
0.492300
0.383524
0.353100
-0.585600
-1.156296
-0.639394
-1.052263
-0.992165
0.088969
-0.303242
0.571067
-0.012192
-0.683722
-0.134059
0.265212
0.258979
0.013796
0.379459
0.017070
0.597266
0.735034
-0.446337
0.608164
0.087600
-0.611035
0.359696
-0.075695
-0.248155
-0.163154
-0.116160
-0.370157
0.769767
-1.458601
1.154465
0.486048
0.422495
-1.323709
-0.498385
0.628747
-0.052374
0.108617
0.032233
-0.598335
0.350311
0.130830
-0.373147
-0.422747
1.460451
-1.016602
-0.606151
-0.388599
0.316779
-0.032838
-0.219363
0.620944
-0.377198
0.373529
-0.690483
0.564556
-0.398594
-0.465915
-1.300227
-0.329073
0.153819
-0.148988
0.022748
0.377912
0.635290
-0.091087
0.554724
-0.074445
-0.514870
-0.782179
0.206446
-0.855428
0.804850
-0.329504
0.795569
0.242912
0.818805
0.855013
0.129165
-0.358202
-0.868011
-0.463273
-0.709578
-0.612559
1.438755
-0.186976
-0.207324
1.477855
-0.738519
-0.247811
0.510965
-0.621501
-0.650995
0.081831
-0.578396
-0.193713
0.148109
-0.332254
-0.594487
-0.274702
0.377682
0.038783
-0.574819
-0.393545
-0.228970
0.080572
-0.455614
-0.593918
0.199494
-0.947712
-0.373446
0.810829
0.191154
-0.148855
-0.250896
0.802133
0.380450
-0.721623
-0.454770
-0.087310
0.511639
0.016749
-0.769756
-0.219910
0.879936
0.120581
0.233510
0.474916
-0.400071
-0.340307
-0.127854
0.840700
0.092181
-0.275155
0.109037
-1.334156
0.416606
-0.228405
-0.834698
-0.846350
0.081855
0.380557
-0.217188
0.303419
-0.124203
0.019401
0.106133
-1.164411
0.118460
-0.474531
-0.492769
0.634592
-0.393241
1.363487
-0.688274
0.048998
0.287440
0.240009
-0.352060
-0.475493
-0.680736
-0.094506
0.102251
-0.551288
0.672147
-0.137302
0.266758
0.639236
0.505924
1.165717
-0.697642
0.494768
-0.580254
0.237384
-0.691297
-0.095281
0.534777
0.177521
0.397761
-1.100924
0.325735
0.820300
0.611611
0.033652
-0.926499
0.848460
0.810128
-0.721917
0.697479
0.941584
-0.205249
0.345246
0.731032
-0.059125
-0.855276
-1.123183
0.763305
-0.378020
0.215425
-0.436878
-1.396896
-0.560412
-0.587989
-0.043201
-0.068810
-1.319213
0.146314
0.124047
0.425039
-0.052315
-0.329508
0.816670
-0.307047
-0.385854
1.033231
-0.659509
-0.268257
0.057832
-0.072155
-0.882484
-0.738905
-0.776801
0.505154
-0.012659
-1.428899
-0.457384
0.428054
1.180770
-1.218352
-0.492143
0.228965
-0.294013
-0.203700
0.341231
0.671250
-0.441821
1.151717
0.637399
-0.835666
-0.676129
0.802101
1.237487
-0.390073
-0.880534
0.359499
-0.148029
-0.844039
-0.941412
0.283606
0.203759
1.037856
0.024907
0.035584
0.594865
0.684543
-1.239881
-0.554347
0.169597
-0.141224
-1.256247
-0.526015
0.678335
-0.298165
-0.820893
-0.372578
0.797757
-0.593286
0.333234
-0.427503
0.578290
0.208395
0.976952
-0.666502
-0.068152
0.402496
0.549077
-1.212985
0.372907
0.729380
-0.092468
-0.263197
-0.432094
-0.620374
0.495672
0.079708
-0.723824
-1.133374
0.624149
0.799789
0.093237
0.590397
0.061539
-0.685188
-0.603215
-0.506024
-0.363703
-0.117461
-0.715464
0.186259
-0.461349
-0.364140
0.511864
1.150386
-0.059011
0.565313
0.010342
0.584801
0.504427
0.516987
0.940501
-0.232541
0.085083
0.061997
-0.549491
-0.688553
-0.681699
-0.060245
0.628538
-0.356042
-0.792708
-0.937340
-1.288673
0.537526
0.071701
1.145309
0.559452
0.345885
-0.011893
-1.543253
-0.714072
-0.071899
0.881667
-0.892541
0.382006
-0.439650
-0.355612
-0.802734
-0.393067
0.218972
0.781910
0.591313
0.779661
0.817162
-0.922995
-0.324846
0.620414
-0.798998
-0.562631
-0.298737
-0.176855
-0.518701
0.327352
0.235560
0.906310
0.807570
0.453186
-0.700082
0.836866
0.400513
0.595338
-0.063536
0.144809
0.363812
-0.670469
-0.180327
-0.099377
0.581551
0.793509
-0.763028
-0.801858
-0.338278
0.953828
-0.712348
-0.188701
0.530917
-0.345439
-0.645308
-0.710328
-0.291863
-0.560709
0.617394
-0.805957
-0.079950
-0.183074
-0.802059
-0.111876
0.238861
0.128607
-1.104789
-0.073790
-0.739211
-0.836082
0.581754
-0.119628
0.138206
-1.190336
0.848335
1.091916
-0.223886
0.767762
0.442633
-0.610779
-0.092406
0.277453
0.342645
0.130295
1.132030
0.516314
-0.523783
-0.110058
0.595240
0.280310
0.022883
0.764259
-0.737795
0.154319
-0.466768
-0.737824
-0.298095
-1.055751
0.000518
0.319895
-0.722232
0.604683
0.241955
0.942190
-0.632728
0.258544
-0.604124
1.182244
-0.933311
-0.123918
-0.777699
-0.035424
0.448724
0.856950
0.721279
1.014275
-0.937262
0.740004
0.669273
0.709867
-0.752882
-1.783989
-0.407655
-0.089484
0.828942
0.335382
0.698114
1.003970
0.105255
0.578688
1.141325
-0.771299
0.440923
-0.184118
-0.496207
-0.351417
-0.978532
-0.481676
0.073439
0.494905
0.212995
0.354472
-0.482234
-0.692595
0.293580
-0.951758
-0.204592
-0.588253
-0.250151
0.844493
-0.879151
0.611821
0.126099
0.762609
0.151816
-0.242410
-0.297741
0.125907
-0.010836
0.428259
0.395945
-0.133725
0.588936
0.400080
-0.439578
0.085615
0.413335
-1.258919
-0.417055
-0.987016
-1.205411
0.639388
-0.158781
-0.590217
0.574142
1.291946
0.550760
0.082753
0.759013
-0.049567
0.653619
-0.354277
0.032684
0.500657
0.210226
-1.167246
0.401879
-0.731195
0.172282
0.267535
0.154313
0.112635
0.967605
-0.740608
0.083401
0.169254
-0.557526
-1.120204
-0.876082
0.963003
0.650544
-0.913165
1.392235
-0.284793
-0.169410
-0.601224
0.108206
-0.452689
-0.421603
0.342621
0.295577
-0.693807
-1.246741
-0.383571
-0.552203
-0.778528
0.035548
0.039335
-0.330565
-0.083211
-1.335006
0.975399
0.408635
0.162158
-0.742606
0.067449
0.489006
0.518657
0.552511
-0.586787
-0.177148
0.807533
-0.814890
-1.258994
0.117833
0.294820
-0.906069
-0.441019
0.038998
-0.809720
0.872738
0.557466
-0.092301
1.067611
0.897464
-0.234118
-0.009846
1.067013
-0.783131
-0.369858
0.338790
0.102293
-0.154881
-0.252958
0.093500
-0.615338
0.886737
-0.785722
-0.643681
-0.494056
-0.099508
-0.098306
0.873016
-0.532121
-0.157466
-0.626571
-0.064118
-0.672348
0.742399
-0.112360
0.215993
1.521973
0.064761
0.797291
0.657269
0.678132
0.840428
0.349927
0.080980
0.098329
-0.931367
-0.825099
-1.024346
0.509450
0.337856
0.489600
0.083724
-0.253547
-0.627227
-0.445257
0.415281
-0.215392
-0.531273
0.195771
0.357609
0.167121
0.932913
0.466539
0.154856
0.428003
0.639963
0.747939
0.476896
-0.348459
-0.235524
-1.154134
0.515412
0.823605
1.031115
0.002794
0.561563
0.440734
0.764880
-0.826604
0.552386
-0.696502
-0.664669
-0.158546
0.710855
-0.202146
0.618676
1.043497
0.288148
1.096968
-0.559991
0.116292
0.026848
-0.315989
-1.534068
-1.138536
0.415666
-0.360308
0.555262
-0.460786
-0.157341
0.076641
-1.101531
-0.938999
-0.317347
1.036106
0.100264
-0.802489
-0.093447
-0.386893
0.621611
-0.297025
0.201835
0.336350
0.155808
0.776104
0.207553
0.441646
-1.176881
-0.499136
0.938148
-0.645876
0.814325
-0.867878
-0.320156
0.990991
0.419301
0.363991
-0.978013
0.588287
-0.806896
0.425304
-0.933612
-0.059993
-0.271912
-0.208373
-0.465161
-0.434694
-0.202443
0.737272
-0.691169
0.242480
0.923509
-0.716831
1.003119
0.407734
0.980402
-0.149292
0.515516
-0.735523
1.288561
0.312585
0.914580
-0.468347
-0.374532
-0.345431
-0.693014
-1.334795
0.150199
-0.604181
0.148378
-0.599418
-0.408751
-0.594435
-1.180586
0.211809
-0.996500
-0.001432
0.149894
0.101216
-0.243634
0.632266
-0.285326
-0.414380
0.607115
1.073437
0.577130
-0.282118
1.004831
-0.289815
-0.709373
-1.410279
-0.487028
-0.441352
0.258105
0.169935
0.983161
-0.213087
-1.014424
-0.733754
0.575703
-0.796140
0.303922
1.060474
-0.413918
-0.505627
-0.289239
-0.131024
-0.823240
0.347002
0.598303
-0.724839
-0.512827
0.593035
-0.790046
0.049497
0.052769
-0.520921
0.165835
0.709243
-0.456883
-0.101277
-1.385031
0.022247
1.193508
1.251056
-0.663018
-0.023251
0.982091
-0.724489
-0.333869
-0.355780
-0.420887
0.577176
0.242813
-0.103491
-0.814814
-0.584081
0.538350
0.799252
-0.999178
-1.255126
0.118159
0.143462
-0.419223
0.094630
-0.152380
0.354577
-0.466972
0.600095
0.562215
0.843193
-0.423169
0.552566
-0.470430
-0.551151
0.224085
-0.521731
-0.060148
0.583228
0.460372
-0.024467
0.494634
1.184651
0.838821
0.049813
-0.463421
-0.203688
-1.442434
0.627988
-0.528047
-0.320857
-0.368863
-0.131901
0.936116
1.271212
-0.463030
0.883649
0.269786
-0.358462
1.085412
-1.156506
-0.015964
-0.483131
0.326263
-0.315348
-0.633172
-0.937570
-0.829388
-1.090123
-1.014280
0.574163
-0.264056
0.476932
-0.832737
1.096424
-0.229134
-0.513475
-0.738862
-0.863408
-0.124457
0.024670
0.181521
0.492217
0.496262
-0.600548
-1.023936
-0.082234
-0.007934
0.759140
0.496211
2.159132
-0.643528
0.026621
0.918129
1.212316
-0.465246
0.359821
0.070442
-0.145295
-0.603207
-0.250324
-0.630970
0.336762
0.760411
-0.731896
-1.000859
0.103414
-0.829500
0.137041
-0.571262
-0.067130
0.197275
-0.127143
0.384923
0.061259
0.996824
0.749744
0.336553
1.026920
-0.068028
-0.764368
0.513339
-0.398971
0.609939
0.051972
-0.289216
0.430312
0.026448
-0.447616
-1.074862
-1.561455
0.632074
0.166275
-0.501339
-0.530106
-0.404689
0.275981
1.053958
1.030452
-0.645390
0.473661
0.502561
-0.061929
0.497391
-0.302832
-0.368312
-0.038422
0.405250
-1.042074
0.515561
0.098745
1.076014
-0.509631
0.230936
0.335346
0.159126
-0.178917
0.224276
-0.085715
0.558637
-1.239984
0.587470
0.098651
-0.014653
-0.392849
0.467849
-0.580915
0.151777
-1.085390
-0.017217
0.121670
0.635436
-0.336525
-0.697915
-1.108189
-0.245693
0.965309
0.477568
0.329013
-0.558995
0.270151
-0.379101
1.289944
0.673149
-1.015411
-0.817897
0.271193
-0.684168
-0.688391
-0.636687
0.772312
0.938791
0.451527
0.976468
-0.201365
-0.543144
0.174780
0.995437
0.406392
-0.626902
0.442757
-1.029805
-1.836147
-0.320881
0.349566
-0.043262
1.753701
0.183479
0.712594
0.640534
-0.153990
0.756256
0.006763
-1.230071
-0.231230
-0.454757
0.349653
-0.097890
0.465388
-0.075046
-1.437036
-0.877079
-0.454679
-0.785364
0.646858
-0.223545
0.681978
-0.094732
-0.138233
-0.138064
-0.124727
0.665185
-0.002971
-0.354844
-1.640524
0.673112
-0.235242
-1.071906
-0.406573
-0.527560
0.113344
-0.031884
-0.404447
0.187777
-0.573010
-0.429106
0.165498
-0.389520
-0.250541
-0.644019
0.038564
1.545866
-0.103053
0.121041
-0.445960
0.555197
-0.567471
-0.525597
-0.060807
-0.613215
0.597439
0.523576
-0.765750
-0.994245
-0.558084
-0.718506
0.684818
0.293985
-0.579383
1.058496
0.487364
0.540279
-0.279529
-0.120558
1.326955
0.429631
-0.259554
-0.731693
-0.621422
0.616241
0.524344
0.628101
-1.953295
-1.030230
-0.140659
-0.202778
-1.705607
-0.343655
-0.622000
0.267880
0.433861
0.258457
0.918501
-1.030189
-0.744227
0.998129
-0.012076
-0.285636
-0.079127
-0.841191
0.110597
-0.745753
-0.067598
0.877575
-0.491108
0.499343
-0.336834
-1.286663
0.784697
-0.010651
-0.519274
0.213535
0.496059
-0.079766
0.865823
-0.012134
0.030010
1.001143
-1.071992
0.716460
-0.943849
0.349597
-0.933627
0.733271
-0.978712
0.195079
-0.434760
0.050133
-0.219762
0.094414
-1.018802
0.720283
0.425786
-0.187692
-1.471438
-0.739058
0.499171
-0.665619
-0.017802
0.218105
1.316622
0.246991
0.762617
0.144678
-0.769458
-0.179620
-0.562587
0.277419
-0.267762
0.600916
0.100587
-0.532504
0.268747
0.293089
-0.056795
0.587307
-0.083709
-1.067179
0.098760
-0.473933
-0.399136
0.447053
0.849418
0.099810
-0.224684
-0.892089
0.626807
-0.575684
0.097300
0.140019
1.038478
0.099684
-0.539036
0.071520
0.451588
-0.494615
0.285482
0.504702
-0.238392
-0.581408
-0.634809
0.857023
-0.117091
-0.674647
-0.805366
-0.925006
0.586837
0.581137
-0.715720
0.382269
0.457324
1.586277
0.906644
-0.116956
0.507683
0.093663
-0.865410
-0.308674
0.242001
1.003861
-0.551600
0.100592
-1.439355
-0.770198
-1.377215
-0.373875
1.034072
-0.275390
-0.111537
-0.245857
0.116671
-0.828902
0.032934
0.836412
-1.510301
0.287834
0.507882
0.141893
1.211284
-0.059513
0.385295
-0.392982
-0.271477
-0.874941
0.857119
0.038307
0.644270
-0.105679
0.572658
0.218647
1.449101
-0.829853
-1.509752
-0.204215
0.130929
-0.283359
-0.540453
0.732494
-0.509779
0.930669
-0.015184
-1.137475
-0.832513
-0.440772
-1.908455
1.166623
0.279955
0.915847
0.273021
-0.467757
1.023604
-0.777260
0.520036
0.258499
0.347119
-0.557226
-0.231161
0.030331
0.538863
-0.506488
-0.456289
0.752323
1.124154
1.094569
-0.360114
-0.678074
0.258549
0.418828
0.694938
0.467430
-0.265284
-0.762455
-0.324223
-0.671002
1.185568
0.363855
0.245380
0.395250
-0.217527
0.253903
1.065850
1.115895
-0.450381
-0.291792
-0.715872
-0.358457
-0.717857
0.374813
0.475521
-0.176750
-0.214609
0.288795
0.818958
0.400237
0.741819
0.000994
0.965693
-0.009419
-1.249363
0.124153
-0.715560
0.612572
0.254524
0.577027
-0.145101
0.211428
-0.783408
0.341813
0.045601
-0.310306
-0.935717
-0.708467
0.821108
-0.299432
-0.253491
-0.652781
-1.229561
0.272853
1.853234
0.381864
-0.894514
-0.159943
0.092907
0.329878
-0.725990
0.779823
-0.347755
0.052241
0.983035
-0.120389
-0.589823
-0.905764
-0.195650
0.887571
-0.300536
0.903262
-0.745962
0.717500
-0.344611
-0.765314
0.538467
0.175092
-0.752607
0.234016
-0.675988
-0.693366
-1.024415
0.038883
-1.105165
0.248497
0.151684
0.056721
0.199732
0.163446
0.452928
-1.163211
0.524990
0.809084
0.108309
-0.068361
-0.536753
-0.148213
0.061122
-0.157974
-0.758951
0.600316
-0.891539
0.164078
-0.173699
0.531438
-0.955260
-0.063605
0.410059
-1.586074
0.282176
0.704405
0.531646
0.064581
0.786524
-0.567919
0.285104
-0.573788
-0.256801
-0.315670
-0.796289
0.108571
1.114646
1.506106
0.304660
-1.382258
-1.127360
0.269594
-0.628163
0.064931
-0.067223
-1.193423
-0.097667
-0.080144
-2.195475
-0.239467
0.180468
-0.277876
-0.222357
1.175157
-1.026174
0.324375
-0.430991
-0.594373
-0.009692
-0.144236
0.099502
1.045452
-0.200199
0.302887
0.750484
-0.199155
0.645737
-1.215085
-1.056919
0.246543
0.866655
-0.341375
-0.269595
-1.063423
-0.588047
-0.535269
-0.221366
-0.629200
0.415033
-0.147685
-0.659555
-0.247851
0.679509
-0.300520
-0.007753
-0.173489
0.551625
0.195013
-0.386071
-1.308150
-0.534023
0.621657
-1.815098
0.187960
0.440209
0.659156
-0.544720
0.339802
0.043409
0.591230
0.442465
0.101931
0.112433
0.733372
0.862198
0.389909
0.587319
-0.137487
-0.103454
-0.382252
0.436696
-0.626183
0.241840
-1.025970
0.760934
-0.603215
-0.178394
-0.701942
0.629682
-0.047845
-0.767657
0.115459
-0.984202
-0.824773
-0.632276
-0.669565
0.253974
-0.705239
0.098686
-0.279708
0.291906
-0.088787
0.733344
0.970957
-0.940336
-0.485428
0.159355
-0.279907
-0.328682
0.581239
0.506766
-1.156272
-0.648026
0.551998
0.193611
0.028903
-0.354022
-0.684269
0.054369
0.645080
-0.094079
-0.421485
0.488752
0.318909
0.769367
-0.096781
-0.377708
-0.195024
-1.234719
-0.005546
-0.710929
0.835487
-1.066785
0.007164
0.624981
-1.102910
-0.897940
-1.242558
0.505726
-0.264697
-1.575012
0.137017
1.053208
-0.649988
-0.547540
-0.377491
-0.554202
0.749793
0.011060
-1.385723
0.099349
-0.658583
-0.864424
-0.182838
-0.223904
0.469396
0.052908
-0.038768
0.449218
-0.630175
0.243560
0.887554
1.951021
-0.816180
-0.470292
-0.816973
0.894836
0.570423
0.805137
0.658006
-0.220836
0.555252
0.770936
-0.331715
-0.408625
0.468024
-0.330911
-1.105843
0.054643
0.414085
0.155216
0.165454
0.714272
0.583175
-0.023592
0.737080
0.260180
0.988149
0.328665
-0.610914
0.564655
0.831847
0.761065
-0.673172
0.811690
-0.257867
-0.408680
0.011146
-1.294413
0.219468
-0.303023
-0.991708
-0.282460
0.953603
-0.567714
-0.135451
0.245670
0.736866
0.717467
0.103850
0.319323
0.452004
-0.649084
-0.734081
-0.757765
0.055043
0.031584
-0.814268
0.322318
-0.659883
-0.244435
-0.373179
0.823098
0.447255
-0.171680
-0.086924
-0.753683
0.795969
-0.905617
-0.286964
0.446372
-0.096356
-0.797912
-0.806858
0.461148
0.881732
-1.402902
-0.212237
0.471676
0.837464
-1.449480
-0.466280
0.120156
-0.134758
-0.683968
0.618311
0.440166
-0.848903
0.889752
-0.159075
-0.199301
-1.096225
-0.375763
-0.744214
0.294231
0.163041
0.249890
-0.599863
-0.234917
0.486451
-0.020785
1.142606
0.413834
-0.676361
0.280588
0.339144
-0.485275
0.522670
-0.154184
-0.865070
-0.890334
-0.150408
-1.572084
-0.876460
1.721802
0.441333
-1.034728
-1.022852
0.627320
-0.377745
-0.560423
0.107961
0.070050
-0.858831
-0.615744
-0.139951
-0.136081
-0.441557
-0.749394
0.646636
-0.165889
-0.790851
0.062669
-0.279748
-0.088676
-0.458677
0.072449
-1.021578
-0.040071
0.661648
0.405968
0.718477
0.381598
0.337009
0.615670
0.359739
0.467256
1.412901
0.598302
-0.410901
0.409528
-0.666758
-0.838074
-0.543457
-0.175344
-0.813722
0.973554
1.144787
-0.580212
0.104883
-1.324633
-0.477596
0.196662
0.313955
-0.267403
0.027676
0.279672
0.680861
-0.895534
0.245805
-0.790364
0.349050
-0.965039
-0.351105
1.349668
0.348470
0.751211
0.174779
-0.593682
-0.009879
-0.311737
-1.068770
0.899140
-0.507972
0.713173
0.142403
-0.693942
0.233240
-0.086334
0.792431
0.429559
-0.353328
-0.561404
-0.149489
-2.023176
-1.542970
0.939097
-0.819085
1.064785
1.524154
0.738998
0.892644
0.865302
0.568234
-0.449457
0.761774
0.629942
0.280616
1.059752
-0.163187
-0.409422
-0.427372
0.625013
-1.249979
-0.635698
0.350496
0.693298
-0.764265
-0.151603
0.515710
-0.340794
-0.295910
-0.381407
-0.214626
0.029079
0.715741
-1.239529
0.408057
0.735159
-0.473301
0.040075
0.729670
0.157852
0.071934
0.769067
-1.198913
-0.670495
0.149617
-0.284225
-0.765315
-0.532869
0.152119
-0.204968
-0.326634
-0.040153
0.157900
-0.450288
0.630215
-0.261734
-0.181220
-1.085668
0.667712
-0.040652
1.087869
0.337217
0.553960
-0.241286
-0.907454
-0.282535
0.861848
-0.046117
0.502554
-0.297856
-0.571356
1.195436
0.410772
-0.551112
0.637898
0.578721
-0.815286
0.736835
-0.599974
0.133844
0.395552
-0.901102
0.406826
0.457074
-0.415810
0.707199
0.487508
0.455806
-0.192456
-0.685077
0.352888
-0.673665
-0.207660
0.299359
-0.468712
-0.230451
0.269537
0.043057
-0.250852
-0.123734
0.836548
-0.382744
1.136224
-0.193633
0.599023
-0.506246
-0.037529
-0.135444
-0.506357
1.601209
-0.374712
-0.234411
-0.886958
-0.800003
-0.510644
-0.867834
-0.421976
0.213988
0.149688
-0.466080
-0.494694
0.360797
-0.953924
0.472512
0.671670
1.080227
-0.618667
-1.404520
0.848653
-0.253850
1.108838
0.165472
-0.187782
-0.103480
1.571879
-0.751513
-0.317919
-0.630654
0.962957
-0.613340
0.464724
-0.666947
0.017738
0.727703
0.342843
0.521928
-0.608654
-1.664699
-0.623835
-0.242364
-0.098267
-0.163497
0.055161
0.581902
0.383974
0.344305
-0.842229
0.602818
0.412302
-0.704506
-1.305372
0.387829
-0.145171
0.032670
-0.153543
0.804021
-0.867098
0.211666
0.382006
0.979801
-0.321907
-0.522087
-0.426187
0.568476
-0.207844
-1.090961
-1.042122
-0.151082
-0.448699
0.896251
-0.297854
-1.100962
0.877341
-0.028247
-0.173719
0.423283
-0.878475
-0.453010
-0.115754
0.128927
-0.208510
-0.309855
0.684907
-0.780871
0.505400
-0.936185
-0.476696
-0.085970
-0.376882
1.478180
-0.331999
-1.232435
0.873441
-0.157871
0.800611
0.006648
-0.473451
-0.063334
0.055047
0.866318
-1.303116
-0.505876
1.250043
-0.452021
-0.968042
0.015282
0.171380
0.657050
-0.217379
-0.915512
-0.185728
-0.887526
0.201828
1.677331
-0.706731
0.497037
-0.256098
0.396744
1.034899
-0.561075
0.183574
0.932331
0.132538
-0.374217
-0.804404
0.130551
0.524488
0.419283
0.735503
-0.157676
-0.146998
-0.382148
-0.240283
-0.105021
0.282713
-0.334654
-0.611932
-0.078052
0.236073
-0.770044
-0.109347
0.939113
-0.549876
0.238983
0.425752
-0.997077
0.029025
-0.434079
0.335748
-0.861030
-0.081849
0.055053
-0.570673
-0.727872
-1.124090
-0.476192
-0.073872
-0.069538
-1.577946
0.248938
-0.311914
-0.072606
-0.202613
-1.047827
-0.032193
0.433028
-0.214550
0.369683
0.423375
0.199817
0.714988
1.283153
-0.163677
0.377749
-0.414975
0.139152
0.154437
-0.152777
0.769975
0.330443
0.363436
-0.209219
-0.992746
0.068374
-0.254689
-0.686878
0.000929
-1.056038
0.545760
0.946359
0.184224
0.935381
-0.782136
-1.694724
-0.085615
0.415545
0.872029
0.416221
-0.655138
1.581878
0.078204
0.139559
-0.060425
-0.634957
-0.188461
-0.962228
-0.146497
1.062968
-0.110019
1.348242
-0.661993
-0.253916
0.233042
-0.582446
-0.108915
0.428964
0.436679
-0.257218
-0.139130
-0.209825
-0.525510
0.124896
-0.043911
-0.051840
-1.193252
-0.067134
0.671951
-0.046327
-0.169010
0.587234
-0.925120
0.725973
0.922839
0.349183
0.437456
1.262268
0.749130
-0.682228
-0.607597
-0.735011
1.292224
0.205393
0.705942
0.698837
0.290577
-1.010022
-1.480937
-0.101114
1.067951
0.581067
-0.610874
0.102906
0.330201
1.315773
-0.855071
0.060489
-0.812976
0.013830
-0.540019
-1.214401
-0.524261
-0.642923
0.804535
0.237155
0.369702
1.095194
0.934346
0.347375
-0.449143
1.003787
-0.173283
-0.697122
1.060272
0.980446
-0.542402
-0.601037
0.116100
0.579497
0.643238
-1.414469
0.417813
0.829430
0.883392
-1.079241
-0.351567
0.883147
1.227751
-0.555614
0.572057
0.326629
0.213797
-0.420231
-0.244187
-0.995131
0.142564
0.113867
-0.861958
-0.635218
0.456647
-1.085760
0.220433
0.235406
0.955376
1.056487
-0.529471
1.187722
-0.469341
0.233090
-0.251791
0.120911
-0.057360
-0.086216
0.632102
-0.576717
0.491555
-0.665752
-0.183700
-0.143524
0.827029
-0.532288
0.188384
-0.188850
0.217750
0.177992
-1.099941
-0.317520
-0.042382
0.551126
0.411802
-0.332814
-0.714906
0.749407
-0.601625
-0.098421
-1.970752
0.766026
0.542994
-0.937638
-0.865656
1.020677
0.731949
0.249159
0.489405
0.379394
0.725300
-0.410378
0.955495
-0.212305
-0.505207
-1.677939
-0.417494
-0.079981
-0.217375
-1.273078
-0.369302
-0.583775
0.591666
0.029486
-1.556718
1.616458
0.720730
-0.641823
0.492886
-0.144526
-0.277901
0.315828
-0.877602
-0.845618
0.063938
-0.079361
0.466002
0.775338
-0.360306
-0.918252
0.920107
0.374701
-1.145821
-0.418090
0.549806
0.696320
1.370855
-0.064817
-0.499855
-0.557874
0.984874
0.041242
0.249914
0.106635
-0.727320
-0.643577
0.293672
-0.443951
-0.102696
-1.002362
-0.333277
-0.829786
-0.018673
-0.337975
-0.642351
1.071764
0.558133
-0.612127
-0.412958
-0.591877
0.941648
-0.236770
0.126571
-0.115823
1.558282
0.583734
-0.469061
-1.609927
0.469810
-0.481288
-0.872999
-0.684607
0.331266
0.531468
0.308677
-0.597196
-0.208772
-0.922648
-0.433878
0.974840
0.694688
0.191994
-0.081921
-0.000563
0.766445
0.543116
0.371366
-0.174763
1.027987
-0.269943
-0.774624
-0.520167
-0.198140
-0.057285
1.090406
-0.033690
-0.387557
-0.828443
0.198866
-0.278688
-0.524184
0.057460
-0.896112
-0.365103
0.912633
-0.798624
-0.600018
-0.330271
0.157256
0.591747
0.564218
-0.014011
-0.079695
1.062732
-0.043479
0.752789
-0.942889
-0.582069
0.678867
-0.443649
-0.546654
-0.239927
0.441215
-0.189241
0.466905
-0.215415
0.708018
0.116503
-0.764564
0.047305
0.832957
-0.633455
-0.169184
-0.204068
0.257823
-0.625023
-0.797091
0.081577
1.410266
-0.263216
0.316901
0.173354
0.592573
0.319723
-0.185121
0.378519
-0.108528
-0.234820
1.040943
-0.588285
0.283085
0.008625
0.605417
1.149200
0.856560
0.639509
0.472389
-0.076676
1.538300
0.596978
0.565964
-0.412875
-0.456655
0.544098
0.833500
-0.382161
0.948461
0.345333
-0.413369
0.228162
0.643128
-0.225168
-1.010135
-0.894365
-1.574652
0.528193
0.786707
1.121965
0.034806
-0.624994
0.815533
-0.389771
0.189586
0.838793
-0.066447
0.054439
-0.416430
-0.397739
0.056008
-0.585116
0.069294
-0.075877
0.141134
0.653437
-0.684294
-0.524270
-0.148847
0.364881
-0.631072
-0.238573
-0.464541
0.204843
-0.377105
-0.078160
0.191246
-0.825261
-0.645440
0.126407
-1.179838
0.596837
0.548150
-1.440129
0.616771
-0.145011
0.050791
1.088564
-1.116509
-0.773795
0.862393
-1.289025
0.240374
1.088343
-1.762685
0.308207
1.352672
0.495508
0.777727
0.173048
-0.707213
0.903620
0.599544
0.181457
0.107848
-0.535260
-0.458674
-0.792007
-0.119801
-0.460285
-1.065020
-1.568857
1.615446
1.253284
-0.818825
-0.347130
0.325654
1.361536
-0.362840
-0.211066
1.622783
1.661568
0.884882
-0.896774
-0.581586
0.961387
0.084786
0.220878
-0.459561
-0.053809
-1.329034
-0.158138
-0.430476
-0.814908
0.173862
-0.771030
0.629835
0.311733
-0.339912
-0.770569
0.346155
-0.077691
0.260170
0.398866
1.188391
0.078396
0.999922
0.435126
0.457063
-0.429985
0.605346
-0.874646
-0.318623
-0.220555
-0.492796
0.236408
0.068878
-0.952970
0.450252
-0.499172
0.913807
-0.607099
0.301894
0.543298
0.067061
0.806485
0.911139
0.062046
-0.464013
-0.607271
0.003011
0.298158
-0.312752
0.607715
0.759911
-0.450689
-0.271627
-0.280996
0.130872
1.098689
0.830700
-0.589990
0.184344
-0.285683
-0.764794
-0.651674
0.318769
-0.227374
0.800434
0.539016
0.007940
-0.273354
-0.016235
-0.018587
0.140795
0.081257
-0.555567
0.275212
-0.063891
0.262944
-0.524167
0.221190
-0.524310
0.942328
1.084052
-0.702332
0.370216
0.446727
-0.515429
-0.333182
0.941879
-0.012950
-0.678424
-0.373957
-0.541400
-0.089977
-0.738680
0.629828
-0.639872
0.710644
-0.515953
0.977974
1.272425
0.910340
-0.090271
0.853482
-0.977050
0.240234
1.127199
0.639022
1.139270
0.837312
0.287946
-0.040631
1.304509
0.019863
-0.348170
-0.216203
0.201751
-0.769862
0.185619
0.013041
0.895152
0.414740
-0.412528
-0.927194
-0.804487
-0.055853
0.888855
0.278858
-0.284681
0.289648
0.797838
-0.725811
0.099161
-0.139649
-0.588759
-0.102881
-0.349449
0.632138
0.623167
0.533616
1.038490
-0.356048
-0.437305
-1.271213
0.268496
-0.329451
-1.165146
-0.372720
-0.941223
-1.402674
0.686876
-0.863100
-1.340638
0.611033
0.757313
-0.587337
0.056835
-0.908147
0.561549
-0.828145
0.046643
0.361591
0.581865
-0.130695
1.133355
0.218645
0.092084
-0.662512
-0.685426
-0.596395
-0.926454
-0.159596
-0.800190
-1.022975
0.217894
-0.314498
-1.141514
0.956810
0.820690
-1.417363
0.506354
0.500577
-1.172519
-0.081253
0.075363
-0.806813
0.363858
-0.484841
-0.169283
0.606839
-0.500848
-0.593327
0.896499
0.056968
-0.177870
-0.727010
-0.308355
0.001396
0.290959
0.728167
-1.201136
1.450744
-0.553874
-0.483627
0.191730
-0.437006
-0.640590
-0.967770
1.016344
-0.470340
-1.259564
-0.758348
-1.021660
1.020523
-0.755294
-0.478400
0.183560
-0.715714
0.702572
-0.463845
0.859113
-0.200224
0.299430
0.243642
-0.730123
-0.051788
-0.602608
-1.123779
0.821217
-1.010305
-0.425317
-0.547768
0.559557
-1.375715
-0.830894
0.685209
0.756067
-0.539432
0.989386
-0.112869
-0.017153
0.849917
0.625649
0.586385
1.641446
-0.529358
0.128001
1.482138
0.163152
0.084702
-0.743073
0.363748
0.665409
0.462452
-0.490283
-0.152725
0.255680
-1.618071
0.762253
-0.176673
-0.443509
0.564154
-0.510579
0.489029
0.246048
0.261440
-0.862570
-0.724400
1.006341
-0.233952
0.868992
-0.758977
-0.577347
-0.189742
-1.361457
0.318611
0.838031
0.202575
-0.223751
-0.405882
0.997398
-0.042508
-0.383531
-0.078558
0.394585
0.028692
0.016452
0.559824
0.272075
-0.078231
0.669055
0.304673
-1.493005
-0.205647
0.594193
-0.068395
0.343891
-0.970030
-0.383073
0.395488
-0.501990
1.334738
-1.069669
-1.093859
0.713522
0.454157
0.572347
1.426503
-1.539080
1.418092
0.285664
-0.156623
-0.731473
1.596909
-0.426988
0.228818
0.327153
-1.077752
-0.072480
0.215619
0.066424
0.422268
1.106728
0.359553
0.080264
-1.277155
0.546204
0.819004
-0.615462
0.121918
0.856679
0.689335
0.306031
0.401007
0.474550
0.574804
-0.611463
-0.828850
0.014865
-0.336699
-0.982426
-0.199042
0.968472
-0.198254
0.642402
0.302128
0.399139
-0.896526
0.622132
-1.231585
0.137958
0.007322
-0.703157
-0.151855
-0.193193
-0.220897
-0.479745
0.470800
0.560590
-0.176944
0.847781
-1.301746
-0.017738
-0.662097
0.202834
-1.366706
0.305268
-1.020029
0.617562
0.445801
-0.344140
-0.719695
0.428757
0.256330
0.517464
0.241946
0.265762
-0.677735
-0.140897
0.288049
-0.993241
-0.389880
0.776799
1.148754
-0.374027
0.348129
-0.052369
0.148578
-0.235824
0.126022
-0.293067
0.455094
0.049108
1.159180
-0.580426
-0.329759
0.450417
0.092564
-0.503143
0.934884
0.717801
0.138198
0.180530
-0.123963
0.038322
-0.274745
-0.503866
-0.762073
0.254929
0.297474
-0.706894
-0.145260
0.058163
0.196517
0.718712
-0.258634
0.678313
-0.076923
0.468684
-0.343402
0.052502
-0.293913
0.030446
-0.641386
-0.198135
0.048793
-0.130097
0.621388
1.054609
0.701888
0.675033
-0.432569
-0.613724
-0.364082
0.025136
-0.429387
0.514252
1.175127
0.650984
-1.327549
0.053513
-0.140082
0.280775
0.232109
0.674924
1.198070
0.178312
0.929153
0.754973
-0.192678
-1.406003
-0.618516
-0.137115
0.060783
0.929755
1.222962
0.611801
0.287334
-1.099321
-0.300903
0.508300
0.532975
0.888508
0.092078
0.690986
-0.725163
-0.351814
0.480415
-0.217313
-0.456160
-0.340606
-0.479850
-0.027898
0.231757
0.183253
-0.215632
0.692841
-0.077990
0.846924
0.220863
0.097290
0.239386
0.603641
-0.543438
0.552438
-0.201701
1.686040
-0.929140
0.095165
-1.218373
-0.662051
-1.762206
-1.186333
-1.142128
-1.170118
0.713153
-0.184207
-0.347654
-0.052590
-0.978123
-0.493280
-0.010573
-0.098145
0.007566
0.566661
-0.046199
0.453401
0.637036
0.367553
1.905345
0.288516
0.053433
-1.238430
-0.789747
0.189585
1.203611
0.360279
-0.523534
0.118085
0.994411
-1.038099
0.452649
-0.328354
-0.316991
0.394306
-0.870889
0.216575
1.758543
-0.736848
-0.600253
1.068526
0.764195
0.744870
-0.709034
0.053079
-0.444867
-1.028177
-0.088588
0.035268
-1.080755
0.786365
-0.693337
-0.802033
-0.433360
-0.595540
-0.088613
0.420294
-0.421592
0.883367
-0.630692
-0.748747
0.614556
0.760706
-0.814340
0.668033
-0.720373
0.748196
1.060500
-0.600506
0.021005
-1.660051
-0.645471
1.258572
0.542144
-0.265574
0.693967
-0.150302
-1.107366
-0.941961
-0.272904
-1.494808
-1.231107
-0.667984
0.964281
0.089605
0.712201
0.147921
-0.769304
-0.068892
0.915767
-0.010170
-0.579034
0.456610
-0.355365
0.449537
1.274875
1.026800
-0.487992
1.075009
-0.334429
0.125045
-0.305630
-0.438654
-0.900264
0.507073
-0.300472
-0.143242
0.437017
-0.487253
1.001911
0.614407
-0.404909
-0.973283
0.901981
-0.135912
-0.103056
-0.483186
-0.597230
-1.050147
1.232280
-0.430970
-0.056762
-0.331943
-0.324444
0.107561
0.350959
-0.187087
0.009210
-0.131347
0.532388
-0.048381
-0.514863
0.478276
1.108599
0.303298
-1.302274
0.488817
-0.847796
-1.011299
-1.272300
-1.447260
1.550766
-0.052059
0.927730
1.022069
1.446573
-0.982394
0.134643
-1.499148
-1.037224
0.031549
-0.003949
0.664693
0.744091
-0.499295
1.481428
0.048836
0.357705
0.206962
0.792572
-1.727215
-0.917409
0.358656
0.838402
-1.227876
0.116940
0.200683
-0.112568
-0.438282
-0.559342
0.440906
0.182849
0.498232
-0.663953
-0.191276
-1.040677
-0.181088
0.781409
-0.293689
0.119164
-0.160059
0.573380
0.916734
-0.788072
0.597363
-0.792395
1.029692
0.712063
0.229808
1.018233
0.064333
0.761674
-0.776417
-0.670509
0.488528
-0.488581
0.482121
0.444031
-0.026793
-0.203259
0.010797
0.957085
-0.040845
0.175610
-0.284709
-0.762085
-0.711318
-0.560919
-0.707424
0.162990
2.474267
0.462676
1.684465
1.146121
-0.672960
-0.255223
-0.621326
-0.041766
1.219636
-0.629120
-0.640669
-0.216400
0.377039
-1.059928
0.116681
-0.546950
-0.159264
-0.211717
0.221804
0.687949
0.029169
0.367400
-0.498115
0.304055
-0.383605
-0.661070
-0.178160
1.436739
-0.721811
0.094592
0.531660
-0.437631
-0.312699
0.009063
-0.219160
-0.472593
0.691410
0.619815
-0.127503
-0.502233
1.059384
-0.277213
0.665429
1.069505
-0.791931
0.151436
-0.655217
-0.472281
-0.966940
0.099053
0.183017
0.360570
-0.572274
-0.201560
-0.430997
-0.212176
1.154296
-0.449309
0.776943
-1.095606
0.597571
-0.305009
-0.011729
0.059871
0.615751
-0.801217
0.894140
0.504440
-0.332229
0.264579
0.299446
-0.533255
0.905593
0.911016
0.369310
0.778713
0.373706
0.462640
-0.608194
-0.525383
1.356426
0.489945
-0.721727
-0.276102
-0.582151
-0.308421
-1.019667
-0.983550
-0.153838
-0.612865
-0.380868
-0.317765
-0.253278
-0.069924
-0.772124
0.704605
1.668654
-1.034889
0.402172
0.157701
-0.234509
-0.534356
-1.238514
0.519227
0.221362
0.206519
0.781352
-0.786681
-0.599162
-0.708244
-0.606689
0.144755
-0.550598
0.076714
0.428681
-0.291646
-0.010094
-0.272990
0.446926
0.159413
0.099861
-0.164186
-0.096828
1.259396
-0.597840
-0.274736
-0.027770
-0.250194
0.516078
-0.048226
-0.340749
0.340897
-0.197157
0.680882
0.211237
0.576154
-0.104753
-0.482698
-0.013179
-0.644838
-0.868239
0.441793
0.929074
0.285359
-0.104118
-0.058499
-1.034603
0.872194
-1.006132
-0.766904
0.125714
-0.556890
-0.285369
-1.331651
-0.823445
0.391852
-0.789772
0.059931
0.317330
-1.020898
-0.591567
0.067518
-0.855505
0.701004
-0.171238
-0.302198
0.542482
0.240093
0.418474
-1.381419
-0.103958
0.403182
-0.189108
0.986505
1.041244
-0.028546
0.565512
-0.638199
-0.114365
0.640671
0.070052
-0.199972
-0.053424
0.724300
0.598478
0.021707
0.721870
-0.136754
-0.640660
0.064683
0.727772
-0.333522
-0.216264
-0.058770
-0.027642
-0.717605
-0.848751
0.198230
-0.394430
0.635206
-0.483572
0.807134
0.786954
-0.292093
-1.235075
0.790729
0.178765
0.941166
0.453134
0.435714
1.271605
1.395356
0.783966
-0.237960
0.413026
0.237173
0.751391
-0.492535
-0.834999
0.160665
0.505253
1.654298
0.216368
-0.415790
0.707173
1.182050
0.217678
-0.645804
-0.557725
-0.736816
0.614637
0.707657
0.431957
1.470266
0.475215
-0.498618
-0.102003
0.532889
-0.432597
0.610463
1.152165
-0.605388
0.431522
-0.541803
0.555157
0.316438
1.051876
0.357831
0.386929
0.464507
-0.078637
0.266402
0.267111
-0.670201
0.409510
-0.341637
-0.813613
0.057905
-1.351706
1.463867
-0.381883
-0.984818
0.436408
0.945778
-0.346248
-1.458545
-0.321798
1.273441
1.359114
0.043733
0.911117
1.048889
-0.063784
-0.528357
-0.778458
0.537753
0.836620
0.557310
0.326841
0.222827
-1.817537
1.135309
-0.893962
0.279318
1.051378
0.514090
-2.183968
-0.372647
1.358111
0.318712
-0.222730
0.055075
0.784944
0.163732
1.072002
0.282739
-0.179413
0.639252
0.892532
0.298826
-0.209524
-0.834469
0.110181
0.240373
-0.408069
0.073471
-0.253104
-0.166395
1.014431
-0.528424
0.170665
-0.655553
-0.395109
-0.313740
-0.115532
-0.765200
1.176999
-0.340889
-0.035009
-0.109775
-0.334552
0.450277
-0.063923
-0.175987
-0.441901
0.559642
0.670770
0.574252
-0.393151
0.125001
0.420297
-0.568658
0.703607
0.115612
-1.667929
0.176566
-0.258132
0.332230
0.142333
0.191952
0.503771
0.355209
-0.934405
0.868654
-0.641957
-1.277316
0.501732
-0.651157
-1.111967
-0.540303
0.634304
0.349964
1.402105
0.221407
-0.269098
0.346552
0.636422
0.592343
-0.309744
-0.167861
-0.077835
-1.023303
0.140479
-0.758819
-0.915527
-0.222353
-0.868268
-1.178870
-0.371972
0.746203
0.914906
-0.606857
-0.091545
0.877286
0.311464
0.218268
0.006661
0.509591
0.111092
-0.983372
-0.045776
-1.003402
1.414459
-0.310944
0.680343
-0.185870
0.058036
-0.396618
0.962377
-0.235249
-0.767503
0.200330
-0.154808
0.063675
-0.020339
-0.204127
0.149357
-0.103572
0.986348
0.906589
0.886996
-0.318309
-0.627838
-0.024426
0.485034
-0.967170
-1.301772
-0.214456
0.963970
-0.266464
-0.896223
-0.191563
-0.380648
0.116111
-0.780879
0.970826
1.578237
-0.006004
-0.307750
0.091039
-0.815204
-0.608100
-0.525515
-0.106147
0.186205
0.086095
-0.821949
1.457590
0.738293
-0.507665
-0.265814
0.409779
0.737425
-1.175530
-0.950858
-1.155083
0.300548
-0.014307
0.603737
-0.757078
0.114428
0.065008
0.715516
0.608863
0.099554
-0.788046
1.368075
0.149982
-0.495027
-0.077198
-0.468615
0.907231
-0.524970
0.154032
0.131819
0.436705
-0.304634
0.266281
0.349259
0.645247
-0.638924
1.763912
0.592452
0.768532
-0.115128
-0.233508
-0.163199
0.566721
1.065392
1.251078
-0.717828
-0.509433
-0.233983
-0.300939
-0.100353
-0.079544
0.648663
-0.687824
-0.344384
-0.939525
0.730472
0.346093
-0.316373
0.502388
0.834194
-0.528072
1.055941
-0.009542
0.770112
0.282418
-0.313876
1.016694
-0.513661
-0.253292
0.413988
0.263325
-0.277829
-1.084735
-0.994994
-0.991315
-0.864332
-1.171574
-0.896542
0.070960
0.249883
-0.657931
-0.979200
-1.022215
0.183909
-0.056911
0.586546
0.666729
-0.087172
-0.179560
-0.977814
0.089153
0.371787
-0.307667
0.421497
0.989655
0.116649
0.428853
-0.541979
0.514892
-0.317423
-0.553193
-0.198054
0.322764
0.755920
-0.326733
-1.220280
-0.650989
-1.190561
-0.418321
0.308158
0.586372
-0.173676
1.324710
0.085290
0.502417
0.986643
0.852741
-0.698436
-0.395095
-0.187738
-0.004228
-1.409778
0.774114
0.330223
-0.115509
0.164687
0.545184
0.360757
0.252572
-1.120636
0.124614
-1.504689
1.187139
-0.696455
-0.307401
-0.619152
-0.128776
-0.172253
-0.832443
0.668864
0.752847
0.572995
-0.116210
0.052495
-0.398853
0.090136
0.235639
-0.708970
-1.027752
0.014382
-0.858454
0.831269
0.377758
0.119664
-0.092813
-0.201616
0.724263
-0.145074
0.427284
-0.575825
-0.282582
0.756211
0.845749
-0.134156
0.551506
0.605870
-0.091625
-0.310867
-0.205511
-0.927249
-0.658793
0.536077
0.200445
0.479300
0.126359
-1.179557
-2.030990
-0.115510
0.420992
1.137803
1.362649
0.099327
1.302543
0.776032
-0.884833
0.411933
0.329742
0.680459
-0.854746
1.332973
1.376192
-1.104780
1.581626
0.396589
-0.465808
0.954869
-0.790955
-1.671629
0.848725
0.784886
-0.232398
-0.491745
-1.100580
0.947776
1.053690
-0.044132
0.290286
-0.701715
0.116783
0.164667
0.565071
-0.575027
0.446432
0.405398
0.342185
-0.112556
-0.784615
-0.157412
0.115039
0.735587
0.077502
0.719423
-0.349557
-0.461041
0.371066
0.656229
0.395999
0.982813
0.537605
-0.086167
2.027892
-1.436768
0.393130
-0.647252
0.461632
-0.740638
-0.892881
1.243492
-0.457821
0.102417
-0.138403
-0.218119
-1.191175
0.962134
-0.986474
-0.279469
0.107237
-0.235753
-0.141933
0.771152
-0.644174
-0.130322
0.350767
-0.219127
-0.352728
-0.743116
-0.200785
-0.644991
-0.880780
-0.164584
-1.196442
1.174625
0.548965
0.222571
0.725109
-0.340471
-0.855668
-0.625727
0.126164
0.567962
-0.998441
0.391022
-0.722168
-0.152912
1.614536
-0.421186
0.154930
-0.229904
-0.006726
-0.044238
-0.190662
0.857530
1.163650
-0.436751
0.183635
0.678733
-0.872726
1.061319
-0.527949
0.405099
-0.228585
0.849898
-0.049919
-0.364969
-0.324609
-0.042622
0.181613
-0.299794
0.620256
-1.834255
-0.779645
-1.159359
0.925725
0.323081
0.460660
-0.080788
-0.090063
0.235768
-0.818978
-0.282433
-0.625133
0.410752
-0.689333
-0.135099
0.219872
0.637431
0.752328
0.082306
0.911494
0.877340
0.249250
1.698481
1.124761
-2.094070
0.146589
0.397986
-1.663684
0.867759
-1.054154
0.136586
-0.072439
0.324590
-0.428709
-0.982256
-0.544304
1.160887
-0.734788
-0.862325
-0.002796
0.430702
0.313586
-0.685900
-0.008469
0.263854
-0.437333
0.545488
0.930515
-0.588752
-0.398867
-0.219226
-0.549881
0.466845
-0.772465
0.982259
0.617312
-0.832816
-0.715696
-1.470723
0.359868
0.512855
-1.175851
-0.753262
-0.116570
0.047803
1.046700
-0.371300
-0.920487
-0.063629
-0.457104
-0.592962
0.459714
0.282114
-0.481545
0.155739
-0.805161
1.757595
0.136640
1.285665
0.372295
0.129167
0.778811
-0.626998
-0.987250
2.004864
-1.385910
-0.526473
-0.336594
0.181091
1.231400
-0.001794
0.578998
0.422890
0.683970
0.127396
-0.481487
0.846337
-1.367952
0.254634
-0.350815
0.763214
-0.340200
-0.331735
-0.531742
-0.923389
-0.181391
-1.566439
0.637474
1.297991
-1.541555
-1.135654
1.391588
0.448194
0.529567
-0.979649
-0.387519
0.273890
0.037374
-1.063169
0.445113
-0.011090
-1.257901
1.457724
0.389653
-0.514026
0.729942
0.641285
-0.846860
-1.760248
0.064505
-1.415907
-0.742088
-0.083153
-0.340508
-0.985817
-0.134802
0.417425
0.946310
-0.777602
0.271415
-0.830833
0.512343
0.556635
0.402733
-0.447094
-1.057835
0.467366
0.663489
1.253537
0.501787
0.353485
-0.786521
-1.075258
0.643401
-0.043743
-0.953464
0.920061
0.297522
-0.212986
-0.233823
-0.406341
1.154484
0.172804
0.785300
1.338721
0.820157
-0.714005
0.231709
0.441737
-0.166603
-0.432928
-0.246801
1.396452
1.286950
0.437992
0.525280
-0.423393
0.034260
-0.395853
0.725182
-0.241531
0.167911
-0.381971
1.346493
0.438887
-0.614848
-0.143326
-0.741724
0.110289
0.836239
-0.874717
0.103630
-0.031033
-0.948641
1.004408
-0.412128
1.130110
-1.519845
0.078266
0.036789
-0.114768
1.112485
-1.524832
0.159925
1.550735
-0.757743
-1.086225
0.354165
0.906205
-0.652754
1.269915
0.121660
0.408091
-0.419309
-0.159137
1.196505
0.326740
-0.926917
-0.849318
0.089417
1.026944
-0.845583
0.806835
0.379945
0.403261
0.377557
0.295415
-0.354964
0.905884
0.069985
0.826240
-0.468383
0.019800
0.376569
-1.114444
-0.049143
0.371735
0.312735
0.427637
-0.161564
1.559254
0.199133
0.560328
0.890032
0.341976
-0.688893
-0.237538
0.469729
-0.418080
0.981143
-0.559464
-1.575355
-0.628402
-0.145847
-1.314615
1.586160
0.664660
-0.618702
0.595232
-0.204900
-3.352862
-1.635946
-0.311615
-2.234917
3.454217
-0.292982
-1.446684
2.676744
3.886939
-5.087621
-1.135406
-0.505138
-2.516575
-1.126779
4.341374
-3.565555
-0.146044
4.957960
-3.572972
0.039635
0.486304
-1.650968
3.464830
-1.498609
-1.592932
-0.658730
-3.123086
0.504918
-6.850009
-0.185184
-0.473585
0.513729
3.823538
0.733057
2.962547
-2.698637
-2.705061
-5.666307
-1.769553
-4.184397
3.188217
-2.521029
-5.201907
1.278650
-2.844655
-2.588861
3.717771
-3.167310
0.408918
2.191746
-3.479633
-1.147805
-0.432650
-1.514957
-8.439033
1.758269
-2.235811
-0.007393
5.492349
2.342209
1.083131
-1.937206
3.829279
-2.405406
-3.200823
-3.205851
-3.593741
-1.659552
-0.252067
1.838073
1.372633
2.861454
-4.844892
-0.035347
0.544404
-4.912829
3.858072
-0.648438
1.683684
-1.201801
-1.133302
-0.088572
1.470548
-2.419447
2.126410
2.698107
-1.874324
-0.879747
0.455190
-5.234860
-3.570679
2.257327
-3.103461
-0.981636
-6.518414
5.105475
2.778167
0.467060
-0.493200
-3.799057
1.257903
-4.872937
-3.050674
-3.404798
1.334757
3.563228
-3.188603
-2.814731
0.666989
1.685952
1.926500
1.843325
-6.859802
1.193239
1.851367
1.991618
-4.793355
-1.856603
2.560255
-0.250512
-4.342077
3.189738
-0.868116
1.736144
-1.346378
0.918856
-0.118377
-2.113701
0.430781
-4.227117
-1.732712
-3.944468
-2.443522
-2.601179
-1.281382
4.824365
3.861708
-4.990574
-2.318453
2.271558
-2.978246
-1.129216
-2.790453
4.020094
-0.725655
-4.298047
-1.626262
-2.525830
4.079996
2.491908
3.126079
-3.278077
-0.484158
2.639020
-2.481942
1.768071
-1.124447
1.424667
1.544017
-2.816335
-2.155933
-1.695762
-2.488552
-1.301022
3.769762
3.903382
3.200818
-4.094240
-3.812483
-3.515997
-4.856084
-4.356386
1.033198
1.809698
-6.244278
-2.637592
1.709127
3.557073
-2.531090
1.370273
-0.718364
-2.093518
-0.172649
5.181888
1.002392
-1.610232
-1.761896
2.489801
-3.008602
-1.853555
0.217481
-2.662429
-1.698442
-4.213230
2.195227
-7.089006
3.126842
1.393045
4.383265
-4.632061
-3.149812
-1.812004
-0.114335
-1.065472
-3.211560
-3.069909
-1.402419
-1.370737
-2.348481
-0.063758
4.044341
2.922360
-0.980173
-2.417313
-4.032469
-1.369020
2.416012
-2.719827
-3.988111
-2.263503
-3.332599
3.354358
-4.656200
-2.139596
0.625511
-1.186098
-1.373756
2.779800
-3.920575
1.800785
-2.102611
-1.285941
-0.506839
-2.355748
-1.546971
-3.003002
-1.734428
-2.429092
-3.918321
-0.459756
