0.5 101 26 10
0.867954
0.009243
0.987454
0.648063
0.330259
0.224220
0.799992
0.443525
-0.607903
0.604580
1.214190
-0.759534
0.476769
-0.843633
-0.370055
-1.043068
0.393098
0.384578
-0.938712
1.090383
0.093952
0.289010
0.523612
-0.171092
0.957483
0.489800
0.927368
0.039173
-1.462735
0.717821
0.001961
0.412042
-0.161729
-0.666423
-0.910586
-0.217224
0.016107
1.655313
0.455955
-0.306199
-0.890902
-0.722800
-0.600201
-0.053694
-0.626311
-0.336979
0.381014
-1.139074
0.516312
0.638226
1.210443
-0.077114
-0.336171
0.991898
0.267646
-1.111396
-0.733857
-0.770203
0.378953
-0.045225
-0.079301
0.511876
-0.040311
0.590323
0.246150
0.176557
1.028675
-0.092526
-0.244982
-0.494055
-0.734796
-0.108176
-0.082391
-0.102969
0.553413
-0.867460
-0.632837
0.144536
0.287125
0.693348
-0.514436
-0.795220
-0.430911
0.692515
0.894395
0.619189
0.385892
-0.266846
1.008623
0.648938
-0.658065
0.348453
1.531602
1.426833
0.307537
0.962161
0.854736
-1.135280
0.775686
-0.340549
0.756083
0.498875
-0.616882
-0.984744
0.431602
0.364999
-0.182441
-1.303296
-1.273219
-0.403679
1.097959
-0.543126
-0.298952
0.118345
0.443089
-0.009812
-0.465096
-0.088494
1.318488
0.739481
-0.344337
-0.311449
0.671107
-0.984198
0.427374
0.952212
0.192054
0.609478
-0.263867
0.528006
0.810412
-0.281046
-0.337396
-1.079359
0.576497
-1.154840
0.534780
-0.540065
0.556354
-0.031483
0.880407
-1.208210
-1.151232
0.268985
0.638742
1.000367
0.315028
1.007016
-0.362473
-1.003636
-0.929063
-0.155468
0.161235
0.613045
-0.581183
-0.070728
0.558732
0.750958
-0.026023
0.466083
-1.029572
0.232237
-0.146300
0.692807
-0.651205
-0.188792
-0.759149
-0.832617
-1.057343
0.258158
0.262583
0.090334
-0.028281
0.412846
-0.429745
0.701645
0.422413
-0.098602
-0.421402
0.568809
-1.095468
-0.619832
0.747214
0.462845
-0.164550
-0.724070
-0.910465
0.746176
0.828558
-0.204346
-0.161576
-1.234413
-0.951100
0.512031
-0.102051
-0.740656
0.687665
1.206638
0.689962
-1.224960
-1.358946
0.428749
0.750881
-0.833048
0.894943
0.011512
0.774478
-0.815549
0.587463
1.055050
-0.137884
-0.845522
0.480000
0.156886
-0.419246
-0.214555
-0.883888
0.146260
-0.094681
0.625408
-0.076198
0.735458
-0.027406
-0.260394
-0.595172
-1.341445
-0.326147
0.429596
-0.517756
-0.334560
0.601379
-0.212567
-0.228257
0.561334
0.256772
-0.548282
0.789780
0.274035
0.506433
0.504130
-1.038998
-0.325179
0.813733
0.806815
-0.499877
0.055039
-0.500398
0.963462
0.053139
1.046875
1.081640
-0.675664
-0.082588
-0.031160
-0.318543
0.652777
-0.954460
0.045600
0.073331
-0.720711
0.124763
-1.234592
-0.781144
-0.246824
-0.891300
1.187695
-0.433367
0.754004
-1.212728
0.737948
0.030283
0.255247
0.784231
0.252628
0.633944
0.180376
0.986629
0.302329
-0.447690
0.108025
-0.097023
-0.925774
-0.565751
0.348976
0.900266
0.913426
0.803204
-0.096376
0.436745
0.788732
1.097176
-0.023894
-0.385292
-0.214967
-1.081650
-0.438763
-0.355880
-0.122800
-0.065454
-0.888908
-0.144295
-0.620622
-0.021661
0.686138
-0.220938
0.418337
-0.321407
-0.035293
0.295610
0.385401
-0.004778
0.170342
-0.058143
-0.761523
0.235174
0.143174
0.137379
-0.822088
-0.760539
0.982572
0.257193
-0.421058
-0.314920
-0.512199
-0.165428
0.696747
0.214176
0.156821
-0.835055
0.029532
0.870292
-0.670339
-0.691875
-0.173328
1.002436
-0.378132
-0.469718
-0.326129
0.745376
-0.456867
-0.070932
0.862923
-0.752391
1.247017
0.703090
0.485819
0.846071
0.125814
-0.220896
-0.467524
-1.032280
-0.511304
0.450070
0.435093
-0.280496
0.405651
0.098881
0.666289
0.787742
0.469893
1.090520
0.727404
-0.719034
0.262370
-0.227388
0.010535
-0.821547
-0.856340
-1.015391
-0.863244
-0.354421
-0.066681
-0.029382
0.747282
0.376277
0.224671
-0.157685
0.474919
-0.341203
0.456441
0.430226
1.388679
-0.503067
-0.531393
0.169694
-0.387973
-0.156271
-0.336983
1.129739
-0.441347
-0.233192
0.384302
-0.968821
-0.567811
-0.021266
-1.029220
1.101945
0.178580
-0.614292
1.165840
-0.992353
-0.223117
-1.109401
-0.367842
0.477283
0.065890
-0.132376
0.207516
0.819915
-0.534217
-0.098101
-0.090479
-0.531463
1.169491
0.385423
-0.910484
0.263414
0.483251
-0.510226
-1.102213
-0.705233
-0.203026
0.210614
0.238096
0.426454
0.386809
-0.355350
0.528086
0.516827
1.030408
1.169605
-0.343839
-0.072549
-0.629158
-0.774209
-0.748859
1.026499
0.287842
1.081102
-0.546577
0.309456
0.211134
-0.211565
-0.570777
0.138702
-0.206230
-0.272065
-0.079332
0.654024
-1.148200
-0.778667
-0.354414
0.101041
0.006817
-0.085963
0.673086
0.391382
1.020968
0.803595
-0.225537
-0.305990
-0.385243
0.011522
-0.382646
0.975594
0.090324
0.159867
0.603843
0.691713
0.049527
1.119610
-0.354377
-0.075190
-0.247078
-0.365693
-0.172285
0.124123
-0.842519
-0.547751
-0.180875
-0.785762
-0.298441
-0.410965
1.205977
0.777883
0.685321
0.990361
-0.631945
-1.078642
-0.594883
0.132673
-0.490698
-0.621052
-0.894214
-0.532136
1.368450
-0.182926
-1.145373
0.720599
0.128657
-0.696761
-1.263477
-0.730286
-0.494912
0.287205
0.396586
0.768593
1.282722
0.394626
0.114132
0.306553
0.680805
0.872519
0.895345
0.156476
0.596288
-1.028356
0.965581
-0.359457
0.536397
-0.478374
-0.347345
-0.530431
0.364332
0.235564
-1.191022
-0.695522
-0.560182
-0.648045
1.093874
-1.328686
-0.552738
-0.200285
0.767391
-0.790851
-0.823996
0.126672
-0.674965
0.555637
0.419149
-0.350509
0.796543
1.056714
-0.776482
0.249473
0.201113
-0.447376
-0.298008
-0.520391
0.027291
0.850099
-0.436823
0.523470
-0.396034
-0.241414
0.659078
-1.080610
0.310540
0.005482
0.559530
-1.009127
-1.383822
1.074495
1.117172
0.186974
-0.398819
0.492060
0.031792
0.283758
0.103911
-0.014890
-0.342758
0.865866
-0.831410
1.284905
-0.533686
-0.176276
-1.073150
0.361804
-0.088597
-1.545973
0.918664
0.400767
0.214044
-0.793704
-0.172698
0.031939
1.085102
0.720278
-0.776033
0.127099
-0.098463
-0.292099
-0.543712
0.895927
-0.856217
0.524889
0.653576
0.324972
0.046987
-0.588755
-1.042502
0.454718
0.429126
0.062475
-0.046038
-1.209677
0.683549
-0.877983
-0.788858
-1.431456
0.360677
0.641664
-0.352216
1.039633
-0.525877
-0.494845
-0.212619
-0.132241
-0.098423
1.063643
0.270666
-0.014644
0.934803
0.369226
0.183970
-0.459775
0.382218
-0.182924
0.407065
0.982872
-0.401872
-0.239187
0.763315
0.294788
-0.457759
-0.668934
-0.420247
-1.080084
-0.109965
0.689924
0.714974
-0.672198
-0.172670
-0.861648
1.512220
-0.035417
-0.109847
0.077211
0.734427
0.568951
-1.281395
-0.765603
0.325418
0.189876
0.764224
1.022604
0.018441
0.591909
-0.196185
-0.398597
-0.447720
-0.880491
0.904099
-0.336835
-0.470442
-0.145947
0.584306
-0.295521
0.881383
-0.973870
0.118665
-0.334561
0.930377
0.488147
0.581124
0.984338
-1.635225
0.301456
-1.003382
-0.458717
0.687867
0.780105
-0.349139
-0.466206
0.518020
-0.733676
-0.109784
0.199322
0.000077
1.097850
0.017794
0.018332
1.631743
0.232641
-0.424572
-0.992875
1.035967
1.081035
0.532160
-1.072348
-0.266055
-0.103477
-0.263245
0.608936
-0.366193
0.073514
-0.628432
1.235978
0.497707
-0.928913
-0.150638
-0.889212
0.620646
0.303413
-0.521828
-0.163992
-1.210132
-0.847317
0.275234
0.671429
-0.673792
-0.154629
1.022580
1.057845
0.331915
0.051409
0.768526
-0.819443
0.842538
-0.343696
0.682278
-0.093908
-0.994541
-0.474183
-1.065673
-0.075288
1.024474
0.069704
0.878974
-0.283875
-0.061054
-0.570813
-0.704210
-1.137408
-0.122053
0.707083
-0.249260
0.470396
0.604486
0.481686
0.031484
0.193091
-0.907364
-0.877611
0.360307
0.144261
0.404211
-0.479707
-0.989059
-0.264231
-0.780268
-1.076746
-0.320584
-0.672580
-0.663765
-0.365903
0.634513
0.610572
1.021225
0.835808
-0.571442
-0.578881
-0.890056
0.908118
1.051679
-0.800767
0.970951
-1.158888
-0.585562
1.048680
0.193081
0.068592
-0.498245
0.918109
-0.545168
-1.122460
0.433797
-0.382968
-0.541648
0.173487
0.508378
-0.933148
-0.529687
0.624288
0.359348
-1.063654
-0.638179
-0.441447
-0.365847
-0.755163
0.341765
-0.313723
-0.024596
0.068030
-0.733469
0.864330
0.278569
0.305081
0.541823
0.782580
-1.099094
-0.576335
-0.299296
-0.042806
-0.206418
0.545195
0.165488
0.603303
1.000753
-0.514162
-0.839311
-0.014938
1.077612
0.814169
-0.849276
-0.481925
0.549474
0.196475
-0.597163
0.926141
-0.144983
0.386838
-0.769748
0.675953
-0.047209
-1.799601
-0.512568
-0.453773
0.116388
-0.372614
0.103872
0.550125
-0.929646
0.210122
-0.091187
-0.521007
0.403995
0.355323
0.135479
-0.325001
0.808350
0.162682
-0.041807
-0.364139
-0.566768
-0.375923
0.913803
0.615393
-0.495955
0.441096
1.088055
-1.144177
0.295370
1.051333
0.067173
-0.011671
0.840268
0.533293
-0.232074
0.346560
-0.279199
-0.774419
-0.482820
0.088536
0.338113
-0.597097
0.352197
0.319529
-0.516043
0.341390
0.722414
0.233416
0.464524
0.282414
-0.280359
-0.643969
0.705396
0.086095
1.001700
1.066565
0.758715
0.344048
0.504774
-0.199408
1.284300
1.016721
0.641861
0.562973
0.311065
0.184361
0.666459
-0.738760
1.066032
0.120629
-0.021826
0.407344
-0.481162
-0.496611
-0.117488
-0.472495
0.656533
-0.584610
-0.306435
-1.265383
0.563229
-0.330005
-0.149868
-0.336477
-1.461734
-0.552203
1.972230
-0.066143
1.373224
0.325152
0.438514
-0.887456
-0.541957
-0.320515
-0.254885
-0.652688
0.693512
0.667370
-0.699228
0.809167
-0.673796
0.868511
-0.239211
-0.139772
1.191970
-0.842470
-0.088866
0.436711
-0.864375
-0.042240
-0.361346
-0.347494
1.053141
-0.614452
1.087610
-0.519172
-1.028950
-0.366170
0.077872
0.831163
-0.670080
-0.542922
-0.428501
-0.582147
0.683068
0.674208
-0.815666
-0.896566
1.646365
0.715434
-0.156047
0.283215
-0.644518
-0.806095
-1.223334
-0.408434
0.147113
-0.744043
0.138173
0.500361
-0.324704
-0.135499
-1.467267
0.110669
-0.133133
-0.364123
-0.232096
-0.664956
-0.243501
-0.636881
0.083137
0.276283
-0.078210
-0.429773
1.162213
-0.278111
-0.437448
-1.081462
-0.152476
-0.406500
0.724562
-1.041516
0.206754
0.953060
0.477016
1.458937
-0.514924
-0.270219
-0.141444
0.885053
-0.372782
1.105890
-0.821793
0.142885
-1.117011
-0.447824
0.905173
-0.127849
-0.343255
0.613165
1.289072
-1.115020
-1.058079
1.185971
0.203976
0.118052
-0.484631
-0.894118
-1.150961
-0.435219
0.295397
0.035904
-0.674918
0.830628
0.194239
0.432937
-1.273903
-0.132187
0.525743
0.546522
-0.419712
-0.113147
-0.220286
-0.043787
0.480549
-0.803919
-1.015426
-0.391019
-0.501878
0.474721
0.279723
0.420259
-0.517256
-0.596943
-0.957182
-0.550579
1.204759
-0.718140
1.266130
0.164949
-1.410073
0.425859
0.359694
-0.285612
0.583553
-0.605806
0.071789
0.272003
0.593177
-0.847325
0.346181
0.317439
-0.704721
0.939751
-0.025947
0.309346
0.305279
0.741884
-0.389533
0.875887
-0.968586
0.681114
0.435874
0.539416
0.701658
0.354848
0.249489
-0.096601
0.446175
0.421631
0.462141
-0.385449
0.817088
-0.590633
0.380158
-1.603452
0.115139
-0.183017
0.179427
-0.483568
0.598364
-0.947093
0.386487
0.053851
0.594854
-0.365343
-0.796663
0.897393
-0.396561
0.694099
-0.823416
-0.412739
0.994954
-0.139847
0.880229
0.088003
-0.670649
0.225845
0.242385
-0.620446
0.305139
0.725012
-0.212707
0.831361
0.172380
-0.711424
-0.815311
-0.613787
1.354179
0.209543
-0.375722
0.458225
-0.396118
0.943568
-0.120903
0.196162
0.998473
0.491689
-0.580865
1.355804
0.025756
0.427324
-0.096252
-0.807515
-0.240756
0.268575
0.755600
-0.495787
-0.829640
-0.287923
-1.006698
-0.321915
0.829544
-0.768687
-0.322921
0.939382
-0.681196
0.303250
-0.712867
-0.076396
0.491378
0.308585
0.029538
-0.064747
0.081019
-0.298092
1.261585
-0.185142
-0.067304
0.032927
-0.439945
0.761244
1.480948
-0.046477
0.308467
-0.671641
0.199645
-1.044595
0.024831
0.156338
-0.180472
1.289023
-0.650238
0.976664
0.467278
0.671351
1.143758
0.538247
0.276117
0.849046
-0.703123
0.864868
0.625967
-0.384844
0.585367
0.903596
-0.521359
-0.360671
-0.871714
-1.039259
-0.677795
-0.905185
-0.937922
0.468204
-0.608061
0.244910
-1.062357
-1.340917
1.326696
-0.070066
0.439245
0.859941
-1.241761
0.487630
0.252347
0.387078
0.203021
0.251689
-0.925395
0.035714
-0.717976
0.186370
0.213154
0.173373
-0.860855
0.590888
-0.738593
-0.525301
0.958507
-0.506614
0.915847
0.821508
1.533667
0.137854
0.176386
0.247608
-0.022797
0.366843
-0.436530
-0.068422
1.205161
-1.146076
-0.268568
0.964830
0.360732
-0.171840
-0.586958
0.522879
0.222498
-0.601905
0.790418
0.220583
0.888465
0.298403
1.500188
0.003878
0.374642
-0.678467
1.442139
0.885286
0.505682
0.929921
0.509587
-0.287001
0.909158
-0.347610
-0.294990
-0.241123
-0.214101
-0.246671
0.565824
1.132972
-0.913263
-1.297844
-0.494614
-0.206992
-0.127951
0.063185
-0.347415
-0.051089
-0.292434
-1.078322
-0.285272
1.068030
-0.246132
-0.307994
-1.234683
-0.468950
0.313656
0.909455
-0.129181
-0.381607
-1.344273
0.447062
1.169558
-0.589746
-0.425915
-0.062012
0.138265
-0.921007
-0.841188
-0.317893
0.972827
1.238046
0.548458
0.666622
0.341423
1.186763
-1.180520
0.785294
0.200204
-1.234471
0.339890
0.091359
-0.059169
-1.293037
-0.991801
-0.021900
0.082683
0.748615
-0.115455
-0.423039
-0.288060
0.163437
-0.505442
-0.946468
-1.096181
-0.389368
-1.221862
-0.217358
0.047018
0.607221
0.780637
0.302679
0.315186
-0.342094
0.415617
0.462362
-0.531195
0.234533
0.455342
-0.695716
-0.443285
0.133266
0.906797
-0.345964
0.956824
0.277966
-0.283817
0.235034
0.859691
0.810283
0.877397
-0.454184
0.432676
1.007334
0.218272
0.834681
0.610000
-0.733450
0.677083
0.004617
0.779484
0.374313
-0.104169
0.319931
-0.802227
-0.146401
1.291649
-0.140555
1.189136
-0.887500
-0.166826
0.576451
-0.104179
-0.498159
0.132034
-1.031998
0.172253
0.497595
0.583376
-0.314016
-0.180155
-0.081159
0.649031
-0.611613
-0.506932
0.336873
-0.613268
0.718435
-0.845759
1.037637
0.448678
0.805567
-0.637031
-0.958612
-1.240392
0.798037
0.624581
-0.309248
-0.200639
0.022656
-0.366695
0.283265
-0.170948
0.025626
1.336698
1.102254
-0.810746
0.948078
-0.523653
-1.451577
-0.530544
0.659590
-0.843633
-0.666184
0.522166
0.336867
0.341120
0.894230
0.422010
-0.121297
0.639034
-0.752618
-0.213928
0.006560
0.521287
0.875261
0.672384
0.598934
-0.842380
0.525140
0.875721
0.986974
0.848802
-0.467801
0.718980
-0.183204
0.922816
0.357703
0.870811
0.558474
-0.052517
0.938589
-0.653408
0.254189
-0.227030
-0.390773
0.760012
-0.558897
0.222024
0.580422
0.135351
-0.372537
-1.029088
-0.693933
-0.833667
-0.164087
-0.659267
0.613628
0.811306
-0.304256
0.262115
-1.522719
0.582787
0.512600
-0.283313
0.747851
-0.874112
0.084532
-0.890313
-0.295982
-0.451652
-0.460970
-1.315442
0.521168
-0.044922
0.720169
-0.390496
0.385345
0.119848
-0.579629
0.173276
-0.764935
0.852694
0.036238
0.570732
0.933033
0.690262
-0.583748
1.366424
-0.955401
0.640752
0.659125
-1.001651
-0.425256
0.443092
-0.503534
1.450254
0.417202
0.133788
-0.770743
-0.546568
-0.776182
0.305333
-0.222446
-0.208573
0.067492
1.100472
-0.810223
0.883124
-0.400799
-0.011135
0.285280
-0.907688
-0.296846
-0.707952
-0.031351
0.349047
-1.148632
0.865650
0.953686
-0.905083
-0.563195
-0.986024
-0.165622
-1.176841
0.720084
0.779172
0.632318
0.395557
0.438952
0.045500
0.991786
-0.060931
-0.503182
0.171804
0.804097
-0.032111
-0.210466
-0.102000
-1.491534
-0.012350
0.514115
-0.874818
-0.809415
-0.132006
0.286345
-0.156310
0.146155
-0.421966
0.828714
-1.556123
0.887766
-0.464022
-0.976038
-0.680205
-0.474475
-0.238327
0.541796
-0.097907
0.495876
0.367185
1.189331
0.556273
0.649565
0.141703
0.398950
-0.242654
0.355739
0.288187
-0.311715
0.073624
0.111826
-0.620566
-0.838246
-0.705859
-0.799537
-0.089094
-0.595494
0.288151
-1.281703
0.735686
0.784979
-0.093416
0.912275
1.019655
-0.098308
-0.255422
0.343129
-0.495177
0.078059
-0.017931
-0.132885
0.905197
0.346614
-0.703039
0.076618
-1.891440
0.987066
0.612610
-0.083429
-0.322187
-0.578514
0.352655
0.047157
-0.410778
1.152799
0.670174
1.086579
0.032216
0.785421
0.317519
-0.202426
1.163087
0.890394
0.210589
0.708620
-0.576679
-0.211488
0.933165
-1.359502
0.301466
-0.895785
0.844249
0.125048
0.465841
0.365890
1.024064
0.286860
0.146125
0.011981
-0.384236
-0.997952
-0.340626
-0.017682
0.786769
0.036257
0.519503
0.334738
0.951221
-0.201246
0.304263
0.687466
-0.474222
-0.834287
-0.202282
0.143805
-0.685177
0.027065
0.065618
1.010089
-0.809906
0.011970
0.188055
-0.628616
-0.112636
0.227528
-0.149695
-0.686945
-0.691232
-0.103337
-0.354455
-0.125154
0.413089
0.216469
0.080682
-0.102397
-0.896295
0.571790
-0.870156
0.610130
0.407768
1.019116
-0.150868
0.923342
0.672936
0.348907
0.094770
-0.595776
1.091412
-0.574915
-0.490431
-0.534356
0.255970
-1.399668
0.752520
-0.610728
1.033842
-0.997463
0.661842
1.154452
1.022593
0.847915
0.930443
0.192501
-0.591267
0.439074
-0.783128
0.624139
1.041684
0.139518
1.178849
0.843737
0.543448
1.073747
-0.180308
0.127514
0.654844
-0.664620
1.161912
0.191411
-0.627609
-0.335682
-0.295383
0.449194
0.553607
0.754110
-0.069870
0.658598
0.431960
-0.683343
-0.184558
-0.349216
0.258814
-0.475685
0.957163
-0.547309
-0.653932
0.305965
-0.187199
0.966004
-0.856526
0.073374
-0.487996
-1.118004
0.203616
0.685778
-0.709125
0.546198
-0.115449
0.624196
0.229192
-0.769549
-0.353246
0.165748
0.040935
-0.209030
-0.390117
1.033177
-0.360569
-0.516541
-1.098638
-1.276175
-0.784783
0.725227
-0.526965
-0.034159
1.055329
0.272370
-0.551110
-0.810027
0.033363
-0.201530
-0.269118
-0.967965
0.142541
-0.902744
-0.173817
-0.855197
-0.404354
-0.510313
-0.589725
-0.504036
0.074471
-0.088525
-0.543917
-0.364543
-0.876961
-0.089919
-0.568640
0.437152
-0.046047
0.995510
-0.788261
1.140396
-0.382664
0.670558
0.865096
-0.902653
-0.393292
-0.276070
-0.173449
-0.584409
0.967185
-0.622922
-0.315506
0.447520
-0.126889
0.321720
-0.698271
-0.698193
0.569924
0.567199
-0.017736
-0.076097
0.610484
-1.106972
-0.982178
-0.132118
0.820404
0.363758
-0.489032
0.749155
1.026757
0.037459
-0.270683
0.321441
0.965705
1.009045
-0.779630
0.519842
-1.050926
1.071408
0.879164
0.399182
0.339630
0.613709
-1.078724
0.528725
0.830143
-1.305608
-0.163087
0.739353
-1.129012
-0.512892
-0.843405
-0.567682
0.595404
0.358894
0.109872
-0.985141
-0.024205
1.293692
0.400025
0.167766
0.070027
0.888740
-1.202423
-1.131813
-0.951069
0.335972
-0.544551
-0.886282
0.253136
0.178155
-0.646319
-0.720651
-0.730540
-0.827628
0.931246
-0.487667
0.769788
0.900136
0.084857
-1.031712
-0.291882
-0.321755
0.792667
0.246499
1.310308
-0.406292
1.473288
0.622735
-0.125989
-0.237000
-0.533191
0.127808
-1.163259
0.836500
-1.133525
0.602912
0.415437
-0.197008
1.121742
-0.194601
0.793474
-0.735561
0.019505
0.912977
0.281964
0.572305
0.702382
-1.532991
-0.047069
-0.023952
1.081702
-0.504130
-0.869423
0.880164
0.720352
0.479437
-0.488152
0.557312
-1.057518
-0.127732
0.396871
-1.115747
-0.359085
-0.615219
1.040085
0.713872
-0.875994
0.780432
0.006428
0.732682
-0.537199
-0.514530
-0.600850
-0.909469
0.602759
0.455547
0.627537
0.517103
-0.744408
0.571813
0.123047
0.362129
-0.285314
-0.504829
-0.374157
0.976650
-0.304841
-0.219609
0.786931
-1.185924
0.954961
-1.026632
-0.175142
-0.510855
-0.426368
0.519970
0.820572
-0.470932
0.366168
-0.061981
0.886426
-0.478870
1.139826
1.203826
-0.532223
-0.111388
0.087976
0.750139
-0.447822
-0.227184
-0.709185
0.292437
0.394649
-0.814663
0.145129
0.360850
-0.476172
0.324914
0.028322
0.051498
-1.304214
1.383108
0.747062
-0.608893
-0.440307
-0.350644
-0.960272
-0.898906
0.655973
0.634178
-0.045206
0.139090
-0.047160
1.193269
0.874097
-0.483967
0.632824
-0.341071
1.022000
0.547086
0.193196
-0.447439
-0.542604
-1.169302
-0.969691
-0.484866
-0.800299
0.553498
0.530583
0.816805
-0.909729
0.185927
-0.877462
-0.250484
-0.472305
-0.024233
1.050963
-0.486961
0.323166
-0.290132
0.832395
0.959175
-0.564082
0.007639
1.526254
0.896132
-0.845611
-0.055922
0.240833
0.386425
0.034675
0.590637
0.255373
0.641478
0.138367
0.059424
-0.956660
0.232139
-0.647743
0.737290
-0.232406
0.208841
0.492714
-1.018537
-0.000436
-1.330333
0.192272
0.805364
-1.085649
-0.471988
-1.502163
0.063743
0.415925
0.988052
-0.515622
1.173060
-0.564611
1.423719
-0.192479
0.849157
-0.185064
1.105513
0.933418
0.471129
0.480952
0.775593
0.543965
0.223432
-0.534911
-0.785930
0.564031
1.292746
0.091331
-0.136339
-0.447975
-0.304062
0.511940
0.156805
0.863714
-0.090791
0.539207
-1.117931
-0.596052
-0.036649
0.816413
-0.549965
-0.348880
-0.474196
-0.584035
0.385386
-0.502362
-0.331498
0.124454
-0.538569
-0.249546
0.081820
-1.323409
1.057459
-0.569479
0.410963
-0.708024
0.558361
-0.971587
-0.010736
-0.519005
0.074456
0.795330
0.929506
-0.442690
0.194703
0.645394
0.946544
-0.403260
-0.320536
-0.675518
-1.496019
-0.278338
0.159553
-0.096377
-0.363946
0.676325
-0.686169
-0.716170
-0.598311
-0.213579
0.853379
0.148757
0.428874
-0.826846
0.046359
-0.623859
-0.565118
-1.062542
-0.221919
0.443613
-0.502108
-0.642169
0.654808
0.023159
-0.832735
-1.228399
-0.902635
0.153397
-0.306884
0.874136
0.662522
1.111514
0.503708
-0.603799
-0.039211
0.093269
-0.390808
-0.337380
0.644541
-0.500276
-0.352226
-1.164232
-0.514962
0.626323
-0.705456
-1.046244
1.035725
-0.660283
0.193446
-0.453520
0.137938
-0.262999
0.742095
0.250322
0.785456
0.457709
0.299272
-0.045234
1.175446
0.895229
-0.379518
0.325619
0.053451
0.654384
0.747419
1.109656
0.456064
0.736695
-0.958400
1.047331
-0.084447
-0.412046
0.708409
-0.069400
0.607332
0.419195
-0.235950
-0.019597
0.529651
0.813503
-1.278174
-0.292069
-0.173041
-1.025238
-1.005652
1.066858
-0.816751
-0.604388
0.276113
-0.285555
1.654421
-0.940268
-0.778130
0.808937
-0.552338
-0.110469
-0.001670
0.484851
-1.062384
-1.281228
1.002807
1.798627
-0.245194
-0.774611
-0.404827
-1.505363
-0.959253
0.458266
0.720819
0.141129
-0.419669
0.348862
1.070730
-0.254229
0.662649
0.279040
1.138913
1.629732
0.946388
-0.179611
-0.856826
-1.320746
-1.201787
0.568625
-0.396606
-0.727193
-1.264964
-0.397440
-0.401711
-0.391094
0.230775
-0.723260
-0.747106
0.850528
0.681833
1.228564
-0.303447
-0.403077
-0.727600
-0.641611
0.484993
-0.744971
-0.245877
0.213895
0.634713
-0.285944
-0.150819
-0.423067
-0.731889
-0.112260
0.135948
-0.040118
-0.237067
-0.274469
1.036138
0.012605
0.159042
-0.717445
-1.146456
1.008128
0.159419
1.523690
0.068134
0.737542
-0.732589
0.711760
-0.175334
-0.654041
-0.563662
0.824231
0.032219
0.115052
-0.624492
-0.224043
0.438898
-0.945690
0.677029
-0.369833
0.113252
0.864898
-0.142372
-0.486460
1.249043
-1.271252
-0.653764
0.639646
0.929687
0.783165
-0.552153
1.089600
-0.443769
-0.406450
0.427529
0.288670
-0.941875
-0.520048
-0.169739
-1.055486
0.191316
-0.512917
0.495555
0.687922
-0.324335
0.365551
0.852640
-1.189003
0.258284
0.185749
-0.358917
-0.644198
0.028598
0.383876
-0.681023
-0.321491
-0.577317
0.083830
-1.011706
-0.459181
0.561472
-0.348110
0.634810
1.358795
-0.412169
-1.033564
-0.353690
0.375245
-0.721075
-0.634979
-0.855004
1.402629
0.595774
-0.427211
-0.262004
-0.764499
0.329550
-0.087839
-0.565025
0.044235
1.215604
-0.328121
1.085361
-1.597573
-0.760750
0.328978
0.671789
-0.875934
0.125362
-0.016525
0.722556
0.386858
0.212594
0.063716
0.713991
-0.263832
0.763350
-1.097413
-0.162908
0.126696
0.563224
0.305997
-0.951997
0.318882
-0.855578
-0.280911
0.162727
-0.242769
-0.862117
0.523198
-0.671827
-0.400977
-0.591511
-0.417553
-0.361590
0.687699
1.026631
-0.405619
0.465936
-0.657571
-0.670636
-0.215646
0.321919
-1.110891
-0.944448
-0.293792
-0.237493
-0.504107
-0.300284
-0.182025
-0.727235
-0.317655
-0.654500
-0.375850
-0.155204
-0.655222
0.405956
0.020707
-0.602787
0.340444
1.511086
-0.295709
0.372389
0.932754
-0.275147
0.459231
1.003790
0.254898
-0.883285
-0.920377
0.074353
-0.317369
0.700806
-0.477666
-1.167928
-0.141785
0.805462
-0.194161
-0.065885
-1.197193
0.948403
0.148159
-0.192214
-0.128006
1.058722
0.449680
1.709428
-0.354057
-0.127332
0.831747
1.103409
0.496577
1.115508
0.531629
1.059034
0.144268
-0.618188
1.039590
0.101148
1.095706
-0.803878
0.056307
0.993094
-0.334836
-1.178068
-1.664744
-1.070414
-0.341220
0.699299
-0.488160
0.095119
-0.047744
0.457296
0.904735
-0.139371
0.488741
0.932914
0.429410
-0.048228
-1.139568
0.774693
0.054855
0.141098
0.643943
-0.814453
0.662766
0.639263
-0.138508
0.271696
-0.627874
-1.211951
-1.480095
-1.121662
0.313433
0.117865
0.779483
-0.539309
1.321663
1.364801
-0.555899
-0.560412
-0.993534
0.317436
-0.361390
-0.979910
0.769886
0.600132
0.308773
0.825576
-1.047660
-0.980955
-0.758648
0.218482
-0.357561
0.740516
-0.707842
-0.873707
0.156624
-0.299476
-0.207215
0.003871
0.121274
0.783728
0.180061
0.697913
0.995701
-0.747520
-0.618255
-0.924171
0.666791
-0.476689
-1.086060
-0.000707
-0.773962
-0.182471
-0.341867
-0.289327
-0.333622
0.443617
-0.618565
0.817066
-0.892149
-0.849784
-0.335957
-0.123215
0.282696
-0.159067
-0.616466
1.131390
0.312574
0.868755
-0.295140
-0.947230
-0.930020
-0.334673
0.289348
0.934562
-0.123817
1.142096
0.168257
0.965993
-0.256550
-0.361095
0.577264
0.217533
-0.506953
1.071066
-0.279747
-0.027616
0.526044
-0.013524
0.614331
-0.642003
0.281687
-0.395471
0.301052
0.269528
0.135996
0.712568
0.131912
-0.843354
0.463704
0.972899
0.063580
-0.737997
-1.014542
0.341691
-0.176438
-1.218671
0.325287
-0.507390
0.523932
-0.208388
0.440071
-0.832850
-0.984331
0.309128
-0.783761
-0.692100
-0.967464
0.553427
0.798640
0.125954
0.067302
-0.408239
-0.272864
0.085031
-0.278757
-0.694631
0.704045
-0.546343
0.054700
1.329812
-0.774287
-1.163515
0.333706
-1.361632
0.024063
-0.544956
0.611225
0.967551
-1.540206
0.678604
-1.277439
-0.498030
0.395047
1.024742
-0.002305
-0.390205
-0.826060
-0.824703
-0.486574
-0.265486
-0.297619
0.411896
-0.154375
1.016058
-0.952681
-0.715174
-0.900105
0.740816
0.714815
-0.566119
-1.031523
0.293261
0.129108
0.136000
0.178998
-0.434278
-0.578868
-0.311690
0.188534
-0.453804
-0.997674
-2.494055
-0.912399
-0.749154
-2.873848
-0.571174
-0.937644
-3.337670
-0.066730
2.430476
0.687503
1.616029
-1.578629
1.242419
-3.304337
-2.783068
-4.028588
0.523433
-2.013225
2.239105
-4.187666
-5.347725
-2.839705
-0.459684
0.532875
0.858531
-2.590810
1.583927
0.632794
-0.570361
-1.251838
1.484502
-2.153844
-3.391892
-0.390628
2.018654
-2.020096
3.284031
-1.875966
1.489253
-1.966556
0.937096
0.392041
-2.253666
-3.557938
-1.403883
0.373669
0.052196
1.010859
-2.275228
-0.969822
1.016212
2.308133
3.467928
1.501324
-1.491091
-2.683757
-0.302137
-1.930003
-1.870760
2.734629
2.786140
-0.962187
-2.692431
2.810011
-2.532273
-2.011059
-1.860200
-0.520963
-0.100239
-2.127218
-1.379655
0.008266
1.823126
1.281381
3.310884
-2.216135
-1.851657
-1.816452
-1.757151
-2.805340
0.869902
-0.728957
3.033814
2.685925
-1.694096
3.212772
-1.768953
-0.549286
-0.341790
-0.341013
0.724297
-1.591916
-0.108592
-1.190810
-0.015478
-0.673956
-2.500666
4.689011
-1.568188
1.797967
-1.177549
-4.041354
-1.196512
0.587376
1.120018
0.923364
0.466528
-2.123881
-1.687104
-0.239512
2.471968
2.773705
-2.363120
-1.038796
-2.351986
-1.867986
3.577978
-1.806594
-2.497763
-2.819717
1.182242
-1.198119
1.895689
-3.226983
1.950272
0.574459
-0.992309
-3.932331
-2.425515
-1.660679
-2.735655
1.002196
1.721350
1.300824
-2.149144
-3.960652
2.379490
1.123181
2.753536
0.863859
-2.971291
1.048955
-3.383838
1.506126
-2.029898
0.132892
-2.148690
-2.722984
0.084723
1.417664
-4.010151
0.012939
0.666103
0.750006
-2.207951
2.313243
-2.023329
-2.396327
-1.414517
5.176348
-1.993699
-2.081235
-1.729526
-2.085928
0.664091
-2.290920
2.009833
-0.003854
-0.406694
-1.052323
3.323328
-0.660111
-1.661134
3.501714
-1.296488
-1.132647
-2.037235
2.340561
1.406707
-1.680763
1.213084
-3.906014
0.944780
-1.324609
-2.048245
-0.214479
-1.129508
-0.737164
-1.595453
-2.072403
-0.645642
1.754385
-2.109648
-1.803552
0.874978
1.074059
-1.959239
-0.125295
-0.351800
-0.776819
-1.952398
1.041671
-1.580853
0.062291
1.133136
1.121895
1.887248
-1.417761
-1.918614
-1.103534
-2.290310
-0.449040
-3.555185
-0.315236
-1.744313
2.263782
4.088848
1.462390
0.210311
-1.021018
0.211980
0.611999
-3.753749
1.220138
2.146846
-1.814754
-3.605231
-0.138842
-4.442661
1.485869
0.571719
-1.898006
-1.898536
-0.995453
-4.059735
0.972198
1.667680
0.509884
-3.146868
0.080599
-0.027689
0.793674
1.955190
-3.073222
1.254727
-0.404755
-3.546295
1.412201
-1.274706
-1.609056
-1.697270
-0.565294
-0.962918
-2.554637
-0.776287
-0.683232
-1.692858
-2.182188
