0.7 197 21 10 
0.127975
0.007382
-0.002017
1.819130
0.103316
-0.010501
0.795294
-0.826414
-0.478903
0.621780
-0.368260
1.137588
-1.178650
0.406926
-1.190788
0.980175
0.943101
0.364595
1.922596
-0.110481
-0.592922
-0.322633
-0.481682
-0.638868
-0.793688
0.000647
0.760520
0.928995
-1.207571
0.237132
-0.359956
0.288969
0.817183
0.259651
-0.920731
-0.095702
-0.658106
0.547556
-1.178716
1.189441
1.688985
0.966085
-0.863989
-0.265722
0.528155
-0.380893
-0.162258
0.511836
-0.499721
-0.761090
0.418767
-0.840261
-0.125504
1.030725
0.023641
0.664476
-0.343884
-0.301054
0.213326
-0.483242
-0.374447
-0.190717
-0.161073
-0.506620
-0.009277
0.249152
-1.070850
-0.526346
0.717521
-0.592288
0.684704
-0.321447
-0.731603
0.181811
1.051308
-0.091845
-0.324156
0.658630
0.476703
0.540099
-0.566283
-0.338720
-0.169478
-0.757123
-0.344993
-0.174759
0.012739
-0.958738
-0.916487
0.352065
-0.315475
0.067680
-1.117965
-0.213428
-0.453852
0.011105
0.666547
0.031222
-0.192981
-0.136277
-0.093317
0.672324
0.143463
0.874761
0.399770
-0.630448
-0.015646
-0.026635
-0.014988
-0.634747
0.635682
0.048687
-1.583988
-1.489640
-0.412212
1.732616
-0.110120
0.931085
-0.120965
-0.457681
0.036810
0.898915
-0.799120
-0.726790
1.618226
-0.739874
-0.488885
0.323691
0.601446
-0.207849
0.693682
0.608078
0.251058
-0.726009
0.824339
-1.268367
0.420812
0.058265
1.797101
0.954953
0.349874
0.832554
0.539852
-0.773328
-1.495804
0.612418
-0.514112
-0.495418
-0.754180
-0.582252
-0.529339
-0.554797
-0.081332
-0.723904
-0.851529
0.699693
-0.908682
0.363195
0.495270
1.528839
-0.475399
1.031798
0.006464
-0.506758
0.254390
-1.175102
0.762276
0.318594
-0.537485
-0.168218
-0.419276
0.300406
1.105076
-0.035891
-0.105469
-0.406736
0.357167
-1.453192
1.115154
1.095471
1.014041
-0.234053
-0.532572
0.331197
0.037231
-0.686810
0.084083
-0.569461
0.181386
0.124832
1.044651
0.453927
-0.108746
-0.166057
0.895974
-0.261653
-1.026443
-0.937645
0.253269
0.886323
0.147141
-0.309481
-0.346883
-0.575526
0.531783
-0.710866
-0.310356
-0.449967
0.488037
0.362717
-1.116297
0.037913
0.168224
0.296672
-0.103086
0.662004
0.054880
-0.472004
-0.845536
0.155757
0.499947
-0.178421
0.559440
-1.530376
0.278350
0.300546
-0.012831
0.336748
0.021284
-0.027023
0.149466
1.004249
-1.150452
0.797652
-1.048256
-0.579789
1.865888
-1.128337
-1.212279
0.401088
1.018621
-0.144243
0.223599
0.562739
-1.913024
-0.309644
-1.406589
0.375425
0.328136
0.991003
-0.537796
0.986368
0.524363
-0.166891
0.343598
-1.750559
-0.502759
1.197755
-1.446779
0.694089
0.450837
1.133489
0.045711
0.083104
0.684270
-0.209469
0.354184
-0.486246
0.590965
0.964760
0.621932
-0.534782
-0.345068
0.511206
0.407254
1.129551
-0.511665
0.300017
-0.701123
1.365332
1.020511
-0.207216
-0.677252
-0.043533
-1.702677
-1.167066
-0.281823
0.287977
-0.511359
-0.577396
-0.046217
1.232524
0.196589
-0.148968
-0.164151
-0.945493
1.391318
0.153153
1.368955
-0.572718
-0.119920
0.589401
0.856280
0.202322
-0.793698
0.600586
-1.768264
-0.479044
-0.527555
0.785528
0.741936
1.304487
0.054016
-1.443346
-0.187415
0.645701
-0.602612
1.607492
-0.774455
0.520406
1.019539
0.633022
-0.929882
-0.876347
0.881361
-0.290551
0.748146
0.066334
-1.178975
-0.262740
1.011011
-0.306436
-0.049085
0.775039
0.993602
-0.849529
-0.624664
0.612482
-0.165756
0.576940
-0.122499
-0.703636
-0.251910
0.006739
0.249302
-0.589923
-0.092999
-0.082631
-0.127513
-0.441773
0.541134
0.315562
0.635375
0.347016
0.888403
-0.794343
0.338568
-0.533721
-0.722829
0.115488
-0.010678
0.867987
-0.036404
-0.699904
-0.093067
-0.431867
-0.336570
0.627203
-0.776187
0.337935
-0.025147
-1.641001
-0.956602
-0.030689
-0.042551
0.474006
0.499807
-0.471458
0.975184
0.662550
0.583943
-1.341012
0.702006
0.084351
0.253231
-0.942426
1.366719
0.162426
0.616669
0.363593
1.408448
-0.211814
-0.623234
-0.591104
-0.315329
-1.016187
-0.389673
0.078036
0.712546
-0.368747
0.302826
-0.302200
-0.725020
0.301483
0.196123
0.319669
-0.414558
0.734755
-0.783193
0.501321
-0.494295
-0.157426
0.249728
-1.001706
-1.057089
-0.356791
0.509754
-0.508006
-0.292431
0.133423
-1.475140
0.020264
-1.192356
1.114296
-0.975842
0.220755
0.477349
0.955312
-0.600571
-0.456319
-0.651823
-0.709022
0.731153
0.404477
-1.240939
0.363889
-0.984349
0.453022
0.088015
-0.306623
-0.955678
-0.853194
0.505484
-0.335614
0.084700
0.289816
0.209207
1.787427
0.463756
0.403003
0.446404
0.535887
0.180554
-0.318049
0.592804
-0.932573
1.372347
-0.369611
-0.804671
-0.591937
0.467977
-0.468130
-0.293256
-0.417092
-0.993255
-0.529635
0.716084
-1.047636
0.155039
0.423158
0.397066
-0.393200
-0.667109
-0.263722
-0.449572
-0.205971
-0.946991
-0.366707
-0.299398
0.163400
1.187103
-0.934510
0.917221
-0.184900
0.038599
0.393935
-0.272985
-0.699973
-0.141538
0.853996
-0.258819
-0.743653
0.085695
0.885555
0.269474
-0.461666
0.602437
0.421880
0.532239
-0.700017
-0.761701
-0.052592
0.663141
-0.947683
-0.473770
-0.466861
-0.313963
0.353257
-0.562287
0.178291
0.149959
0.422876
-1.235733
0.689265
-0.660987
-0.264224
0.358165
0.547028
0.333895
-0.331388
0.641561
0.008823
0.142325
-1.227643
-0.078753
0.410161
0.222254
0.718437
-1.215893
0.741140
0.955803
-0.148525
-0.462358
1.032893
-0.277103
0.734603
-1.174718
0.070602
-0.133685
0.665160
-0.843352
-0.218539
0.160581
0.487377
-0.976590
0.097938
-0.079043
-0.235604
1.583453
0.742391
0.015543
0.084209
-0.773710
-0.001416
-0.198614
-0.605850
0.820660
-0.760861
0.735252
0.866328
-0.382411
-0.310663
-0.157677
0.097156
-0.384638
0.592177
0.892185
-1.270330
0.646419
0.069019
-0.229383
-0.647019
-0.363400
1.279657
1.707481
-0.742495
-0.427363
0.506953
0.369189
-0.324282
-0.277757
0.389008
-0.032937
-0.030439
-0.700641
-0.618478
-0.161939
-0.826426
-0.632138
0.032274
0.964027
-0.114981
-1.094466
0.894565
-0.799407
-0.710148
0.562922
0.529701
-0.127832
0.016214
0.103828
-0.458841
0.233693
0.894308
0.531132
2.138219
0.038335
0.137041
-0.529997
-0.014968
0.930234
0.310182
-0.561842
-0.517521
-0.174445
0.599690
-1.063178
0.395125
0.588789
-0.496824
1.351645
-1.490326
-1.466907
-0.011456
-0.244078
-1.612314
-1.015794
0.868795
0.789962
-0.811273
0.120595
0.909084
0.711706
-0.042726
1.127605
1.076272
-0.513139
0.013547
-0.494583
-0.065361
-0.491171
-0.004402
-0.318265
-0.737125
-0.674522
-1.274226
-0.223831
-1.267089
0.187883
0.768506
0.444091
-0.459785
-0.336552
0.479112
0.167270
-0.062610
1.148994
0.005957
-0.907657
0.682695
0.118135
0.072991
0.646702
0.674745
-0.270451
0.134268
-0.274383
-0.418850
-0.613668
0.160575
-0.245719
-0.801656
-0.730871
-0.521639
1.160730
-0.337740
-0.364790
0.216487
-0.284309
0.853522
0.921905
-0.047411
0.730504
0.851415
-0.175873
-0.207596
0.621479
-0.495992
0.127641
0.653713
0.891043
-0.108780
-0.541872
-0.860733
-0.242281
0.159855
1.162217
0.561430
-0.068437
0.963648
0.791053
0.282092
-0.672242
-0.310701
0.648099
-0.279197
0.270928
-1.262941
0.650177
-0.643434
-0.886495
-1.174210
-0.173406
-0.428634
-0.283831
0.384197
0.434547
-0.109245
0.342760
0.477845
-0.143420
0.356636
-1.273145
-0.373928
-0.742663
-0.319707
0.665715
0.634376
0.416772
0.473970
0.128040
0.506077
-0.085516
0.122515
-0.470882
-0.591869
-0.134815
1.027553
0.199923
0.222782
0.488249
-0.412531
0.071548
-0.564759
0.270564
0.078021
-0.914123
0.585055
1.184239
0.589051
0.114711
0.072779
-0.202791
0.445246
0.587128
0.862403
-1.010361
-0.044852
-1.108259
-0.621241
-0.862238
0.117455
0.481449
0.632190
-0.386516
-0.484866
-0.002072
-0.174899
-0.347473
0.167469
0.208491
0.419713
-0.775287
-0.158800
-0.134862
0.638187
0.050027
0.057868
-0.550336
0.138713
0.499521
0.107557
0.055368
-1.414582
-0.256729
0.513236
0.125434
-0.249536
-0.666753
-1.110707
0.873224
0.146034
1.207566
0.790166
0.045513
-0.866137
0.131682
0.914163
-0.787820
-0.366005
-0.794680
1.626174
-0.104520
-0.937499
0.742855
-0.367781
0.742517
0.541952
0.960086
-0.592829
0.259559
0.631566
0.468391
-0.211939
-0.182959
-0.595572
-1.166723
-0.546391
-0.418654
-0.465644
-1.046080
0.718884
-0.015442
1.118073
-0.218399
-0.494415
0.467305
-1.139176
-1.214977
1.372809
0.387606
0.413197
0.834019
-0.095706
-0.822271
-1.275064
0.806373
-0.528676
0.425779
0.228529
0.345333
0.349921
-0.174173
-0.785463
1.070846
0.067422
-0.248160
-1.232759
0.989480
-0.067185
-0.358349
-0.636128
0.396329
0.052607
-0.849500
-0.612683
-0.294872
-1.549614
-0.353335
0.398834
0.912972
0.009641
0.821438
1.068818
-0.335190
-0.739596
-0.186336
0.283750
-0.598255
-0.757859
0.474513
1.898307
0.578872
0.253020
-0.944554
0.321268
0.208766
0.216649
-0.493566
0.796084
0.584274
0.984576
-0.176217
0.071717
0.876628
0.804115
0.824076
-1.221422
-1.042542
0.650402
-0.914382
0.381755
-1.173827
0.938653
0.129530
0.121152
-1.273625
0.410702
1.130156
1.196939
0.353356
0.079983
0.244415
-0.819876
1.211722
0.374127
0.489045
-0.018267
0.615245
-0.945167
0.015511
-0.126012
0.962878
-0.091056
0.540222
0.330241
-0.511763
-0.227240
0.499579
-0.530607
-0.047793
-0.105335
0.343741
-0.394003
0.012625
0.152324
1.077688
0.130997
0.453521
0.914062
1.356699
-0.202670
0.517219
0.638584
-0.619900
0.332995
-0.128856
-0.204945
-0.277854
-0.706424
-0.897124
-0.694836
0.325842
1.150279
-0.429845
-0.282522
-0.265073
0.060834
0.046222
0.041897
-0.198047
1.480562
-0.933179
-1.038817
-0.414343
0.184191
0.642564
0.374138
-0.358298
0.401958
1.886614
0.546394
0.503503
-0.266029
-1.051677
-0.876993
-0.562273
-0.406506
-0.160704
0.060833
0.376473
0.030571
-0.304072
0.425201
0.832952
0.010097
0.418578
0.879039
-0.108973
0.891313
-0.730002
-0.132058
0.028838
-0.494976
-0.016761
-0.442599
-0.319161
-0.965903
0.734360
-0.324436
0.658529
-0.400822
0.369630
0.457343
0.457258
-1.104043
-0.521753
0.767712
-0.437682
0.710642
0.337696
-0.142525
0.801376
-1.155734
0.255454
-0.880384
0.369838
0.150955
-0.149907
-0.491644
-0.370868
0.281059
0.257923
0.730607
1.137180
0.391466
-1.513008
0.171691
0.374946
0.295046
-0.274020
0.094103
0.318907
1.384320
-0.317322
0.335430
-0.643310
0.756713
-0.155854
-1.574638
-0.669616
-0.791686
0.634202
-1.004188
1.220319
-0.534148
0.140699
-0.665072
-0.704974
-0.167520
0.255381
0.308901
0.898538
0.152114
0.307135
-0.211015
0.385193
0.455116
1.451746
0.816707
-0.076917
0.141266
-0.232438
0.629076
-0.149309
-0.428319
0.899060
0.782406
-0.883622
-1.419842
0.729747
0.654967
0.068839
1.219022
-0.149260
1.075838
-0.617290
0.795239
0.206007
0.564290
0.986881
-0.526200
0.604342
-0.620572
0.051942
0.881512
0.843095
1.318430
0.879609
-0.001032
0.190398
0.171660
-0.037378
0.844503
0.980337
0.096418
-0.435582
-0.752317
-0.464301
0.048047
-0.033830
-0.116891
0.419487
-1.372215
1.023121
0.003233
0.814341
0.149419
0.316007
0.260240
0.158124
-0.545277
0.352999
-0.169949
-0.526202
0.243702
-0.556225
-0.277435
-0.950726
0.527820
-0.400361
0.135373
0.868808
0.051227
0.038579
0.376672
-0.818766
0.527594
0.163041
-0.497043
-0.065624
-0.387445
-0.506520
0.480451
0.078357
0.560816
1.053149
-0.466330
-1.053659
-0.539341
-0.834012
-0.130404
1.033195
0.410957
-0.058533
1.205894
0.639541
-0.701258
0.586094
-0.454597
-0.522229
1.274628
-0.350409
-0.691826
0.548971
-1.487042
-0.663348
0.162261
-0.342226
-0.655177
-0.576492
-1.307375
-0.434091
-0.854808
0.656894
-0.985664
0.554184
-0.406077
-1.137527
-1.039132
0.626144
-0.255997
0.025634
0.733502
-0.164318
0.027385
0.572675
-0.504648
-0.847633
0.422117
-0.453009
0.094810
0.676309
-0.478342
0.253213
0.098257
-0.542802
0.899520
1.026687
0.024867
-0.524125
-0.736379
-1.577357
-0.942647
0.234197
-0.497408
0.761737
-0.602299
-0.348316
0.432630
-0.194868
-0.952237
0.624370
-0.266776
-0.799967
-0.172528
0.845054
-0.562612
-0.647127
-0.047749
0.139274
-0.063111
-0.208309
-1.373281
0.229364
0.506332
-1.285482
0.129030
0.515455
-0.159229
0.175172
-0.013183
-1.022807
-0.342144
-0.680196
-1.204282
-0.296652
-0.229912
-0.728503
0.276509
1.091448
0.342213
-0.682746
0.573910
0.628608
0.171710
-0.327830
-0.674277
0.073389
0.366674
-0.150356
-0.504008
0.282377
0.131924
0.178399
-0.824197
-0.196677
-0.116239
-0.480463
-0.186970
-0.039406
0.421674
-0.757949
0.574894
-0.530683
0.921489
-1.269068
-0.603626
0.858324
-0.642985
-0.414310
-0.418634
0.065968
0.876403
0.216290
-0.793818
-0.905577
0.877120
0.324966
0.962863
-0.558855
0.443807
-0.758886
-0.178720
-0.128836
0.776620
0.990287
0.055339
0.019378
-0.328309
-0.236138
0.360109
1.121674
0.857560
-0.755675
0.204400
0.377551
-0.243999
0.077845
0.596404
-0.524446
-0.564006
-0.054507
-0.084538
-0.281708
-0.351304
-0.645594
0.083974
1.012133
-0.688588
0.254306
-0.979736
-0.472076
-1.392069
0.620062
-0.225603
0.356690
-0.185327
0.009209
0.092627
0.310313
0.038789
0.186781
0.276921
-1.036016
0.283365
0.452973
0.159603
1.288842
0.355173
-0.919255
-1.367198
-1.209689
0.668233
0.472102
0.622451
-0.018662
1.011542
0.111061
-0.497419
0.147287
-0.527695
0.109333
-1.556069
-1.197764
-0.306986
-1.071279
0.102150
-0.348592
0.058021
-0.149123
0.266514
0.486347
-0.750901
0.391867
0.296887
1.460347
-1.339555
0.285801
-0.136624
0.405033
0.733474
0.357361
0.446025
-1.585287
-1.166092
-0.246332
-0.771054
0.316613
0.826196
-0.850478
0.478866
-0.476384
-0.308850
0.057165
-0.383089
0.016013
0.950128
-0.414987
0.726157
0.186255
0.106678
0.129318
-0.167642
0.835765
-0.727443
-1.179445
-1.404940
0.381375
0.024573
0.262637
-0.163649
1.282845
0.655371
0.828599
0.310950
0.167224
-0.899167
0.373374
0.002116
0.756562
0.505367
-0.023915
-0.221751
0.826160
-0.445445
-0.972588
-0.301454
0.949216
-0.219356
-0.229561
-1.103789
-0.161948
0.682422
-0.430488
-0.553066
-0.315653
-1.357550
-0.972705
-0.335723
-1.256306
0.284797
0.543033
-0.838452
0.058061
-0.343382
-0.959500
-0.953369
-0.747542
1.321452
1.472227
0.979961
-0.178349
0.381006
0.101360
0.198473
-1.755830
0.529113
-0.361298
0.058341
1.286716
-1.529326
1.223588
-0.665762
-0.333680
-0.244669
-0.608969
-0.324210
-1.247436
-0.233715
-0.050268
-0.178597
1.493165
-0.460451
0.314592
-0.005619
0.820726
-0.738280
-0.701876
-0.576398
-0.854222
0.202500
0.175616
-1.219324
-0.515344
0.595626
0.673530
-0.600027
0.323459
-0.861243
0.392863
-1.334125
-0.741828
-1.136862
0.421366
-1.364008
0.798357
0.524025
-0.631984
1.063514
0.232546
-0.784381
-0.978139
1.982537
0.684335
-0.256845
-0.012170
-0.633322
-0.246958
-0.575011
0.989492
-0.657040
0.925630
-0.718917
-0.429012
-0.000138
-1.199906
1.032311
-0.276885
-0.009349
0.352775
0.744459
-0.733036
-0.787709
1.825350
-0.577580
0.141360
0.402457
-0.161102
0.145768
0.616043
0.414804
0.726779
-0.110005
-0.090360
-0.395182
1.161535
-1.002217
0.972754
0.008634
0.103054
0.142038
0.403407
0.014028
-0.286805
-0.099094
0.186510
0.203109
1.427315
-0.224960
-0.905218
0.300945
0.597446
1.408303
0.781985
0.473668
-0.601102
0.025790
-0.929130
-0.390368
-0.269552
-0.722291
0.488189
0.862975
0.259172
0.320782
0.767330
-0.409801
0.968588
-0.173072
-0.183462
-0.976364
-0.723853
0.527010
-0.418239
-0.043366
0.537544
-0.440271
0.037440
0.008175
0.156008
0.074939
-0.121199
-0.111424
-0.101287
-0.562143
0.054951
0.542879
1.034460
0.008626
-0.108760
0.125232
0.019342
-0.690896
-0.698898
-0.640612
0.951521
1.277105
0.364569
0.241099
-1.084100
-0.652991
0.870621
-0.333578
-0.346120
0.773363
0.638465
-0.300543
0.861907
0.344414
-0.228284
-0.781307
-0.502181
0.508587
0.633581
-0.743305
-1.460119
0.832778
0.768237
1.604431
0.078578
0.068372
-0.060065
0.179322
0.821747
-0.494394
-0.083641
-0.108925
1.142337
0.312622
-0.419190
-0.348110
-0.035178
1.026618
-0.422399
-0.503963
-0.522362
-0.094112
0.445052
1.057615
-0.556653
1.147951
0.568768
0.152557
0.170288
0.790590
0.643895
1.307784
0.336168
-0.584699
1.840555
1.210888
-0.229070
-0.805437
0.099356
0.776697
0.855587
0.612465
0.482614
0.822567
0.316587
0.978670
1.262759
0.817686
0.711659
-0.496192
-0.895620
-0.337746
0.587846
-0.121833
1.297218
-0.343033
0.252269
-0.664393
-0.539093
-0.751972
1.398032
-0.470379
-0.747546
0.024626
0.302378
0.152893
-0.104019
0.020460
-1.033338
-0.079148
-0.996727
0.384135
0.067483
0.740751
-0.088050
0.150695
-1.274769
-0.696483
-0.496748
-0.298584
-0.713841
-0.479726
-0.859578
0.265558
-0.666073
1.014122
0.697531
-0.146254
0.345038
-0.714294
0.975332
0.996960
0.401789
-0.179636
-1.264010
0.034123
0.379151
-0.071119
-0.542297
0.252744
0.137334
-0.376981
0.146708
-0.133488
-0.596609
0.679962
0.470338
0.066319
0.173319
-0.368845
-0.591124
1.140970
-1.251008
-0.288243
-1.045276
-1.245340
-0.345630
0.064439
-0.298518
0.057012
0.649292
-0.934058
-0.156852
-0.597670
0.870829
1.104915
0.357797
0.032775
0.983152
-0.265730
0.105462
0.216377
0.696200
-0.100586
0.409506
-0.466318
-0.109946
-1.061164
0.968013
0.271302
-0.683396
0.046738
-0.817392
-0.357964
0.139106
-0.206323
-0.822320
-1.092145
-2.092909
0.403428
0.891825
0.992278
0.488486
-0.502052
0.625666
0.562378
0.023602
-0.492088
0.000315
0.215152
0.346179
-0.904902
-0.837954
0.692958
-1.049107
0.572835
-0.256101
-0.954846
0.066884
-1.279355
-0.509943
-1.305856
-0.616398
0.360881
-0.141130
0.428063
-0.025749
0.690217
1.311844
-1.309479
-0.194245
1.421790
0.757237
0.767632
0.555766
-1.036967
-0.730314
0.692531
0.497364
-0.159952
-0.210379
-0.149416
0.887233
-0.440447
-1.659602
0.769348
0.807833
-0.092492
1.058504
0.335659
-0.852843
0.249471
0.528446
-0.504670
-0.334796
0.031276
1.330466
-0.381693
-0.654006
-0.909390
0.195328
0.138393
-0.443377
0.726443
-0.535809
-0.861772
0.286097
0.037799
-0.384228
-0.532494
0.412296
0.027382
0.146318
-0.361106
-0.395407
-0.546490
0.443064
1.130416
-0.816427
-0.487760
0.357062
0.580657
-0.261945
0.454402
0.129712
-0.756505
-0.314767
0.352808
0.228963
1.106037
0.640198
0.791047
0.488595
0.358774
0.706398
0.552342
-0.205970
1.004256
-0.372195
-1.299049
0.998999
0.114933
-0.492225
-0.112630
0.301191
-0.265402
-0.535788
-0.880864
0.849080
0.158685
0.291606
0.833590
0.321647
-0.935233
0.344476
0.227733
0.504031
0.014073
-0.193732
0.163994
0.651886
-0.305890
-0.250262
-1.097064
0.007326
0.540031
0.513299
-0.889434
0.643115
0.168081
0.492924
0.009189
0.435896
1.331975
-0.502222
-1.154727
1.020553
1.459348
-0.293290
0.032131
0.627390
0.479162
0.836291
-0.558986
-0.366378
0.205539
-1.074727
0.402307
0.081135
0.872113
0.039663
-0.446654
-0.565935
0.076597
-0.022218
-1.037051
0.389567
0.371408
0.757919
-0.276213
-0.651599
0.886845
0.909799
-0.016095
0.561005
0.360897
-0.254226
-0.594022
-0.477461
0.684373
-0.180074
0.380614
-0.597191
-0.788338
0.166214
0.428446
-0.065052
-0.474320
-0.575200
-0.511179
-0.098453
-0.240704
-0.273615
0.466149
0.373840
-0.564215
-1.437750
0.569464
-0.237831
-0.346220
0.075718
0.505548
1.428016
0.639066
-0.195442
-0.647323
-0.314472
0.854605
1.166050
-0.497441
0.680214
0.399376
0.670151
-0.667912
0.518690
0.806937
0.222771
-1.043233
-0.444842
0.286201
-0.747755
1.022851
-0.697622
0.742380
0.375435
0.181648
0.609060
-1.046782
-1.228904
0.027496
0.192013
-0.030877
-0.791233
0.639691
1.363780
-0.538169
-0.244506
0.409899
-0.457120
0.163199
-0.240667
-1.189606
0.314246
-0.205930
0.027438
0.651917
1.325210
0.741503
-0.500261
-0.131448
0.210254
-0.348564
0.175318
-0.736284
-0.867591
-1.108548
0.725674
0.546669
-0.809582
0.082901
0.610775
1.278662
0.720143
-0.770942
0.595974
1.287385
-0.314697
-1.208881
0.480098
0.675569
-0.472446
0.463834
0.093826
1.761174
-0.695686
-0.254370
0.019280
0.065725
-0.665447
-0.835609
-0.778784
0.764538
-0.260391
1.209448
0.704279
0.756198
0.585193
-0.781399
-0.782856
-0.336814
-1.528852
-0.510929
-0.895489
-1.039373
-0.471769
0.334792
-0.442603
0.687348
-0.085923
-0.672708
0.191588
1.467651
-0.280652
0.565878
-0.735063
-0.134153
0.831494
-0.174994
0.616461
-0.460998
0.135653
0.011320
0.165548
0.018869
-0.571192
0.161041
0.210619
-0.949532
-0.742387
-0.097974
-0.699598
-0.982153
0.081997
-0.289395
0.001949
-1.409672
0.072865
-0.035458
0.726003
-0.611438
-0.847701
-0.594047
2.019283
-1.943739
-0.185129
0.118236
0.735127
1.139141
0.945254
-1.349896
-0.564916
-0.798377
1.386770
1.066858
-0.319204
-1.229417
0.228002
0.473458
-0.163650
0.258570
-0.548227
-0.759101
0.649795
0.267508
-0.647965
-0.385961
-0.114274
-0.278899
0.897076
-0.295004
0.139020
0.470283
-0.805341
0.190352
0.071459
0.307723
0.085020
-0.332760
-1.066454
-0.218426
-0.501320
-1.112950
-0.800634
-0.624455
-0.205165
-0.259404
0.586883
0.369721
0.373738
0.371246
0.476068
0.649270
0.092193
-0.783797
0.737825
0.028445
-0.109755
-0.555768
0.167338
0.049858
0.899997
0.758811
0.748494
-0.030769
-0.415377
0.629689
0.215016
-1.069593
-0.095985
0.437951
-0.229209
-0.978442
-0.768804
-0.815481
0.942548
-0.295653
-0.825469
-0.611810
-0.443852
0.070459
-0.424945
-1.230554
0.862154
0.824337
0.070135
0.940328
0.176973
-1.114232
0.484793
0.737659
0.321974
-0.350511
1.217082
-1.314316
0.712195
-0.824551
0.079217
-0.640149
-0.079929
-0.263279
-0.252664
-0.305061
0.238761
0.137567
-0.506706
-0.092260
1.214869
0.671915
-0.912055
-0.396368
-0.037756
1.993323
-1.442333
-0.005528
-1.254880
0.742462
-0.459969
-1.073991
-1.319841
-0.245003
0.116336
-0.552955
0.163968
-0.617288
0.678708
1.223794
-0.610353
-1.099679
-0.444527
0.622980
0.480136
1.089505
0.854892
-0.561136
0.619705
-0.548860
-0.685423
0.347050
-0.443844
-0.001271
-0.040092
1.083667
-0.183406
0.602900
-0.090733
0.489589
0.244826
-0.761491
-0.732591
0.708732
-0.934325
-0.063295
0.551603
0.604406
-1.165817
-0.026199
0.096921
1.944033
-0.095284
-0.732641
-0.755084
0.644988
0.334121
-0.651594
-0.532079
-0.213869
0.303636
0.272858
-0.040800
0.686521
-0.735357
-0.658525
-0.562503
-0.005445
-0.008155
0.969439
0.344739
1.459079
-1.030774
0.413952
0.151829
0.490552
0.237535
0.642370
-0.580236
0.453166
-0.232621
1.115692
-0.536589
-0.066301
-0.528078
0.499728
0.884467
-0.257295
0.197850
-0.346009
-0.923481
-0.191759
0.476971
-0.498684
0.269050
0.818461
-0.165092
0.542240
-0.483025
0.341341
-0.495095
0.218803
0.284002
0.387788
0.559242
-0.731714
-0.207048
0.452082
-0.208425
0.213464
1.221157
0.250588
-0.192029
-0.514385
0.194530
0.037516
0.714453
-0.755744
-0.259971
1.326138
-0.197737
-0.220292
1.118105
1.435395
-0.204036
0.210459
-0.150443
0.252155
-0.226794
0.819410
-0.381903
-0.614516
-0.825985
1.229980
-0.689622
-0.452057
0.549549
-0.193745
-1.192851
-0.686577
-1.143008
0.221147
0.453322
0.159747
1.102727
0.068775
0.076388
-0.047430
-1.411746
0.146803
-1.059419
0.291198
0.995598
0.268442
0.420374
0.686580
0.996824
-0.913231
0.797225
0.689757
0.567736
1.099121
0.385861
0.758934
1.755807
0.876774
-0.732086
-1.284197
-0.833970
0.955346
-0.396196
-0.199467
-0.504576
0.232433
0.327346
-1.199029
-0.800929
-0.322966
0.578592
-0.047577
0.463957
-0.026578
-0.580218
0.006443
-0.512461
0.412444
-0.735670
-0.337348
-0.441361
-0.358663
1.187861
-1.136180
-1.809679
1.541406
1.194726
0.808082
1.436455
0.903012
-0.557372
-0.674095
-0.005477
0.390791
-0.846116
-0.683155
0.916502
-0.975803
0.134530
0.182404
0.858134
-1.847307
-0.244576
-0.374119
-0.346301
0.596237
-1.155102
-1.048520
0.080405
-0.966930
-0.814192
-0.328795
0.179842
-0.216535
0.829098
-0.166064
-0.627084
0.175841
-0.074150
0.586687
-0.938021
0.484839
0.164547
0.308119
0.301406
1.362202
0.227676
1.692074
-1.204467
-0.082261
0.304188
0.866272
-0.642267
0.833788
0.110464
0.135394
0.081219
0.523250
0.448522
-0.901153
0.635067
0.598715
0.561165
-0.155229
0.300750
-0.066851
-0.526545
-0.714228
0.295306
-0.132851
0.889016
-0.324152
1.139171
-0.506995
-0.420019
-0.262563
-0.383821
0.121031
0.481211
-0.178190
-0.876567
-0.995170
-0.531118
-0.243502
0.740199
0.792545
-0.605497
0.359638
0.620025
0.016993
-0.048551
-0.188977
1.432403
-1.346968
0.639123
0.133476
-1.404826
-1.017583
0.331095
-0.590128
0.120807
0.413049
-0.059539
0.557641
1.431599
-0.349972
0.345287
0.819936
-1.434153
1.226098
-0.049916
0.338147
-0.720287
-0.175994
-0.387330
1.252425
0.384846
0.457723
-0.336976
1.092292
-0.433778
-0.184252
-0.180998
0.912077
-0.381147
-0.181647
0.067284
-0.396691
0.083855
-0.999755
-0.073861
1.282683
1.034805
-0.724759
0.810129
0.680973
0.691434
0.696699
0.837752
0.462205
0.289653
-0.706641
-0.597822
-1.248961
-1.418082
-0.087591
0.077096
-1.192924
0.571053
0.406077
0.250993
-0.528446
0.376891
-0.920066
0.267192
0.375990
-0.318222
0.759860
-0.354928
-0.661814
-1.836998
-0.502393
-0.959573
-0.439962
-0.674587
-0.646616
1.116103
0.283789
1.219764
-1.180016
-0.743173
-0.746139
-0.260948
1.916634
-1.199033
0.072199
0.895894
-0.023344
0.040659
0.698621
0.710562
0.335536
-0.470970
0.962347
-0.362529
-0.922298
0.052099
0.509360
0.259764
-0.159228
0.215436
1.667228
0.247731
0.177389
-0.235077
2.062514
-0.543246
0.661534
0.179971
-0.355167
-0.235806
0.058351
-0.191894
0.531825
-0.210638
0.437477
-0.379423
-1.034788
0.893596
0.627565
-0.274521
0.239238
0.775835
0.906685
-1.832840
0.968163
-0.340371
0.048239
0.721139
-0.642388
-0.338850
0.454482
0.494974
1.089977
0.097373
0.785231
-0.448554
-0.392159
0.607843
-0.619573
0.717807
-0.195392
0.657136
-1.059132
1.141668
-0.224875
0.488988
-0.498929
0.609520
-0.830144
0.713704
0.672582
-0.938871
1.022127
0.781719
1.404354
0.490202
0.706963
-1.305404
-0.044505
0.416008
0.657872
0.099456
0.872921
-0.106007
-0.345537
-0.100379
0.679197
0.089244
1.112155
0.452329
-0.795577
-1.161905
-0.524698
0.181828
-0.048226
0.971225
-0.067801
-0.198521
-0.769027
-0.160270
0.143480
0.340531
-0.663538
-0.056566
-0.155494
0.243621
-0.937181
0.045188
-0.652918
-0.870578
-0.184770
0.105683
-0.264139
0.620808
-0.872619
-0.996956
-0.305049
-0.974646
-1.588496
1.548426
0.244492
-0.498178
-0.554839
-0.592089
0.463576
0.820104
-1.336635
-0.732267
1.001583
0.141257
1.615927
0.594436
-0.485535
-0.733440
0.419535
1.763098
1.473228
-0.833986
-1.367280
-0.676292
-1.153659
0.276630
0.386415
-0.461959
-0.450018
1.408010
0.218158
0.792058
0.704826
-1.220576
-2.040840
0.489119
-0.920758
1.620571
-1.084709
-0.885796
1.343421
-0.568764
-0.098456
-0.365327
-0.307053
0.365426
0.164747
0.710216
-0.527073
0.614939
-0.346132
0.754008
-0.613270
-0.946463
-0.070221
-0.540035
0.459856
-0.753668
-0.376323
-1.893810
0.057359
-0.864183
-0.013818
-0.292933
0.961690
-1.110449
0.482119
0.388168
0.983781
0.050184
0.335855
0.753982
0.516828
-0.482788
-0.528412
-0.734870
0.077505
-0.447722
0.572071
0.229898
-0.099854
-0.963560
1.279596
0.429863
-0.281156
0.526438
1.000843
-0.168043
-0.228328
0.814081
-0.088273
-1.502688
-0.407946
0.359973
-0.079929
1.093285
-0.479057
1.594217
0.458074
1.067028
-0.874035
-1.778301
-0.348457
-0.526226
0.641239
-0.779086
-0.427776
-0.303592
0.127173
0.622236
1.094729
0.209626
-1.001219
-0.067185
1.222951
0.495340
-0.265201
0.563910
-0.084382
-0.240699
1.017940
-0.930725
-1.040521
0.324203
0.614137
-1.357946
0.468645
0.660065
0.928651
-0.638422
0.254494
-0.453420
0.575537
-0.185817
-0.130147
1.030047
0.595596
0.313840
-0.150861
0.320654
-0.409395
0.432349
-1.388520
-0.335642
-0.378113
-1.021405
-0.472486
-0.496747
1.207611
0.777806
-0.146326
-1.200779
0.200808
-0.578929
-1.218719
0.237397
0.748314
0.176410
0.954787
0.080723
-0.047508
-0.461106
0.362726
-0.185895
0.844905
0.628231
0.092842
-0.094038
-0.068016
0.867040
0.753438
0.575666
-0.266566
1.288973
-0.179713
-0.051979
-0.841007
-1.117157
-0.629073
1.773612
-0.650890
-0.293828
0.394652
0.097251
-0.191805
-0.512354
0.009057
-1.055253
-0.763890
-0.044948
0.061739
1.078539
-0.149042
1.363740
0.063545
-0.338893
0.055161
0.146724
0.574753
-1.660461
0.344192
0.751437
1.461929
-0.059245
-0.388647
-0.626542
0.876034
-0.779119
-0.230110
-0.730556
-0.591117
0.861150
-0.523771
0.617624
0.279518
0.335259
-0.495753
0.817551
-0.496014
0.565301
-0.069145
-0.481698
0.532046
0.154539
1.006221
0.870553
-1.076956
-0.947439
0.879077
1.041127
0.147872
-0.895339
0.732548
-0.769572
0.598695
-0.894978
0.751187
-0.958014
-0.009409
0.029695
0.022877
-0.032630
-1.357677
1.025317
1.196806
-0.240349
-0.216577
-1.466376
0.516275
-0.768039
-0.399231
-0.137808
0.927684
-0.038796
-1.125240
0.033422
0.302466
-0.040535
-0.852690
-0.691957
0.176449
-0.325334
-0.208611
-0.716240
0.199236
-0.502942
1.123264
0.359250
-0.122869
-0.247558
-0.515831
-0.481212
0.286284
-0.568594
-0.809227
-0.615017
-0.897395
0.568586
0.651433
-1.159416
0.142539
-0.030642
0.368796
-0.447475
-0.724280
0.636640
0.415131
0.725095
-0.196177
0.319479
-0.465437
0.778484
0.543519
1.857387
0.201790
1.198845
-0.449323
0.670308
0.583047
-1.110684
-0.125055
-1.659238
-0.278702
0.444033
-1.540561
-0.035925
-1.816466
1.132813
0.866928
0.680900
0.294209
-0.102951
0.572502
-0.119251
-0.160559
-0.517931
0.446908
1.256343
-1.279607
-0.346094
1.797029
1.522986
-0.329884
1.049938
-0.957462
-0.026438
0.230113
-1.076057
-0.889406
0.512019
-1.366356
0.427930
-0.964919
0.767424
0.145124
0.207137
-0.875818
0.220981
-0.549628
-1.076530
-1.143631
1.082273
-0.420259
-0.265810
-0.000332
0.435752
-1.702426
-0.188183
0.078356
-1.773985
-0.975611
-0.068289
-1.321361
-0.163072
0.853536
-0.200963
-0.241981
-0.569812
-0.287341
0.893039
0.013062
-0.222437
0.633240
0.396204
0.412729
0.467752
-1.312282
0.319676
-0.112535
-0.203143
-0.185802
-0.128664
0.528709
-1.048469
-0.078786
0.417799
-0.437493
-0.123074
-0.605701
-0.179111
0.009076
0.325798
1.020446
0.402200
-0.382995
-1.365203
0.084275
0.230099
-0.632947
-0.366039
-0.993220
0.704973
0.398669
0.010703
0.681571
0.601300
0.193003
-0.233430
0.405265
0.033780
-0.449595
-0.926773
0.539695
0.936354
0.804188
0.554743
-0.151367
0.330037
-0.515788
-0.566732
-0.383037
0.025080
0.661008
-0.181153
-0.013317
-0.001408
0.002030
-0.386375
1.392650
-0.945526
0.350111
0.090669
-0.153660
-0.086484
1.482169
0.238370
0.409085
1.796313
0.424820
-0.244169
1.128581
-0.289646
-0.060821
0.006299
0.269168
0.155348
-0.177902
-0.771343
0.829421
0.369483
-0.575114
-0.460371
-0.860931
-0.440229
0.576632
-0.238799
-0.137045
0.419671
-0.485354
-0.310430
-0.092407
0.054810
0.429149
0.824002
-1.144490
-0.203796
1.198436
1.206635
0.500739
-0.662112
0.393358
0.001998
-0.244687
0.403334
0.041490
-0.625075
-0.677703
0.699420
1.130254
1.453473
0.123544
1.018385
-0.140039
-0.288220
-0.407570
0.336260
-0.347004
1.339821
1.018794
-0.860087
0.750978
1.278901
-0.610954
0.128712
-0.697198
0.076564
-0.710892
-0.839681
0.493573
-1.125099
1.572335
0.162785
-0.873283
0.644257
-0.142895
1.760229
-1.190636
0.078001
-1.105931
0.205370
-0.294064
-0.043742
1.518444
1.077466
0.044717
-0.586924
-1.207988
-0.920671
-1.097255
1.578532
0.733693
0.270360
0.181452
1.106885
0.555731
-0.805353
0.592048
0.343185
0.123473
0.304569
-0.521398
-0.042783
0.607279
0.275597
-0.019885
-1.208660
0.014761
-0.824656
0.046615
-0.061766
1.092674
-0.523211
0.520646
-0.486222
-0.353713
0.210253
-0.967088
0.532315
-0.253649
0.447320
0.264102
-0.125936
0.802330
-0.144230
-0.435065
1.061728
0.775243
0.491435
0.627538
0.718020
1.192351
-0.873175
0.517503
-0.851380
-0.789756
0.300274
-0.159925
-0.532733
0.672807
0.072562
0.438014
-0.409636
0.215764
-1.599238
-0.804029
-0.503104
0.544095
0.584206
0.080002
-0.130318
-0.748854
0.578457
0.376331
-0.711207
-0.021600
-0.155310
0.075200
1.221382
-0.813969
-0.356632
-0.240107
0.845223
0.903936
-0.619292
-1.998057
-0.232798
0.714154
0.060279
0.534099
1.458428
-0.911442
1.207313
-0.362361
-0.238994
-0.491417
-1.153855
-1.454082
-0.087795
-0.001711
-2.020072
-0.607437
0.523502
1.580705
1.192270
1.226343
-0.265925
0.981845
1.319504
0.243248
-1.196224
0.274094
0.658821
0.502494
-0.214787
0.305479
0.964121
0.128628
0.660385
0.141738
-1.584982
-0.864935
0.285153
-0.982921
-0.306612
-0.435514
-0.329404
-0.595991
-0.589131
0.667927
0.489465
-1.814876
0.473505
0.178188
0.082241
-0.431196
1.261533
-0.145992
0.616692
1.409728
-0.367388
0.022004
0.157491
-0.097797
-1.100825
-0.486182
0.041925
0.746200
-0.686548
-0.620834
-0.170146
0.335227
-0.922810
0.156545
-0.891087
-0.803645
-0.573414
-0.091920
0.334180
-0.026211
-0.319440
-0.487332
0.701021
0.497803
0.594104
0.007296
1.026435
-1.120413
0.554986
-0.093184
0.335518
0.406024
-0.374328
-0.536235
1.080718
-0.077976
-0.544253
-0.198110
1.059009
-0.539377
0.613552
-0.194217
0.113301
1.021347
0.152489
0.482254
0.304221
-0.633286
0.234475
0.565203
-0.990583
0.041534
-0.145228
-0.327894
-1.473856
0.123613
-0.328873
0.339561
1.064840
0.020404
0.484972
-0.385461
0.166867
0.885455
0.967115
0.730378
0.488532
0.588220
-0.139718
0.741264
-0.478524
-0.388288
0.932036
1.356739
-0.908925
-0.456386
0.683534
0.366963
0.781886
0.251645
-1.010982
-0.786453
0.575790
-0.338369
0.465831
1.029170
-1.197537
1.498806
0.603410
-0.807787
0.620325
-0.748340
-0.465777
-0.676541
0.514696
-0.100535
-0.293372
0.452527
0.424273
0.138410
0.115452
0.708288
-0.387509
-0.786900
-0.103249
0.677724
0.801119
0.337508
1.161224
0.238216
-0.162827
1.103262
0.084904
-1.567271
-0.408277
-0.152055
-0.861003
-0.822166
-0.472873
0.746154
-0.220974
-0.121276
-0.307616
0.089418
0.486666
0.350183
-0.696983
0.677170
0.404063
-0.296371
0.654425
-0.610420
-0.399175
0.656016
-0.494096
0.851372
0.798994
-0.211551
-0.206634
-0.672590
-0.718756
0.320815
-1.189063
1.332971
-0.426507
-0.725189
0.651601
-0.242250
0.613328
0.305710
1.193699
1.006514
-0.100709
0.435046
0.589350
-0.628451
-0.631532
0.056363
1.355626
0.439908
0.447108
-1.105896
-0.400083
-0.829413
0.972961
-0.082363
-1.462346
-0.511470
-0.242344
0.330507
0.915394
-0.798130
1.160628
1.539059
-0.300582
-0.011992
-1.401649
0.997493
-0.001675
1.284405
0.074181
0.768615
0.570826
-0.943361
0.936354
0.740162
0.515624
-0.241380
0.548861
-0.772883
1.264681
-0.746928
-0.411986
0.115854
0.877757
-1.489898
-0.237121
0.048566
0.851848
-0.317468
0.524786
0.111343
-0.822608
-0.661381
-0.196762
0.579323
-0.255543
0.112465
-0.930025
-0.434499
0.481293
0.350531
-0.453508
-1.191633
0.229605
1.529346
0.026645
-0.013380
0.307269
0.497578
0.375736
0.252121
0.951350
1.266828
0.333769
0.263406
0.439856
-0.784194
0.114696
-0.390116
-0.794943
-0.782988
1.049480
-0.539212
1.062241
0.913419
1.078595
0.409815
0.763166
-1.307021
-0.648113
0.689750
1.062882
0.323708
1.305846
0.415511
1.224203
-0.511048
-0.731438
-1.543353
-2.154491
-0.908077
-1.231909
0.979906
-1.013933
-2.082000
-0.876900
0.657911
0.930259
0.738114
-0.288425
0.784117
0.518597
0.253726
-0.389658
-0.054105
-0.901079
-0.988061
1.337582
0.904238
0.315398
-2.052937
0.430030
0.510145
0.774783
0.889154
0.034291
0.058852
0.075353
-0.097363
0.594739
-0.136289
0.055094
-0.211060
1.489120
0.461369
-0.390911
0.735834
-0.426214
0.574733
0.443210
-0.528371
-0.058377
-0.282276
0.015871
-0.856765
-0.079180
-0.637236
-1.193380
0.553837
-0.598456
0.562783
-0.284457
0.392283
-0.545523
0.761561
0.784051
-0.329120
-0.052818
0.119283
-0.100718
-0.359027
0.461596
-1.325343
-0.000778
-0.211237
-0.694562
-0.441697
-1.293362
-0.561614
-0.596928
0.625303
1.131214
-0.102135
-0.814177
-0.881506
-0.592748
0.330850
-0.797786
0.043271
-1.299927
-1.071930
0.734012
0.611888
0.032938
0.603600
-0.934840
-0.264016
0.136653
-0.819736
0.702926
0.419046
0.226439
0.165480
1.188299
0.390422
0.606429
-1.044222
-0.434995
0.470607
0.517392
-0.041039
-0.905379
0.826157
-0.524750
0.113079
-1.223120
-0.847419
1.394780
-0.290156
-0.609016
-0.733288
0.337855
-0.859121
-0.168488
0.156241
0.078616
-0.183524
0.123435
0.694161
0.042916
-0.156633
-0.876938
1.291351
0.206853
-1.215413
0.423971
0.349495
0.138883
0.135752
-0.340214
-1.177309
0.217094
0.511585
-0.389448
0.579250
-0.219747
0.824778
0.860759
0.442328
0.287097
1.397427
0.911394
-0.238914
1.435507
0.538374
0.826686
-0.348420
0.742413
-1.565517
0.745079
-0.302786
-1.030586
0.463992
-0.452379
0.167970
0.140334
-1.342909
-0.351107
-0.169077
0.036471
0.711376
0.026092
0.364335
-0.841234
-0.354683
0.791669
0.384988
0.303494
0.427498
-1.113662
0.407864
0.683269
-0.683591
-0.645005
0.513164
-0.855142
-1.252058
0.820017
-0.934386
0.546035
0.511133
0.487404
0.328377
0.669750
0.068708
-0.041957
0.159434
0.198181
-0.868114
0.008946
-0.740232
0.516196
-0.484541
-1.331355
-0.632916
0.228556
-0.277159
-0.431230
-0.306600
0.285287
-0.080962
0.777421
-0.019962
-0.161171
-0.529194
-0.500170
1.435738
-0.419815
-1.140463
-0.725818
-0.494221
0.080064
1.101842
-0.679472
0.546970
0.522425
-0.197426
-0.241401
-0.330278
0.926263
0.396078
1.294944
-0.281443
0.403786
-0.535569
-0.312734
0.662201
1.419130
0.621562
0.030064
0.351112
0.115389
-1.275097
0.738672
0.425993
-0.460716
0.167021
0.714454
-1.080500
1.087351
0.124488
0.452457
0.606567
-0.198316
0.658689
-0.207813
0.742225
-0.040681
-0.688298
-1.047062
-1.178478
-0.219113
0.975846
-1.032677
0.616751
0.711683
-0.192802
0.045608
0.410358
0.017598
-0.226625
-0.112770
0.674639
0.607200
-0.433833
0.805404
0.119801
-0.861160
0.232067
0.965288
0.070473
-0.163933
-0.517384
-0.900000
-1.137528
-0.015574
0.377733
-0.923009
0.219734
-0.292941
0.050128
0.437346
0.715979
-0.904995
0.039245
1.502015
0.414824
0.615236
-0.020025
1.549588
0.140655
-0.167219
0.098076
-0.618209
-0.898765
-0.062279
-0.468584
-0.984379
-2.321192
-1.826726
0.193890
1.167472
0.494489
-0.639471
-0.813542
0.878798
1.868208
0.758309
-0.601610
0.282023
-0.597130
-0.056260
-0.606828
0.889090
-1.164147
0.578555
-1.026920
-0.648581
-0.139127
0.315346
-0.231259
0.835390
0.465577
0.338826
-0.534424
0.609072
-0.180350
0.346487
1.075897
-0.905901
-1.136904
0.035583
-0.271842
-0.411672
-0.261188
-1.372487
-0.318589
-0.583196
-0.358389
-0.402507
-0.810975
-0.779261
0.547238
0.081675
-0.774110
1.355100
-0.580386
0.060915
0.081990
0.728892
-0.005849
-0.496560
-1.024640
-0.260121
0.985220
-0.382359
0.252695
0.680695
0.101976
-0.667809
-0.142328
0.176882
-0.890243
0.233294
0.834623
0.624150
0.449556
-0.932587
0.313478
-0.217776
-0.217453
-0.405129
0.396342
-1.007961
-1.097052
0.872262
0.499253
-0.161160
0.368846
-1.119720
-0.273276
0.410108
-0.188370
0.311630
-0.432949
0.750427
-0.587362
0.487174
-0.718959
-0.070112
-0.995596
-0.201265
-0.356038
0.298013
-0.140452
-0.604867
0.025530
-0.388430
1.021083
0.269855
-0.156327
0.786876
0.725649
1.107698
0.087806
-0.234272
0.396608
-1.022309
0.116180
-0.553348
0.203881
-0.615947
-0.909499
0.958046
0.537502
-1.045891
-0.865913
-0.310717
-0.522542
1.232073
0.199247
0.831962
1.566058
-1.638037
0.788133
0.222750
-1.706931
-0.444351
-1.313766
-0.181101
-0.192237
-0.594484
-0.634493
-2.084649
-0.014621
1.465599
0.043991
0.782707
-0.686941
-0.594724
1.439123
-0.787058
0.377946
1.467149
-0.151570
-1.332730
0.433050
-0.898327
-0.852293
-0.494126
0.439507
-0.256355
-0.158330
-0.940505
-1.593034
-0.433688
1.402981
-0.529027
-0.134953
-1.090578
-0.998668
2.107126
-0.143614
-0.213094
2.101583
-0.460311
-0.316210
-0.171178
-0.169460
0.108863
-0.221993
0.124342
-0.383628
-0.428102
-0.690549
-1.058025
1.066841
0.421281
-1.095097
-0.129916
-0.380793
-0.477708
1.637539
0.176449
-0.306978
1.840777
-1.255233
-0.280020
0.263692
0.715047
-1.208800
0.037986
-0.198091
0.544298
0.103780
-0.267378
-0.069407
0.841646
1.594992
-0.786026
-0.201076
-0.642238
-0.405238
1.863571
-0.832187
-0.140237
0.048618
-0.118996
-0.126293
0.301549
1.030892
-0.489987
-1.318320
-0.372538
-0.166320
-0.257338
-1.733183
-0.739081
0.326180
1.377970
-1.107209
-0.141990
0.056489
-1.065838
0.713848
-1.111950
0.228989
0.539715
-0.920075
0.578901
1.161735
0.800876
-1.020065
-0.585211
0.497731
-0.683013
0.137999
-0.112566
-1.406959
-0.511161
0.416364
-0.168406
0.369736
-0.265076
0.334676
0.316331
0.953658
0.112102
2.349345
-0.849200
-0.058524
0.096618
0.140054
-0.789910
-0.913156
0.428848
0.011328
0.659999
-0.698217
0.470547
-0.774069
0.659039
-1.728684
0.392117
-1.197277
0.627751
0.634726
-0.902161
0.455992
0.253891
0.496753
0.489693
-0.319572
-0.900012
-0.931732
-0.634334
-0.213816
-0.530779
-0.313535
-0.235914
-0.599918
0.447760
0.238825
0.074914
-1.393989
1.101282
0.341265
1.286585
-0.112754
-1.066925
0.122252
0.036224
-1.308584
-0.861140
0.210536
0.112119
1.240861
0.590899
-0.724592
0.102696
0.235370
0.633793
-0.429643
1.492474
-0.167468
-0.601773
-1.248564
0.175288
1.044361
0.260589
-0.462925
-0.114335
-0.609187
-0.020988
-1.319947
0.586044
-0.201271
0.843220
1.841562
0.087096
-1.282990
-2.573970
0.008114
-2.885843
3.471744
-4.000518
-0.441347
3.717811
4.644386
-2.430640
2.471874
-3.270078
-6.752695
2.244465
-4.482265
-2.467194
-1.732452
4.335787
4.245852
-0.519561
-3.028842
2.867475
-3.808939
-1.276154
-3.250590
-4.516521
2.512008
-2.265532
2.852906
3.536538
-2.954249
-3.037522
3.057301
0.896106
-4.322726
1.080900
2.767229
1.227310
0.633402
-4.210697
2.041686
-4.214832
1.279913
-6.658554
-1.409729
-2.019800
-0.775396
-6.897061
0.220132
3.262808
-0.329443
2.398768
-4.160703
5.354121
-3.305980
-3.638564
2.276286
-4.374157
-1.299660
-2.343887
-1.255795
-3.803295
-5.313490
-3.223836
-3.852673
2.081383
3.386069
3.764581
3.611221
-1.274559
-8.637199
-6.028513
3.245130
1.373718
0.021095
0.657422
-7.654095
0.764726
0.964655
-0.620081
1.122690
-2.260557
-0.913569
-0.584187
0.515399
-3.776304
-0.866319
1.725945
-2.795270
3.480231
-3.092919
-1.548875
-1.617721
-2.115765
9.104768
-2.556403
2.784550
-4.138887
-5.648626
-3.635134
1.824667
0.130550
-5.979107
-0.147171
0.881661
0.323441
-7.013530
-0.876444
-2.266807
-1.769804
4.040653
-2.647429
2.324239
-0.439468
-2.643691
-1.158917
-0.344296
4.634183
-9.021411
-4.394943
1.607262
2.519600
-3.242504
-4.560725
4.269414
4.757734
0.355488
-5.641486
1.519017
-9.934597
-1.304849
-2.234418
-1.705019
-2.664140
-3.150474
7.433702
-1.749050
-4.097830
-2.726895
5.094359
-5.085539
4.479130
-1.640303
-4.541620
4.650834
-3.824129
-3.923146
4.023328
-6.126245
2.437594
-6.229591
4.688088
3.624234
-4.644208
-6.702053
3.007409
-1.134200
3.799233
-2.109571
-4.237517
0.645530
-0.818991
2.521204
-2.420114
-3.211452
-6.281300
-1.531472
-3.440621
2.448887
-4.137795
-2.693109
2.683617
4.133906
4.304012
-3.263380
-0.347015
-2.296747
-4.868266
-3.149305
0.383237
-3.162794
-3.637722
-2.806341
2.834250
3.007688
-6.013650
4.198477
-0.221082
-0.221037
-0.948234
-0.522749
0.290963
-5.523407
-0.341609
-2.896091
1.364394
2.984631
-2.648523
-5.284306
4.079707
-2.125613
-2.173312
-2.256570
-2.586251
-2.971754
-3.871435
-2.210864
-3.435756
-3.597375
-1.634783
