0.3 101 21 10
-0.979588
-0.240337
0.803613
-0.126651
0.325911
-0.303814
0.761466
0.086108
0.007900
0.625411
-1.017239
0.284612
1.314167
1.178936
-0.056781
0.712186
0.059614
0.334304
0.711027
1.267396
0.567466
-0.578266
0.067232
-0.034400
0.697168
0.103916
0.345108
0.046024
0.445362
-0.815672
-0.248517
1.664504
-0.070473
0.500303
1.126138
-0.101617
-0.504851
-0.668410
0.784747
-0.800814
0.243546
0.781152
-0.676235
0.094231
0.514935
0.346993
0.183280
-0.956027
-0.712149
0.812124
-0.769990
-0.288706
0.162385
-0.796506
-0.402865
0.438777
0.124879
1.119430
-0.051552
-0.901071
-0.670515
-0.390122
0.400343
-0.411217
0.419457
-0.115449
-0.315164
-0.868628
0.179280
-0.944979
0.744340
-2.024143
-0.668936
-1.045840
-1.006383
-0.203951
0.245517
0.307813
0.938437
-0.198387
0.961662
-0.264070
0.416794
-0.642133
-1.017272
-0.487860
-0.850477
-0.148114
-0.203694
0.616535
-1.108330
0.539868
-1.720023
-0.454133
-0.869115
-1.134375
-0.613471
-0.933939
-0.055057
0.735007
1.616246
0.946996
-0.823644
0.908458
0.347527
0.796730
0.068859
1.146126
1.210981
-0.831305
0.837657
-0.307545
0.616263
-1.046265
0.724188
0.834320
-0.546630
-0.243575
-1.010597
0.425461
-0.225205
1.552117
0.643488
-0.687656
-0.794776
-0.498787
0.780771
0.691432
0.710857
0.093553
0.408522
-0.006327
-1.075156
-0.144886
0.006455
-0.346741
-0.408328
0.257826
0.113984
-0.024590
0.424553
0.624708
0.462080
0.948405
-1.144224
1.112898
-0.034877
-0.130727
-0.480163
-0.277898
-0.818277
-1.186091
0.958964
0.846210
0.109782
-1.292033
-0.107061
1.429363
-1.074366
1.327906
-0.309324
0.601238
1.367824
-1.324345
0.177448
-0.798846
-0.069925
0.427886
0.245827
0.493499
-0.888803
-0.552346
-0.067176
0.762763
0.467939
0.695412
-0.288208
-0.038395
0.119820
-1.394707
-0.195649
-0.055132
0.761855
1.163840
-0.518945
-0.713832
-0.476558
-0.483665
-0.892691
0.436462
-0.702963
0.084778
0.871171
-0.215494
0.536887
0.740977
-1.386561
1.389121
-0.469440
0.748320
-0.239084
-0.222701
0.002989
1.122900
0.845546
0.444820
-1.050932
-0.224703
-0.624528
0.634007
-0.201971
-0.772495
0.913554
0.021816
-0.475217
0.422026
-0.531329
-0.675405
0.840580
-0.730129
1.286351
-0.320978
0.775809
1.201962
-1.024099
-0.931444
-0.776530
-1.114110
-0.042356
0.110732
0.941188
-0.093191
0.603372
0.137167
-0.354282
0.751530
-0.973653
-0.170672
0.269798
0.335261
-0.590271
0.357203
-0.877134
0.293067
0.604848
-0.415656
0.058454
1.270637
0.486497
1.199102
0.097780
0.459041
-0.000786
-0.613618
-0.212312
-0.409622
-0.311314
1.545955
-1.228441
-0.394347
0.420286
0.393180
-0.612994
0.340597
0.706198
0.509266
-0.340204
-0.104430
1.579437
-0.079579
0.336349
1.246196
0.544864
-0.729425
-0.119015
0.153580
-1.571053
0.875207
-0.235646
-0.500987
1.157223
-1.348262
0.448226
0.301996
0.331129
-0.251604
0.318009
-1.054031
-0.253958
0.855441
-0.009638
-0.268536
1.062738
-0.132693
-0.058872
0.412828
-0.282892
0.163033
0.110553
1.042242
-0.234059
0.888954
-1.897896
-0.354325
-0.303197
0.564644
-1.469395
0.614356
-2.244644
-0.945884
0.091164
-0.532851
-0.393730
-0.250708
0.369148
-0.482746
-0.661243
0.490372
0.336801
-0.146184
0.730724
0.452930
-0.815824
-0.043330
-0.668267
1.116346
0.632636
-1.624944
-0.044426
-1.503290
-0.600104
-0.555526
0.294890
0.457416
0.729071
-0.644427
-0.341821
-1.170850
-0.067938
0.043508
-1.114882
0.165657
-0.784763
0.260492
-1.608321
-0.309510
1.052023
-0.305605
-0.618992
-0.704755
0.302162
0.377031
-0.767407
0.726650
-0.409886
1.388485
-0.638137
-0.119477
-0.367066
-0.897454
-0.476482
-0.421307
0.093072
0.049466
-0.424041
-0.202334
0.510703
-0.141987
0.503939
-1.425916
0.388382
1.215211
0.799776
0.005130
-0.237569
-0.127116
0.357176
-0.814103
-0.132062
0.279635
-0.825224
1.325755
-0.594452
-0.986624
0.941799
-0.955041
-0.341858
-0.035463
0.221725
-0.011799
0.197142
-0.436961
1.631063
-0.757136
-0.319651
0.725420
0.102510
-1.987933
-0.722897
-0.671127
-0.177947
0.030139
0.885739
-1.126279
0.904997
-0.619517
-0.475191
0.821898
-0.743355
0.565292
1.006779
-0.169270
-0.687100
0.364446
-0.068318
-0.836833
1.003368
-0.153920
-0.396581
-0.880293
0.901316
-0.483956
0.912345
0.582639
-0.844616
-0.909757
-0.138076
-0.265348
-0.213880
-0.473013
0.350333
-0.299579
-0.020488
1.401876
-0.577756
0.671704
-0.769544
-0.577924
1.831491
0.690828
-0.815735
-1.026709
-0.509127
1.307382
0.060589
-0.096240
-0.873593
-1.042828
-0.786162
0.748079
0.181591
0.490396
-0.794993
0.161855
-0.363746
-0.212455
0.392980
-0.186946
-1.238566
0.987399
0.184287
-0.927871
-0.060496
0.330832
-0.160635
0.199437
0.392317
-0.671510
0.666235
-0.187337
0.360717
0.672042
0.071932
0.152252
0.388382
0.731526
0.463581
0.159338
0.745984
0.258718
-0.065042
1.667538
-0.825939
0.839319
-1.287831
0.616033
-0.368920
-0.826322
0.228816
0.564109
0.299087
1.316264
0.039160
0.339615
-1.440260
0.165712
-0.107865
-0.205729
0.340587
1.136885
-0.421890
0.024389
0.376912
-0.398782
-0.917589
0.222940
-0.248845
1.437982
0.624125
0.188666
0.796929
0.430994
-0.929002
-0.570808
0.924348
-0.693425
0.359479
-0.342675
0.073842
0.091143
-0.875113
-0.201671
-0.264786
0.388298
-0.892087
-0.900858
-0.579438
0.440306
-0.122590
0.425414
-0.218642
-0.464079
0.332072
-0.174025
-0.327742
-0.267213
0.975595
-0.121027
0.245901
-0.516518
0.466489
-0.772771
-0.857689
0.055670
-0.354912
0.787487
-1.104388
-1.031770
1.128959
-0.319182
-1.513504
0.890371
-0.171438
-0.236788
-0.675693
0.642997
-0.038262
1.337874
-0.986764
0.820926
-0.700093
0.065590
0.071622
1.475828
-0.730082
0.862106
-0.493680
0.206883
-0.109460
0.241559
-0.056738
-0.213940
-0.562375
0.771878
-1.218685
0.339755
0.291511
0.507101
0.007114
-0.747449
-0.186455
-0.956361
-0.678117
-0.012312
1.177925
-0.075754
0.319551
0.143838
0.446620
0.328350
0.359961
0.106820
-0.991908
0.080888
0.160529
0.028682
-0.799391
0.056449
-0.341177
0.959064
-0.047123
-0.492553
-0.756718
0.979951
1.129789
-0.019677
0.822321
-0.440306
0.510503
-0.101132
1.701197
-0.152165
1.193256
-0.290880
-0.427450
0.314294
-0.589829
-0.378609
-0.724091
1.348574
0.754006
1.441154
-0.572837
-0.289136
0.062132
-0.238156
0.772603
-0.306506
-0.660913
0.929813
0.519840
-0.153389
0.751596
0.329637
-1.465061
0.320325
-0.448602
0.352299
-1.316072
0.655307
1.387033
-0.559634
0.637834
0.009074
0.604235
0.050877
0.681629
-0.052000
-0.045330
0.414726
0.625503
-0.180281
-0.532117
-0.482360
0.174302
-1.544683
-0.724038
0.236971
0.147746
-0.136785
-0.273303
-0.193775
1.081419
-0.539020
0.379090
0.122523
-0.905518
-0.760203
-0.921447
-0.389216
-0.453952
-0.761820
-0.343963
-0.241819
0.058690
-0.212858
0.147357
-0.640587
0.024352
0.936755
0.734047
-0.988070
-0.837169
-1.030861
-0.353706
-0.294012
0.008722
0.714108
0.865531
-0.962898
-0.023421
0.539686
-0.336102
-0.978323
-1.448951
-0.920201
0.944993
-0.289404
0.937728
0.583985
-0.817044
0.869024
-0.599792
0.469584
0.888446
-0.081607
0.538832
-1.009401
0.231980
1.367778
-0.318601
-0.351921
1.447548
0.994016
0.115326
-0.547783
1.379111
-0.714196
-0.720986
-0.208359
0.231840
-0.171498
-0.838391
-0.659081
-0.076744
0.243439
-0.357026
-0.109567
-0.435539
-0.441007
0.937806
0.077404
0.318244
0.115436
-0.884327
-0.030393
-1.025761
0.522607
0.533038
-0.324768
0.104041
0.521507
0.079186
-0.288106
0.407667
-0.082630
-0.638499
-0.731437
-0.158603
-0.276564
0.721009
-0.094695
0.659354
-0.077926
1.714949
0.480308
-0.769978
-0.380029
-0.305010
-0.039583
-0.083779
0.062991
1.415800
-0.422650
-0.012263
-0.776741
-0.236190
0.016051
-0.370653
0.877222
-1.117604
-0.940413
-0.705999
0.012583
1.256184
-0.035000
0.885878
0.746204
1.097500
-1.052014
-0.035296
1.422371
0.311094
0.936707
-1.067122
1.276688
-0.255278
-0.535227
0.308975
-0.650287
0.203631
-0.241535
-0.308341
0.752047
-0.280671
-0.230456
-0.242915
-0.990164
-1.984907
-0.429134
-0.499812
0.883767
-0.136705
-0.222204
1.658072
-0.532465
-0.034961
-0.947888
0.291988
0.259473
-1.454357
-0.626706
-1.112088
0.313833
-1.811823
0.511221
0.551928
-0.152784
0.938368
1.182296
2.126985
0.905767
-0.105658
-1.140841
-1.149320
0.102280
0.745604
-0.745848
-0.618897
0.495065
-0.396477
0.123119
0.440143
0.377669
-0.384961
-0.549819
0.100339
-0.235283
-1.666213
0.137057
1.171809
-0.317209
-0.232183
0.537311
-0.521933
0.558328
-0.550836
-0.547210
0.490721
0.786647
-0.269521
-0.004972
0.343755
-0.940546
-0.370739
-0.116562
0.177936
0.166793
0.165854
0.037695
-0.512028
0.729427
0.768683
1.312855
0.281519
-0.174250
0.129749
-0.186970
0.173542
-0.449809
-0.782088
0.099750
1.176072
0.374948
-0.190060
0.089892
-0.186476
-0.729930
0.165610
-0.325161
-0.301374
0.488392
-0.883463
0.684293
0.916466
-0.878802
-0.417057
0.816202
-0.260636
0.240923
-0.397175
0.479333
-0.134834
0.243551
-0.349375
1.450465
0.549618
0.009915
0.222615
-0.522320
-1.349442
0.486717
0.778159
-0.958222
-0.674516
0.656459
0.018981
0.107773
1.088809
0.284527
-0.068730
0.279443
-0.029999
0.394716
0.037665
0.262546
-0.004279
-1.383386
0.386093
0.061683
0.383380
-0.958078
0.314873
-0.566389
-0.695200
0.273128
0.936789
0.708434
0.510622
-0.419251
-1.027498
0.185452
-0.006131
-0.968754
-0.099021
0.413784
-0.333240
-0.023027
0.196553
-0.518435
-0.919727
0.271431
-0.825039
-1.248136
-0.393893
0.642493
-0.804156
-0.449004
0.203990
-0.404877
-0.500737
0.552105
0.234106
-0.383622
-0.057757
0.183444
1.116740
-0.265657
0.190252
0.724869
-0.265770
-0.791584
-0.743876
-1.115895
-0.545278
-0.120012
0.015869
0.174545
0.260269
-0.847774
0.953680
-0.439448
0.037759
-0.408697
1.050546
-0.494703
0.468157
1.266714
0.364166
1.133253
-0.666286
0.479123
-0.156394
-0.875536
-0.776264
0.413495
-0.792299
-0.096831
0.543384
0.398946
-0.542929
0.738600
-0.559814
0.913075
-0.297604
-0.193441
-0.653227
-0.235245
1.728249
0.379983
-0.933879
0.287107
0.316146
-0.470412
0.681525
0.441559
-0.215540
-0.694134
-1.337426
-1.028148
-0.912004
0.014171
-0.693651
-1.770479
0.390213
-0.606615
0.525065
0.443014
0.251790
-0.053897
-0.277321
-0.734710
0.802355
-0.910480
0.220739
0.253500
-0.325728
-0.527568
-0.856625
0.496893
-0.101134
0.317769
-0.985163
-1.184482
-0.378059
-0.119409
0.813449
-0.813923
-0.173683
0.335556
-0.319675
1.090220
0.867526
1.560310
-1.288519
-0.805552
-1.164749
0.749317
-1.176604
-0.471187
1.170366
-0.125890
0.033640
-1.090592
-0.177751
-0.042122
0.652716
-0.051770
-0.670771
0.028312
0.343360
0.528259
-0.896693
-1.744058
0.368861
-0.045413
0.348833
-0.145713
-0.404406
-0.105797
0.840066
0.255997
-1.132383
-0.019898
0.132047
-0.393062
0.304858
0.290590
-0.919426
-0.777583
-0.504488
1.350109
1.304909
-1.235421
-0.357900
0.416727
1.342944
-0.826542
-0.070108
0.236815
-0.420337
0.799504
-0.317513
1.439153
0.331884
0.972188
0.553648
-0.034742
0.202540
1.343170
-0.539132
0.526273
0.161288
0.309436
1.078091
-0.389466
-0.639107
-0.316904
-1.628060
1.031387
-0.229657
-1.191862
0.509318
-0.030725
0.649593
0.496680
0.655820
-0.777813
0.636369
-0.147402
-0.216315
-0.068448
0.425627
1.057740
0.439499
0.599742
0.723892
0.274293
-0.487960
-0.638942
0.190950
-0.636715
-0.608738
0.705917
-0.575462
-0.293620
1.058744
-0.350796
-0.778300
0.514615
-0.464757
-0.561831
-0.010147
-0.852964
1.055031
0.387967
0.757525
0.281949
-0.958947
0.191728
-1.486168
-0.586556
-0.215031
-0.483881
0.497453
0.585605
0.901449
-0.439908
1.099741
-0.635478
0.806851
-0.621776
0.356120
-1.071452
0.036284
-0.337951
-0.145950
-0.287027
-0.971315
-0.693171
-0.468973
-1.019702
0.681650
-0.163938
0.342529
0.549673
0.660869
0.821080
0.889027
0.669872
-0.034931
-0.283026
-0.456842
-0.360279
-1.174575
-0.351931
1.563547
1.120495
-0.040434
1.074320
0.855474
0.009710
-0.717124
0.208214
-0.940995
-1.267937
-0.392320
0.814776
-0.508076
-0.751004
-0.141125
0.956253
-0.568964
-0.773468
-0.385116
0.061973
0.501811
0.516103
1.169568
-0.097186
-0.669505
-0.132869
-0.418919
1.189935
-0.242388
-0.583555
0.263486
0.709998
0.392723
0.698532
0.836993
-0.457705
-0.952843
-0.117044
-0.717939
-0.256675
0.967455
-0.174974
1.238411
1.116435
0.597354
0.772811
0.473912
-1.598272
0.680679
-1.651154
0.482109
0.303587
0.599245
-0.239097
-0.745923
0.723880
-0.470273
-0.238896
-0.929042
-1.453694
1.457588
0.319524
-0.174673
-0.031413
-0.192470
1.036173
0.131930
0.571868
-0.858443
-0.249043
-1.656652
1.147639
0.813511
-0.160354
1.296474
0.534999
0.815829
-0.271348
0.259442
1.132295
0.941060
0.412526
-0.090600
0.105390
-0.249595
0.826770
-0.326181
-0.719493
0.175628
0.718008
-0.132959
-0.731916
0.796047
-1.382135
0.604688
0.621916
0.618813
-0.434253
-0.061633
0.595477
0.837325
0.436077
-0.672255
-1.753065
0.320581
1.521313
0.311601
0.354232
0.788164
-0.912318
-0.941136
0.428896
0.180876
-0.536404
-0.211225
-0.753700
0.546784
0.299338
-0.710665
1.029769
-0.748998
-0.024916
-0.663490
0.709274
0.456268
-0.118370
0.181111
-0.568958
-0.343126
-0.375320
0.043881
-0.967957
0.649117
-0.533631
-0.105073
-0.576637
-0.541347
-0.739657
0.065261
-0.623056
-0.940970
-0.105507
0.919976
0.388341
0.403657
0.311043
0.771467
-0.076304
-0.573371
-0.253961
-0.144470
-0.953402
-0.289253
0.098551
-0.226772
-0.680065
0.396126
-0.386259
-0.508280
-0.695632
0.450535
0.423053
0.131501
0.507196
0.455118
0.454716
-0.004633
0.276774
0.311377
-0.525464
0.333646
0.920467
-1.075405
0.525385
1.138087
-0.651625
-0.932817
0.420955
0.402468
-0.894128
-0.911756
-1.206880
-0.296930
-0.156490
-0.217344
0.685160
0.935636
0.811487
-0.454529
0.600186
-0.559490
0.235165
0.456326
-0.189908
1.067412
0.523644
-0.415439
0.456325
0.698766
0.327065
0.663855
-0.752948
-0.276494
0.105146
-0.422872
0.382011
-0.125093
0.286405
-0.278122
-0.906672
-0.554045
0.207482
0.804009
0.355371
-0.270000
-0.998750
-0.132433
0.507506
0.306704
-0.196225
0.976075
1.054200
0.971905
-0.521406
-1.056680
0.064858
0.584158
0.243337
0.487508
1.499198
0.145629
-0.671052
1.116272
0.580547
0.811290
0.457632
-0.915490
0.367104
0.364592
-0.276663
-0.482852
0.509278
-0.222105
1.105786
0.419184
0.065377
0.766669
0.427906
-1.138383
0.586030
0.593826
-0.149774
0.100001
0.253218
-0.143138
0.395068
0.562407
-0.672041
0.144414
-0.032681
-0.648241
-0.217190
0.447302
1.029093
0.578734
0.868633
-1.114609
1.079098
-0.543994
0.302142
-0.524618
-0.669260
0.828297
-0.140889
-0.138914
1.526352
0.087752
-0.788058
-0.394375
-0.003028
-0.609272
0.330641
0.868472
0.782712
0.813211
0.340102
0.571495
-2.265147
-0.357325
1.194914
-0.246885
-0.199122
-0.281707
-0.869145
-1.527376
0.937100
-0.414582
-1.520924
-0.219332
-0.826254
1.501495
-0.254544
0.944018
0.861617
-0.671433
0.769249
0.350484
0.649160
0.385439
0.694746
0.515097
0.235430
-0.968214
0.080474
0.062669
-0.507746
-0.186495
0.461480
0.788240
-1.033967
-0.770455
1.073659
-0.016652
-0.322603
-1.015215
0.474272
-0.444753
0.187148
0.889502
-1.525461
0.790121
0.221534
-0.471404
-0.687784
0.347114
-0.212554
-0.826445
0.253721
-0.649977
0.496986
-0.042568
-0.606115
-0.798821
0.548503
1.014878
-0.246278
0.520007
0.202839
-0.755048
0.119987
-0.057260
0.643912
-0.234344
-0.237546
-0.382528
0.706753
-0.531798
-0.391283
-0.177929
-0.677535
-0.018548
-0.672294
0.597920
-0.261543
0.213604
0.706449
0.969316
-0.868853
-0.693295
-0.298903
0.260202
0.866558
0.326052
0.033546
0.239842
0.338233
0.230859
0.357095
-0.362942
0.433077
0.475338
-0.460252
-0.392846
0.626476
0.438934
-0.172948
0.787878
1.361663
-0.321299
-1.264398
0.374111
-0.101002
-0.796525
-0.765893
0.049724
-0.668869
-0.058924
0.222133
0.328066
-0.729564
-0.309937
0.687282
-0.919336
-0.701442
0.129047
0.699494
0.239987
-0.485163
0.499358
0.852030
0.259397
-0.139794
0.247804
0.166716
0.068303
-0.652909
-1.029702
-0.301097
1.056287
0.286374
0.395378
1.004446
-0.331274
0.927843
0.721218
0.267768
-1.354641
-0.714819
-1.214622
0.071307
-0.514215
-0.646331
1.618446
-0.200759
-1.441058
-0.126928
-0.789400
0.345314
0.197689
1.657555
-0.815963
-0.574915
0.049783
0.785168
-0.664921
1.122627
-1.233089
0.252477
-0.527608
-1.797894
0.293561
-0.976760
-0.191763
0.108525
-0.226233
-0.431962
-0.047740
-0.747265
-0.432353
0.727089
-0.098478
0.010307
-0.352675
0.294774
-0.250501
0.958150
1.448524
-1.088598
0.717273
0.192325
-1.082620
-0.140887
-0.337610
-0.584402
1.317946
0.744499
-1.561177
0.206139
-0.225866
0.661066
-0.282269
0.270227
0.304717
0.729093
-0.561745
2.023708
0.121349
0.307774
0.216902
0.816599
-0.892171
1.356129
-0.239084
0.940781
1.200732
-0.114615
0.315632
-1.179007
-0.068230
0.154146
1.477893
-0.043451
1.015854
-0.809562
-0.970252
-0.578910
-0.040201
-1.399848
-0.475489
0.774117
1.849063
0.297859
1.331687
-0.104196
-0.376515
1.105660
0.746049
0.918893
-1.112404
0.540643
1.184865
-0.328587
-0.424395
-0.127514
0.824718
-0.154517
0.230745
-0.681630
0.371150
0.049480
-0.795071
0.158310
0.040082
0.442166
-1.130292
-0.234214
0.295107
-0.129538
-0.089006
-0.363872
0.989401
-0.052934
-1.235477
0.009976
0.234515
0.262064
-0.652147
-0.177434
-0.067964
-0.106834
-1.045393
-0.263581
0.641746
-0.776344
-0.001508
0.993947
0.464081
0.871041
-0.727955
-0.571261
0.591099
0.928391
1.134312
0.084035
-0.734078
1.064064
0.068525
0.127122
0.744705
-0.449594
-1.142441
-1.007926
0.996637
0.325034
0.731853
0.251471
0.136960
0.975890
-1.381266
-0.827796
-0.897898
-0.504007
0.815987
0.280411
-0.387569
-0.901800
0.256649
-0.601028
-0.141814
0.799736
0.050396
-0.565314
-0.231830
1.752431
0.081402
-0.750973
0.568457
0.048993
0.109282
-0.232286
0.172512
0.662540
0.614894
1.529196
0.864862
-1.116399
-0.696566
0.175732
0.095537
1.137288
0.504455
-0.793896
-0.301675
-1.204109
0.967520
1.110039
0.412093
-0.482176
-0.166530
0.518922
0.027263
0.555701
0.125807
0.534571
1.218885
-0.082252
-1.063414
-0.173701
0.217616
-0.377285
0.531343
0.789243
-0.220056
0.597324
-0.494811
-0.336814
-0.238498
0.060480
-0.573419
-0.075867
0.649061
-0.137653
1.263197
0.329780
0.314244
-0.708458
0.856941
-0.770264
0.610762
0.949310
-0.057062
0.627700
0.390801
1.072453
-0.188447
1.260467
-0.242985
0.596385
0.239763
-1.119466
-1.111186
0.234192
0.485257
0.050762
0.263163
0.126248
-0.019658
0.121608
-0.792959
-0.260816
0.803668
-1.012626
-0.790150
-0.667378
0.357064
-0.203676
-0.195495
-0.456087
0.306396
0.705440
-0.743794
-0.694232
-0.502629
0.788729
-0.028397
-0.148842
-0.740204
0.397960
0.137414
-0.256768
0.489205
-1.053705
-0.634990
-0.201601
-0.854714
0.568990
0.105769
-0.258960
-0.476999
-0.438530
0.409434
0.617843
1.259658
0.673176
0.290941
0.292076
-0.968196
1.529172
-0.132195
1.205431
-0.387349
0.038708
0.637930
-0.050743
0.929606
-0.565111
0.694766
-0.129327
-1.596427
0.297571
0.282680
-0.641592
-0.641772
0.291631
0.596442
0.963785
-0.324532
0.034484
0.319337
-0.013380
-0.544703
-0.397816
1.241810
-0.585590
-0.074419
-0.996094
-0.204598
-0.282262
-0.229648
0.818807
-0.276004
-0.649359
0.278311
0.936986
0.311075
0.524426
-1.324937
-1.218036
-0.572481
-0.635579
-1.333441
-1.552580
0.273752
1.135771
0.231997
0.165968
-0.374702
0.141958
0.199338
0.718222
0.716964
0.467322
0.309840
0.645553
-0.206726
1.069560
0.620336
-1.824386
-0.538511
-0.906988
-0.087542
-1.155788
-0.205151
-0.162129
0.720886
-0.514196
0.309496
-1.070783
-0.535703
-0.319938
0.622842
-0.124451
0.223228
-0.659882
1.281825
-0.076951
-0.521406
0.632067
-1.558746
-0.211829
-0.755247
-0.719431
-0.641781
-1.938054
-0.786060
1.844828
-1.048045
0.798280
-2.089989
0.742152
-1.191667
0.918413
-0.652817
1.233273
0.435381
1.832836
-0.247231
-0.613342
0.362728
-0.518567
0.231350
-1.545382
0.855256
0.713904
-0.819153
-0.021055
1.018139
0.643434
-0.145187
-0.643094
0.173718
-0.794570
0.242701
1.184509
0.676550
-1.104959
0.459560
0.697483
-0.552911
-0.295310
0.330581
-0.004797
-1.799861
0.551523
0.467926
-0.214747
0.500483
1.485393
-0.200672
-0.787879
-1.792484
-0.399492
-0.264623
-0.062073
0.670473
0.815700
-0.645471
1.715431
-0.346381
-1.837571
0.224451
0.179626
1.581684
-1.001638
-0.060338
0.508576
-1.408078
0.072706
-0.169153
0.536309
0.357313
-0.365736
0.762828
-0.682807
-0.242537
-0.268955
-0.894099
0.173512
1.091980
-0.309855
-1.385270
0.759319
-1.298266
1.148430
-1.105031
-0.618879
1.070159
-1.540303
0.739099
0.080066
-0.048236
1.126041
-1.261794
0.011367
0.632552
0.742965
1.630325
-0.007976
0.052855
0.453926
0.583129
-0.708681
-0.895333
0.458350
0.236704
-0.246756
-1.517928
1.298761
-0.773372
1.352234
1.243409
0.436940
0.613239
-0.074358
-0.500080
0.423731
-0.463643
-0.155169
0.677577
-0.217574
0.028159
0.239810
0.063169
-0.942697
-0.085675
-0.410133
0.564311
1.348322
0.520160
0.737942
-0.065201
0.338251
1.648163
-0.581311
0.035436
-0.888757
0.603530
-0.260599
-0.733403
0.179401
0.210115
-1.072317
0.811266
0.638111
-0.139770
2.087128
-4.455363
-0.708300
1.652728
-2.891836
-3.446506
-2.846048
1.309721
4.208902
-0.392989
1.414340
0.658424
0.404391
-1.024845
-2.819794
-1.450000
-1.934157
1.696344
3.979036
-4.607450
-1.350723
-0.775033
2.786213
0.739564
-5.815150
-0.718283
-0.709872
1.162955
-3.575968
1.215903
-2.726098
2.680239
-2.748196
-2.676603
-1.461595
-1.745581
-1.670100
-1.537123
2.142536
3.056860
-1.640451
-2.061963
-1.594073
-1.754167
-2.532396
-1.105436
2.838535
-2.423689
5.207720
-1.227890
-2.332405
-2.107345
-4.060691
2.517555
-2.910867
2.919137
-4.037372
1.077639
1.542913
-0.270252
-2.209051
-1.922151
2.484538
0.385974
1.339317
-2.784572
-1.514039
-3.155939
-0.042364
0.446920
-1.090563
-1.730384
-1.298265
-0.186785
1.263180
0.753563
-0.209701
-1.182743
-4.262762
-7.289098
-3.959222
-3.009979
-4.654489
-4.811871
4.626687
-4.071998
4.591195
2.776277
0.329872
2.337262
1.515520
-1.047958
0.222219
0.589007
0.175090
0.358150
0.952874
0.479065
0.282279
0.742598
-5.561079
4.572060
-0.595599
2.187229
-1.931621
-2.353323
-3.392284
1.457482
-3.868611
2.804873
-4.124087
-3.397136
3.801405
-3.716109
2.404551
0.818316
-3.819758
0.477639
-0.196291
-0.188757
0.828310
1.201527
-0.499207
2.295128
-4.017000
-2.894382
1.399270
1.176816
-1.188564
-2.342354
-2.203711
1.391470
1.829389
-2.437677
-2.130437
-1.383933
1.217052
0.519082
-3.166652
0.363655
3.501009
1.463093
-4.643393
-2.263381
3.608725
-0.994296
-2.080035
1.842037
-5.410178
-0.883666
-0.362711
0.987642
-3.846772
-0.260509
1.818928
-0.481770
-0.252454
-6.374969
-1.709652
-0.096657
2.375094
-2.495306
-3.474548
-2.601771
-4.147053
2.820373
1.186932
1.391975
2.356758
1.043864
-0.031289
1.087525
1.771864
-4.144246
0.626113
1.571194
-3.339866
-4.666000
-0.127756
-2.609761
1.431303
-2.731744
2.481398
0.587744
0.363508
-4.816816
0.667085
-2.726859
-2.132963
0.776485
-1.106996
-1.788338
-3.168406
2.317077
-3.327595
3.224065
3.769691
-2.000016
-3.302643
1.024071
-1.818076
-1.551842
-1.835037
-1.987359
-1.000681
-0.415757
-1.855148
-2.138563
-2.074049
-2.840655
