0.4 197 21 10 
-0.414077
1.548274
0.099165
-0.224125
0.114083
-0.613764
0.349003
1.257312
-0.611930
0.568623
0.614304
-0.891871
0.519557
-0.752507
0.154360
0.469756
0.766834
-0.319939
-1.515583
1.013596
-0.828892
-0.348756
-0.025028
-0.388562
0.262589
-0.666188
-1.140742
-0.359688
-0.342429
-0.125783
0.568299
-0.159581
-0.014413
0.749240
0.693855
-0.248174
-1.034698
0.643648
0.545852
0.398047
-0.499544
-0.636267
0.674963
0.514492
-0.337815
0.538852
-0.837800
0.718025
0.935321
0.348860
0.332048
-0.917162
-0.454011
-0.222101
-0.221027
-0.940031
-0.970933
-0.094363
-0.139576
-0.030654
-0.621682
-0.037920
0.599196
0.769970
0.138391
0.302404
0.197032
-0.374438
-0.523718
-0.098428
0.260930
0.314190
-1.365296
-1.161265
0.859517
-1.240699
-0.321277
-0.110588
0.521025
-0.023529
0.539320
0.734210
0.884392
-0.684183
0.630763
-0.629187
1.082615
-0.017408
-0.739084
-1.156338
0.699859
-0.333448
1.262622
0.258279
0.618357
-0.440591
-0.460946
0.951842
0.270933
0.604886
0.101724
0.248977
0.235073
-0.076919
0.207160
-0.190344
0.452059
0.669361
-1.220032
-0.744116
0.680972
1.209492
0.955580
1.216329
0.515820
0.977344
-0.291182
0.235489
-0.025708
-1.253550
-0.126049
-0.556473
0.909116
0.520010
0.414016
-0.626198
0.905602
0.106820
1.029457
-0.357529
-0.879736
-0.502029
0.562712
0.159969
0.399558
-0.616944
-0.382203
-0.728578
-0.109011
-0.432083
-0.143162
-0.146017
-0.358895
0.680603
2.154405
-0.564882
-0.407371
-0.209589
-0.427246
0.090183
-0.672977
-0.503951
0.893464
1.270538
1.039431
1.431130
0.110756
-0.355232
-0.592827
-0.258490
-0.295781
0.231551
1.193821
-0.225985
-0.481648
1.220023
-0.511452
-0.685712
1.012117
-0.293330
0.172659
-0.320017
-1.077519
1.282258
0.729510
-0.082444
0.630340
-0.229969
-0.382769
-1.176476
-0.369134
-0.254210
-0.987597
0.353118
0.073802
-0.387497
0.624548
-0.789244
-0.056921
0.447637
0.800274
-0.731240
-0.405640
-0.116224
-0.673812
0.378790
-0.245855
0.755744
-1.025009
0.411945
-0.260814
-1.011759
-1.176488
0.066463
-0.247958
1.403291
1.112058
0.709594
-0.577583
0.874231
-0.251481
0.379605
0.546081
-0.398667
0.279341
-0.951385
0.905352
-0.911221
-0.035121
-0.561010
0.475398
0.749582
-1.018848
-0.614088
0.438032
0.337492
0.526005
0.827045
0.640749
-0.358845
0.750150
0.916540
0.214927
0.162700
-0.497263
0.576028
0.015617
1.447992
-0.818507
1.351213
-0.784501
-0.119177
0.290243
0.257332
0.001044
-0.266105
-0.470162
0.167278
-0.339964
-0.136097
0.022019
-0.230865
-0.047855
-0.975515
-0.834930
0.255036
0.823916
-0.773396
-0.332218
-0.248734
-0.629539
-0.348038
-1.895352
-0.955546
-0.951087
-0.288388
0.785166
0.456784
0.242043
0.629664
-1.520070
0.151357
0.788635
1.112548
-0.545477
0.353879
1.466330
0.522057
0.217698
0.528422
-0.882485
-0.944251
0.304072
0.321311
-1.215963
0.639789
1.611321
-1.959298
0.621886
0.327815
-1.250990
-0.111850
-0.321560
-0.092764
-1.308767
0.679658
-0.617383
-0.500441
1.012226
1.149526
-0.166032
-0.447419
-0.637538
0.666853
-1.164307
0.367138
0.209791
-1.465406
1.152550
0.090156
0.003167
0.905643
-0.618964
0.068911
0.491274
-0.176339
0.204887
-0.699872
0.638750
0.201175
-1.368826
-0.304742
0.440606
-0.062738
0.991406
0.355585
-1.398638
1.142311
0.180572
-0.692641
0.085340
0.732612
0.311973
-0.481226
-0.268774
0.113537
-0.639591
0.226290
0.344335
1.453792
-0.210965
-0.773968
-1.007274
-0.142916
0.027330
-0.553236
-0.454417
0.335898
-0.061672
-0.032333
0.531350
-0.163864
1.143513
-0.280832
-0.807495
-0.286420
-0.721499
-0.559255
0.591528
1.198267
-0.004730
1.057904
1.163751
0.450402
0.322207
0.263706
-0.149304
-0.498363
0.514827
-0.267431
0.778732
-0.750351
-0.041096
-0.115957
0.712238
-0.576915
-0.236911
-0.214407
-0.211352
-0.066546
-0.013619
0.194315
0.759663
-0.522017
0.295589
-0.361009
0.836486
-1.150874
-0.241033
0.155035
0.689102
-0.530537
-0.073774
-1.082636
0.744544
-0.286765
0.045124
0.289537
-0.822868
0.533279
-0.373867
0.553001
-1.085332
0.514787
-0.160027
0.244183
0.172392
0.607996
-0.900363
0.443068
-0.006711
-1.009901
0.937410
0.256759
0.090730
0.781483
0.710088
-0.177916
1.310871
-0.399098
-0.886568
-0.338878
-0.746882
-0.708987
-1.423725
-0.218421
-0.573548
-1.390288
-0.010342
0.603975
1.051747
0.716849
-0.516437
-1.026414
0.617701
0.229741
0.208757
0.716571
0.458583
-0.171276
-0.634802
-0.218379
-0.010605
0.408185
0.957147
-0.547386
0.038844
-0.394809
-1.179069
0.003793
0.134527
0.929407
0.685744
0.417317
0.457556
0.637943
0.019167
1.264149
-0.831197
-0.596831
0.867498
-0.181531
-0.821862
0.824078
-0.054867
-0.872724
-0.142234
0.011298
-1.700506
-0.158984
-0.386642
0.491547
-0.559654
0.423410
-0.606985
0.517612
0.597926
-0.753794
0.815609
-0.585561
-0.199767
-0.579276
0.824771
-0.569983
-0.820147
-0.673526
0.452613
-1.373977
0.351686
0.285139
-0.714152
1.279458
-0.614355
0.433114
-0.064768
0.202025
0.456653
-0.791516
-0.665444
-0.803025
0.107178
0.276094
0.090468
0.780572
-0.648341
-0.338531
-0.143657
0.386185
-0.304396
-0.004546
0.502802
0.045019
-0.206965
0.669909
0.376871
0.352122
-0.015458
0.715313
-0.391970
-0.112176
0.268380
0.312691
0.019865
-0.759786
-0.185346
-1.107809
0.920905
0.306606
-0.841295
0.247811
-0.747461
0.234651
-0.068885
0.631911
0.428261
0.099001
-0.660910
-0.956560
1.048467
0.289729
0.469963
-0.873142
-0.272585
0.271924
-0.335534
-0.877786
0.299468
0.515928
0.473670
1.596545
-0.148207
-0.239270
0.855981
-1.123701
0.611129
-0.722121
0.336182
0.314950
0.218122
-0.806357
0.247995
0.892390
0.180017
-0.906338
0.770943
-0.638501
-0.334221
0.146762
0.321894
-0.891599
0.103554
0.411727
0.515487
0.333266
-0.983596
-0.300764
0.003013
1.699158
0.208909
-0.812407
0.181932
-1.184675
0.564871
0.826808
-0.281429
0.455126
-0.037967
0.913744
0.548219
-0.326245
-0.075752
0.010243
-0.416332
-0.644284
0.295561
0.643896
-0.588395
-0.324379
0.607037
-0.277959
-0.263630
-1.740015
-0.199349
1.104806
0.644111
0.740116
-1.024476
0.209489
-0.239444
0.110479
0.490817
-0.813491
-0.663323
0.692932
-0.768735
0.654627
0.265145
0.589894
0.804507
-0.344825
-1.117458
0.632980
-1.212453
-0.740786
-0.336405
0.559858
0.569430
0.688532
0.008277
0.756424
-0.913447
1.786151
-0.494587
0.243148
0.660473
-0.833050
-0.358939
-0.476050
0.296394
-0.421206
0.425270
-0.573887
0.371062
0.070994
-0.759743
-0.874232
0.795675
0.770346
0.317663
-0.175325
-0.678728
0.226063
0.820737
-0.424123
0.267229
0.574318
-0.445801
0.531601
0.540239
0.256883
0.769596
0.469896
-0.792588
0.285324
-0.140383
-0.641020
-0.686266
-0.044852
-0.561743
0.428026
-0.088556
0.762305
0.550201
-0.306151
0.535520
0.108413
-0.421136
0.677874
-0.300789
-0.061204
-0.300068
0.564476
-1.167698
0.940143
-0.820215
0.274760
-0.786125
-0.832147
0.939344
-1.172836
0.520596
0.368472
0.671002
0.219414
-0.850202
-0.435462
-0.591954
0.170822
0.304370
-1.446569
0.356407
-0.264436
0.890672
0.606090
0.115573
-0.490029
-1.040228
1.098582
1.643267
-0.309066
-0.036911
0.084683
-0.434045
0.700959
0.352609
-0.224397
0.712747
0.539620
-0.652507
-0.861817
-0.399554
-0.847083
0.214574
-0.744269
0.125869
0.119097
0.730857
-0.296247
-0.096796
0.782071
-0.474542
-0.470478
0.064840
-0.525531
-0.656216
-0.659914
-0.388473
1.000500
0.395185
-0.427227
-0.027525
0.842738
-0.227113
0.872178
-0.163431
0.166499
-0.630472
0.267758
-0.058605
0.153880
0.118987
1.295996
-1.110530
-0.370192
0.125617
0.489881
-0.731638
0.006599
-0.574986
-0.421519
-0.652948
-0.729970
-1.125252
-0.378210
-0.676114
-0.621086
0.665582
0.505653
1.059995
0.386659
0.425904
0.651209
1.167141
-0.849512
-0.163095
0.601636
-0.759327
0.262892
0.054947
0.237533
0.581219
-0.054901
0.416834
-1.128009
0.215666
0.836530
0.247828
-0.846132
-0.691900
0.673951
0.192389
0.589211
0.898748
0.635295
-0.050926
-0.418682
0.221205
0.027480
0.102762
-0.642964
0.089177
-0.302429
-0.299752
-0.552635
0.508958
0.615416
-0.817592
0.113068
0.131596
0.940288
0.096872
-0.579746
0.600334
0.135954
-0.325894
-0.410071
-0.780381
-0.695032
-0.082373
-0.018343
-0.436571
0.761249
-1.068789
0.086092
-0.202373
-0.387669
0.629647
-0.707281
-1.449512
0.760843
-0.152153
0.458974
0.180987
-0.574938
0.179326
1.592307
-1.203028
0.961214
0.687484
0.283578
0.157630
-0.057118
0.733457
-1.610005
0.185986
0.806036
0.028563
0.263945
-0.497157
-0.342340
-0.410653
0.728721
-0.696900
-0.095570
0.082910
-0.963912
0.016077
-0.229755
0.682349
-0.673505
0.044052
1.374400
0.163083
-0.053952
-0.795239
0.213983
-1.046324
0.290248
-0.891629
0.495565
-0.634585
-0.384175
0.036383
0.701204
0.177612
-0.695745
-0.146379
0.852820
0.577051
-0.564668
1.150825
-0.980509
-0.007629
-0.909164
-0.455076
0.732147
0.769985
0.039945
-0.374902
0.406452
0.488907
0.716058
0.061145
0.598737
-0.316983
0.500926
0.400674
-0.082892
0.870116
-0.121831
0.335276
0.171017
0.612811
-0.008320
-0.682472
0.486010
0.244260
0.401469
-0.009886
-0.552276
-0.566844
-0.544875
0.234485
-1.182462
-0.063539
-0.107345
0.180364
0.075991
-0.736813
-0.825107
-0.429536
0.400703
-0.449701
0.736492
0.006077
1.115249
-0.120778
0.442916
-0.139045
-1.741654
-0.032312
-0.636714
0.833825
-0.395813
0.836696
0.539249
0.383615
0.644340
-0.416901
-0.756388
0.223028
1.198702
-0.359659
-0.123447
-0.830039
-0.415195
-0.475819
0.897692
-1.117484
-0.569743
-0.899698
0.410582
1.046347
-0.313886
0.181710
0.884440
0.563765
0.850330
-0.713967
-0.199440
1.039479
-0.452137
0.158616
-0.081912
0.623916
0.957731
-0.832672
0.052534
0.029153
-0.120455
-0.235089
-0.586315
0.474383
0.623014
0.292327
-0.219867
0.728629
-0.204622
-0.318951
-0.550654
0.085222
1.034273
0.714421
-0.334660
-0.425201
-1.091735
-0.746391
-0.725420
-0.661078
0.310526
0.431632
-0.824176
0.078815
-0.345431
-0.646296
-0.841110
-0.702236
0.769626
0.314601
-0.540962
-0.016456
-0.246591
0.436956
0.655121
-0.308158
0.237739
0.739567
-0.974745
0.522958
-0.715448
0.030927
-1.192559
-0.842615
-0.849712
-0.534650
-0.803518
-0.925426
1.379553
0.506195
-0.260679
0.607060
-0.837729
-0.134340
0.173032
-0.692645
0.314419
0.821898
0.320036
0.504955
-0.323405
-0.925765
0.430963
-0.572565
0.456335
-0.877674
0.001530
0.211997
0.340917
-0.640464
-0.042091
-0.811915
0.626070
-1.005392
-0.175393
0.567020
0.135311
-0.431532
-0.388433
0.071769
0.813168
-0.827957
0.009585
0.402368
0.076811
-1.732463
0.535999
0.253284
0.518229
0.378150
0.432016
1.080565
1.433308
0.037157
-0.074601
0.177622
0.398314
0.321056
0.125064
-0.635519
-0.305602
0.191378
-0.531572
0.453774
0.368140
1.108019
-0.622842
-0.496825
-0.667228
-0.724683
-0.096994
0.221826
-0.096029
0.493222
0.925671
0.878137
0.118516
0.265139
1.574399
-0.934312
0.317729
-0.597001
-0.526523
-0.642830
-0.391073
0.460761
-0.109934
1.159421
-0.298547
-0.821893
0.022069
0.693622
0.211343
1.385760
0.667513
0.200624
0.079390
0.758825
-0.249433
1.103880
-0.471916
-0.195037
0.724741
0.842884
1.492767
0.344495
0.945657
-1.029110
-0.207622
0.727801
-0.384231
0.397980
-1.002334
-1.076441
0.317733
-1.037828
0.202737
0.237886
-0.240669
1.645071
0.085087
-0.855126
-0.373755
-0.047510
0.177737
1.206870
-0.570191
0.982008
0.037563
1.007793
-0.029992
-0.548989
-0.839415
-0.375454
-0.720843
0.703521
0.914340
0.351234
0.217297
-0.514905
1.374656
-0.571355
-0.702954
0.165034
-0.966983
-0.437723
0.208294
-0.271261
-1.099105
-0.650918
-0.864224
-0.998746
0.791976
0.935979
0.640965
-1.109534
-2.100057
-1.051380
-0.603814
0.731086
-0.590480
0.323626
0.818969
1.057201
0.730812
0.719067
-0.788881
-0.080834
-0.709960
0.926706
0.529135
-0.323496
0.041582
-0.023298
1.009967
0.845315
-1.063270
-0.814620
-0.040740
0.354098
0.506626
-0.998328
0.087466
0.566143
0.159854
0.056879
0.394275
0.570192
0.049634
-0.116057
0.272221
0.246161
0.837860
0.012335
0.108203
0.350845
-0.023971
-0.261535
-0.713988
-0.480953
-0.327663
0.847485
-0.886174
0.027929
-0.408947
-0.866848
0.883105
0.203926
0.413343
-1.314192
0.492290
-0.027145
0.087329
-0.608126
-1.206915
-0.176286
0.184150
-0.512319
-0.299238
-1.464011
0.327340
0.164031
-0.491791
-0.209213
-0.253948
0.539598
0.195578
0.446782
0.166885
0.464008
1.161108
0.313447
0.153755
0.012990
-0.331324
-0.591957
-0.546394
0.676192
0.092377
0.252273
0.632432
0.547374
-0.037428
0.150740
-0.926007
-0.783515
0.687266
0.327794
-0.187192
-0.757731
-0.678550
0.727818
-0.030126
0.389367
-0.035201
0.121656
0.170476
-0.932299
0.896858
0.323141
0.126142
0.878377
-0.523927
0.653492
-0.222014
-0.666159
-0.405277
-0.411916
1.097364
1.205587
-0.891870
-0.688705
-0.381302
-1.154780
0.319749
0.806862
0.232806
0.197454
-0.590561
0.057340
-0.499904
0.633804
-1.186863
-0.140634
1.098423
-1.498561
-0.255090
0.876346
0.672435
0.236411
-0.224243
1.006217
-0.787436
0.598404
-0.436743
0.217529
-0.840799
-0.208712
0.267446
-0.358518
0.169620
-0.174246
-0.072507
1.349444
-0.200979
-0.347000
-0.738477
-0.888174
-0.071153
-0.498968
-0.200837
1.241453
0.740610
-0.598248
0.156049
-0.713579
0.149003
-0.841285
-0.221078
-0.563998
0.466481
-0.052315
-0.768767
-0.149630
0.290636
0.431290
-0.058823
-0.788313
0.729984
-0.634856
1.167589
-0.942645
-0.629594
0.325514
-0.888598
-0.060802
-0.468717
0.337170
-0.903857
-0.880931
-0.488708
-0.044957
-0.061916
-0.274517
1.057034
-0.577017
0.038266
-0.240016
-0.696489
-0.119122
0.721726
0.552265
-0.637398
-0.750095
0.539261
0.615637
0.134725
-0.883261
-0.435902
-0.226101
0.961795
-0.657853
-0.462591
-0.231264
0.430494
-0.734861
-0.915641
-0.108778
-0.582108
0.255541
0.006738
1.169327
0.210143
-0.565945
-1.046065
0.968404
-0.460147
0.697052
0.703764
0.450963
-0.764841
-0.683676
0.632451
0.743898
-0.052978
-0.424927
0.783079
-0.738353
-0.740077
0.326476
-0.591427
0.717437
0.223120
0.877933
-0.774365
-1.271988
-0.555447
0.831967
0.889867
0.661954
1.503028
0.499887
-1.084388
1.058007
0.079525
0.395081
-1.007446
-0.337994
-0.060346
-0.308360
0.652925
-1.157654
0.903774
0.504211
0.263788
0.111965
0.401819
-0.256458
-0.052246
-0.123421
0.048851
0.443124
-0.468467
1.048252
0.388291
0.015653
-0.066703
-0.647990
-0.986065
0.034370
-0.640332
1.445229
-0.451192
0.240872
-0.225488
-0.801859
0.450217
-0.047360
-0.887485
0.527805
0.239991
-1.649423
-1.208039
-0.443275
-0.014033
-0.576003
0.054133
-0.272894
0.516346
-0.412330
-1.293176
-1.652672
-0.449108
-0.013986
0.260282
0.339332
-0.772779
0.323161
0.238541
0.162261
0.259941
-0.483514
-0.529066
-0.332011
0.331237
0.736640
0.120651
-0.602631
1.077668
-0.729972
-0.374083
-0.819245
0.100620
-0.916443
1.134802
-1.372485
-0.447605
-1.266356
0.904438
0.750411
1.211353
-0.826256
0.510672
-1.092368
0.264664
-0.042210
0.325082
0.389952
-0.627683
-0.287592
0.252449
-0.564059
-0.444578
-0.471726
-1.044681
-0.257064
0.438657
1.051096
-0.453270
1.134121
-0.990603
0.023426
-0.529255
-0.554993
-0.090895
0.547037
0.133764
0.867710
0.236953
0.706689
-0.724732
0.973980
0.331680
0.449665
0.739748
-1.002392
1.391785
-0.647772
0.549320
-0.963369
0.954495
-0.185264
-0.295885
-0.295683
-0.250598
-0.526074
-1.023192
-0.824280
0.010769
-0.925659
-0.193021
0.936925
-1.022802
0.266043
0.310450
-0.373630
-0.040731
0.106108
0.132610
-0.567134
-0.486185
0.408913
0.277045
0.904277
0.660541
0.366794
-1.227440
0.068858
0.234299
0.715756
-0.541357
0.820719
0.390107
0.373797
0.030491
1.153649
-0.305694
0.486317
-0.429205
-0.060153
-0.212278
-0.373237
0.869116
1.096059
-0.054136
-0.739089
0.236291
-0.738796
-0.064431
-0.084179
0.788449
0.080411
-1.048494
1.000369
-0.886184
0.755902
-0.856053
-0.479496
0.841468
0.197665
0.982228
-0.142993
-0.523101
-0.095560
-0.418102
0.191314
0.928325
1.062028
-0.989441
0.398745
-0.921722
0.690549
-1.358936
-0.358554
-0.005116
0.601089
0.495521
0.100007
-1.214101
0.203535
-1.006455
-1.111221
0.579333
0.705342
0.693816
-0.202511
0.470605
-0.374488
0.316887
0.117196
-0.114722
-0.659166
0.100490
0.025414
-0.156892
-1.042341
-0.228899
-1.209805
0.153800
-0.049594
1.199362
-0.713351
-0.918104
1.215998
0.788201
0.163138
1.063710
-0.815269
0.539333
-0.114699
0.238977
0.197044
-0.608293
0.262793
1.380494
-0.091822
-0.295655
-0.454719
-0.957884
-0.354832
0.995781
0.688311
0.626985
0.373101
0.849190
1.020185
-1.182043
-0.473539
-0.127509
0.874135
0.634801
-0.248034
1.036834
0.259483
0.470323
0.202717
0.721579
-0.616162
0.060888
0.489733
-0.424227
-0.564330
0.762385
-0.547675
-0.412212
-0.328628
-0.029190
0.209291
-1.679536
-1.553614
-0.131579
0.710479
0.348574
0.478013
1.226936
0.231395
0.169906
0.961413
-1.161462
-1.096596
0.412911
-0.110737
1.191361
-0.500002
0.333154
-1.169938
1.209087
0.744636
-0.609644
-0.819873
-1.081023
0.398182
0.631644
-0.367421
0.157175
1.332936
-0.097725
0.370832
-0.304436
-0.303493
-0.348253
0.285596
1.094352
-0.395283
0.470455
-0.094754
0.551090
-1.161955
-0.139143
0.379540
-0.772693
0.103598
-0.449405
0.262084
-0.167710
-0.239407
-0.039727
1.108860
-0.025348
0.299485
-0.052552
0.137404
0.044496
-0.020887
-1.484015
1.544617
-0.894884
-0.367572
0.568793
1.344768
-0.572429
0.598825
0.232356
0.720729
-0.098714
-1.041025
-0.532994
-0.427838
-0.719059
0.546463
-0.372194
0.956023
0.572783
-0.271683
-0.778672
-0.346400
-0.271149
-0.216129
0.239643
1.554938
0.106244
0.604855
1.028765
0.364670
-0.516782
-0.298016
0.296305
1.223259
0.598809
1.203433
-0.279439
0.723494
-0.332933
-0.447876
-0.824786
-1.370751
0.050144
-0.981132
0.662807
0.321619
-0.195531
-0.066243
0.811753
0.682626
-0.287266
0.654393
0.219811
0.426673
0.156921
0.250514
-0.196614
0.081050
0.080102
-0.128918
0.805699
-0.999395
-0.185074
-0.635665
-0.347195
-0.481125
0.289988
-0.024178
-0.403422
0.358834
0.625688
-0.438675
0.094760
-0.096563
-0.134235
-0.145023
0.714355
-0.257896
0.469490
0.226429
-0.677830
-0.582111
-0.112152
-0.208432
-0.285054
0.355215
0.043652
0.815384
0.169341
-0.184153
-0.952550
-0.509174
-0.385302
0.020930
0.776607
-0.709662
-1.204287
-0.574112
-0.183325
-0.216847
-0.265644
0.762206
0.114913
-0.364714
-0.622887
0.398367
-0.278372
-0.342545
-0.785221
0.572314
0.203151
1.011368
-0.141960
0.820717
0.518609
1.214745
-1.002643
-0.975402
0.251965
-1.387657
-0.209887
0.164478
0.484194
-0.613688
-0.011883
-1.060967
-0.445783
1.411065
-1.272688
-1.045425
1.225479
-0.032460
0.390203
0.975966
0.706480
-0.875805
-0.216750
0.335780
0.274517
-0.215690
-0.998743
-0.437487
0.193733
0.374389
0.467322
0.642698
0.077341
0.297380
1.055315
0.043573
-0.413560
0.789746
0.498757
0.663102
-0.409716
-0.169649
-0.815464
-0.142584
0.034417
-0.083911
-0.265920
-0.620542
-0.238020
-0.339179
-1.194102
-0.147416
-0.685744
0.097311
0.388534
-0.232499
0.213586
-0.798118
0.607529
0.311734
0.651747
-0.394181
0.125300
-0.287075
0.058715
-0.576178
0.832631
0.311193
-1.036606
0.329276
-0.820575
-0.018842
0.216017
-0.260501
0.481385
-0.439656
-0.389829
-0.081568
0.722453
1.087103
-0.763820
0.105526
-0.790354
-0.252100
-0.156407
-0.476848
-0.320360
-0.362448
1.015388
0.666756
-0.470114
-1.257279
-0.188236
-0.535669
-0.010303
-0.970791
-0.846428
0.551930
-0.306374
0.796986
0.107700
1.196990
-0.596307
-0.576602
0.675788
0.594669
-0.063367
-0.043139
-0.860914
0.681451
-0.422738
-1.463809
-0.917748
0.064285
0.596493
-1.060519
-0.349601
0.533296
0.357537
-0.660595
0.166440
0.224203
0.280478
-0.765842
0.758773
0.608374
0.434152
-0.073988
0.298921
-0.907567
0.461143
-0.009384
-0.012329
0.062812
-0.638533
-1.210269
-0.598616
-0.239806
-0.422981
0.526353
-0.298029
-0.472861
0.079151
0.633317
0.596766
0.438176
0.305424
0.204886
0.667467
0.259769
-1.254691
0.403776
0.899761
-0.075961
0.237500
-0.235301
-0.308651
0.092776
0.570332
-0.358383
0.866622
-0.631662
-0.179550
0.272052
0.035431
-0.433649
-0.578359
-1.199807
-0.481447
0.040420
-0.491344
-1.092662
0.123042
-0.426897
-0.660646
-0.292392
-0.979980
-0.573665
0.073906
0.642804
0.720508
-0.402749
-1.015282
-1.230518
-0.139785
0.171252
-0.036317
-0.151032
-1.153721
0.165059
-0.643150
0.222482
0.102974
-0.001029
0.182421
-0.713578
-0.989702
0.844215
1.582217
-0.483641
-1.569305
-1.111572
-1.016574
0.478890
0.145211
1.341150
-0.363151
0.999490
0.198984
1.231778
-0.406348
-0.206586
0.094249
0.403329
-0.395128
0.213031
0.396776
0.196020
-0.761419
-0.261557
-1.341491
-0.264887
0.854099
-0.311892
1.450766
0.646957
-0.175290
-0.099947
-0.078624
0.245148
0.601772
0.580832
0.675559
-0.197069
0.176302
-0.124398
-0.315518
0.805253
-0.098533
-1.118536
-0.369265
-0.644811
-0.224692
-0.090646
-0.775832
-1.093440
-0.720969
0.299024
0.212850
-0.795549
0.561792
0.586281
-0.492010
-0.089017
-0.618813
-0.167449
-0.451876
0.030338
-0.299477
0.623064
-0.825134
0.028738
0.917300
0.375277
1.087603
0.214042
0.398707
-0.590456
-0.198438
0.204117
0.838064
0.753015
-0.718520
0.967467
-0.132759
-0.847445
-0.736706
0.135307
-0.334342
-0.600126
0.664117
-0.400026
-0.682859
0.622312
-1.200023
-0.816991
0.758746
-0.618073
1.107625
0.616797
0.472254
-0.877299
0.022399
0.477017
-0.111928
0.871231
-0.836803
0.672653
0.806185
-0.190643
-0.849058
-0.810851
0.225784
-1.182126
0.330596
-0.074107
0.608776
1.160669
-1.023301
0.073450
0.037930
0.645141
0.318124
0.310762
1.246244
-0.791867
0.107434
-1.948299
0.616784
-0.262633
-0.434551
0.255667
0.148761
-0.115939
-0.394524
-1.336919
-0.503877
-0.691501
0.200366
-0.137093
1.041550
1.368561
0.269319
-0.100906
0.367383
0.427354
0.052404
0.085042
-0.568166
0.278911
-0.595382
0.201168
-1.471270
-0.728603
-1.229369
-0.561288
0.383928
0.327372
0.583691
0.757863
-0.440428
-0.097279
1.151397
0.068712
0.542698
0.248694
-0.206844
-0.155115
0.790329
0.052067
0.915490
1.329820
0.122922
-0.903249
0.746294
-0.676706
-0.522142
0.684013
-0.938914
0.695436
-0.889949
0.855829
0.205196
-0.195946
0.030177
-0.751859
-0.622712
0.704130
0.821710
0.242952
1.118661
-0.529747
0.011264
-0.703081
-1.262706
-0.629921
0.379680
0.517784
0.561736
1.223545
-0.634304
-1.236467
-0.517516
0.846239
0.505784
0.195543
-0.271292
-0.916034
0.482450
-0.202031
0.037785
0.305548
0.337726
-0.508500
0.113595
-1.074659
0.887456
0.110858
0.869248
-0.370845
-0.342815
-0.846182
-0.675163
0.351373
0.846329
1.166274
0.524217
-0.374061
-0.524151
0.457564
0.145697
0.476655
-0.412389
-1.321831
-0.501222
0.221615
1.068811
-0.774569
-0.091472
0.085576
0.393540
-0.911356
-0.514603
0.088752
-1.739883
-0.036558
1.211901
-0.292987
-0.507061
0.101675
0.018484
0.863079
0.684922
-0.694762
-0.005496
0.874989
1.327534
0.825758
-0.623316
0.281742
-0.284354
1.005190
-0.054182
0.535710
-0.463963
-0.000395
-0.308827
-0.356214
0.915275
0.355485
0.172757
0.182329
0.070608
-0.661658
-0.273904
0.091283
0.137509
-0.997826
-0.125306
0.137891
0.470954
0.381408
1.167630
0.756544
-0.752857
-0.031999
0.568953
-0.322693
0.517946
-0.557009
1.263854
0.137070
-0.954414
0.136110
-1.145685
-0.151489
-1.081610
-0.042887
0.972257
-0.132379
-0.911731
0.354765
1.259517
0.150400
-0.781801
0.243555
-0.078923
0.450208
-1.359058
-0.144443
0.231328
1.397994
0.333108
0.659963
0.558566
-0.095294
0.631808
0.262587
-0.037207
1.114978
0.564248
-0.692887
-0.537098
-0.074649
-1.042025
0.149014
0.657946
-0.971241
0.565928
-0.359435
0.081999
-1.685458
-0.827734
-0.360069
-0.359182
-0.019877
-0.394978
0.379211
0.438559
-0.083167
0.023859
0.214110
0.326016
-1.242983
0.062636
1.110967
0.082156
-0.903802
0.475960
1.112828
0.485729
-1.250743
0.213981
-0.658429
-0.884234
-0.600737
0.611735
0.651130
0.542647
-0.616139
-0.632114
0.475849
0.271572
0.400459
-0.737512
-0.578702
-0.134132
0.033182
-0.893763
-0.652807
0.550549
-0.188277
-0.340329
-0.125562
0.506203
-0.328297
0.213391
0.929870
0.724495
-0.308176
0.699242
-1.030179
-0.092023
0.200070
0.071961
-0.278265
0.032157
1.273654
0.775766
0.977526
-0.585830
-0.336128
0.550083
1.087661
-0.106922
0.550176
0.715334
0.768193
-0.594972
-0.205069
-1.040754
-0.680580
0.501825
-0.390600
0.007152
0.020058
-0.304941
0.040630
0.077376
-0.601362
-0.656790
0.042411
-1.047027
-1.139025
0.241826
0.735288
0.241553
0.679002
-0.560714
-0.292861
0.646213
-1.212191
-0.389608
0.271571
0.450550
0.277598
0.445162
1.068912
-0.888371
-0.134965
0.110186
-0.496008
0.680635
-0.391039
0.525268
0.063029
1.765922
-0.000480
0.352515
0.143181
0.325257
0.062914
-0.327995
-0.253256
0.643422
-0.607029
-0.454322
-0.858558
0.179707
0.205315
0.765264
-0.683187
0.561947
0.057100
0.537791
-0.373425
0.727906
1.154213
-0.236679
-0.190220
0.603735
-0.491893
-0.189764
-0.505591
0.092176
1.091930
-0.258967
-0.876756
-1.413989
0.836394
0.318311
0.362778
-0.548054
0.035545
-0.125626
0.289699
-0.710899
0.455413
1.011898
-0.688318
-0.587903
1.293921
-0.631647
-0.544923
0.506831
-0.669391
-0.991059
-1.532812
-0.619305
0.307607
0.687159
0.108972
0.801774
-0.667882
1.197336
-0.942518
-1.493153
0.499848
0.574028
0.936427
-0.165341
-0.504578
0.448521
0.166063
-0.693072
-0.845664
-1.191992
1.108615
0.054390
0.339557
0.153742
-0.129138
-0.255006
0.480239
-0.514111
-0.138661
-1.051604
0.088656
-0.724428
1.430994
-0.092033
-0.379837
1.208599
-0.222750
0.956691
0.179121
0.435296
-0.252936
-1.049551
0.669547
0.538372
-0.839416
0.601913
0.267353
0.469155
1.312106
-1.182925
-0.226279
0.718002
-1.589940
0.108262
-0.847069
0.257974
-0.319840
-1.108654
-0.535320
-0.281900
0.512816
0.042885
0.955401
-0.334113
0.258495
0.308807
-0.331994
0.212034
0.183473
-0.180351
0.726906
0.413356
0.977522
0.415260
-0.736484
-1.747482
0.758579
0.114688
0.678044
0.384311
0.752458
-0.243491
-0.210166
0.079484
-0.766570
0.494716
0.104177
-0.281399
-0.856697
-0.061558
-0.062501
0.296428
0.241244
0.609349
0.423298
0.572760
0.209215
1.131113
0.339542
0.142731
0.585028
-1.568251
-0.253326
-1.091095
1.020621
-0.476415
-0.914480
0.478645
0.856240
0.571161
-0.219972
-2.283408
0.186867
-0.181065
0.062124
-0.612884
0.856316
0.367296
1.623017
0.270611
0.702737
-0.461406
-0.118862
1.632039
0.448706
1.862194
0.734305
0.863837
-0.654814
-1.485541
-0.172861
0.641799
-1.214795
0.498993
-0.375240
2.591506
1.668830
-1.630824
-1.231698
0.250267
-0.311426
0.315835
0.751745
0.260706
1.009537
-0.447837
0.441120
0.639218
0.475155
0.174222
0.555996
-0.290929
0.263796
-0.737061
0.929027
-1.153532
-0.283173
0.369434
0.746037
-1.884534
0.288188
-0.273268
0.683410
-0.176221
0.186725
0.522046
-0.558804
0.839263
-0.817842
0.209469
0.110087
0.091425
0.356759
-0.045449
-0.628536
-0.948713
-0.709760
0.864256
1.113198
0.703257
0.086252
0.565370
0.468009
0.415446
0.969220
0.662511
-0.744486
0.612880
1.088019
0.130441
0.602793
-0.049875
-0.085522
-0.858176
-0.651922
0.268284
0.543476
0.244159
0.238247
0.355094
1.269038
-0.261790
-0.668662
-1.220383
-0.605561
0.146859
-0.197495
-0.215515
0.292352
0.534259
-1.207300
0.399995
-1.114487
-0.522389
-0.498330
0.860000
0.854265
0.268057
-0.964530
-0.251467
1.382410
0.564222
-0.710334
-0.403078
1.094809
-0.979630
-0.792157
0.089605
-0.494221
-0.636862
0.018429
-0.510198
0.137619
0.359231
-0.437947
-0.195441
0.456842
-0.384059
0.758562
-1.332109
-1.134338
0.161612
-0.837060
-0.417890
-0.667648
0.035348
0.481267
0.023423
-0.416268
0.679523
-0.770430
-0.830340
-0.305248
0.316497
-1.447232
0.074283
-0.742783
-0.197929
0.968861
0.432906
0.562806
-1.308941
-0.076172
0.236945
0.725479
-0.404814
-0.222405
-0.603236
-0.555184
-0.003237
-0.627174
0.170408
0.574912
-0.670984
0.126394
-1.252550
0.486769
0.331835
-0.512695
-0.993333
1.845243
1.060664
-1.017592
0.099511
0.817125
0.848920
-0.784266
-0.312395
-0.329374
-0.795433
1.282811
-1.250294
0.297568
0.884877
0.607870
-1.474639
-1.275553
-0.309298
-0.892373
-0.419394
-0.327769
0.477845
0.952087
-0.897513
-0.013428
1.637193
0.493216
-0.302165
1.259067
-1.313441
0.046698
0.546217
-1.437494
-1.049129
0.524637
0.152000
-0.740406
0.296211
-0.655123
0.808121
0.323780
0.061092
0.677864
0.148910
-0.928944
0.295848
-0.246618
-0.030467
-0.188504
0.238445
0.090213
0.382271
0.608944
-1.303336
0.241062
1.098237
-0.856330
0.071030
0.643466
-0.720246
-0.627438
0.938549
-0.955393
-0.304366
-0.501135
0.019853
1.705782
0.066164
-0.932402
-0.018816
-0.215865
0.654377
0.595912
-0.454331
-0.508822
0.062004
0.545465
-0.935095
0.359273
0.448883
-0.247053
-0.163586
1.012868
0.532884
-0.062167
-0.836247
0.379361
-0.180117
-1.019910
-0.755562
1.228826
0.573761
0.367425
-0.553266
-1.249543
0.403012
-0.686400
-0.428800
-0.524493
-0.420420
0.222898
0.285463
-0.131155
0.545616
0.054056
-0.881564
0.471377
-0.055236
-0.566391
0.332308
0.324755
0.721129
0.308997
1.361004
0.436188
-0.357570
2.156723
0.456108
0.499276
0.839073
1.072412
-1.219285
1.255599
-0.076740
0.686449
-0.486654
0.043174
-0.375823
-0.724245
-1.654271
0.904484
-0.910265
1.226318
-0.583073
-0.348990
0.173657
-0.563710
0.126386
0.214805
1.318936
-0.558938
-0.198992
-0.780427
-0.465047
-0.613935
0.356612
-0.439358
0.087625
0.419878
0.677665
0.740107
-0.188108
-0.429008
-1.005713
0.275206
0.114493
-0.000941
-0.199083
-0.797338
-0.077320
0.975118
1.019234
0.153275
-1.172410
0.399253
0.772503
-0.464207
-1.184001
0.095525
0.696030
0.875582
-0.304591
0.677553
-0.110404
-0.249832
0.657326
0.005443
0.122199
0.357733
0.761577
0.753439
0.050353
-0.438802
0.101760
-1.191675
-0.369421
-1.254735
-0.307110
-0.519657
-0.796195
0.321809
-0.713695
0.243114
0.942744
0.463201
0.010285
-0.296765
-1.190786
-0.037031
-0.782268
0.589379
0.650052
0.603307
0.926514
1.158385
-0.504471
-0.197022
0.400924
0.582974
1.090140
-0.161165
-0.855227
-0.978116
0.610042
0.412659
-0.748902
1.029119
-0.038076
-0.332645
0.716154
-0.037333
-0.543911
-0.579915
1.725951
0.373356
-0.937740
-0.321226
-0.268546
-0.047526
0.998265
-0.830342
-1.265302
1.258162
0.021213
0.514080
0.855022
-0.608184
0.145343
1.097310
0.058548
0.107355
1.196557
-0.442140
0.048016
0.196144
-0.265657
-0.135035
0.069168
0.163951
0.714299
1.163314
1.291398
-0.241980
0.309550
0.648579
0.778410
-0.620001
0.237903
0.820332
-1.270191
-0.458069
0.034252
-0.319055
-0.565758
0.959564
0.188438
1.105006
-1.464689
-0.654143
0.277209
0.144501
-0.010929
0.266533
-1.243411
-0.006420
-0.324052
0.268076
0.479963
-1.283894
0.725089
-0.989402
0.844124
0.506721
-0.574891
-0.273040
-0.543284
0.418370
1.461346
-0.728261
-0.387300
0.111709
-0.037553
0.172692
-1.334109
0.717111
0.289165
0.172414
0.891748
-0.250825
-0.505781
-0.625038
0.120555
0.815796
-0.396247
0.891017
0.196852
0.684267
0.257265
0.450881
-0.623448
0.640247
-1.029419
-0.433621
0.416468
-0.229004
0.451469
0.133460
1.849795
-0.315723
-1.677636
-1.077614
0.625590
-0.390070
0.630959
0.645759
0.529448
-0.584785
-0.365694
0.617679
0.445339
1.204271
0.328646
-0.111982
-0.269493
1.279569
-1.131621
0.096934
-0.953460
0.860012
0.597116
-0.930283
-0.378570
0.342771
0.678203
0.214138
-0.390458
1.415467
-0.218867
-1.005845
-0.368774
-0.886633
-1.642564
-0.221645
-0.372441
0.109877
0.936478
-0.232247
-0.840331
-0.987547
1.461929
0.079975
-0.662699
-0.366689
-0.447498
-0.228919
0.727741
0.839035
0.947396
0.541923
-0.566641
0.402354
-0.061798
0.793970
0.321684
-0.759416
0.348861
0.226207
0.748033
-0.334871
0.751729
0.531238
-0.979788
0.158399
-1.279120
1.009875
0.216377
-0.879642
-0.685320
-0.414637
-0.263352
-0.006432
-0.106905
-0.445856
0.650698
1.033463
0.510596
-0.094930
0.066633
0.873135
0.158284
-0.667905
0.410953
-0.812012
-0.725044
-1.617635
-0.138125
-0.261934
-0.939644
0.751571
-1.801720
1.537921
-1.118157
0.981611
-0.582700
0.996617
0.867354
0.672581
0.371423
-0.901718
1.815116
1.543285
-1.352689
-0.230683
-0.674168
0.772772
-0.662505
1.841304
-1.216335
-1.013864
0.335156
-0.537863
0.307699
-0.724429
0.314282
-0.272927
0.393417
0.687008
-0.194667
-0.864550
0.088486
-1.034477
0.400465
0.347190
2.143707
-0.903161
0.353593
-1.014188
-0.481516
0.613830
-0.365445
0.115451
0.549167
0.363738
-1.238894
0.439599
0.353256
-0.010794
-1.160809
-0.871259
-0.740924
0.722160
-0.298456
-0.783452
-1.187719
0.516584
1.072818
0.282226
-0.989252
0.107659
-0.319096
0.003000
-0.300105
-0.789921
-0.119673
-0.100988
-0.682214
-0.753352
0.067328
0.013533
-1.093755
-0.705687
1.692444
0.779469
0.283640
-1.064612
1.321370
-0.115883
0.294577
-0.146580
0.896776
0.054572
0.375102
0.228807
-0.698086
-0.187888
0.740341
0.770833
0.687679
-0.406110
-1.020651
0.121039
0.588608
-0.170351
-0.100287
1.151053
-0.008915
-1.063533
0.851029
0.334532
-0.190072
-0.771099
0.082167
-0.299314
0.616664
-0.243036
0.822148
0.024272
-0.131587
-0.499901
0.195384
-0.116850
0.665687
-0.793824
1.250842
0.172723
0.805295
-0.541962
-0.638417
0.237676
0.157582
0.358671
-0.719018
0.486409
0.000341
0.345177
0.757150
1.114517
0.132915
-0.621645
-0.086683
0.000150
-0.822131
1.182103
0.555512
0.828796
1.659930
-0.801751
-0.075513
-0.597735
0.708959
-0.686959
-1.105864
0.485064
-0.141651
0.463944
0.596446
-0.000865
0.068387
-0.416119
-0.163031
1.149075
-0.741221
1.014285
-0.105357
0.595680
0.025688
0.009597
-0.218482
0.238950
-0.862451
-0.222986
-0.051244
-0.017002
-0.898701
0.163094
1.241332
-0.517568
0.369325
-0.478514
0.002608
0.063299
0.006059
0.072408
-0.176800
0.199778
-0.438587
0.224434
0.295451
-0.039409
-0.254764
0.702940
-0.256963
-0.166444
1.035122
0.586087
-0.782189
0.134628
0.385322
0.681163
0.173718
-0.350634
0.342766
0.121702
-0.942805
1.067978
0.411451
0.798471
0.372083
-0.003219
0.553897
0.425192
0.530165
0.645370
0.249991
0.101395
0.388108
-1.117163
-1.177688
0.901549
-0.266978
0.614199
1.258652
1.400136
-0.836193
0.871131
0.661819
-0.014743
-0.642001
0.483229
0.017530
0.150149
-0.008112
-0.159401
-0.895006
1.762614
-0.221393
-0.670493
-0.193584
0.208922
-0.882504
0.377303
1.080889
0.461946
-0.504109
-0.001155
-0.010976
-0.950454
0.513232
0.112854
-0.273226
1.478599
-0.277311
-0.786608
0.076865
0.481237
0.589445
-1.436102
0.538057
-0.472046
-0.566267
-0.041793
-0.454609
1.811582
-0.379632
0.648048
-0.849392
1.096102
-0.118478
0.501863
-0.915292
0.669272
0.869197
0.868210
-0.625523
0.054910
-1.771478
-0.033769
-0.304691
0.020469
0.157584
-1.010416
0.620505
0.146565
0.691673
-0.462974
1.084216
-0.612673
0.381688
0.959468
0.379454
-0.235036
0.844675
1.392320
1.132195
-1.121969
-0.639426
0.128704
-0.253792
-0.625211
-0.304338
-1.101869
-0.884072
0.177291
-1.126509
2.038433
0.218418
1.615434
0.904370
1.328427
-0.675234
0.626637
0.050528
-0.889605
0.662747
-0.301423
-0.083566
-1.042904
-1.436588
-0.928954
0.048990
1.618898
-1.182355
-0.075666
0.039993
-0.110987
0.795973
0.565377
-0.153259
-0.869529
-0.064825
-0.318056
0.698001
0.871595
0.090213
0.739746
0.160795
0.112462
0.329404
-0.717369
-0.197252
-1.201830
0.363571
0.502242
-0.888912
-0.763847
-0.515811
0.571938
0.023239
0.604667
0.890634
0.190219
-1.007869
-1.194351
0.917888
-0.541694
0.715673
-0.200398
0.273984
1.311512
0.730674
-0.125264
0.458410
0.063898
0.099115
-0.706472
0.353842
0.158632
0.981660
-0.177449
-0.355252
0.762636
-0.044793
0.260313
0.720283
-0.126648
0.364207
-0.201750
-0.414534
-0.052235
0.023486
-0.679879
0.469818
-0.566175
-0.375401
-1.072396
-0.323251
0.592152
0.058949
-0.724609
-0.368312
-0.894145
-0.287351
-0.084848
-0.901596
-0.885752
0.232919
-0.278814
-0.334543
-0.846085
0.709507
-1.180885
0.164296
-0.004662
1.742956
-0.107788
-0.250484
-0.303087
-0.857431
-0.381608
-0.068710
-0.828603
0.313843
-0.426852
0.582130
0.095998
0.175086
-0.310200
-0.476638
0.505199
-0.120292
-0.515808
-0.342639
1.113968
0.041953
0.864870
-0.800361
-0.763669
0.198168
-0.689590
-1.177511
0.230608
-0.198292
0.763216
0.230041
-0.799331
0.813071
0.171593
-0.956008
1.614204
1.121786
-0.274175
-0.502976
0.883326
0.604012
-0.489535
-0.397474
-0.556539
-0.270044
-0.779831
0.684403
0.459562
1.622969
-0.273817
1.049806
1.000380
-0.302232
0.331476
-0.952143
-1.106250
0.103247
-0.161697
-0.513290
-0.696541
-0.954185
-0.294843
0.549992
-0.951950
0.180781
-0.364495
-0.899475
-0.673479
-0.597817
-0.234536
0.300470
-0.061742
0.846774
0.978722
-0.746933
-1.293481
-0.920239
0.301471
-0.538696
0.572919
0.191418
0.551993
-0.525324
0.011421
0.407855
-1.502158
-0.115258
-1.017904
0.340413
0.388914
0.393988
-1.289665
0.547476
1.311327
1.040014
0.127041
-0.837882
0.438060
0.423338
0.059535
-0.059934
-0.596923
-0.631106
-0.358867
-0.206563
-0.449683
-0.943139
-0.536905
-0.042304
-0.964460
-0.468662
0.714792
1.050976
-0.420140
-0.317898
-0.300971
0.624803
-0.758385
-0.807448
0.796884
-0.748867
-0.970904
-0.255406
-0.410102
-1.358782
-0.937443
-0.305734
-0.116127
1.046930
0.116167
0.859695
-0.036651
-0.106594
-1.066747
-0.598873
-0.007394
0.379201
1.150797
-0.336693
-1.407282
0.707076
1.335568
-0.474923
-0.813138
0.647698
0.883754
0.348916
-0.494309
0.656343
-1.237049
-0.238517
0.383135
0.877023
-0.249089
0.679865
0.326088
0.424626
-0.769683
1.262269
0.029315
-1.446051
0.638842
0.510487
0.497023
-0.405587
-0.247298
-1.693382
0.351722
0.552300
0.750876
-0.742581
0.503642
0.020512
-0.845252
-0.016988
-0.854188
0.658852
-0.055205
-0.366805
0.769595
-1.248225
0.102231
-0.166240
0.765066
0.652291
-0.718101
-0.860061
-0.240414
-0.473914
0.149375
1.061036
0.603849
-0.961452
0.229063
-1.805802
2.296848
-0.199635
-0.070787
0.886721
0.787018
0.125006
-0.777545
-0.185050
-0.749655
1.468031
0.755199
-0.601759
0.119298
-0.141331
0.270568
0.573646
0.418601
-0.360883
-1.088024
-0.434895
0.198632
0.790704
0.366014
1.575599
0.379771
-0.031173
0.528170
0.058746
-0.105305
-0.322125
-1.427235
-0.378591
-0.812804
0.969268
-0.157568
0.363182
0.135490
-0.586456
0.000315
-0.674927
-0.130003
0.840911
0.170088
-0.455580
0.420496
-0.235945
-0.357144
0.690391
-0.780601
0.644907
0.278940
-0.562158
-0.275321
0.824671
0.949459
-0.835561
0.510282
-0.359851
-0.435365
-0.479072
-0.520112
0.099760
0.583741
-0.338189
-0.945306
0.083125
-0.529799
-0.572576
-0.323555
-1.420968
0.439259
-0.239166
0.054881
1.273900
-0.135472
0.388309
-0.214022
-0.396803
-0.515695
0.258827
-0.026333
0.823428
-0.507684
0.601202
-1.284744
-0.319562
0.154511
-0.093071
0.337286
1.006659
-0.371830
-0.794105
-1.451551
-0.951396
1.129013
0.283475
0.194526
0.632196
0.487049
-0.068050
-1.419395
-0.861809
0.636162
-0.785193
0.630952
-0.817936
-0.846988
-0.610091
0.130927
0.303521
-0.199750
-0.016329
0.133677
-0.240021
1.474914
-0.810865
0.145312
-0.205298
0.329119
-0.390459
0.434847
-0.707034
-0.784183
0.144007
-0.248844
0.405795
-1.309829
-0.682564
-1.289057
-1.532246
0.547231
0.314489
0.221326
-0.273016
0.471424
-0.171690
-1.362442
0.325443
0.311559
1.367366
-1.223864
-1.526649
0.421256
-0.130893
0.975476
-0.989886
0.323001
-0.177289
-1.229860
-1.154509
0.182443
1.107831
-0.646033
1.269217
0.392384
1.152407
-0.201311
0.334660
-0.965344
-1.348914
2.017697
-0.346315
0.689662
0.521453
0.655949
0.291467
0.446475
1.071742
-0.973697
-0.525107
-1.366837
0.246341
1.605975
0.316792
0.175363
-0.089472
0.286134
0.434594
-0.508728
-0.159052
-0.253822
2.120776
-2.498932
0.590757
-0.873370
-0.156785
0.936472
0.250078
-1.176696
-0.130008
0.284271
-0.634175
0.473110
0.904127
0.133401
1.233405
-0.898645
1.840019
1.161956
0.053955
-1.476674
-0.954233
0.808499
-1.209224
-1.029143
0.003767
-0.630193
0.582471
-0.271992
0.642712
0.509111
-0.303184
-1.697189
0.477155
0.321574
0.442045
0.484827
-0.091306
0.239823
0.628928
-0.439607
0.784231
-0.204837
1.108965
-0.698164
-0.755336
0.368991
-0.312608
0.594371
-0.940904
0.578059
-1.252364
-0.578151
-1.364397
-0.377340
0.663372
0.637961
0.689349
-1.520034
0.725650
0.765450
0.669819
-0.415724
-0.357417
0.565487
-1.105129
0.781311
0.224256
0.556717
-0.200455
-0.222180
0.444493
-0.460026
-0.469658
-0.453158
0.050493
1.357814
-0.261644
0.916163
-1.227502
1.403889
0.775628
-0.431132
-0.347794
-0.522275
0.430930
0.253521
-0.706740
-0.331065
1.008713
-0.569179
0.226310
-0.080313
-0.748684
0.966503
-0.323202
-0.339022
-0.822392
0.494097
0.415337
-0.981664
-0.136761
-0.827191
-0.276299
1.152020
0.430404
-0.143976
-0.809840
-0.096894
-0.579519
0.494233
1.157546
0.392284
-0.792433
0.212162
0.583321
-0.606229
1.588183
-0.073551
0.607261
-0.691256
1.358373
0.774275
-1.391762
-0.210220
-0.580551
-0.360136
0.277854
-0.882147
1.379464
-0.486795
-1.681955
1.004416
-0.579416
0.370786
1.152889
-0.423471
-0.597780
0.708211
-1.447135
-0.813811
0.804792
-0.799021
-0.654382
0.699028
0.104406
1.462585
-0.538620
-1.854897
-0.654424
0.968352
-0.459644
-0.115980
0.516101
-0.753858
-3.369277
1.895821
-4.373366
-4.886809
-1.151883
-0.257551
-4.665239
-0.394911
-2.995660
3.315103
3.774295
-4.004713
-3.119826
2.456862
-5.993616
-2.346023
3.389210
-1.877053
3.793102
-4.542563
1.089093
-0.623315
-1.532880
-2.043894
-2.462641
-0.724721
-1.252641
-2.411253
2.212137
3.132130
-5.675117
-3.277254
2.586428
2.295938
-1.139027
-6.094149
-5.387067
0.231285
4.185170
3.957921
-0.281544
-4.041781
-1.138966
-0.346211
2.975267
-7.071183
-0.361966
-2.838366
-0.180966
2.680198
2.653420
-2.881984
4.047595
-3.991287
-1.540159
0.415699
-4.956754
-6.572325
5.388411
-3.220798
-0.578218
4.933111
-3.778895
-4.025067
1.074963
-4.303618
-1.129687
-2.843234
2.118554
-2.354525
2.546488
0.642161
3.300104
-4.916388
-3.487389
-6.370608
4.605004
-0.238521
-5.025382
-0.460410
3.456239
2.428531
-3.965813
5.338918
-1.252675
-0.903313
-1.086417
-3.369165
-3.475504
-2.821849
-4.386188
-2.027810
0.677741
-5.035395
0.266966
2.077603
1.417078
2.900273
0.745233
-5.440539
-3.048635
-1.900005
-7.487448
-2.837610
-3.979004
7.351968
5.186222
-2.858074
3.828061
-6.096280
-1.384805
-1.344038
4.086491
-0.074819
-3.567094
1.028303
-3.763086
-3.289876
0.778707
0.737860
-0.810155
-2.759272
-4.420062
-3.781573
-1.435285
2.827491
3.319848
1.422754
-4.257609
3.099973
1.916624
-6.139486
-6.666786
-0.731992
6.669153
-4.826205
-4.596493
3.185600
2.031398
-2.809984
0.182000
-4.088721
4.442439
-1.568700
6.624935
1.365880
-3.960604
-5.146536
-4.386585
-5.443039
-5.785720
1.252037
3.558751
1.292570
-7.145279
2.463039
-4.494731
2.594258
-0.496613
1.823922
-3.630642
1.809177
-2.156778
2.022764
-2.611778
2.983538
2.129632
-8.644406
-5.853281
2.706704
-0.172330
1.243405
1.425333
1.156566
-4.766686
-5.522827
2.049363
4.640612
-2.693889
-6.464045
2.342121
1.175314
-3.679300
-1.902070
-3.289026
2.452633
-4.235534
2.760339
-2.401834
0.263517
-1.914254
-1.427835
0.049261
-1.082497
2.390058
-0.786728
-2.902134
1.199419
-6.891758
-4.399613
-1.921401
-1.826981
-3.334784
-1.994405
-1.762384
-2.017186
-1.316029
-3.983246
-2.345359
-2.292174
