0.7 197 21 10 
0.107600
-0.049315
-0.112160
1.819409
0.127913
0.003414
0.706307
-0.934942
-0.421099
0.479223
-0.398195
1.239396
-1.322304
0.380709
-1.192965
0.916985
0.895579
0.518501
1.936979
-0.126583
-0.592922
-0.389121
-0.478807
-0.755053
-0.815649
-0.001655
0.905367
0.860400
-1.191817
0.220757
-0.423949
0.399888
0.845504
0.161666
-0.957731
-0.075198
-0.674106
0.587137
-1.046551
1.275885
1.675363
0.966085
-0.925645
-0.258802
0.687005
-0.384802
-0.163630
0.706329
-0.383656
-0.717704
0.391374
-0.699083
-0.052520
1.156264
-0.078364
0.627036
-0.337600
-0.312559
0.167452
-0.467751
-0.319194
-0.091435
-0.161073
-0.581616
-0.030735
-0.140512
-1.050105
-0.430116
0.760002
-0.565312
0.765045
-0.246515
-0.763161
0.368225
1.228931
-0.203724
-0.359700
0.515629
0.484189
0.548257
-0.732334
-0.268895
-0.308895
-0.757123
-0.410413
-0.067454
-0.046500
-0.925134
-0.791091
0.329406
-0.251812
-0.102703
-1.143448
-0.249200
-0.401697
0.198963
0.741334
0.026861
-0.113298
-0.011959
-0.014590
0.610823
0.145058
0.673307
0.399770
-0.659318
0.157109
0.163313
0.001294
-0.617452
0.571649
0.114010
-1.790671
-1.582577
-0.464433
1.788923
-0.115230
1.176811
-0.104769
-0.443641
0.239514
0.976458
-0.679861
-0.956458
1.610028
-0.739874
-0.540391
0.493746
0.771715
-0.188235
0.709563
0.399235
0.314433
-0.939035
0.829154
-1.318575
0.482716
0.020897
1.935176
0.982691
0.285938
0.978648
0.606570
-0.761689
-1.606013
0.622308
-0.514112
-0.495290
-0.579431
-0.468469
-0.624856
-0.643542
-0.226894
-0.727440
-0.915944
0.637206
-0.970353
0.435324
0.328513
1.647543
-0.448195
1.164024
-0.108913
-0.400657
0.390986
-1.209663
0.729893
0.318594
-0.512747
-0.010292
-0.267513
0.229266
1.008218
-0.291840
-0.045347
-0.490771
0.357328
-1.535762
1.147929
0.942280
1.249383
-0.204930
-0.478248
0.292960
0.140555
-0.639037
0.020937
-0.602642
0.181386
0.136646
1.215371
0.604823
-0.197331
-0.295824
0.777958
-0.238246
-1.071663
-0.961078
0.205038
0.899191
0.044120
0.036998
-0.359800
-0.501333
0.436226
-0.617286
-0.137500
-0.493283
0.467644
0.362717
-1.110929
0.180079
0.257129
0.221023
-0.170061
0.525627
0.009362
-0.506857
-0.893350
0.164186
0.521424
-0.352463
0.837326
-1.554167
0.263416
0.090908
0.072137
0.451772
0.029356
-0.153148
0.149466
0.968885
-1.086171
0.840010
-1.032068
-0.664035
1.753408
-1.075816
-1.305015
0.286153
1.035311
-0.128092
-0.070562
0.805832
-1.983522
-0.284607
-1.526783
0.368198
0.448112
1.077429
-0.526553
0.986368
0.542831
-0.106278
0.447667
-1.710308
-0.537684
1.066748
-1.354323
0.698213
0.214008
1.072174
0.072545
-0.083638
0.916840
-0.297075
0.637473
-0.685264
0.617612
1.099968
0.516635
-0.467765
-0.345068
0.566770
0.507897
1.086778
-0.499730
0.372717
-0.665291
1.196265
1.204981
0.002711
-0.661517
0.058617
-1.649609
-1.210861
-0.209079
0.080995
-0.478277
-0.457730
-0.158619
1.334449
0.140742
-0.148968
-0.159597
-0.871858
1.351892
0.150857
1.397514
-0.654260
-0.020324
0.527507
0.914503
0.037099
-0.872660
0.644723
-1.954719
-0.484761
-0.462675
0.588484
0.613491
1.389243
0.202082
-1.406868
-0.187415
0.598983
-0.642964
1.174871
-0.795768
0.471969
1.147331
0.331559
-0.585966
-0.846330
0.918428
-0.269145
0.798332
-0.160365
-1.209761
-0.359264
1.017373
-0.252323
-0.115158
0.925541
0.807259
-0.849529
-0.701165
0.641360
0.144738
0.590105
-0.087921
-0.625554
-0.105709
-0.084087
0.201955
-0.376985
-0.219065
0.148492
-0.138338
-0.420743
0.481470
0.196255
0.709042
0.258753
1.039114
-0.859759
0.338568
-0.591065
-0.729187
0.315191
0.126028
0.743340
-0.098141
-0.605901
-0.045190
-0.650498
-0.440292
0.747143
-0.750637
0.606697
0.048302
-1.507993
-0.899290
0.068100
0.159460
-0.007169
0.364368
-0.471458
0.955049
0.758876
0.588885
-1.227633
0.548421
-0.077825
0.306061
-0.810964
1.220792
0.064663
0.629807
0.271907
1.634438
-0.153075
-0.977456
-0.626508
-0.285171
-0.976036
-0.635508
0.118799
0.712546
-0.365347
0.267964
-0.241443
-0.703170
0.141650
0.092823
0.351660
-0.347949
0.554520
-0.842391
0.513295
-0.606156
-0.002056
0.309504
-1.111869
-1.106882
-0.412675
0.562960
-0.741516
-0.079721
0.133423
-1.480339
-0.090555
-1.495055
1.123689
-0.934035
0.287054
0.419987
0.986513
-0.599992
-0.398631
-0.651172
-0.622287
0.672335
0.492126
-1.315331
0.250165
-1.054148
0.356038
0.247399
-0.306138
-0.955678
-0.897053
0.500966
-0.643246
0.127632
0.267328
0.189813
1.930409
0.667842
0.380668
0.413777
0.544388
0.293464
-0.456771
0.589871
-1.076620
1.518862
-0.405730
-0.901590
-0.620423
0.419221
-0.468130
-0.281193
-0.387164
-1.223405
-0.560079
0.776345
-0.990764
0.070355
0.470702
0.421818
-0.383008
-0.699923
-0.191011
-0.723283
-0.189192
-1.095467
-0.345716
-0.293613
0.038281
1.311859
-1.016376
0.917221
-0.088757
0.077581
0.136800
-0.389984
-0.655768
-0.111040
0.822456
-0.212750
-0.690245
0.065723
0.918455
0.431752
-0.566995
0.593821
0.538568
0.556247
-0.684849
-0.981695
-0.008422
0.618995
-0.947683
-0.314807
-0.314979
-0.494590
0.207828
-0.489211
0.209677
0.104411
0.528804
-1.281076
0.770674
-0.694689
-0.218435
0.249509
0.519607
0.276707
-0.493292
0.749979
-0.106851
0.317205
-1.352589
-0.078753
0.293394
0.421136
0.425101
-1.110611
0.712209
0.893942
-0.197978
-0.348238
0.936241
-0.325643
0.678583
-1.240174
0.018805
-0.236525
0.336261
-0.935215
-0.080127
-0.077911
0.431262
-1.049650
0.097938
-0.088974
-0.038656
1.727321
0.842112
-0.076680
0.074736
-0.773076
0.070211
-0.416154
-0.734333
0.878637
-0.830971
0.982940
0.792167
-0.203924
-0.485107
-0.040852
0.403527
-0.664652
0.566158
0.892185
-1.226700
0.791679
0.200439
-0.304057
-0.575553
-0.290028
1.132881
1.781515
-0.638309
-0.470323
0.682715
0.428201
-0.255043
-0.212207
0.492065
-0.017144
0.089604
-0.749410
-0.469404
-0.287158
-0.826426
-0.699330
0.052921
1.096848
-0.122121
-1.084867
0.948261
-0.545129
-1.036334
0.604671
0.340178
-0.201204
0.098138
0.022820
-0.483362
0.015324
0.564937
0.402305
2.220586
0.336381
0.417605
-0.529997
0.057835
0.950408
0.042354
-0.632652
-0.559942
-0.158851
0.555802
-1.028246
0.440289
0.573247
-0.411352
1.256515
-1.430642
-1.494351
-0.095262
-0.337228
-1.713572
-0.882405
1.036707
0.646808
-0.811273
0.019767
0.950298
1.251546
0.116845
1.155474
0.986495
-0.282003
-0.170419
-0.754820
-0.004191
-0.546509
0.036971
-0.183238
-0.692013
-0.524346
-1.262482
-0.175898
-1.018555
-0.185066
1.024238
0.444091
-0.625103
-0.295820
0.219616
0.245408
-0.003531
0.978369
0.027005
-0.894120
0.770734
-0.031682
0.238906
0.708763
0.563503
-0.251620
0.199870
-0.290983
-0.464260
-0.718318
-0.041705
-0.263107
-0.801656
-0.652827
-0.473434
1.087497
-0.282246
-0.350372
0.251879
-0.304514
0.912509
0.949822
-0.103099
0.792141
0.947167
-0.284543
-0.174155
0.562772
-0.429532
0.003674
0.711525
1.036859
-0.207605
-0.541872
-1.034633
-0.178879
0.185958
1.370214
0.492188
-0.023960
1.064488
0.875540
0.174064
-0.872407
-0.234772
0.700076
-0.425934
0.288663
-1.249125
0.665132
-0.661614
-0.771717
-1.256776
-0.089568
-0.428634
-0.301652
0.304384
0.301202
0.009685
0.259585
0.539163
-0.105096
0.458647
-1.207914
-0.432474
-0.755871
-0.078099
0.602373
0.705767
0.307870
0.603693
0.093754
0.531113
0.058143
0.122134
-0.470882
-0.539018
-0.127705
0.889330
0.304662
0.126979
0.531353
-0.386739
0.111008
-0.584609
0.234788
0.049093
-0.612109
0.435788
1.159818
0.501464
0.317161
0.099630
-0.203054
0.453508
0.530015
0.862403
-0.926459
-0.059009
-1.259526
-0.657304
-0.870333
0.260346
0.353846
0.663969
-0.421622
-0.465568
-0.037885
-0.128306
-0.493739
0.145107
0.278759
0.361201
-0.738636
-0.037538
0.020613
0.583876
0.050027
-0.035097
-0.585729
0.084197
0.457949
0.088065
0.113129
-1.429080
-0.211000
0.514972
-0.026877
-0.293857
-0.651380
-1.380954
0.819682
0.129828
1.149389
0.867306
0.115995
-0.870422
0.138987
0.914163
-0.834014
-0.315429
-0.971653
1.707538
-0.101410
-0.882847
0.939262
-0.341549
0.555909
0.404543
0.968992
-0.669608
0.142490
0.618244
0.373591
-0.261495
-0.233296
-0.639652
-1.218077
-0.564004
-0.418654
-0.667405
-1.075160
0.485753
0.204415
1.120408
-0.284329
-0.490158
0.465918
-1.283991
-1.287413
1.377926
0.330527
0.363780
0.887710
-0.035003
-0.673623
-1.246073
0.730217
-0.701174
0.495985
0.228529
0.364669
0.256228
-0.168199
-0.818518
0.958542
0.030528
-0.511866
-1.198345
0.929701
-0.059778
-0.297196
-0.741182
0.496957
0.053052
-0.912883
-0.511686
-0.229348
-1.277800
-0.493264
0.531932
0.912972
-0.001745
0.829780
0.814995
-0.555311
-0.656593
-0.229074
-0.011293
-0.569026
-0.633361
0.443713
2.023281
0.660310
0.245893
-0.857333
0.299617
0.082996
0.162081
-0.729103
1.081963
0.578231
0.984576
-0.070363
0.069424
0.844407
0.775034
0.841587
-1.254417
-1.120294
0.632175
-0.933022
0.263884
-1.236255
0.891652
0.087742
0.041376
-1.525056
0.187901
1.221669
1.285223
0.428499
0.298238
0.244415
-0.736722
1.365626
0.771130
0.460274
-0.089422
0.488437
-1.024009
-0.267517
-0.060451
1.012607
-0.135475
0.419798
0.460228
-0.560975
-0.247002
0.073363
-0.547577
0.210328
-0.121277
0.306458
-0.394003
-0.167539
0.063111
0.797546
0.330180
0.558982
0.826073
1.423024
0.156192
0.526174
0.660658
-0.751330
0.600809
-0.291598
-0.200808
-0.295968
-0.462491
-0.938961
-0.729439
0.077706
1.140013
-0.429845
-0.437878
-0.227131
0.062791
0.137860
0.059986
-0.112901
1.578129
-0.882702
-1.163675
-0.654052
0.300969
0.682779
0.407521
-0.349808
0.379990
1.926695
0.607474
0.497961
-0.509861
-1.024327
-0.876993
-0.550207
-0.431899
-0.156648
0.107572
0.391440
0.095113
-0.259939
0.426748
0.871460
-0.041155
0.371091
0.846911
-0.221598
0.885672
-1.006660
-0.066511
0.039217
-0.569880
0.111858
-0.471579
-0.319161
-1.087721
0.763108
-0.412043
0.785317
-0.355771
0.479498
0.426029
0.562196
-1.272776
-0.598781
0.835213
-0.450169
0.673898
0.377755
0.028553
0.902517
-1.096926
0.395463
-0.904563
0.410108
0.150955
-0.129244
-0.524425
-0.467607
0.339732
0.171648
0.817934
1.135746
0.529805
-1.493853
0.144364
0.385531
0.390875
-0.335460
0.179845
0.246282
1.406808
-0.228874
0.416264
-0.359638
0.719656
-0.155854
-1.682518
-0.650063
-0.864667
0.700278
-1.094390
1.407635
-0.495010
0.268455
-0.706437
-0.834024
-0.153208
0.518328
0.086606
0.993062
0.097081
0.429184
-0.142899
0.549408
0.364816
1.545427
0.816707
-0.219451
0.189853
-0.428821
0.821148
-0.133628
-0.304770
1.049598
0.829694
-0.973949
-1.547197
0.708816
0.634041
-0.086138
1.250806
-0.240549
1.130244
-0.614791
0.828377
0.190202
0.651259
0.986881
-0.595347
0.554604
-0.731398
0.253260
0.873330
0.959573
1.469064
0.882780
-0.066484
0.029811
0.193121
-0.053413
0.676501
0.991794
0.032225
-0.292730
-0.747532
-0.422993
0.038779
-0.011426
-0.116891
0.464602
-1.357882
0.954804
0.036180
0.811198
0.177848
0.394690
0.300979
0.275989
-0.555976
0.389410
-0.211493
-0.622291
0.217218
-0.326538
-0.191604
-0.953451
0.547799
-0.292584
0.039201
0.868808
-0.006962
-0.110153
0.410880
-0.761246
0.521463
0.166456
-0.483005
-0.057056
-0.243900
-0.524503
0.512453
0.237149
0.587658
0.996153
-0.451629
-0.855553
-0.601176
-0.834738
-0.093708
0.970656
0.410957
0.129532
1.242065
1.131481
-0.942681
0.507126
-0.470512
-0.849859
1.280424
-0.452572
-0.821469
0.517007
-1.712178
-0.501214
0.142220
-0.264760
-0.768664
-0.502161
-0.942285
-0.565752
-0.605382
0.656894
-0.915770
0.474973
-0.480280
-1.172853
-1.071982
0.506144
-0.339779
0.039040
0.777384
0.025978
0.033965
0.500269
-0.390915
-0.736747
0.602079
-0.216721
0.129889
0.719642
-0.400926
0.326024
0.098257
-0.430941
0.992396
1.154682
0.005014
-0.628079
-0.762720
-1.690527
-0.765078
0.166606
-0.601585
0.751975
-0.653172
-0.298748
0.353434
-0.076129
-0.828313
0.778497
-0.135497
-0.917044
-0.432297
0.845054
-0.625715
-0.459946
0.138259
0.044666
0.026434
-0.343144
-1.125739
-0.329817
0.797513
-1.337608
0.128365
0.580665
-0.100383
0.124895
-0.253001
-1.548258
-0.436563
-0.730625
-0.754570
-0.010299
-0.229912
-0.749194
0.356998
1.418310
0.325603
-0.667269
0.676597
0.754841
-0.017805
-0.253223
-0.507897
-0.080136
0.506721
-0.237168
-0.601418
0.395025
0.022635
0.036617
-0.732434
0.026183
0.097183
-0.480463
-0.199159
-0.010750
0.445386
-0.769782
0.573641
-0.462466
0.944576
-1.275268
-0.657191
0.840962
-0.480127
-0.268429
-0.365387
-0.067430
1.220162
0.155760
-0.687784
-0.762530
0.603508
0.215282
0.962863
-0.662349
0.506793
-0.785914
-0.035292
-0.116477
0.786546
1.217453
0.065253
-0.147452
-0.478151
-0.242729
0.373442
1.115067
0.749082
-0.724188
0.227820
0.441842
-0.295269
-0.045284
0.600223
-0.524446
-0.605224
-0.048358
-0.242465
-0.174171
-0.336681
-0.608635
0.252122
1.143357
-0.791647
0.186210
-0.952161
-0.463594
-1.491437
0.517316
-0.045745
0.630917
-0.218196
-0.014572
-0.018097
0.289754
0.038789
0.099234
0.234472
-1.170617
0.475727
0.336454
0.227077
1.542141
0.460849
-1.062904
-1.364775
-1.290009
0.619634
0.451788
0.419602
-0.113552
1.220205
0.094606
-0.489710
0.066542
-0.626044
0.109333
-1.665945
-1.227113
-0.540564
-0.924858
-0.003667
-0.271922
0.281604
-0.038147
0.126001
0.398169
-0.708595
0.494519
0.397709
1.381628
-1.436624
0.559844
-0.190765
0.434067
0.509526
0.247910
0.446025
-1.599547
-1.188747
-0.527737
-0.810875
0.302412
0.842810
-0.745478
0.487199
-0.379467
-0.219021
0.081031
-0.352000
-0.047968
0.916835
-0.400547
1.030184
0.112351
0.003701
0.240425
-0.356023
0.835765
-0.661597
-1.010820
-1.433908
0.319408
0.014473
0.340671
-0.018973
1.339403
0.681599
0.639230
0.468870
0.318164
-1.000729
0.304768
0.034002
0.897957
0.577143
-0.145539
-0.289302
0.645056
-0.445445
-0.958064
-0.389388
0.930080
-0.234634
-0.220211
-1.085434
-0.228545
0.761519
-0.458579
-0.599177
-0.184752
-1.399532
-1.006021
-0.439766
-1.300926
0.377413
0.488082
-0.798687
0.085034
-0.403224
-0.959500
-0.917987
-0.650682
1.432452
1.294690
0.985525
-0.154099
0.377729
0.146200
0.236077
-1.925380
0.689350
-0.465226
0.041376
1.242134
-1.485220
1.250927
-0.622207
-0.369987
-0.244048
-0.512446
-0.324210
-1.202254
-0.308504
-0.169926
-0.404213
1.474927
-0.415090
0.095428
0.047759
0.915718
-0.557745
-0.559093
-0.656979
-0.774004
0.244811
0.465747
-1.204693
-0.588404
0.569212
0.765198
-0.650839
0.323459
-1.043306
0.336954
-1.420733
-0.642807
-1.147059
0.306255
-1.513278
0.851014
0.628106
-0.663075
1.189385
0.180464
-0.732335
-0.800139
2.079367
0.804728
-0.291181
0.017353
-0.685305
-0.109978
-0.575011
1.071137
-0.697871
0.850467
-0.695184
-0.413477
-0.176221
-1.261032
1.102570
-0.197351
0.005092
0.309443
0.746817
-0.669345
-0.975243
1.820867
-0.362453
0.234305
0.310973
-0.117978
-0.161371
0.616043
0.397035
0.801048
-0.366177
0.008753
-0.364010
1.216227
-0.804431
1.030846
0.097887
0.017160
0.181724
0.613409
0.170941
-0.428886
-0.078851
0.067855
0.135188
1.409041
-0.139007
-1.002471
0.300945
0.667869
1.519777
1.209101
0.431771
-0.606325
0.071719
-0.824471
-0.611648
-0.283468
-0.481156
0.292775
0.782632
0.288389
0.326032
0.760869
-0.685044
0.763921
-0.263181
0.044463
-0.738983
-0.723853
0.472676
-0.373081
-0.317211
0.521680
-0.469743
0.073447
-0.159145
0.557849
-0.058396
-0.283321
-0.030195
-0.197434
-0.631664
0.101376
0.738439
1.048283
0.011287
-0.077333
-0.115389
-0.044829
-0.690896
-0.811460
-0.509029
0.914358
1.334361
0.365207
0.261755
-1.056322
-0.610031
0.702529
-0.645145
-0.378925
0.730572
0.655155
-0.406546
0.767819
0.357549
-0.244326
-0.937069
-0.684436
0.649217
0.633581
-0.611517
-1.356886
0.729832
0.824937
1.628880
0.069960
0.174290
-0.016244
0.286794
0.809147
-0.512281
-0.022596
-0.276613
1.029915
0.164820
-0.181947
-0.381345
-0.199138
1.053768
-0.589194
-0.503963
-0.473692
-0.146160
0.187079
1.102255
-0.622542
1.235748
0.643524
0.170695
0.151127
0.807209
0.637231
1.551132
0.224369
-0.644587
1.766553
1.374040
-0.299090
-0.761220
0.244003
0.724962
0.855587
0.565456
0.464703
0.644029
0.198827
0.913217
1.386524
0.784388
0.831590
-0.610557
-1.134582
-0.222048
0.549053
-0.083537
1.485319
-0.515737
0.253259
-0.600970
-0.527180
-0.691506
1.230406
-0.470379
-0.726249
0.046883
0.152201
-0.130687
-0.074281
0.025249
-1.414744
0.149862
-0.917618
0.371763
0.214809
0.629901
-0.094874
0.239581
-1.373073
-0.593715
-0.464898
-0.343172
-0.579634
-0.683044
-0.859578
0.256862
-0.577395
1.130307
0.734851
-0.047790
0.430395
-0.900418
1.079562
0.919455
0.387753
-0.044769
-1.494939
0.068274
0.373995
-0.156756
-0.535051
0.305440
0.033195
-0.480943
-0.012554
-0.133488
-0.559761
0.665127
0.404840
0.081639
0.201789
-0.385170
-0.651628
1.137012
-1.300952
-0.171502
-1.061883
-1.278944
-0.283843
-0.003040
-0.019663
0.060114
0.765528
-0.894547
-0.129681
-0.601243
0.870829
1.043585
0.391026
0.040725
0.915566
-0.250613
0.099955
-0.015143
0.668561
-0.095631
0.381767
-0.461567
-0.159146
-1.092721
1.054123
0.494314
-0.591906
0.063137
-0.827490
-0.416250
0.208759
-0.206323
-0.908760
-1.168930
-2.110880
0.481725
0.868816
0.943603
0.361549
-0.484765
0.739241
0.535799
0.014801
-0.534639
-0.122553
0.370467
0.465379
-0.534158
-0.901164
0.711857
-0.990670
0.586677
-0.256101
-1.040571
-0.001635
-1.430422
-0.422344
-1.302482
-0.758909
0.195027
-0.011705
0.479786
-0.171291
0.797618
1.274238
-1.378127
-0.046457
1.465285
1.104694
0.841691
0.627155
-1.171963
-0.771606
0.692531
0.229423
-0.156413
-0.194531
-0.185873
0.917275
-0.470588
-1.818006
0.789331
0.753637
0.128136
0.997916
-0.006056
-0.670761
0.258074
0.606055
-0.649784
-0.397736
-0.046617
1.243754
-0.260053
-0.654006
-1.141904
0.246949
-0.074161
-0.527156
0.751272
-0.523690
-0.809481
0.516858
-0.094184
-0.457951
-0.467364
0.319474
0.109164
0.279041
-0.109417
-0.507500
-0.615307
0.346645
0.885355
-0.959680
-0.487760
0.199007
0.625860
0.196190
0.486785
0.214664
-0.652494
0.061782
-0.365590
0.102550
1.386239
0.459052
0.619207
0.564685
0.324006
0.803199
0.251750
-0.306258
0.895533
-0.426795
-0.812239
0.998999
-0.073055
-0.440507
-0.148202
0.348091
-0.230415
-0.492414
-1.078111
0.864543
0.095815
0.146182
0.807659
0.185836
-1.095634
0.390768
0.296356
0.193534
0.049460
-0.097503
-0.022888
0.728165
-0.305890
-0.274975
-1.071697
-0.078657
0.395975
0.585000
-0.841810
0.683790
-0.030879
0.535194
-0.082377
0.426803
1.348330
-0.363361
-0.963410
1.039074
1.170685
-0.165671
0.078804
0.750090
0.611662
0.836291
-0.632440
-0.490519
0.135884
-1.265447
0.492437
0.155383
0.617040
-0.128179
-0.272107
-0.446023
0.090354
-0.043334
-0.970906
0.622380
0.595460
0.537630
-0.228234
-0.727439
1.098973
1.243115
-0.016095
0.545832
0.297029
-0.193504
-0.572853
-0.459417
0.805474
-0.411920
0.380721
-0.584861
-1.079069
0.118602
0.319300
-0.072405
-0.270392
-0.680771
-0.663795
0.090979
-0.068961
-0.001078
0.509549
0.373840
-0.624792
-1.412033
0.600562
-0.197953
-0.334045
0.115471
0.506099
1.358733
0.639779
-0.425358
-0.584120
-0.385236
0.891353
1.330219
-0.460901
0.364201
0.416852
0.842986
-0.408463
0.454737
0.806937
0.196881
-0.979336
-0.616820
0.136494
-0.850430
1.113048
-0.954053
0.732936
0.461239
0.116271
0.739911
-0.896657
-1.232649
0.066430
0.273763
0.015424
-0.817153
0.596432
1.548438
-0.541667
-0.244506
0.368757
-0.319731
0.154667
0.030079
-1.251354
0.409758
0.065121
-0.171420
0.522910
1.233063
0.746434
-0.398218
-0.095922
0.162630
-0.421700
0.282410
-0.708325
-0.876754
-1.065785
0.754686
0.546669
-0.954380
0.205121
0.822489
1.258818
0.835785
-0.786984
0.240511
1.500360
-0.313201
-1.320865
0.452975
0.447808
-0.600504
0.722464
0.059174
1.748251
-0.473126
-0.108303
-0.179434
-0.006560
-0.665447
-0.731782
-0.793194
0.725439
-0.383744
1.268864
0.723601
0.571338
0.729349
-0.738375
-0.847317
-0.318880
-1.520369
-0.545466
-0.857980
-0.981577
-0.379882
0.404365
-0.437055
0.651323
-0.171737
-0.672708
0.203850
1.457459
-0.295349
0.668118
-0.736833
-0.133026
0.633549
0.091937
0.708486
-0.580179
0.150042
-0.070090
0.016304
0.206450
-0.605893
0.369865
0.258233
-0.933359
-0.764856
-0.124861
-0.699598
-0.956823
0.043289
-0.688250
0.057484
-1.382482
-0.058419
-0.311699
1.102597
-0.602195
-1.102380
-0.470803
2.138635
-2.035822
-0.198124
0.214148
0.972514
1.246273
0.946976
-1.604887
-0.905400
-0.798377
1.157835
1.115745
-0.463911
-1.227072
0.282902
0.306104
-0.157807
0.293371
-0.614842
-0.670559
0.626565
0.146821
-0.478449
-0.315683
0.016361
-0.340836
0.975970
-0.423429
-0.126596
0.379590
-0.805341
0.434338
0.129690
0.102217
0.056246
-0.398335
-1.053869
-0.400756
-0.247819
-1.117245
-1.157052
-0.536955
-0.032155
-0.350866
0.482206
0.316307
0.571765
0.475515
0.480834
0.663984
-0.108266
-0.783797
0.874522
0.076889
0.366588
-0.513808
0.077484
0.149507
1.385759
0.534039
0.666778
-0.152323
-0.427655
0.730589
0.197150
-1.235511
-0.367376
0.520013
-0.185607
-0.982793
-0.763212
-0.622639
0.942548
-0.240067
-0.908223
-0.140734
-0.358864
-0.054954
-0.293938
-0.937543
0.600790
0.861595
0.245779
0.879954
0.327784
-1.090739
0.508567
0.459518
0.172175
-0.562477
1.253915
-1.032761
1.043346
-0.824551
0.070800
-0.754685
-0.014581
-0.082264
-0.328609
-0.248164
0.487769
0.215373
-0.534307
-0.064372
1.176997
0.830582
-0.907330
-0.405499
-0.135565
2.139957
-1.562867
-0.063941
-1.268917
0.664831
-0.459969
-1.084221
-1.434335
-0.159035
0.052616
-0.538492
0.182644
-0.406826
0.981472
1.309567
-0.501737
-1.188292
-0.246100
0.468250
0.497614
1.303019
0.932423
-0.599154
0.498231
-0.676561
-0.760043
0.347050
-0.558944
0.006734
0.266644
0.951601
-0.086761
0.718351
-0.126382
0.712591
0.406295
-0.646342
-0.769780
0.671977
-1.190789
0.145001
0.759296
0.566734
-1.174564
-0.027233
0.168068
1.962528
-0.095284
-0.791003
-0.819629
0.820670
0.256249
-0.600829
-0.420983
-0.167081
0.454025
0.304791
0.268886
0.681609
-0.679068
-0.668318
-0.429470
0.242665
-0.270891
1.008356
0.380325
1.509572
-1.145269
0.413952
0.094261
0.593108
0.338767
0.545444
-0.583165
0.558561
-0.315629
1.441623
-0.554115
-0.000165
-0.470071
0.677314
0.815474
-0.138675
0.114639
-0.190707
-0.865192
-0.299479
0.365678
-0.560523
0.269050
0.871237
-0.269154
0.574386
-0.530124
0.324321
-0.375952
0.046457
0.601275
0.380963
0.641044
-0.804094
-0.078700
0.381620
-0.055669
0.227888
1.465022
0.240692
-0.181886
-0.756909
0.277696
0.037516
0.700466
-0.668675
-0.116291
1.311386
-0.141681
-0.087827
1.139491
1.469500
-0.198691
0.288124
-0.200870
0.280890
-0.157210
0.886985
-0.504231
-0.629315
-0.735860
1.315457
-0.753360
-0.317789
0.549549
-0.346360
-1.279183
-0.422172
-1.146524
0.279884
0.581332
0.116927
0.965952
0.041771
0.153280
-0.126337
-1.529366
0.146243
-0.930105
0.369929
0.968387
0.178981
0.507869
0.799212
1.329161
-0.913231
0.599136
0.645701
0.865673
1.139934
0.348175
0.887303
1.836732
0.695511
-0.709924
-1.092263
-0.938744
0.848030
-0.319191
-0.041270
-0.508514
0.203426
0.196092
-1.172662
-0.711728
0.120429
0.578592
-0.076999
0.434194
-0.389377
-0.527788
-0.036692
-0.549328
0.367029
-0.745013
-0.346610
-0.608713
-0.239143
1.263028
-1.020421
-1.868112
1.579872
1.269377
0.841620
1.468370
0.937637
-0.640069
-0.674095
-0.028437
0.370090
-0.906037
-0.609607
0.882894
-1.148441
-0.073290
0.227749
0.852084
-1.898010
-0.276893
-0.419327
-0.193906
0.638651
-1.291519
-0.917983
0.125134
-1.091780
-1.003823
-0.246090
0.179842
0.126569
0.856930
-0.282686
-0.607830
0.181905
-0.144559
0.368361
-0.778281
0.524367
-0.053304
0.333422
0.362425
1.160896
0.079021
1.438999
-0.899597
-0.090629
0.144244
0.925136
-0.673964
0.833788
0.273499
0.136117
-0.059225
0.464870
0.529421
-0.909025
0.556375
0.893316
0.542651
-0.349103
0.359524
-0.091942
-0.637552
-0.702022
0.253425
-0.169048
0.985477
-0.255047
0.936201
-0.852860
-0.420019
-0.234364
-0.446710
0.167447
0.464683
-0.178773
-0.840597
-0.982305
-0.511552
-0.122958
0.578966
0.819964
-0.524590
0.209693
0.616584
-0.032830
-0.011120
-0.316678
1.558590
-1.246840
0.844392
0.133476
-1.317886
-1.133701
0.148388
-0.587152
0.045368
0.419254
-0.221434
0.689871
1.607760
-0.371743
0.317907
0.928223
-1.615380
1.215378
0.138042
0.531348
-0.758130
-0.028281
-0.281209
1.390052
0.384846
0.633323
-0.554147
1.057513
-0.529353
-0.219576
-0.116099
0.858377
-0.349977
0.002992
0.007783
-0.450286
0.188401
-1.066918
-0.036075
1.374678
1.232241
-0.642822
0.865647
0.711496
0.824709
0.696699
0.822504
0.468445
0.358134
-0.616244
-0.675381
-1.184649
-1.469754
-0.120407
0.137028
-1.473876
0.516522
0.540203
0.023204
-0.575096
0.180590
-0.669473
0.386016
0.518747
-0.470589
1.132082
-0.354928
-0.755266
-1.939518
-0.683108
-0.890466
-0.469142
-0.693119
-1.002460
1.273510
0.417419
1.210703
-1.259257
-0.712820
-0.898448
-0.164712
2.109843
-1.313229
0.213396
1.056310
-0.190377
0.091227
0.698621
0.644388
0.353179
-0.540202
1.043162
-0.300003
-0.894597
-0.220342
0.678526
0.440080
-0.041848
0.251570
1.572684
0.239425
0.245367
-0.273162
1.599583
-0.510044
0.779043
0.222170
-0.593607
-0.235806
0.206829
-0.269840
0.440627
-0.137071
0.385705
-0.409494
-1.246438
0.920259
0.775924
-0.247694
0.153776
0.764299
0.695319
-1.863730
1.040916
-0.415866
-0.010098
0.782687
-0.691556
-0.363330
0.454482
0.636230
1.235450
0.388673
0.888214
-0.434376
-0.440322
0.663455
-0.767533
0.775541
-0.253602
0.542936
-0.969922
1.050808
-0.354963
0.217000
-0.620276
0.637690
-0.837844
0.812048
0.666061
-0.938871
0.989840
0.940832
1.552593
0.519669
0.705735
-1.374030
-0.353273
0.629311
0.750690
0.020279
0.790283
-0.236590
-0.583507
0.053741
0.564100
0.142403
1.156204
0.550303
-0.706368
-1.160266
-0.524698
0.201127
-0.112940
1.160962
-0.042110
-0.202009
-0.721508
-0.227618
0.163522
0.351658
-0.431976
-0.248895
-0.121516
0.166048
-0.955240
-0.009163
-0.881867
-0.922936
-0.214933
0.152741
-0.090125
0.620808
-0.941114
-1.070320
-0.449212
-0.926138
-1.630908
1.538887
0.051077
-0.495740
-0.582125
-0.563940
0.436067
0.983209
-1.311360
-0.790040
1.033387
0.029967
1.597718
0.636287
-0.451425
-0.575439
0.419535
1.961795
1.559853
-0.667508
-1.484440
-0.703703
-1.152429
0.158401
0.416181
-0.513982
-0.553608
1.434466
0.055464
1.033698
0.660546
-1.336464
-2.063067
0.553954
-0.898912
1.478326
-1.067172
-0.885796
1.459311
-0.569327
-0.020781
-0.490299
-0.244606
0.312728
0.229376
0.685923
-0.531336
0.439561
-0.315180
0.727859
-0.540489
-1.016241
0.399945
-0.529167
0.516872
-0.792686
-0.514873
-2.113659
0.057359
-0.849630
-0.047343
-0.350445
0.960044
-1.096864
0.446848
0.125981
1.076834
0.022389
0.275061
0.856670
0.549468
-0.437455
-0.561479
-0.358088
0.225854
-0.328864
0.641480
0.017068
-0.344758
-0.963560
1.321421
0.458223
-0.042923
0.618628
1.017220
-0.127115
-0.161495
0.851759
-0.131433
-1.649547
-0.330880
0.167779
0.049178
1.072034
-0.017942
1.607104
0.558170
1.212893
-1.083696
-1.982885
-0.348457
-0.447596
0.667591
-0.347233
-0.334819
-0.344297
0.087049
0.686463
0.883041
0.277280
-1.069090
-0.196014
1.063519
0.446503
-0.195923
0.956733
-0.001829
-0.347957
1.153277
-0.860281
-0.987600
0.324203
0.606944
-1.476410
0.263034
0.861665
0.892990
-0.580042
0.328233
-0.166605
0.446741
-0.319622
-0.177574
0.877089
0.602177
0.255796
-0.054116
0.412075
-0.371945
0.483328
-1.669930
-0.495219
-0.378113
-1.064688
-0.473520
-0.698399
1.201222
0.778861
-0.096802
-1.361795
0.453818
-0.567164
-1.292977
0.227828
0.833235
0.019026
1.002541
0.126012
0.190322
-0.469767
0.414623
-0.332921
0.844554
0.628231
0.140175
-0.182489
-0.449387
0.933256
0.638561
0.613673
-0.391883
1.756549
-0.197064
-0.248344
-0.851667
-0.930522
-0.833284
1.780203
-0.685257
0.192376
0.495028
0.161774
-0.503445
-0.701996
0.009057
-0.989555
-0.817806
-0.250748
-0.024436
1.149997
-0.116880
1.193491
0.365479
-0.310742
0.139807
0.217646
0.520443
-1.660123
0.401781
0.899013
1.514837
-0.048774
-0.351847
-0.695923
0.446779
-0.779119
-0.070029
-0.879720
-0.886037
0.839628
-0.547760
0.637947
0.094002
0.730105
-0.512079
0.877780
-0.417608
0.569721
-0.174295
-0.505456
0.764688
0.208706
1.095817
1.000289
-1.217419
-1.268371
0.879077
1.228460
-0.005228
-1.180693
0.742363
-0.814838
0.548146
-0.989780
1.132452
-0.866296
-0.108817
0.028384
0.204845
-0.241667
-1.401100
1.202914
1.459344
-0.138965
-0.213930
-1.463428
0.470942
-0.768039
-0.311637
0.017882
0.665728
0.093971
-1.217761
-0.027839
0.212608
0.351784
-0.841854
-0.742647
0.169134
-0.323404
-0.448914
-0.764037
0.241271
0.025698
1.272144
0.300925
-0.135860
-0.393532
-0.515831
-0.492023
0.200200
-0.745010
-0.732290
-0.603243
-0.929060
0.394381
0.667675
-1.145339
0.099355
-0.035601
0.256516
-0.463840
-0.793405
0.659271
0.453875
0.656769
-0.302311
0.353551
-0.519854
0.778484
0.483820
1.871195
-0.001694
1.310516
-0.497839
0.646641
0.525270
-1.077575
-0.214025
-1.660378
-0.317199
0.448116
-1.531822
-0.138065
-1.818734
1.027097
0.854668
0.734899
0.258919
0.022111
0.572502
0.032831
-0.153984
-0.175013
0.379042
1.228635
-1.353415
-0.240726
1.792901
1.485373
-0.178167
1.037461
-1.077287
0.195365
0.205578
-1.106529
-0.878643
0.525472
-1.452612
0.269668
-0.894221
0.767424
0.234603
0.082899
-0.530094
0.200255
-0.586787
-0.907395
-1.006956
1.193936
-0.525255
-0.076022
-0.117259
0.335143
-1.673754
-0.192512
-0.144606
-1.738517
-1.025512
0.016447
-1.432634
-0.003674
0.853536
-0.184717
-0.198599
-0.232932
-0.200653
0.787601
0.062523
-0.190216
0.722343
0.071778
0.467531
0.371583
-1.702244
0.436486
-0.144270
-0.232391
-0.297362
-0.054206
0.621463
-1.287065
0.095515
0.417799
-0.412412
-0.078285
-0.186350
-0.030616
-0.086368
0.404353
1.361483
0.293933
-0.697731
-1.209485
0.037924
-0.127167
-0.436273
-0.410466
-1.063490
0.596511
0.394558
0.046101
0.572819
0.860749
0.193003
-0.101253
0.370699
0.877313
-0.466697
-1.087395
0.643095
1.239052
0.569719
0.379763
-0.035019
0.227443
-0.703364
-0.393261
-0.364458
0.525471
0.774199
-0.285248
0.324502
-0.046103
0.252012
-0.386375
1.321825
-0.945635
0.244451
0.061894
-0.172546
-0.023666
1.694680
-0.110263
0.391611
1.929212
0.451448
-0.301967
1.190957
-0.462417
-0.127219
0.097881
0.151904
0.245835
-0.131593
-0.812340
0.829421
0.322182
-0.534315
-0.466267
-0.898026
-0.429927
0.625708
-0.141161
-0.199787
0.475532
-0.496902
-0.308106
-0.142682
-0.028810
0.374077
0.783645
-0.920539
-0.293215
1.189479
1.152172
0.504722
-0.662112
0.583829
-0.181610
-0.568965
0.251527
-0.019660
-0.528793
-0.698734
0.893248
1.125795
1.519807
0.140188
1.081789
-0.281099
-0.434695
-0.088193
0.298641
-0.367308
1.447368
0.908809
-1.261416
0.750978
1.352433
-0.669513
0.208358
-0.776766
0.135202
-0.671151
-0.789850
0.634002
-1.016679
1.795101
0.234478
-0.906516
0.504357
-0.045980
2.049042
-1.114668
-0.075202
-1.133134
0.305971
-0.388602
-0.043742
1.566991
1.013010
0.139338
-0.657565
-1.198238
-0.832932
-0.951862
1.443766
0.723856
0.190370
0.261127
1.157114
0.541873
-0.764490
0.593872
0.101956
0.115603
0.348300
-0.479597
-0.189344
0.607279
0.316337
-0.166359
-1.354225
-0.010678
-0.894707
0.044698
0.093610
1.149225
-0.346568
0.583663
-0.535538
-0.169961
-0.003522
-0.997966
0.693061
-0.153833
0.323004
0.226474
0.050005
0.858357
-0.144230
-0.289156
1.019601
0.992291
0.547034
0.653610
0.690854
1.290138
-1.050091
0.597031
-0.892740
-0.813643
0.325181
-0.167056
-0.528161
0.576812
0.073502
0.305867
-0.395271
0.389907
-1.718807
-0.804029
-0.422400
0.463709
0.676862
0.073748
-0.079564
-0.718774
0.843226
0.166705
-0.654824
-0.074855
-0.197135
0.050343
1.148487
-0.831413
-0.469583
-0.317276
0.736058
0.925402
-0.474746
-2.035101
-0.232798
0.624848
0.028732
0.582722
1.560409
-0.956191
1.183328
-0.214748
-0.473931
-0.683648
-1.197488
-1.531181
-0.228426
0.032458
-2.122350
-0.715589
0.345822
1.473299
1.278593
1.256590
-0.207543
0.981845
1.313837
0.271466
-1.022346
0.258399
0.677973
0.561200
-0.147660
0.278332
0.892839
0.284116
0.610533
0.231036
-1.533978
-0.905799
0.461640
-0.969139
-0.253207
-0.527958
-0.422810
-0.680984
-0.589131
0.891229
0.487534
-1.466803
0.579408
0.159289
0.093592
-0.183736
0.900028
-0.306125
0.653644
1.394278
-0.720636
0.267024
0.163691
0.001066
-1.222355
-0.490095
0.096477
0.781229
-0.530443
-0.620834
-0.016707
0.451937
-0.594138
0.120704
-0.998039
-0.703556
-0.466531
-0.343328
0.005000
-0.342063
-0.147040
-0.812096
1.028396
0.356092
0.802297
-0.279525
1.121803
-0.724349
0.422302
-0.093968
0.335518
0.400489
-0.360803
-0.124245
1.026430
-0.054453
-0.474838
-0.047822
0.586912
-0.682666
0.474646
-0.108172
0.200912
1.243790
0.021615
0.544128
-0.152195
-0.700516
0.381459
0.613325
-0.813461
0.041534
0.080618
-0.323480
-0.923956
0.087318
-0.475731
0.225481
1.151928
-0.284075
0.251844
-0.595775
0.139676
0.695240
1.321743
0.720515
0.861137
0.481988
-0.181137
1.074236
-0.535229
0.070750
0.932036
1.342346
-0.807321
-0.519322
0.675268
0.343806
0.768371
0.247885
-1.251729
-0.963142
0.513674
-0.369306
0.458065
1.078564
-1.356539
1.276462
0.347079
-0.768933
0.560493
-0.828037
-0.403510
-0.676541
0.640321
0.032194
-0.505768
0.390782
0.414215
0.190096
-0.015440
0.810945
-0.448233
-0.797589
-0.091129
0.615047
0.697038
0.154778
1.059491
0.429125
-0.073732
1.088317
0.013243
-1.702159
-0.408277
0.111013
-0.863995
-1.042690
-0.501737
0.657185
-0.159271
-0.037689
-0.342950
0.141068
0.541532
0.396997
-0.783079
0.587549
0.284753
-0.161101
0.773457
-0.465246
-0.331186
0.564713
-0.762959
0.851372
0.774184
-0.271809
-0.190247
-0.639404
-0.661292
0.354581
-1.334794
1.360750
-0.341503
-0.836871
0.714118
-0.243258
0.534408
0.485027
1.310433
1.110597
-0.098306
0.505583
0.450141
-0.431104
-0.631532
0.184566
1.367295
0.320826
0.408568
-1.139639
-0.365814
-0.914695
1.053308
-0.061354
-1.555689
-0.533059
-0.070181
0.253234
0.973439
-0.711909
1.244600
1.580831
-0.311330
-0.017169
-1.375998
0.997493
0.022343
1.221171
0.141478
0.775256
0.519711
-0.925870
0.901554
0.685287
0.529261
-0.293468
0.527420
-0.751795
1.198491
-0.777097
-0.401660
0.210522
0.778090
-1.582930
-0.133774
0.133786
0.851848
-0.195448
0.712807
0.263333
-0.756988
-0.597138
-0.176340
0.746819
-0.259900
0.073446
-1.116010
-0.425331
0.398343
0.397431
-0.454956
-1.501566
0.182485
1.664631
-0.065559
0.030840
0.187517
0.497578
0.447099
0.282148
0.909808
1.237322
0.363608
0.323598
0.429768
-0.886879
0.075462
-0.517464
-0.848690
-0.816353
1.005452
-0.661400
0.839518
0.820740
1.142925
0.393909
0.802394
-1.271450
-0.648113
0.612003
1.046064
0.424497
1.391490
0.344982
1.153826
-0.354327
-0.898360
-1.711306
-2.214329
-0.986383
-1.354381
1.085661
-1.115742
-2.059130
-1.072673
0.549057
1.014609
0.783833
-0.240472
0.784117
0.382710
0.365193
-0.393275
-0.126543
-0.907005
-0.899984
1.405271
1.033051
0.217502
-1.955470
0.355651
0.456305
0.713413
0.849861
-0.160870
0.031815
0.111558
-0.265287
0.661022
-0.134908
0.055094
-0.143668
1.475146
0.106129
-0.457386
0.695730
-0.394132
0.673779
0.307084
-0.561676
-0.305993
-0.230748
-0.044370
-0.815415
-0.214363
-0.804057
-1.607774
0.477552
-0.754111
0.662176
-0.180000
0.392283
-0.331339
0.749805
0.881630
-0.308460
-0.159466
-0.042233
-0.028174
-0.561603
0.575583
-1.398589
0.121990
-0.090546
-0.623775
-0.418782
-1.466259
-0.785367
-0.699156
0.682368
1.126422
0.104861
-0.814177
-0.681524
-0.622489
0.651613
-0.844094
-0.050758
-1.202365
-0.969534
0.519230
0.635320
0.028216
0.557319
-0.958582
-0.032958
0.120513
-0.901002
0.281065
0.380337
0.579539
0.413653
1.623248
0.390422
0.785028
-1.119003
-0.563156
0.431717
0.501354
0.006908
-0.965241
1.041785
-0.460709
0.134075
-1.257989
-0.798597
1.199208
-0.337839
-0.531420
-0.494493
0.409908
-0.790618
0.046810
0.340707
0.078616
-0.236452
0.188148
0.885161
0.199909
-0.112392
-0.862396
1.528320
0.050088
-1.330478
0.311071
0.253557
0.135737
0.163005
-0.375037
-1.377594
0.134500
0.462187
-0.453076
0.611970
-0.221856
0.824778
0.771191
0.618434
0.376192
1.574774
0.956459
-0.253012
1.572387
0.366722
0.650695
-0.457009
0.736684
-1.411605
0.739010
-0.278677
-1.262454
0.566235
-0.426582
0.120346
-0.023100
-1.353386
-0.351107
-0.035816
0.139163
0.516494
-0.045831
0.328491
-0.891405
-0.352511
0.777396
0.279068
0.459115
0.412982
-1.232006
0.483765
0.598689
-0.637825
-0.700579
0.654755
-0.927002
-1.281983
0.632662
-0.934386
0.428586
0.472711
0.306913
0.325229
0.765094
0.001156
-0.214100
0.178692
0.274092
-0.836981
0.042872
-0.828969
0.468155
-0.360481
-1.479797
-0.614854
0.309521
-0.302861
-0.399913
-0.205698
0.285287
-0.113092
0.729114
0.041623
-0.137040
-0.493593
-0.541934
1.419627
-0.391784
-1.102239
-0.834005
-0.519645
0.011994
1.038747
-0.509940
0.495270
0.595349
-0.062316
-0.368107
-0.320855
1.103529
0.396078
1.262389
-0.427268
0.377151
-0.460041
-0.262691
0.669294
1.261062
0.502826
0.020272
0.346777
0.085604
-1.268728
0.816520
0.423556
-0.485028
0.084814
0.661245
-1.132459
1.160649
0.224352
0.452457
0.640589
-0.106921
0.611398
-0.087820
0.783516
-0.043079
-0.689732
-1.130078
-1.151963
-0.239249
0.957331
-0.988828
0.529807
0.744817
-0.302385
0.143381
0.478692
0.071428
-0.127065
-0.145732
0.674639
0.622361
-0.297586
1.063359
0.207629
-0.837889
0.215928
1.029259
-0.134453
-0.299659
-0.770579
-0.925863
-1.141726
0.042716
0.298692
-0.727925
0.274149
-0.148672
0.157351
0.296367
0.696348
-0.904995
0.000791
1.537545
0.609041
0.728880
-0.110179
1.468969
0.348947
-0.246171
-0.089309
-0.731919
-0.973248
-0.210635
-0.397315
-1.056335
-2.282045
-1.955358
0.063154
1.188943
0.478225
-0.634625
-0.813542
0.796869
2.133193
0.685519
-0.635466
0.201094
-0.514492
-0.072556
-0.488125
0.856009
-1.143605
0.529656
-1.253351
-0.669898
-0.157905
0.089814
-0.201868
1.001795
0.290747
0.511550
-0.616963
0.609072
-0.403949
0.386710
1.018939
-1.033873
-1.159749
0.218997
0.186316
-0.521383
-0.252402
-1.085934
-0.383214
-0.524052
-0.160623
-0.298611
-0.859048
-1.094356
0.458994
-0.023593
-0.598276
1.484711
-0.580386
-0.012303
-0.003393
0.714294
0.049643
-0.452262
-0.846072
-0.147526
0.695332
-0.298144
0.442817
0.628151
0.138079
-0.671861
-0.075911
0.032733
-1.400909
0.109632
0.788246
0.877820
0.579017
-0.932587
0.284820
-0.179046
-0.421681
-0.451459
0.536078
-0.913423
-1.059267
0.736238
0.617415
-0.081608
0.369025
-0.871453
-0.251838
0.378729
-0.318044
0.135512
-0.523285
0.678228
-0.479322
0.543842
-0.718959
-0.172212
-1.069968
-0.229896
-0.369494
0.432404
-0.169344
-0.419294
-0.314023
-0.175261
1.111113
0.266855
0.079524
0.703489
0.749773
0.949070
0.275232
-0.379672
0.270361
-0.975251
0.346105
-0.553348
0.249856
-0.679666
-1.165383
0.849289
0.753600
-1.216471
-0.813032
-0.233825
-0.372364
1.278206
0.203249
1.040178
1.568847
-1.633160
0.878994
0.284379
-1.819378
-0.574948
-1.342695
-0.456201
-0.192237
-0.576855
-0.781401
-2.365192
-0.179316
1.692071
-0.087490
0.673498
-0.716468
-0.410590
1.629195
-0.762946
0.622126
1.497343
-0.100803
-1.269581
0.546423
-1.113954
-1.039033
-0.555110
0.326763
-0.256355
-0.149785
-0.932713
-1.751166
-0.432629
1.510660
-0.679836
0.031528
-1.108638
-0.970020
2.118695
-0.148028
-0.154588
2.151911
-0.582221
-0.493196
-0.278943
-0.259714
-0.129079
-0.313076
-0.042658
-0.383628
-0.391266
-0.584466
-1.105326
1.015249
0.510795
-1.219500
0.182781
-0.408891
-0.524825
1.619471
0.205906
-0.157353
1.814887
-1.407406
-0.524301
0.412678
0.656967
-1.376728
-0.047582
-0.282824
0.544298
-0.090162
-0.227101
-0.092076
0.951834
1.843973
-1.046619
-0.046231
-0.677972
-0.436937
1.868145
-0.803295
-0.114809
-0.065087
-0.038526
-0.383146
0.347168
0.971166
-0.842688
-1.477803
-0.406639
-0.166320
-0.329827
-1.791863
-0.934943
0.342783
1.585121
-1.228362
-0.053988
0.025218
-1.060348
0.932104
-1.059573
0.358896
0.510537
-1.043331
0.381017
1.020334
0.671623
-1.271741
-0.533984
0.330070
-0.683013
0.224021
-0.048864
-0.881548
-0.351826
0.503027
-0.411454
0.594536
-0.425653
0.251314
0.198582
0.994651
0.059281
2.588552
-0.897328
-0.227697
0.099298
0.121609
-0.919310
-1.145269
0.371757
0.011328
0.733357
-0.831554
0.911772
-0.878902
0.748227
-1.936019
0.500470
-1.402510
0.545238
0.527298
-0.887662
0.259668
0.510905
0.391352
0.677579
-0.459261
-0.895188
-0.964531
-0.831320
-0.183380
-0.530779
-0.257196
-0.377637
-0.667319
0.325677
0.195111
-0.041101
-1.677579
1.479353
0.357651
1.361279
-0.123772
-1.153639
-0.105088
-0.054094
-1.452228
-0.708381
0.137341
0.129637
1.235462
0.359206
-0.724592
0.133279
0.224395
0.875493
-0.518082
1.513538
-0.143090
-0.640549
-1.418426
0.202542
1.035725
0.251371
-0.560760
-0.111451
-0.630042
0.124663
-1.502729
0.533131
-0.159425
0.897736
2.043596
0.087096
-1.636871
-2.248850
0.094326
-3.478901
3.695670
-4.230330
-0.149798
3.845904
4.729446
-2.653008
2.166580
-2.670526
-6.974393
2.056090
-4.866226
-2.644989
-2.005456
4.522111
4.286754
-0.445636
-3.975764
3.323870
-4.536212
-1.780274
-3.451809
-4.769130
3.220011
-2.536749
3.126111
3.917697
-3.122209
-3.550488
2.888521
1.267779
-4.707875
1.230695
3.500197
1.156770
0.894519
-4.387149
3.066716
-5.345459
1.186326
-6.913035
-1.475160
-2.326922
-0.443435
-7.408395
0.460661
3.618155
-1.437895
3.479360
-4.187208
5.475700
-3.352006
-3.794570
2.077625
-4.647644
-1.622657
-2.492351
-1.299137
-4.130873
-5.255997
-3.302560
-4.419221
2.245482
4.004414
4.159187
3.800811
-1.452990
-9.119078
-6.826889
4.091536
2.218907
0.087213
0.461663
-8.294311
0.689368
0.947550
-0.707541
0.720974
-1.815317
-1.193778
-1.078123
0.602604
-3.988857
-0.567002
1.993348
-3.396808
3.728099
-3.215415
-1.882980
-2.644612
-2.150998
9.438855
-2.849751
3.669791
-4.281939
-6.164751
-3.732857
1.464674
0.764022
-6.224565
-0.385312
1.140542
0.404604
-8.091664
-0.868753
-2.587196
-1.845942
4.417690
-3.244169
2.188246
-0.395137
-2.811032
-1.320453
-0.003060
4.695664
-9.738928
-4.515364
1.248058
3.573600
-3.865944
-5.996207
4.409840
4.932788
1.074957
-6.094866
1.624924
-10.500627
-1.352060
-2.326960
-1.715245
-2.807645
-3.535533
7.876900
-2.026412
-4.309139
-2.590623
5.365016
-5.649522
5.100886
-1.688762
-5.091896
4.949058
-4.087778
-4.148109
4.242678
-6.659593
2.455013
-6.326576
4.337804
4.027641
-4.835547
-7.093098
3.208066
-2.178828
3.887339
-2.240264
-4.342238
0.248196
-0.517919
2.385525
-3.087539
-3.366205
-6.693779
-2.000500
-3.626905
2.423441
-4.342154
-4.032136
3.671674
4.069174
4.132901
-3.461753
-0.498772
-2.496938
-5.227251
-3.673306
0.332656
-3.268850
-4.346676
-3.004896
3.686325
3.009772
-6.265460
3.915026
-0.290324
0.077197
-0.854989
-0.748256
0.311180
-6.310620
-0.436886
-3.160840
1.288646
3.666308
-2.839798
-6.102471
4.222202
-2.591915
-1.971004
-2.558922
-3.089399
-3.047426
-4.178049
-2.168709
-3.651181
-4.200406
-1.727056
