0.5 101 10 10
-0.542243
0.467235
0.932884
-1.103346
0.421916
1.172657
0.064048
-0.650198
-0.174859
0.668406
-1.402087
0.504063
0.575654
0.714013
-0.928959
0.240537
-0.566698
-0.365960
0.722249
0.156142
-1.317956
-0.860473
0.769544
-0.006187
0.844226
0.273694
0.251212
0.892688
-0.211037
0.741316
0.256737
-0.124054
-0.866568
1.144141
0.499104
-0.497826
-0.857337
0.120380
0.088873
0.843223
0.269570
0.539232
-0.172985
-0.221107
0.676296
-0.547948
0.288088
-0.705198
0.844587
0.666540
-0.402713
-0.676778
1.014238
-0.883621
0.271467
-0.731512
-0.182276
0.352711
-0.870756
-0.675189
0.397743
1.377814
0.865769
-0.693320
-0.839723
0.011467
-0.944568
-0.578065
-0.642869
-0.473097
-0.635589
1.117503
0.035443
0.765028
0.260274
-0.279706
-0.587040
-0.739724
-0.158645
-0.271038
0.560272
0.491648
-0.694265
0.782822
-0.131523
-0.849292
0.555974
0.342628
0.400354
-0.374658
-0.134218
-0.314865
0.222819
-0.140625
-0.913247
0.209525
0.472191
-0.443475
1.185668
-0.094940
0.393172
-0.287349
-0.391865
-0.567135
0.721365
0.932134
0.155646
0.397432
0.114734
-0.935928
0.063460
0.602377
0.784469
0.293405
0.258876
0.209304
-0.933999
0.206072
0.466943
-0.752163
-0.711647
1.014719
-0.994631
-0.249560
0.023813
-0.800135
0.825876
0.064251
0.280995
-0.605709
1.165014
1.008906
-0.359218
-0.998117
0.305166
0.131638
0.229162
1.036720
0.534835
0.926676
-0.482168
-0.736846
0.758137
-1.211711
0.835269
0.804125
-0.156037
0.827699
-0.787157
0.762258
0.874287
0.811171
0.824634
0.938206
-0.359830
1.271356
-0.599184
1.102726
0.565787
-0.908450
-0.768994
0.683229
-0.036698
-0.416410
-0.453170
-1.124937
0.608195
-0.064874
-0.748553
-0.840768
-0.055283
1.025194
-0.066015
0.526380
0.447911
-1.247918
-0.604013
-1.078691
-1.057952
0.839832
1.290906
-0.463869
0.438817
0.627421
-0.312971
-0.311654
-0.459366
0.183773
-1.017917
-0.873100
-0.480593
-0.401467
0.363800
0.407800
-0.847209
-0.094385
-1.017182
0.474088
0.960275
-0.496389
0.420597
-0.693384
-1.113426
-0.634285
1.302693
1.386963
-0.976471
-0.585945
-0.681056
0.576547
0.232519
0.402740
-0.037729
-0.678302
0.162998
-0.058326
0.273300
-0.194074
0.860214
0.155033
0.641270
0.916366
0.276007
-1.118449
-0.271881
-0.268815
0.827081
-0.804765
0.207275
0.249386
-0.077882
0.404640
1.061935
-1.057580
0.689089
-0.490473
-0.901003
1.229344
-1.055933
0.127586
0.026336
0.041080
0.977290
-0.286083
-0.649002
-0.641789
0.692405
0.886247
-0.398012
0.777080
0.170141
-0.969923
0.572653
-0.645421
-0.638697
-0.215744
0.000111
-0.075757
-0.812398
0.814128
0.805791
-0.278222
-0.800289
0.117492
0.868898
-0.699017
0.343513
-1.037393
0.827221
-0.704345
-0.040247
0.580460
-0.270694
0.028840
0.361829
0.269080
-0.064976
0.300325
-1.117754
0.027841
-0.228035
-0.269841
0.133696
0.501775
-0.314604
-1.054781
-0.308043
-0.127952
-0.060145
-0.877378
0.639315
0.537337
0.318073
-0.457890
-0.681728
0.233377
-0.953494
-0.167810
-0.170565
0.800226
0.591029
1.165327
-0.371756
0.610170
0.712092
-0.799609
0.220092
-0.033631
0.174683
0.126273
-0.524019
-0.180063
0.177273
-0.015137
0.604287
-1.490207
-0.454346
-1.395908
0.968692
0.640574
-0.411777
-1.147004
-0.408638
-1.054425
0.226267
-0.590447
-0.679812
0.836076
0.239630
0.097773
0.246647
-0.443701
-0.165175
-0.438616
1.020608
-0.750435
0.179300
-0.602245
-0.901348
0.994313
-0.035464
0.729138
-0.342246
0.188685
0.434879
-0.776408
0.801069
-1.043529
0.523124
0.680783
0.321986
-0.549544
0.722237
0.003896
0.273276
-0.255614
0.120098
0.407200
-0.628612
-0.087036
-0.911151
0.784770
-0.623033
0.826371
0.927456
-0.844494
0.772740
-0.711585
-0.337756
-0.780000
-0.394045
-0.494791
-0.493735
0.380461
-0.886329
-0.443660
0.994934
1.042694
-1.301798
-0.213626
0.416877
0.458247
-0.659391
0.132977
-0.649211
0.203990
0.181705
-0.483935
-0.066168
0.259164
1.109017
-0.147351
-1.227180
0.109216
-1.327630
-0.362999
0.200275
-0.514396
-0.870866
0.388240
-0.797628
0.101110
-0.748767
-0.871928
0.016421
0.403288
0.003374
0.562623
0.060799
-0.649321
-0.773759
-0.580183
0.186154
0.835072
-0.222558
0.635234
-0.851898
0.570896
0.537447
-0.551133
0.285092
-0.748032
0.645264
0.392641
-0.375220
-0.310896
-0.633688
-0.565753
-0.703187
-0.666821
-0.542447
-0.178002
0.549239
0.696666
0.373947
-0.733385
0.746386
-0.796921
-0.118550
0.494485
-1.062117
0.410497
-0.674499
0.692023
1.014311
0.513171
0.499887
0.304710
-0.351100
-0.710030
-0.117824
0.821707
-1.008286
0.724880
0.402309
-0.473843
0.682734
0.877852
0.898435
0.780313
-0.299000
-1.272444
-0.570984
0.608966
-0.101090
1.246732
0.119846
-0.046278
0.682004
-0.979539
-0.006938
-0.673556
0.167405
-0.735097
1.240394
-0.009128
1.203933
0.250893
-1.219311
0.794992
0.561712
-1.174291
0.484446
0.755994
1.080806
-0.733824
0.369374
0.439259
-0.251643
-0.961697
1.032958
0.451237
-0.439040
-0.028372
-0.244622
0.418826
-0.490919
-0.469563
-0.002015
-0.973138
-0.387657
-1.133282
0.054689
-0.527347
-0.033290
-0.515398
0.392710
-0.075216
0.607994
-0.145885
0.070815
0.360002
0.138025
-0.215889
-0.980233
0.336726
1.027574
1.242093
0.426332
-0.542025
-0.354515
0.219703
-0.023867
0.921689
-0.272911
0.249684
0.624138
1.130209
-0.701361
0.607311
0.546549
-0.747392
-0.741239
-0.546729
0.519700
-0.011140
-0.488786
0.451712
0.363543
0.589611
0.641054
0.681527
-0.174505
-0.208698
-0.555742
-0.039177
-0.368596
-0.613809
0.779315
-0.019322
0.370346
0.602616
-0.538043
-0.146961
0.107749
0.285541
1.064273
0.878048
-0.647934
-0.296545
0.804718
-0.455758
0.411478
0.340532
0.574856
-0.309846
0.896909
0.739046
-0.006271
-0.236990
0.293128
-0.161469
-0.672883
-0.520355
0.917627
0.528347
-0.103162
0.805996
-0.328349
0.525505
-1.169552
-0.952384
0.664440
-0.802734
-0.101039
-0.373523
0.148447
-0.440990
-0.180045
-0.580775
-0.793510
-0.169995
1.230643
0.786043
-0.039845
0.829673
0.539193
1.394767
0.660426
0.485131
0.771240
-0.551391
0.540434
0.248515
0.042698
0.759178
1.009451
-0.589232
0.624934
0.584045
0.122469
-0.900083
0.280423
-0.151396
0.104724
0.554733
-0.903349
0.183678
0.189276
-0.650363
-0.835877
-0.547185
0.587691
0.197370
0.909880
-0.476428
0.898143
0.171840
0.424099
-0.485545
-0.982920
0.900662
-0.790239
0.264289
0.383047
-0.017670
-1.224216
-0.098458
0.270708
0.165050
0.978107
0.876226
-0.032680
0.380007
-0.632411
-0.131311
-0.657240
-0.280521
-0.859882
-0.782192
0.035411
0.067345
-0.600641
-0.820802
-0.291233
0.171544
0.185194
0.271443
0.848267
0.146739
0.444276
1.448019
0.232280
0.564071
1.113331
-0.436645
0.748637
-1.103078
0.110512
-0.783446
0.527211
1.207315
0.428193
-0.578333
-0.192598
-0.788684
-1.004865
0.893992
0.221222
-0.561113
-0.202475
-0.298582
-0.024371
0.687444
0.216705
0.436171
-0.263434
0.133903
-0.091691
-0.282747
-0.108712
-0.470462
1.198486
0.992359
0.704999
0.377823
-0.382556
1.322183
0.511555
-0.500299
0.333608
0.711563
0.666832
-0.634960
-0.312602
-0.125371
0.586471
0.156090
-0.771745
0.320646
0.682767
-0.137399
-0.106712
-0.846120
0.492191
-0.615122
-0.686119
0.149981
0.718302
0.269649
0.216356
-0.853051
-0.151670
0.833093
-0.504958
0.736519
0.666459
-0.289313
-0.991771
-0.658803
0.349120
0.393176
0.552385
1.089703
0.902493
-0.174157
-1.227097
-0.153121
0.904443
0.242912
0.478420
0.388704
0.494093
0.256363
0.251124
1.167563
0.255149
0.049864
0.129688
0.298670
0.092704
0.414470
-0.969762
-1.129248
-0.022381
0.472141
0.708385
-0.603518
1.130479
0.087608
-1.028438
-0.265686
-0.015085
0.234226
0.219912
0.292826
0.128997
0.086151
-0.119595
-0.799047
-0.725215
0.940237
0.823035
-0.867382
0.268656
0.177605
-0.608674
-0.247031
0.474613
0.548248
0.127468
0.165274
-0.118349
0.756344
-0.108613
-0.074495
0.408049
-0.733180
0.966158
-0.143545
0.202559
-1.532045
0.878251
1.557011
-0.033665
0.119167
0.382575
0.714426
-0.708469
-0.985710
1.018405
-0.945321
0.246254
0.179135
-0.474712
-0.127293
0.837358
-0.276205
0.836224
0.636072
-0.030908
0.910334
-0.833357
-0.176029
-0.139742
-0.862583
-0.292765
-0.707437
-0.861220
0.351507
0.787122
0.745715
-0.921384
-0.663745
0.298607
0.650523
-0.578832
-0.570497
-0.040632
0.848841
-0.189710
-0.113518
0.259726
-0.264623
0.015924
0.028462
0.269485
0.649938
0.871027
0.368323
-0.148590
1.154564
-0.505479
-1.288551
0.619745
0.246845
1.055658
-0.574417
0.788954
0.202038
-0.863410
-0.388382
0.904505
0.585572
-0.662596
0.635503
0.513125
-0.005576
-0.064402
0.627120
-0.874062
0.136956
0.719611
-0.882250
-0.673643
-0.568455
0.062392
0.511982
0.766318
0.685643
0.324351
0.062047
0.796086
-0.382477
-0.852758
-0.536403
0.345184
-0.653982
0.004254
-0.789050
0.121684
-0.239783
0.690528
-0.409700
-0.618405
0.506157
0.313242
-0.349056
0.694648
0.652700
0.700307
-0.171678
-0.679076
0.126996
0.045814
0.940037
-0.102454
0.293792
0.542377
-0.481070
0.054903
-0.514638
0.195363
-0.278217
0.851584
0.586187
0.501793
-0.930558
-0.160505
-0.138733
-0.348268
0.276205
0.804070
-0.935838
0.546922
-0.535002
1.169122
-0.048505
0.380671
0.189039
1.103386
0.155803
0.199274
0.777339
0.077885
-0.092868
0.231201
0.464152
0.351736
-0.199719
0.851467
0.401437
-0.739933
0.833156
-0.439724
-0.337842
1.066382
-1.415928
0.852919
-0.165123
-0.057819
-0.730254
-0.541268
-0.136298
-0.395250
-0.652493
-0.687622
0.301924
-0.137707
-0.259199
-0.646908
0.508171
-0.656551
-0.086617
0.419727
1.163194
0.672258
-0.327563
0.177465
0.433383
-0.932232
-0.493388
-0.649834
-0.084220
-0.942741
0.133586
0.274536
-0.627124
0.738716
-0.364250
-0.405329
-0.255323
-0.482214
0.467291
-0.954202
0.015578
0.016561
0.042127
-0.891797
0.913368
-0.894681
-0.802417
-0.945622
-0.342846
0.313874
0.183058
-0.705079
0.132789
-0.453696
0.235384
-0.088379
0.503284
0.592744
-1.091534
1.509110
1.221475
-0.654137
-0.763803
0.481093
-0.229889
-0.809749
1.048490
0.361338
-0.091096
-0.148099
0.882892
0.358266
-0.272359
0.046291
0.592396
2.891651
4.332642
-0.683662
-0.069681
-1.460175
-1.909790
0.822838
-3.001888
-0.910583
-0.179385
-0.236470
0.794904
0.982984
-3.396445
0.592385
-3.871420
-4.739462
0.908935
1.456295
-0.893953
-0.279678
-0.744628
-3.195842
-1.013410
-0.096428
1.711797
-0.498180
1.699722
-2.938728
-3.690321
-1.685817
-1.143931
-3.076434
2.352897
-1.787461
1.246756
-3.543799
-2.739918
1.469493
1.362840
-3.528707
-0.200627
0.848951
0.811730
-0.123086
0.026109
0.060030
-2.844508
0.935963
-3.696358
-2.008790
1.308179
2.527564
1.441677
-3.565933
-3.184218
0.943899
0.361955
-2.678860
0.474150
2.414379
-3.331088
1.161774
-1.458956
1.259062
1.464347
1.096275
-3.230709
-2.947009
0.268136
-2.377332
1.782115
-2.792945
-0.589718
2.115111
-2.410284
2.068145
-0.345834
-1.994528
2.716880
0.137854
-1.724757
-1.378851
-4.304762
-3.487850
0.711494
1.217642
1.481912
0.623915
0.462405
-0.949476
-3.349894
-1.353484
-0.078425
-0.286477
-1.830662
-2.046991
-0.881489
-0.972060
-0.982655
