0.3 101 21 10
1.173331
-0.821309
-1.234326
-0.428065
1.025241
0.721352
0.090623
-0.293306
0.511579
0.590350
-0.671201
-1.189040
0.951688
-0.625864
-0.723925
0.524518
-0.086084
-0.234294
-0.432097
-0.433025
-0.075586
-0.193241
0.542883
0.822705
-0.384579
0.407809
0.004826
-0.574692
-0.013184
-0.806204
-0.325256
-0.009379
0.234424
0.085450
0.485172
0.434482
-0.323502
-0.531086
0.863988
0.036960
1.152783
0.429889
0.349087
-1.086422
-0.425911
-0.285901
0.251277
0.478866
0.859147
0.396892
-0.164168
0.487299
-0.606272
0.622921
-0.898362
0.906511
-0.888575
-0.267580
-0.064602
-0.008799
-0.841637
0.223627
0.557258
0.606360
-0.698331
-0.285490
-0.363243
-1.088808
1.439403
0.527025
-0.676096
1.418806
0.631281
0.250452
1.371107
0.197431
0.909090
-1.455881
0.212523
-0.636505
-0.843697
0.075878
0.176621
-0.712955
-0.152302
0.438035
0.307042
-0.418370
-0.918297
-0.247759
-0.244321
0.068277
-0.316050
0.417835
1.380925
0.571145
-0.664667
-0.604024
-1.299790
-0.987413
-0.357531
-0.429161
-1.387604
-0.446383
0.216416
-0.893303
-0.687852
0.287678
-0.233522
0.092933
-0.140498
-0.004577
-0.834066
0.864712
-0.501009
1.625697
0.594185
0.429161
1.026705
-0.076318
0.671128
0.447452
-0.796902
0.099520
0.569883
0.990810
0.298912
0.925650
0.164048
-0.716399
0.107910
1.054821
-0.435219
0.504008
-0.045946
-0.381970
0.135156
0.406467
-0.037072
0.105783
-0.104094
-1.020874
0.591323
-0.442430
0.230067
0.353688
0.168677
-0.075118
-1.137642
0.593886
-0.326649
-0.268710
-0.362359
0.904646
0.413046
0.102430
-0.395000
0.432296
0.563915
-1.552344
1.216509
-1.120380
0.207221
-0.214419
-0.452882
-0.201415
1.230367
-0.683978
0.283938
-1.031734
-0.046013
0.300886
-0.335611
0.896184
0.630836
-0.515766
-0.300347
-0.025068
-0.966867
-0.362297
-0.315617
0.096517
0.446240
-0.137837
0.042058
-0.497713
0.158473
0.657601
0.664450
1.060931
-0.079219
-0.328434
0.619278
-0.489860
-0.317947
0.184678
-0.541877
-0.932745
-0.726721
-0.998889
0.290286
0.032292
-0.029200
0.620428
1.176060
0.692821
-0.663298
0.873023
0.670749
0.782238
0.383048
0.523322
0.991293
0.378980
0.207705
0.793650
0.230271
-0.549043
-0.683269
0.682835
-0.713578
0.915477
-1.742636
0.419505
-0.928528
-1.008990
1.332409
0.784318
-0.486398
0.717354
0.271022
0.045466
0.966368
0.073127
1.103399
-0.852476
-0.627991
0.160904
-0.189333
-0.177429
-0.792335
0.440771
-0.529805
0.265412
0.074290
-0.002281
-0.275190
-0.700754
1.266192
0.554168
0.601625
0.563795
0.589236
-0.398122
-1.041747
0.500085
-0.289267
-0.262798
-0.024481
-0.778646
0.473645
0.165767
0.952962
-0.613332
1.106705
0.034446
-0.773824
-0.131273
-0.335966
0.190258
0.484891
0.410708
-0.315171
0.847930
0.041728
0.217791
0.112976
-0.283937
-0.112886
-0.511034
-0.536329
0.579609
-0.112973
0.125088
1.074366
-0.632832
0.553878
-0.574589
-0.493839
0.480392
-0.021866
-0.306556
0.327857
0.688512
0.555197
0.515070
0.066966
0.094831
0.067725
-0.085204
0.001861
-0.008394
0.191033
0.969105
-0.577648
-0.658624
-0.890938
0.235559
-0.221165
0.143588
0.699527
0.677171
0.100226
-0.289909
0.370584
0.732160
-0.314437
-0.651565
0.668326
-0.926217
0.797343
0.710255
0.674775
-0.744457
-0.420087
-0.021962
-1.150765
0.464416
-0.973970
-0.215666
-0.125615
-0.846502
-0.642439
-0.684184
0.545362
-0.874813
0.992484
-1.180498
0.125909
-0.514550
-0.218091
-0.138185
-0.762776
-0.514822
0.537311
-0.140368
0.118528
-0.890240
0.416550
1.419434
-1.097133
1.070817
-0.086400
-0.613370
0.814698
-0.405831
0.186415
-0.335665
-0.797234
-0.155993
-0.870358
-0.396929
-0.334163
0.586594
-0.324083
0.770863
-0.711694
0.100829
0.120186
-0.874113
0.984618
0.573670
1.067159
0.208168
0.313501
-0.288197
1.052429
-0.207234
-1.089313
0.484467
-1.191842
-0.836804
-0.123357
1.269079
0.983328
0.814609
0.947863
-0.995335
0.169950
-0.441338
-0.431167
-1.071389
-0.160914
0.140526
0.756203
-0.924851
0.564895
-0.598907
-0.273646
-0.954791
-0.904387
-0.270796
0.814452
0.495348
-0.559729
0.576480
-0.937062
0.670458
-0.803685
0.575576
-0.638868
-0.811308
-0.986797
0.078335
1.080206
-0.455867
-1.103324
0.183740
0.985727
0.273320
-0.687766
0.314954
0.807515
0.345095
0.349602
-0.641871
-0.569227
-0.285630
-0.263609
0.555038
-0.012607
0.317593
-0.145513
-0.479945
0.517366
0.043002
0.405210
-0.090798
-0.445684
0.305090
-0.248799
0.440737
0.988590
0.581209
-0.901802
0.475985
0.827002
0.614584
-0.276509
-0.770639
0.740000
-0.367180
-0.100888
-0.887130
-0.893258
0.509786
-0.827387
-0.300058
-0.468569
-0.635156
0.258567
-0.663524
-0.487527
-0.325608
0.384237
0.830904
0.663414
0.462087
0.294238
0.010783
0.578654
-0.943240
0.357135
-1.254931
0.011407
0.152064
0.939997
0.104682
-0.013238
1.070648
-0.906387
0.844097
0.623877
0.884194
-0.803235
0.331608
0.080641
-0.099217
0.938332
0.500104
0.339696
1.110603
-0.633101
0.704837
-0.185746
-0.417601
0.085133
-0.482532
0.788720
-0.922385
0.510708
0.826837
0.791017
-0.674169
-0.306416
-0.625331
-0.177135
-0.808295
-0.319984
0.614487
0.155750
-0.359274
-0.640322
0.202540
-0.432376
-0.158029
0.884594
-0.082041
0.495631
-0.358043
-0.811316
-0.585465
-0.707220
0.142838
-0.015016
-0.008946
0.947761
-0.866533
-0.905801
-1.208448
0.998511
0.477109
-0.504219
-0.644016
0.048487
0.156577
0.600679
-0.270461
0.261656
-1.188648
-0.491785
-0.066770
0.602100
0.390376
0.701133
0.340271
0.695635
0.136565
-0.311527
-0.587622
-0.808322
0.225436
0.185968
-0.806332
-0.664451
0.322780
-0.579880
-0.333529
0.037075
0.054140
0.665539
0.689950
0.869918
-0.337007
-0.922204
0.709571
0.398841
-0.307941
-0.052048
-1.030509
0.201135
-0.138040
-0.082346
0.640613
-0.885467
0.026237
-0.491303
0.533945
-0.998646
-0.591515
0.613210
0.414092
0.527927
-0.835415
0.126752
-0.095561
0.823484
0.068639
0.603976
-0.218824
0.350896
0.221791
0.105618
0.648120
-0.276163
-0.661744
0.850246
0.109651
0.652912
0.191234
-0.303743
-0.332018
-0.699980
0.437229
0.070463
-1.056709
-0.772745
-0.519578
0.801393
-0.473224
0.160519
0.565770
-0.312942
0.255111
0.944305
-0.769918
-0.793690
0.822262
0.844832
0.185621
1.142286
-0.005505
0.134346
0.669185
0.655696
-0.692483
0.771205
0.995047
0.769021
0.489592
0.166715
-0.213750
0.759725
0.792776
-1.076010
-0.634321
1.088922
0.809757
-0.058869
0.007265
-0.397662
0.457042
-0.224556
1.074667
0.089796
-0.464537
-0.070783
0.980429
1.088138
-0.294631
0.251934
0.757369
0.722624
0.056874
-0.022381
-0.122623
-0.376262
0.840413
-0.722998
-0.567451
0.699724
-0.448891
0.731994
1.248980
-0.371084
0.993368
-1.347646
-0.317264
0.082397
0.200070
-0.600895
-0.404312
0.751450
-0.578880
-0.746856
-0.159788
0.144051
-0.527086
0.125660
-0.603436
0.888307
0.103567
0.650697
-0.203881
0.302805
-0.457870
0.474584
0.237680
-0.625496
0.328746
-0.248966
-0.306850
-0.275236
-0.293640
0.353653
-0.401724
0.353821
0.783696
0.529799
-0.256262
-0.342770
0.545874
-0.168162
-0.302102
-0.612007
0.611817
-0.827972
0.832106
-0.008514
0.665197
0.650346
0.170451
0.984171
0.289152
0.960107
1.504300
-0.735559
-0.507588
0.764779
-0.186367
-0.451500
-0.619891
-0.025327
0.470381
0.061440
0.402245
0.325604
1.060299
-0.677937
0.153388
0.540552
0.580171
-1.095902
-0.295006
0.000079
0.830593
0.526411
-0.533869
-0.321382
0.238829
-0.129461
-0.222482
0.835460
-0.707616
-0.364092
0.219646
0.633889
0.764164
-0.435827
-0.013435
-0.965287
0.962267
0.833231
0.419734
-0.635021
-0.145197
-0.200995
0.399299
0.100191
0.647392
-0.370618
0.199290
0.662492
0.430060
-0.228347
-0.079029
-0.122598
0.194433
0.679478
-1.237914
-0.742226
-0.066025
0.461797
-0.369835
-0.095212
0.089580
0.682143
0.030333
0.452615
0.757014
-1.289213
0.780896
0.046437
-0.506645
0.846816
-0.265149
-0.092335
-0.187224
-1.033202
0.004645
0.176219
0.446001
0.658589
0.066673
-0.627046
0.658888
1.164581
-0.546937
-1.186203
0.060203
1.222864
-0.169538
-0.627845
-0.503323
-0.784313
-0.529455
0.533712
-0.787139
-0.331215
0.886320
-0.225907
-0.089585
0.855364
0.691021
-0.639099
-1.139699
-0.644998
-0.288518
0.075127
-0.055192
-1.356057
1.128991
0.601894
0.121118
0.876269
-0.077022
0.487927
-0.603915
-0.534736
-0.812651
-0.278357
-0.815495
0.326434
-0.158296
-0.809005
-0.238645
-0.258156
0.076235
0.705357
-0.816133
-0.734389
-0.563085
0.100404
-0.228757
-0.173774
0.682231
0.125363
-0.514730
-0.016338
-0.085457
0.222489
-0.595151
0.982615
1.097103
-1.113160
-0.623247
-0.566369
0.171737
0.035020
-0.719298
-0.798031
0.043529
-0.205847
-0.538512
0.214931
-1.343585
0.761731
1.417480
-0.950611
0.832119
0.579834
0.444805
-0.239458
0.657765
0.688856
-0.940034
0.562562
-0.140975
-0.518249
0.198760
0.104633
0.022881
1.073130
-0.879024
-1.382368
-0.258614
-0.436140
-0.745593
0.021899
0.131443
0.030442
0.694307
-0.348314
0.739785
-1.160937
0.543806
0.340515
0.058451
-0.428448
0.516805
-1.445260
0.480740
-0.690384
0.085936
1.412678
-0.519880
-1.389275
0.052497
0.624392
0.844430
-0.021900
-0.041247
-1.143255
0.097392
0.305883
-0.333415
0.632859
-0.118393
-1.049377
1.195469
-0.561250
0.387536
0.662071
-0.321775
-0.632316
0.239650
-0.424910
-0.723757
0.772979
0.361305
-0.060018
-0.824191
0.099342
-0.512217
0.277900
0.665236
-0.685788
0.393430
-0.330766
-0.164507
-0.400212
0.641916
-1.384678
0.600875
-0.553272
0.888023
-0.145406
-1.545964
-1.105295
0.115475
-0.604431
-0.311085
0.584072
-1.004541
-0.375861
-0.657543
-0.655179
0.270114
-0.612096
-0.107728
0.073856
-0.028019
0.065283
-0.631470
0.156533
0.793705
0.880230
-0.948312
-0.089970
0.619955
1.066083
-0.250912
-1.079790
0.585742
-0.730767
-0.249097
0.576266
0.742992
0.390202
-0.635943
-0.043003
-0.278547
-0.485429
-0.629235
-0.701163
0.316137
-0.659759
0.412171
0.426119
0.971347
-0.691951
0.248057
0.034379
-0.444700
-0.729718
0.552801
-0.422590
0.619902
0.058067
-0.289679
0.686607
0.933530
0.727963
0.212157
-0.448659
-0.125889
0.572708
0.349318
0.537197
-0.200349
0.133409
0.064213
0.227691
0.681781
-0.170456
0.324372
-0.521997
0.310577
-0.999718
0.919435
0.369721
-0.740317
-0.095263
-0.702019
0.206184
1.141906
-0.180364
-1.122399
-0.920838
-0.478016
-0.398604
-0.566335
1.189374
-0.215159
0.098035
0.194351
-1.025956
0.963571
-0.825580
-0.192055
0.831962
-1.148739
-1.022265
0.864876
-1.135355
1.075431
0.402001
1.061110
-0.670009
0.278854
0.022674
0.964264
1.444714
0.499567
-0.504953
-0.091120
0.866095
-0.645232
0.436834
0.707136
0.212177
0.423963
0.325712
-1.291054
0.041714
0.234694
0.214051
-0.477603
0.989211
-0.760559
-0.186837
-0.632186
-0.261010
0.373751
-0.779706
-0.274417
0.218547
1.065265
-0.818572
-0.142530
0.309261
0.355664
0.502727
-0.810960
0.277233
0.469922
-0.275170
1.320086
-0.563414
-0.650859
-0.299710
-0.283772
0.405268
0.207061
-1.020773
-1.025219
-0.010436
-1.219533
0.235842
-0.472002
0.698919
-0.710192
0.888451
0.162113
-1.461454
1.102740
0.439823
0.545449
0.821749
-0.349676
0.606449
0.251819
0.596367
-0.806890
0.835944
-0.660011
0.416864
0.892473
-0.916217
-0.026863
-0.553787
-0.787436
-0.349637
-0.369982
0.305481
-0.221332
0.478699
0.139513
-0.270238
0.394758
0.138958
-0.580690
0.435280
0.656559
-0.085173
0.687505
-0.069505
0.142915
-0.152463
0.082146
-0.198645
-0.282329
-0.291396
-0.426156
-0.765475
0.099346
0.489837
-0.987504
0.195535
0.328881
0.778480
-0.799670
0.384397
0.603589
0.991316
0.380724
0.043502
0.530047
0.182756
0.284665
-0.135493
-1.262101
0.918679
0.214479
0.548275
0.350955
-0.052198
-0.457162
-0.175836
0.733628
-0.492696
0.106083
-0.586048
0.066379
-0.644820
0.715919
-0.016691
-0.211733
-0.294892
-0.040698
0.278262
-0.513041
-0.039568
-0.224486
0.184010
-0.833749
0.284544
0.909374
-0.845670
-0.651754
0.458987
-0.726727
-0.626296
-0.685796
0.501557
-0.676871
0.463382
0.208137
0.391926
-0.784882
-0.939446
-0.567382
-0.114410
-0.301323
0.836455
-0.564317
0.817641
-0.178086
0.508129
0.007911
0.523357
0.942982
-0.678442
0.511052
0.204191
-1.257312
-0.389963
0.917454
0.636047
-0.595704
-0.911716
-0.083618
1.119105
-0.538235
0.316347
0.080801
-0.657544
0.014826
-0.577479
0.805914
-0.118160
-1.055524
0.790247
0.081894
0.191992
0.751602
0.577050
-0.618241
-0.157598
-0.867205
0.343138
-0.907196
-0.253775
0.833935
-0.640057
1.470711
-0.870639
0.574945
0.592360
-0.293182
-0.344884
-0.713903
-0.810573
-1.020979
-1.006298
-0.391910
1.182724
0.052170
-0.312337
-0.375370
0.922952
0.465800
0.662342
1.026630
-0.933741
1.146321
0.465536
-0.539317
-0.243855
0.599278
0.198717
0.363930
0.974450
-0.027646
-0.852039
-0.365777
0.548939
-0.896850
0.894260
-0.563483
0.137650
0.717529
1.142162
-0.532692
-0.831952
-1.381732
-0.203827
0.675365
0.807219
-0.111702
-0.127298
0.800508
1.032057
0.502406
-0.409222
1.070310
0.616483
-0.327472
-0.233647
0.417194
0.231512
-0.230396
1.302697
-0.254456
0.267778
0.225277
-0.284542
0.120146
-0.076968
-0.906356
-0.086947
0.828181
0.100056
-0.071283
-0.931014
-0.649646
-0.453338
0.784212
-0.330175
-0.111493
-0.345774
-0.669904
0.227239
-0.567662
0.559995
-1.089773
-0.454714
0.826123
-0.891305
0.488848
0.884077
0.676476
-0.835115
-1.213947
0.630150
-0.173574
0.422133
0.523563
0.384703
1.031632
-0.298760
-1.356747
-0.465524
-0.947996
-0.127733
-0.086386
-0.499941
-0.015182
-0.108029
-0.568939
1.399195
0.227089
-0.747934
0.186611
-1.379750
0.070577
-0.621492
0.108508
-0.044659
0.655625
1.372271
-0.454648
1.007134
-0.130123
-0.102034
-0.112361
-0.420826
0.060989
1.164991
-0.375250
0.166614
-0.702865
0.180620
0.491202
-0.838282
-0.951598
-0.021659
-0.860069
0.512975
0.021246
1.092349
0.429184
-0.096628
0.787879
-1.013488
-0.241875
-0.822867
1.045429
0.526341
-0.589320
-0.039845
-0.581977
-0.309930
-0.342534
-0.483201
0.516214
0.596819
0.826986
-0.365898
0.080639
0.723789
0.642134
-0.216875
0.354059
-0.118502
0.465109
-0.588311
-0.254590
-0.217293
-0.115836
-0.207568
-0.129049
0.050851
0.232883
-0.176229
0.655204
-0.456783
0.648757
-0.184125
-0.071158
-0.627251
-0.914536
-0.719720
0.507456
-0.989856
-0.699813
0.217047
-0.998833
0.850718
-0.302609
0.254384
0.678678
-0.394378
-1.402538
0.814742
-0.961931
-0.377521
-0.809322
0.341057
0.007319
-0.799556
-1.126082
-0.520729
-0.466903
0.222222
0.555525
0.397446
0.726935
-0.723667
0.243061
-0.485833
0.286778
0.792258
0.448956
-1.215252
0.836190
0.900644
-0.760260
0.838194
0.116372
-0.018804
-0.936237
-0.160404
-0.417038
0.253094
-0.729961
0.956810
-0.286426
1.027895
-0.480597
-0.637280
0.339832
0.520047
-0.336528
-0.414266
-0.390882
0.278117
0.054753
-0.852370
0.441122
-1.213663
1.320846
0.380335
0.711327
0.414310
-0.031538
-0.002910
0.555727
1.170267
-1.755949
-0.208618
-0.589959
0.875012
0.243762
0.560236
-0.105601
-0.809199
-0.042913
-0.805346
-0.836343
0.705041
0.545363
-1.095614
0.185316
0.386601
-0.093768
-0.447006
0.624916
0.057178
-0.204954
0.785337
-0.517858
-0.589689
0.307840
-0.764462
0.210366
0.307129
-1.188874
-0.800413
-0.757246
-0.829066
0.893342
-0.545178
-0.301252
0.595139
-0.259851
-0.482119
0.987922
0.907425
0.442486
-0.779653
-0.048096
0.838382
-0.522674
-0.423505
0.237612
-0.520713
0.051030
-0.891873
1.254537
-0.568930
-0.449984
-0.486211
0.498180
0.194405
-0.205931
-0.869166
0.490311
0.538928
0.303081
-0.739600
-0.713243
-0.151149
-0.884720
0.552309
-0.492031
0.842582
-0.054969
0.108175
-0.936338
-0.694838
-0.792388
-1.002143
-0.073457
0.388610
0.574856
-0.103476
0.784546
0.847129
0.830748
-0.409270
-0.634328
0.035112
-0.028777
0.446962
-0.149910
-0.377557
-0.710302
-0.288041
0.630122
-0.848088
-1.505769
0.946515
-1.122667
-0.133764
-0.424253
0.368022
0.396990
0.490436
0.460272
0.750089
-0.539987
0.317721
-0.567903
-0.261539
-0.777420
0.157800
-0.743751
0.353217
-0.278217
-0.079679
-0.155019
-0.790955
0.538917
-0.722110
-0.175946
1.131495
-0.840348
0.408299
-0.036303
-0.930843
1.118325
-0.687655
0.977590
-0.416380
-0.073090
-0.932212
-0.432020
-0.557751
-0.488017
-0.274669
-0.831370
0.686992
0.625164
0.799433
0.153073
-0.155777
0.235049
-0.254581
0.130865
-0.541921
0.853282
0.088871
-0.533411
-0.225660
0.903922
-0.759465
-0.019532
-1.394568
-1.150129
-0.937814
-0.449416
-0.248515
-0.248623
0.935399
0.455142
-0.624614
-0.675541
1.174686
-0.380776
-0.041813
-0.698653
0.788733
0.208741
0.109514
-0.902752
0.720362
-0.243414
-0.061378
0.940153
-0.604022
0.303388
-0.100484
1.181527
-0.435085
0.239770
0.486671
0.084313
0.580615
0.246093
0.426258
0.372508
-0.523686
-0.964434
-0.429211
-0.148455
0.894738
0.189472
-0.518863
-0.361021
-0.462350
-0.875298
-0.743099
-0.186699
-1.037066
0.864991
-0.752999
-0.051962
-0.843817
0.733605
0.628940
0.310963
0.167460
0.217768
0.096582
1.109714
0.328856
0.443265
-0.198084
-1.777916
-0.817616
-0.326604
0.230798
-1.120881
-0.032205
-1.150152
0.612827
-0.541035
0.716247
-0.668882
-0.404377
1.022591
-0.131108
-1.158793
-0.833513
1.475424
-0.098243
-0.249825
0.802779
2.041696
0.472418
0.166848
-0.373908
-0.325337
0.087264
-0.547883
-0.549096
1.014884
0.456648
-0.798666
0.467836
-0.302825
-0.126040
0.539252
-1.248844
0.911661
-0.314661
1.130789
-0.288012
-0.914178
1.294836
-0.740606
-0.397813
0.055400
-0.102682
0.687021
0.734695
0.600112
0.261667
-0.898221
-0.177768
0.466075
-0.651934
-0.478790
-0.423290
0.162951
1.153053
-0.596548
0.950153
-1.100513
-0.947263
0.362938
-0.738514
-0.586835
0.708002
0.347333
1.404682
0.507282
-0.292885
0.667140
-1.813770
-0.799092
-0.623631
-0.554551
0.905993
-0.702570
-0.015101
0.664585
-0.819026
0.787805
-1.624471
0.169916
0.142609
-0.526794
-0.155566
0.001570
-1.239846
-0.019677
-0.171884
-0.776283
0.538094
-0.637418
0.136281
-0.102521
0.111654
0.208972
-0.159285
-0.920716
0.236104
-0.933208
1.596352
-0.689336
-0.678366
0.177778
0.838095
-0.718806
0.419745
-0.131918
-0.237932
-0.146284
-0.818352
-0.020888
-0.471899
-0.651999
-0.213065
0.508198
1.284059
0.904327
-0.900599
1.050279
0.195675
0.363967
-0.641038
-0.603421
-0.406614
-0.926853
-0.474970
-0.487035
0.452573
-0.338670
-0.882089
-0.221935
0.252336
-0.613877
0.816848
0.057396
0.178400
1.129639
0.706969
-0.064705
-0.035794
0.624143
-0.163236
1.158918
-0.499427
0.685567
-0.579616
0.762958
-0.957347
-0.009271
-0.428909
-0.362672
0.633682
-0.801320
0.486881
0.506811
0.772179
-0.364218
0.077411
0.788937
-0.050529
-0.300016
0.678442
0.825718
-0.197194
-0.675337
0.319363
0.315244
0.924795
0.662962
-0.819107
0.782110
0.873706
-0.652396
0.467717
0.269445
-0.443694
-0.697601
0.705632
0.375270
-0.727456
-0.010805
0.191016
0.517300
0.779019
-0.553976
0.652110
-0.571408
0.847730
-0.211725
-0.482074
-0.693864
0.883205
0.395213
-0.016789
-0.752344
0.375553
0.522337
0.944974
-0.579783
0.629210
0.591712
0.699235
-0.150285
0.131964
0.877082
1.215199
-0.988789
0.558837
0.392976
-0.641373
0.605466
-0.328276
0.159742
0.394635
0.081646
1.184004
0.752057
-0.002760
0.199322
-0.782956
-0.461295
-0.062746
1.076726
-0.246026
0.677024
0.530733
-0.777324
0.369636
-0.004287
-0.500996
-0.197387
0.512725
-0.560489
0.896306
-0.342499
-0.076814
-0.461329
0.395534
-0.964879
-0.299903
-0.555807
-0.323080
-0.676063
1.331983
0.376272
0.207571
-0.921996
-0.444150
0.284641
0.844048
-0.317306
0.740459
-0.037329
0.862303
0.089994
-0.347058
1.652249
0.387970
-0.780924
0.170326
1.404543
-1.104315
-0.516378
0.435544
1.370562
-1.057934
0.814739
-0.745460
0.867977
0.671844
-1.703333
-0.989209
0.189134
-0.764530
-0.401039
-0.231168
0.464618
0.314766
-0.385238
-0.546386
-0.743008
0.770086
-0.504768
0.443927
-0.193757
0.818521
-0.413924
-0.921227
-1.022501
-0.177672
-0.981781
-0.757605
-1.552196
-0.834445
-0.330344
0.148483
-0.119908
0.305709
0.196298
0.633901
0.583867
0.015684
0.093767
-0.412950
1.242924
-1.022130
0.342901
-0.666424
1.072435
-0.476184
0.684832
-0.147798
0.183476
-0.018933
0.257720
-1.165598
-0.753325
-0.162637
-0.005124
0.686434
0.989302
-0.269875
-0.291097
-0.508986
-1.009992
-0.031093
1.017634
1.249715
0.349138
-0.824235
0.422373
-1.475686
-0.137698
0.198139
-0.547857
0.507244
-0.956850
-0.457142
0.398296
-0.714499
0.648534
-0.460788
-0.299979
-0.945116
-0.498962
-1.106811
0.667026
-0.450499
0.961940
-1.147763
-0.131176
-0.590567
-1.072920
0.546252
-0.485904
0.092378
0.984792
-0.594215
0.396129
-1.067098
0.518599
0.733093
-0.708698
-0.162228
-0.902083
-0.053873
-0.564512
0.528031
-0.906422
0.229128
-0.165668
-0.303077
-0.311228
-0.717352
-0.039031
0.827984
-1.236783
-0.397727
0.098420
0.794357
-0.680625
0.350389
0.722158
-0.784189
0.224309
-0.055829
0.488237
-0.421161
0.642720
-1.147078
1.155220
-0.050437
-0.338650
-0.041632
0.475001
0.302883
0.780116
-0.188703
0.230936
0.455746
-0.733408
0.549535
-0.475674
-0.547259
0.311343
-0.940276
0.520708
-0.417097
0.530270
0.770752
-0.271995
-0.064835
-0.568595
0.293543
-0.092220
0.580921
0.395052
-0.744403
0.042327
-0.865855
-1.809646
-1.422826
-0.147592
2.089996
-1.645718
1.279509
0.753297
-1.920335
0.343741
0.090731
-0.395140
-1.023986
2.925355
-1.351857
-0.583510
-0.191409
-1.400173
-1.759651
-1.384556
1.857773
0.619674
-0.348477
-1.832481
1.395967
3.383908
-2.538830
-1.497669
-3.392886
2.059184
-0.213919
1.568177
-1.159532
-1.731935
0.996750
1.909589
-1.667828
0.583623
0.305699
-0.709444
-0.272902
-1.261725
0.658075
0.379519
-0.712974
1.646575
-2.770433
0.965403
-2.453252
-2.760556
-2.005621
0.551773
0.097727
-2.867856
-1.308544
-2.627470
0.610080
-1.384475
-2.556535
0.658842
1.396661
0.985783
0.034095
0.864631
0.052440
-3.483604
-0.169690
-2.449125
1.589637
-3.702020
0.656859
0.056855
-0.129228
0.899059
-0.928048
0.651062
0.498672
-0.269748
0.424846
0.135076
-0.888980
1.445811
2.503419
-0.613725
-0.557646
0.235949
1.502687
-0.092847
-0.571488
-1.195212
-1.654245
-0.870334
0.227001
0.003842
1.442279
0.410378
-0.964835
-0.075812
-0.926820
-1.136610
-0.176335
-0.712204
0.578092
-1.315588
-5.024243
-2.675936
-1.013392
1.143200
-0.580039
1.078850
-1.482577
-0.692063
0.188162
-0.489047
-1.016727
1.032636
0.944694
-3.545616
0.424078
0.080984
-4.969955
2.193497
-4.089486
0.915734
-2.790306
1.634855
2.127908
-0.123268
-3.497430
-1.495224
0.949946
-0.999106
0.507251
-1.193554
1.172124
-1.936009
1.848874
-1.680715
-2.142754
1.678308
-1.317023
-2.456101
-0.347744
0.567636
-2.383393
-0.759867
-2.893906
-1.033294
0.129399
-0.176787
0.840197
-2.699009
-3.691412
-4.806623
0.416259
0.479055
0.215879
2.037552
0.896032
0.440144
-0.096945
-3.488966
-0.259468
1.729055
1.116954
1.910089
0.480594
-2.559966
1.631768
-3.583396
0.317078
0.674712
-1.717469
0.562470
1.171430
-4.015122
-2.696299
1.873697
-1.343707
-2.981116
-2.265542
2.009018
-2.903068
-1.978724
1.661182
-1.862921
-2.483704
-1.861485
1.754644
1.763332
0.981447
-2.389408
3.101434
-1.534379
1.376578
-0.867593
-1.776710
0.176622
-1.562389
-0.461575
2.417324
-1.605840
0.333945
-0.483673
-1.859382
-1.118132
-1.437305
0.335539
0.011681
-1.406516
-2.089411
