0.4 197 24 10 
-0.878852
-0.459752
0.344623
-0.001547
0.403378
0.714191
0.129447
0.313949
0.454395
-0.341612
-1.040787
-1.763410
0.130532
1.122964
-1.140759
-0.885822
0.104872
1.806851
-0.210627
1.624861
0.391885
0.764213
-0.515348
0.272741
-0.511794
0.509195
-1.083890
0.648696
0.551695
-0.177596
0.353040
1.264133
-0.471699
-0.298792
-0.855675
0.492554
-0.156663
1.338708
0.905442
0.250052
0.414662
0.141752
0.472081
-0.418638
0.174774
1.073612
-0.574984
0.285231
-0.290626
0.025678
-0.241032
-0.219807
0.717156
-0.666880
0.748245
-0.687323
-0.867028
0.357410
-0.039898
0.771299
0.301558
-0.112218
-0.012431
-0.307769
-0.358389
-0.650844
0.773103
-1.088043
0.841912
0.708437
0.528213
0.089861
0.175223
-1.035429
-0.125894
1.156674
-0.609554
0.397209
-0.354025
0.197438
-0.049458
0.782138
-0.057797
0.908021
-0.041727
0.215316
-0.294938
0.616648
-0.709154
-1.185205
-1.107229
-1.567563
-0.592107
-0.705164
1.024183
-0.635948
-1.082085
0.439150
0.296397
-0.186460
-0.782737
-0.045329
-0.189928
0.811662
-0.367990
0.692303
-0.116501
0.560802
0.148096
-1.104353
0.134574
0.411326
-0.705355
0.167167
-0.245986
-0.167719
0.737592
-0.747794
0.314391
0.469864
0.237888
0.422296
-0.176439
0.884535
0.124832
-0.358059
0.341199
0.913523
0.786359
0.723030
0.454765
0.842509
1.006679
-0.296118
0.085289
-0.600130
-0.304909
-1.433473
-0.651993
0.349286
0.857651
0.751152
-0.530327
-0.265951
-1.571895
-1.352455
1.162255
0.024194
-0.304038
0.975489
-0.433364
0.979664
-0.020348
1.327961
0.222873
0.409719
0.314139
0.160144
-0.811929
-0.891475
0.428728
-1.658236
-0.721127
-1.516747
0.702891
1.136371
0.182178
0.537791
-0.883076
-0.009791
0.183840
-0.384457
-0.268107
-0.061117
0.848833
0.002957
0.787909
0.240530
0.564240
0.879042
-0.368808
-0.162627
0.295792
-0.575967
-0.954044
-0.609259
0.123744
-0.445716
0.887533
1.200744
1.459989
0.864576
-0.489529
-1.427330
0.686042
-0.002800
0.224440
0.574850
0.023922
0.836651
-0.109046
0.179697
0.589306
0.339714
0.617465
-0.052819
-0.695036
-0.136165
-0.316330
-1.048707
-0.170003
-0.129847
-0.371314
-0.190033
1.511923
0.454638
0.197036
-0.199032
-0.481447
-0.784222
-0.003848
0.627560
-0.000278
1.636233
-0.282500
1.164155
-0.317994
-0.110005
0.779384
-0.745373
-0.674065
-0.207862
-0.440129
-1.082892
0.217367
-0.092566
0.059808
0.941547
-0.495321
-0.785601
0.471775
-0.510369
0.349589
0.227225
-0.179624
-0.328580
-0.228859
0.645526
0.049550
-0.139455
-0.555275
1.117877
0.125863
-0.010211
0.868157
-0.348785
-0.381055
-0.263780
-0.019469
-0.293312
-0.173067
0.800384
0.091810
-0.970639
-0.283190
-0.049812
0.306758
0.851546
0.206499
0.154903
0.126741
0.594443
-0.112533
-0.309687
-0.464436
1.301105
0.942920
-0.941589
1.002519
-0.479335
-0.659132
-0.754443
-0.820061
0.611343
0.323778
-0.690740
0.814317
-0.371135
0.798405
0.663660
0.570184
1.120946
-0.353781
-0.545373
-0.366174
0.381386
-0.866533
0.490169
-1.041496
-0.526206
0.524360
-0.602435
-0.845600
0.578238
0.745493
-1.230796
-0.329736
0.286865
-0.658316
-1.179071
-0.053657
-0.348816
0.193623
0.733066
-1.117246
-0.075547
1.291784
0.694505
0.138380
1.186983
0.411869
0.756966
0.943968
1.189441
-1.432249
0.704994
1.358050
0.543915
-0.358703
1.076744
0.606858
0.739622
-0.779318
-1.426908
0.757652
0.557358
-0.587579
-0.879821
0.744450
0.037819
-0.351971
0.165231
-0.288781
0.376050
1.264972
0.416373
-0.669226
0.108325
0.074531
0.104088
-0.592360
-0.761599
-1.188184
0.692304
0.849686
-0.353887
0.196576
-0.513795
-1.479023
-0.457774
0.528759
-0.417227
-0.957082
-0.228440
1.400858
-0.702389
-0.551203
0.101931
-0.631672
2.165040
-0.074248
-0.346738
0.070264
0.321864
0.504942
0.152358
-0.132051
-0.667832
-0.084641
0.427566
-0.747459
0.825122
1.192795
0.091088
0.640938
0.725374
0.834771
0.042599
-0.288981
-1.147626
0.666137
-0.546309
-0.822233
-0.049766
-0.435003
-0.705642
-0.170727
-0.116381
0.007975
-0.653597
0.402062
0.861687
0.178581
0.224118
0.814515
0.330650
-0.461169
-0.669565
-0.782618
-1.390266
-0.432549
0.799509
0.029228
-0.564975
0.392259
0.248216
-0.289541
-0.332444
0.484363
-0.027834
-0.239493
0.812495
0.556294
0.871261
-0.070037
0.395052
0.219703
-0.615014
-0.287091
-0.083265
-1.038346
-0.178818
-0.081535
-0.258580
0.102383
-0.033258
-0.279583
0.550921
0.972244
1.395238
0.712630
-0.415845
1.025864
1.472387
-0.014964
0.715504
0.321434
0.210419
0.346798
-1.121590
-0.161491
0.344957
0.781589
-0.235155
0.729502
-0.057158
0.446053
-0.599651
1.091866
0.263444
0.891761
-0.934364
-0.086702
-0.316199
-0.257524
-0.454169
0.495935
-0.150821
-0.478634
-0.204138
0.526644
0.002551
0.505316
0.331112
0.752473
-0.088553
0.934738
-0.270075
-0.068997
-0.482913
0.343637
0.450345
-0.184556
-0.175875
0.297909
-0.569890
-0.233736
-0.927018
1.350155
1.638556
-0.873250
-0.574361
0.649675
1.153813
-1.139089
0.348169
0.118516
-0.263041
0.633056
-1.817432
-0.507437
-0.630015
-0.273976
-0.180882
0.196190
0.144688
-0.480222
0.088233
-0.101074
-0.121665
0.578066
0.257643
0.747102
0.074542
1.186263
-1.111329
-0.898130
1.484102
-0.296119
0.085276
0.186075
0.086308
-0.169960
-0.313489
-0.656584
0.489242
0.115508
-0.374707
0.021739
-1.146166
1.150848
-0.396575
0.505570
-0.245211
-0.542087
-0.394260
0.348524
-0.289825
0.550680
-1.527791
0.518813
0.330823
0.834590
-0.374578
-0.429413
-0.331646
0.248457
-0.106293
0.076875
-0.512226
-0.434740
-0.554548
-0.249463
0.815048
-0.566858
0.282641
0.295744
-0.979128
0.509835
0.574212
0.027457
1.413700
0.652111
0.068549
-0.217728
-0.410926
0.349705
-0.559407
-0.053676
-0.058630
-0.920812
-0.360521
0.593104
0.972991
0.380727
0.588361
0.840039
-0.493517
0.036715
-0.943827
-0.730861
-0.565909
0.429117
-0.698091
0.058691
0.311615
-0.527045
-0.554872
-0.749253
-0.514772
-0.558468
-0.119640
0.325031
0.108984
0.530660
0.538626
0.996420
-0.774909
0.088755
0.208736
-0.453695
-0.663988
0.821190
-0.036067
0.019923
0.586077
-1.133800
-0.223328
0.042745
-0.066539
0.451520
1.521596
0.429799
-0.708617
0.699718
0.275368
-1.126270
-0.189999
-0.798339
0.969408
-0.450620
-0.055012
-1.215415
-0.015736
-0.932998
-0.644798
-0.328754
0.549616
-0.039412
0.350481
0.425302
-0.230805
-0.581485
0.622493
1.444968
0.978976
0.105461
0.373506
0.496044
0.301679
-0.613391
-1.151606
-0.683946
-1.167592
-1.003508
0.119461
-0.291856
0.571067
0.026035
-0.545187
-0.290511
0.151653
0.306266
0.063179
0.446280
0.123864
0.696540
0.897549
-0.445597
0.668015
0.070550
-0.709438
0.358866
0.046723
-0.259158
-0.159475
-0.053741
-0.231628
0.771853
-1.449055
1.167456
0.486048
0.400333
-1.308995
-0.478411
0.608255
-0.065350
0.106655
-0.021444
-0.546166
0.415710
0.235830
-0.409462
-0.431223
1.494710
-0.995005
-0.503691
-0.378581
0.301110
-0.069213
-0.206767
0.605847
-0.377913
0.389732
-0.692374
0.564556
-0.377364
-0.441882
-1.309042
-0.362241
0.175854
-0.161471
-0.047872
0.467173
0.631106
0.023156
0.519472
-0.071152
-0.450598
-0.735092
0.183342
-0.805448
0.782941
-0.340491
0.850058
0.237711
0.816655
0.852175
0.122157
-0.358202
-0.848560
-0.436702
-0.645689
-0.638563
1.583637
-0.212951
-0.174818
1.461225
-0.763674
-0.269781
0.525832
-0.634454
-0.745389
0.114562
-0.601710
-0.131813
0.136185
-0.259530
-0.565754
-0.246891
0.358404
0.054377
-0.620954
-0.393545
-0.277319
0.001467
-0.448441
-0.502487
0.240346
-1.001127
-0.371573
0.776250
0.180216
-0.280066
-0.204123
0.730268
0.422397
-0.818785
-0.562472
-0.072871
0.645199
0.035281
-0.743836
-0.165064
0.866434
0.146665
0.217740
0.474916
-0.464837
-0.329715
-0.266968
0.828687
0.142032
-0.304142
0.112822
-1.177257
0.476565
-0.160614
-0.804451
-0.850128
0.144257
0.346294
-0.222476
0.316355
-0.006430
0.062458
0.161411
-1.130606
0.124729
-0.484184
-0.464725
0.634592
-0.467078
1.335611
-0.664479
0.099810
0.220008
0.267150
-0.336549
-0.544707
-0.625427
-0.185561
0.099685
-0.524536
0.626826
-0.123695
0.273412
0.582631
0.523986
1.187801
-0.708116
0.441260
-0.571717
0.232698
-0.689210
-0.095281
0.580527
0.200803
0.415728
-1.148145
0.248850
0.830506
0.626696
0.069636
-0.859131
0.856864
0.814468
-0.691880
0.717259
0.989870
-0.184542
0.353467
0.745402
-0.032525
-0.903733
-1.079362
0.759905
-0.374397
0.232051
-0.436878
-1.374629
-0.552155
-0.575504
-0.046712
-0.010715
-1.325236
0.181464
0.187133
0.451215
-0.069218
-0.283927
0.813669
-0.316770
-0.357045
1.021063
-0.625298
-0.286193
0.067237
-0.037996
-0.873459
-0.728657
-0.758071
0.520973
-0.012659
-1.457572
-0.464910
0.439020
1.234752
-1.251464
-0.504809
0.233035
-0.321094
-0.162245
0.413731
0.624156
-0.453374
1.163055
0.666970
-0.897150
-0.610185
0.798242
1.263065
-0.388331
-0.887437
0.373483
-0.161351
-0.869375
-0.941412
0.215611
0.177634
1.045434
0.076104
0.042329
0.592636
0.675834
-1.217639
-0.561723
0.149631
-0.165705
-1.212964
-0.525721
0.683317
-0.230893
-0.804623
-0.382871
0.788840
-0.585015
0.355840
-0.429600
0.564755
0.203674
0.976952
-0.761395
-0.139345
0.401635
0.581845
-1.209100
0.348417
0.700982
-0.150599
-0.392429
-0.409653
-0.592890
0.534023
0.090229
-0.638950
-1.057186
0.583203
0.777505
0.068100
0.580623
-0.003993
-0.711868
-0.649373
-0.422732
-0.363703
-0.230768
-0.731786
0.213216
-0.504563
-0.190572
0.467604
1.199807
-0.030079
0.464054
-0.052176
0.589867
0.573856
0.410286
0.994898
-0.093291
-0.026676
0.013330
-0.617378
-0.689443
-0.798159
-0.087599
0.637075
-0.321871
-0.792708
-0.859750
-0.944135
0.528517
0.005089
1.105163
0.477013
0.294508
0.027749
-1.497949
-0.567454
-0.098537
0.872969
-0.909130
0.247109
-0.529450
-0.226986
-0.819796
-0.295344
0.233876
0.778335
0.592355
0.790785
0.801049
-0.922995
-0.298248
0.615494
-0.865835
-0.513938
-0.377605
-0.347439
-0.585968
0.346521
0.311981
0.918200
0.782890
0.491186
-0.622055
0.945194
0.453964
0.589178
-0.074762
0.093465
0.347697
-0.701972
-0.166444
-0.082160
0.582894
0.793509
-0.782821
-0.784173
-0.315038
0.975773
-0.776970
-0.191226
0.478996
-0.341091
-0.606398
-0.652569
-0.320066
-0.574999
0.649765
-0.791626
0.006327
-0.174758
-0.829102
-0.136007
0.238875
0.107702
-1.116841
-0.076495
-0.769870
-0.836082
0.563793
-0.118860
0.145121
-1.240823
0.838430
1.104501
-0.189001
0.769442
0.445518
-0.691178
-0.076456
0.300665
0.327117
0.157312
1.035100
0.471141
-0.546492
-0.038648
0.538534
0.281803
0.002813
0.784457
-0.721838
0.154319
-0.516641
-0.777566
-0.269647
-1.110674
0.006809
0.295928
-0.706996
0.681586
0.274049
0.930137
-0.632741
0.263099
-0.603547
1.248528
-1.012213
-0.203209
-0.802890
-0.045505
0.379718
0.960438
0.707056
1.025708
-0.897067
0.740004
0.615506
0.521769
-0.637845
-1.638142
-0.481480
-0.092831
0.843287
0.099870
0.756901
0.844411
0.072536
0.503965
1.114653
-0.813663
0.342392
-0.121704
-0.528997
-0.370290
-1.015653
-0.414458
0.058423
0.503855
0.146440
0.354472
-0.455400
-0.853646
0.265172
-0.882062
-0.242850
-0.545383
-0.221317
0.780933
-0.849782
0.394539
0.137571
0.686365
0.160143
-0.291961
-0.293812
0.097859
0.034974
0.367600
0.417402
-0.050670
0.572753
0.410269
-0.461048
0.085615
0.424177
-1.289069
-0.480043
-1.010548
-1.190793
0.686333
-0.145796
-0.578343
0.620868
1.235140
0.589466
0.111178
0.755954
0.005190
0.668627
-0.342290
0.074665
0.439781
0.235795
-1.201197
0.393898
-0.734270
0.217138
0.267535
0.180313
-0.008460
0.988325
-0.789237
0.087174
0.322741
-0.548406
-1.127332
-0.843184
1.078256
0.636806
-0.923442
1.446382
-0.240005
-0.231094
-0.573498
0.131289
-0.444053
-0.388567
0.305589
0.287864
-0.684785
-1.236106
-0.383571
-0.627404
-0.913217
0.059824
0.049361
-0.305021
0.104259
-1.287421
0.976670
0.414241
0.291427
-0.735040
0.088916
0.535164
0.539424
0.444348
-0.506170
-0.188630
0.828298
-0.761061
-1.335793
0.125726
0.313719
-0.901947
-0.441019
-0.006557
-0.950172
0.874168
0.617507
-0.158417
1.253056
0.923792
-0.234662
0.072420
1.321694
-0.786167
-0.352714
0.362533
0.139661
-0.198157
-0.141915
0.158274
-0.637632
0.900045
-0.849916
-0.676935
-0.489660
-0.103490
-0.098306
0.904636
-0.481553
-0.150787
-0.566311
-0.083210
-0.729459
0.715699
-0.101685
0.282893
1.519159
0.099348
0.824230
0.693263
0.657005
0.892509
0.328838
0.080725
0.028673
-0.927900
-0.740971
-1.053788
0.478232
0.350513
0.489600
-0.049821
-0.187331
-0.546863
-0.439494
0.578012
-0.276873
-0.528531
0.215948
0.258861
-0.000166
1.021539
0.487768
0.077717
0.561725
0.790725
0.665990
0.460408
-0.374577
-0.290755
-1.198593
0.515226
0.808967
1.085006
0.002794
0.567685
0.441454
0.695526
-0.890426
0.742833
-0.666561
-0.590125
-0.120597
0.734079
-0.151999
0.627227
1.063237
0.213831
1.070614
-0.472779
0.161327
0.019326
-0.300959
-1.583467
-1.146884
0.404966
-0.348561
0.532189
-0.460786
-0.096389
0.075240
-1.102927
-0.936978
-0.258639
0.895020
0.052756
-0.770170
-0.128564
-0.551099
0.635751
-0.304136
0.166143
0.401943
0.177939
0.826861
0.186151
0.404000
-1.222366
-0.421776
0.954209
-0.652008
0.883045
-0.867878
-0.390877
0.906795
0.431990
0.342396
-0.960502
0.646786
-0.823138
0.377108
-0.935117
0.112806
-0.319468
-0.167193
-0.499286
-0.397769
-0.187014
0.750987
-0.685596
0.267746
0.942559
-0.760564
1.022950
0.411645
0.910115
-0.149292
0.484308
-0.717873
1.314216
0.345084
0.831773
-0.518978
-0.396738
-0.320021
-0.659530
-1.304178
0.088253
-0.607594
0.146100
-0.583941
-0.363617
-0.594547
-1.221843
0.211647
-0.986397
0.029613
0.148806
0.112293
-0.239526
0.632266
-0.309878
-0.450401
0.612870
1.099730
0.508356
-0.312911
1.065581
-0.303590
-0.671110
-1.560109
-0.488896
-0.412210
0.235922
0.185024
0.945403
-0.267985
-1.040672
-0.765391
0.566156
-0.764816
0.299440
1.068973
-0.354577
-0.505627
-0.248522
-0.166351
-0.788508
0.348787
0.558785
-0.712888
-0.536459
0.680361
-0.656397
0.065221
0.064336
-0.482026
0.195703
0.739401
-0.456081
-0.082370
-1.400027
-0.085030
1.206507
1.317689
-0.646001
-0.019387
1.005528
-0.724489
-0.362457
-0.411376
-0.465236
0.616542
0.326887
-0.143599
-0.849861
-0.535980
0.504581
0.781635
-0.979239
-1.259019
0.092897
0.256525
-0.296225
-0.000879
-0.162130
0.272658
-0.510880
0.512178
0.566533
0.840888
-0.345710
0.552566
-0.461121
-0.775865
0.271568
-0.409065
0.010921
0.588559
0.445792
-0.112514
0.496091
0.939860
0.876338
0.004713
-0.438690
-0.153118
-1.419561
0.537394
-0.489131
-0.413060
-0.376386
-0.151118
0.948675
1.279076
-0.464371
0.883649
0.253304
-0.489431
0.876758
-1.243335
0.069098
-0.440207
0.345487
-0.128775
-0.663908
-1.034461
-0.817335
-1.086290
-0.927039
0.700620
-0.160699
0.316251
-0.780351
1.003217
-0.237969
-0.590662
-0.718979
-0.862431
-0.065834
0.024670
0.304844
0.640713
0.513842
-0.631361
-1.142854
0.174031
-0.005617
0.798090
0.649675
2.324844
-0.685403
0.031066
0.938460
1.132405
-0.620146
0.504094
0.084325
-0.129166
-0.523563
-0.103506
-0.612451
0.331273
0.780833
-0.731896
-0.975223
0.147092
-0.880085
0.213561
-0.573762
-0.091901
0.207633
-0.106590
0.433717
0.065750
0.989759
0.777604
0.368696
1.032732
-0.040368
-0.831298
0.514311
-0.362459
0.638487
0.130873
-0.302456
0.411568
0.020794
-0.447616
-1.215913
-1.705189
0.754598
0.358226
-0.486750
-0.411220
-0.337480
0.072122
0.972686
1.153601
-0.621482
0.493390
0.499157
0.025206
0.490104
-0.351984
-0.388902
0.010588
0.386598
-1.222240
0.499852
0.122058
0.994163
-0.509631
0.213272
0.226442
0.299588
-0.027296
0.246831
-0.074150
0.565634
-1.395416
0.561674
0.137048
0.034374
-0.379958
0.460460
-0.564867
0.096642
-1.112860
-0.062331
0.097864
0.586097
-0.525588
-0.697104
-1.125211
-0.313040
0.965309
0.482217
0.259032
-0.714162
0.159586
-0.190313
1.340647
0.747754
-0.943606
-0.804942
0.363887
-0.695679
-0.662861
-0.678640
0.753335
1.004579
0.471978
0.987765
-0.179035
-0.525218
0.190499
1.011041
0.415673
-0.683997
0.442757
-0.945173
-1.809479
-0.330695
0.293980
-0.114005
1.824517
0.137547
0.730681
0.648842
0.055138
0.770268
0.037223
-1.263328
-0.292582
-0.697910
0.517199
-0.183551
0.513307
-0.071923
-1.333083
-0.868238
-0.459297
-0.805306
0.646858
-0.241672
0.640538
-0.007457
0.012657
-0.197504
-0.196762
0.664327
-0.124825
-0.296110
-1.638863
0.673379
-0.221148
-1.092915
-0.370087
-0.493429
0.071446
-0.020143
-0.372710
0.200740
-0.623560
-0.420827
0.160600
-0.422535
-0.250541
-0.670974
0.041341
1.636533
-0.150137
0.132690
-0.456814
0.546933
-0.680160
-0.500736
-0.030292
-0.635063
0.624723
0.458087
-0.736482
-0.987087
-0.495201
-0.745255
0.708914
0.358725
-0.624110
1.062036
0.503900
0.507651
-0.279529
-0.187126
1.287555
0.481625
-0.217880
-0.792885
-0.685976
0.572054
0.504947
0.646371
-2.012269
-1.063686
-0.098263
-0.140615
-1.643981
-0.244260
-0.736410
0.243574
0.296978
0.260457
0.791217
-1.042623
-0.753576
1.048490
-0.012076
-0.320769
-0.160266
-0.852767
0.107653
-0.781264
-0.061198
0.843428
-0.480112
0.484310
-0.301416
-1.300335
0.807656
0.131131
-0.493829
0.268164
0.404121
-0.149526
0.744946
-0.058223
-0.129083
0.992517
-1.092571
0.781861
-0.943849
0.380797
-0.968088
0.794185
-0.962300
0.194349
-0.438437
0.014252
-0.218251
0.124503
-1.033865
0.709190
0.428577
-0.082776
-1.419406
-0.659510
0.407255
-0.716819
-0.121671
0.195392
1.190716
0.251644
0.749619
0.211519
-0.769458
-0.190091
-0.612223
0.266725
-0.273014
0.573199
0.042698
-0.623199
0.343083
0.227345
0.136922
0.523026
-0.102228
-0.966297
0.195267
-0.428517
-0.429576
0.434709
0.825677
0.092268
-0.344241
-0.886330
0.609549
-0.563948
0.097300
0.164543
0.974210
0.261911
-0.335591
-0.068649
0.334971
-0.585545
0.108402
0.593734
-0.258459
-0.646625
-0.653123
0.975435
-0.156584
-0.769318
-0.725453
-0.912398
0.552998
0.594330
-0.709433
0.402161
0.469848
1.492606
0.906644
-0.194405
0.412286
-0.040834
-1.013922
0.010760
0.045155
1.053737
-0.411894
-0.198671
-1.572881
-0.702663
-1.380049
-0.364291
1.118961
-0.084778
-0.261882
-0.162001
0.144011
-0.883537
-0.018766
0.831663
-1.510731
0.184439
0.507882
0.089113
1.329345
-0.198440
0.329924
-0.248049
-0.212595
-0.875033
0.921244
-0.041686
0.822159
-0.117391
0.577876
0.168312
1.427598
-0.922727
-1.508275
-0.248959
0.116231
-0.242564
-0.523736
0.745414
-0.486018
0.950557
-0.015184
-1.248699
-1.064312
-0.554474
-2.014049
1.492884
0.345917
1.014073
0.259934
-0.571731
1.046159
-0.735540
0.529831
0.199308
0.481774
-0.399958
-0.264352
-0.028228
0.482117
-0.552691
-0.580238
0.765067
1.113138
1.098918
-0.360114
-0.652526
0.110980
0.264610
0.584670
0.677438
-0.230406
-0.648391
-0.279110
-0.664899
1.165658
0.342635
0.212400
0.382159
-0.280381
0.407185
1.103298
1.167344
-0.457479
-0.303504
-0.680279
-0.357940
-0.734976
0.307597
0.475521
-0.128553
-0.329775
0.209192
0.772592
0.598123
0.794064
0.063919
1.033661
-0.029801
-1.283902
0.165737
-0.701855
0.632374
0.241979
0.743881
-0.114590
0.288716
-0.802803
0.316661
-0.049283
-0.302393
-0.955196
-0.783028
0.821108
-0.254328
-0.137084
-0.775678
-1.264645
0.216939
1.822961
0.328722
-0.832276
-0.140942
0.109292
0.353334
-0.727010
0.892580
-0.434578
-0.048718
1.043817
-0.051917
-0.591651
-0.929059
-0.102842
0.898266
-0.296560
0.835151
-0.745962
0.713137
-0.442882
-0.759996
0.584303
0.146737
-0.787086
0.199511
-0.597370
-0.682501
-1.015555
0.034092
-1.095081
0.326820
0.189447
0.049344
0.122207
0.236464
0.379191
-1.172510
0.524261
0.811221
0.105584
-0.140508
-0.536753
-0.073182
0.086436
-0.172876
-0.697180
0.563929
-0.853694
0.150260
-0.100579
0.547228
-0.983063
-0.079565
0.406461
-1.558683
0.326790
0.651392
0.461289
0.172735
0.806826
-0.541005
0.201739
-0.577657
-0.274694
-0.337847
-0.796289
0.059385
1.019948
1.709536
0.431971
-1.543914
-1.173936
0.211304
-0.975426
0.071882
-0.184262
-1.271327
-0.142333
-0.123841
-2.268874
-0.250826
0.221437
-0.315737
-0.209965
1.240892
-1.079662
0.320961
-0.415966
-0.624040
-0.009692
-0.185605
0.280378
1.099106
-0.190834
0.232448
0.690643
-0.276389
0.690935
-1.213093
-1.038280
0.236069
0.918317
-0.295173
-0.319574
-1.110027
-0.593086
-0.583053
-0.227925
-0.635042
0.453978
-0.147289
-0.662070
-0.219977
0.679509
-0.266343
0.130718
-0.163266
0.595359
-0.023572
-0.309262
-1.446587
-0.564393
0.728403
-1.526481
0.146999
0.434590
0.741738
-0.672180
0.165246
0.173622
0.557512
0.475772
0.033442
0.114049
0.749584
0.849376
0.392591
0.587319
-0.076150
0.067115
-0.402795
0.472814
-0.847695
0.310700
-1.090134
0.662059
-0.491090
0.125581
-0.691865
0.645455
-0.018384
-0.908895
-0.091181
-0.897419
-0.835534
-0.606593
-0.663871
0.367633
-0.687531
0.092887
-0.267388
0.291906
-0.092911
0.594615
0.863859
-0.968039
-0.485543
0.251242
-0.287909
-0.320661
0.479447
0.573274
-1.183848
-0.682182
0.541950
0.281879
-0.022248
-0.418344
-0.757717
0.056180
0.699932
-0.207233
-0.404267
0.486892
0.343962
0.769367
-0.085178
-0.380968
-0.288825
-1.168547
-0.079323
-0.789898
0.757372
-1.175817
0.043322
0.414113
-1.198469
-0.945088
-1.197195
0.429107
-0.144898
-1.716245
0.101253
1.028518
-0.613397
-0.462936
-0.369716
-0.515877
0.771254
0.011060
-1.300591
0.383393
-0.615687
-0.792389
-0.123741
-0.426718
0.381647
0.004517
-0.064119
0.260389
-0.637646
0.226791
0.901700
1.818797
-0.916140
-0.563575
-0.713219
0.992037
0.544107
1.005079
0.651187
-0.188885
0.484094
0.770936
-0.447518
-0.508738
0.456455
-0.227363
-0.897011
0.033857
0.459420
0.021315
0.021130
0.501456
0.601679
-0.088745
0.749455
0.320063
1.031587
0.255593
-0.651656
0.593511
0.825582
0.694769
-0.677357
0.820327
-0.232887
-0.408680
-0.034995
-1.470185
0.282168
-0.315516
-0.973796
-0.390497
0.971281
-0.672128
-0.223313
-0.033002
0.762412
0.624952
0.135257
0.356747
0.493488
-0.854714
-0.690842
-0.775562
0.033647
-0.040353
-0.834318
0.295774
-0.630933
-0.244435
-0.373088
0.697435
0.359605
-0.285046
-0.033218
-0.617851
0.875948
-0.815972
-0.261239
0.603868
-0.105868
-0.793665
-0.761549
0.534722
0.867289
-1.492761
-0.170844
0.421930
0.888036
-1.510933
-0.471752
0.069219
-0.211914
-0.683968
0.674040
0.556336
-0.908631
0.695424
-0.178011
-0.008734
-1.118688
-0.292533
-0.720453
0.549608
0.165499
0.325783
-0.590403
-0.283350
0.304987
0.079151
1.064128
0.445095
-0.659846
0.440046
0.361768
-0.515834
0.499440
-0.154184
-0.827953
-1.067941
-0.215115
-1.610483
-0.812567
1.785915
0.511244
-1.048587
-1.055340
0.682484
-0.360025
-0.551721
0.076865
0.092279
-0.847443
-0.585556
-0.182981
-0.206998
-0.416424
-0.726955
0.652291
-0.188698
-0.908847
0.062669
-0.226540
-0.184188
-0.401438
0.166629
-1.039390
-0.023634
0.716069
0.345530
0.777387
0.512567
0.335238
0.628183
0.333240
0.522081
1.441375
0.579885
-0.394147
0.382945
-0.641349
-0.871198
-0.550615
-0.212583
-0.893355
0.973554
1.245944
-0.520584
-0.005648
-1.487832
-0.441265
0.219400
0.329195
-0.006325
0.093345
0.335495
0.615250
-0.895751
0.306701
-0.760149
0.325484
-1.010960
-0.252694
1.341597
0.414295
0.834731
0.171830
-0.632556
0.040175
-0.311737
-1.081731
0.822465
-0.414218
0.770265
0.011750
-0.718991
0.189378
-0.212024
0.833647
0.339513
-0.402491
-0.600202
-0.142400
-2.100773
-1.622552
0.987101
-0.786499
1.058689
1.569800
0.696813
0.896526
0.883004
0.528704
-0.449457
0.753691
0.782969
0.362149
0.920310
-0.138446
-0.340927
-0.478890
0.686165
-1.315165
-0.628111
0.301330
0.718279
-0.767063
-0.178042
0.472079
-0.323323
-0.296270
-0.326485
-0.231774
0.017304
0.726334
-1.233799
0.453857
0.735159
-0.469771
-0.023841
0.650746
0.077114
0.174996
0.914656
-1.121502
-0.705825
0.132871
-0.218475
-0.756519
-0.525609
0.127764
-0.219213
-0.205072
-0.057940
0.132645
-0.373752
0.642233
-0.217681
-0.179563
-1.096197
0.666807
-0.040652
1.155099
0.644914
0.524576
-0.434100
-0.944122
-0.291078
0.839214
-0.047841
0.446169
-0.247848
-0.594852
1.202849
0.387721
-0.665991
0.519533
0.596748
-0.830491
0.906505
-0.527584
0.365346
0.395652
-0.882431
0.428676
0.457074
-0.493094
0.585940
0.552141
0.320779
-0.081248
-0.548741
0.437441
-0.687024
-0.359568
0.295725
-0.461222
-0.233609
0.214466
0.164776
-0.170508
-0.248263
0.829881
-0.297430
1.204563
-0.404763
0.610884
-0.484625
0.007497
-0.135444
-0.621843
1.662099
-0.213616
-0.087989
-0.990022
-0.638016
-0.522021
-1.017811
-0.568588
0.237084
0.144092
-0.501639
-0.519070
0.310639
-1.013238
0.387066
0.683915
1.215454
-0.633613
-1.512944
0.870790
-0.227065
1.165035
0.165472
-0.140903
-0.202546
1.695787
-0.701694
-0.626718
-0.487652
0.943907
-0.725182
0.582129
-0.692243
-0.044632
0.721585
0.536236
0.502637
-0.718057
-1.697886
-0.483162
-0.252009
-0.108855
-0.360765
0.042756
0.584388
0.328480
0.344305
-0.744979
0.839986
0.359957
-0.973219
-1.238233
0.573611
-0.111234
0.228607
-0.120117
1.026548
-0.876278
0.157876
0.430050
0.946082
-0.552443
-0.403564
-0.297036
0.727793
-0.161854
-1.020305
-1.047509
-0.177539
-0.412323
0.896251
-0.220488
-1.196955
0.838427
-0.113422
-0.206104
0.631732
-0.818331
-0.418346
-0.092780
0.160314
-0.218631
-0.345009
0.661506
-0.735996
0.502507
-0.967145
-0.457430
-0.062517
-0.316909
1.449826
-0.351615
-1.260386
0.908894
-0.157871
0.822906
-0.197672
-0.403177
0.337878
-0.021605
1.039945
-1.267496
-0.715818
1.270096
-0.485139
-0.995321
-0.051581
0.182068
0.594737
-0.259879
-0.945930
-0.163050
-0.904804
0.261005
1.581872
-0.715017
0.461529
-0.311921
0.396744
1.033585
-0.652555
0.197592
1.165478
-0.028865
-0.393597
-0.848008
0.015915
0.530662
0.322098
0.712443
-0.188536
-0.130483
-0.353360
-0.276201
-0.128661
0.280753
-0.332748
-0.603154
-0.029771
0.247320
-0.791314
-0.103151
0.939113
-0.557479
0.180539
0.506633
-0.880688
-0.113289
-0.451790
0.356875
-0.985887
-0.087129
-0.042907
-0.586015
-0.826112
-1.131341
-0.454889
-0.115972
-0.082134
-1.595093
0.287784
-0.291535
-0.115298
-0.190063
-1.070224
-0.039698
0.433028
-0.231527
0.336326
0.462533
0.289175
0.689062
1.250516
-0.139727
0.220637
-0.388124
0.000785
0.187734
-0.246448
0.778361
0.262811
0.351058
-0.232351
-0.988447
0.080908
-0.253417
-0.656247
0.008063
-1.060045
0.584678
0.946359
0.202403
0.876890
-0.734166
-1.634070
-0.159595
0.440428
0.884302
0.276451
-0.617758
1.440452
0.057185
0.085187
-0.058829
-0.683075
-0.233800
-0.961551
-0.168050
1.077935
-0.098276
1.394983
-0.655095
-0.255648
0.267936
-0.582446
-0.115047
0.358783
0.554999
-0.232449
-0.206225
-0.225024
-0.563477
0.011067
-0.026257
-0.112200
-1.250310
-0.095032
0.694298
-0.083169
-0.154659
0.626056
-0.905282
0.769617
0.962587
0.338412
0.433487
1.258677
0.710599
-0.682228
-0.624287
-0.637171
1.274699
0.035469
0.754367
0.816668
0.226418
-0.981532
-1.549814
0.041239
1.069217
0.623323
-0.638228
0.062739
0.349819
1.376508
-0.883215
0.089305
-0.884216
-0.052728
-0.539727
-1.207670
-0.505540
-0.642923
0.829289
0.362533
0.367253
1.171378
0.784320
0.234853
-0.524506
1.063262
-0.124990
-0.718298
1.037632
0.996093
-0.510598
-0.625638
0.134683
0.544839
0.657396
-1.491201
0.418027
0.873849
0.878020
-1.101593
-0.312016
0.883147
1.337289
-0.253568
0.650255
0.363023
0.026417
-0.510804
-0.323729
-1.038473
0.166041
0.151783
-0.869866
-0.632156
0.453457
-1.198640
0.002799
0.275068
0.981139
1.128327
-0.511705
1.272750
-0.465710
0.214032
-0.224685
0.120911
-0.051835
-0.123212
0.707580
-0.678763
0.460362
-0.749031
-0.243115
-0.140119
0.724805
-0.479621
0.202508
-0.167096
0.193038
0.260301
-1.074929
-0.392273
-0.036927
0.558531
0.376456
-0.485071
-0.716680
0.749933
-0.551072
-0.098421
-2.047222
0.860737
0.690407
-0.989198
-0.922987
1.067493
0.621769
0.120733
0.281745
0.356462
0.706115
-0.434511
0.901413
-0.288027
-0.431750
-1.773932
-0.418747
0.097660
-0.242660
-1.264197
-0.354654
-0.590797
0.619004
0.029486
-1.580840
1.565817
0.759020
-0.629555
0.343349
-0.146305
-0.388969
0.305015
-0.926224
-0.929626
-0.019829
-0.078027
0.567033
0.685638
-0.119424
-1.014027
1.019506
0.348119
-1.185351
-0.424888
0.543726
0.674307
1.357029
-0.064817
-0.453376
-0.317943
1.147506
0.158434
0.051081
0.102176
-0.832174
-0.768146
0.332544
-0.241643
-0.140516
-1.042344
-0.349173
-0.915465
-0.105896
-0.337645
-0.649825
1.092711
0.483454
-0.634741
-0.411404
-0.588881
0.926193
-0.236770
0.158230
-0.079978
1.502739
0.491470
-0.447706
-1.677684
0.424906
-0.432340
-0.870919
-0.715747
0.325651
0.504828
0.307017
-0.536148
-0.205137
-0.974111
-0.444608
1.016648
0.694767
0.219032
-0.080601
0.017364
0.800747
0.543116
0.440005
0.057043
1.102697
-0.353765
-0.879835
-0.576059
-0.242069
-0.157712
1.174040
0.015107
-0.494786
-0.828238
0.202481
-0.457818
-0.717211
0.175861
-0.903848
-0.254000
0.951160
-0.743497
-0.584134
-0.334463
0.081869
0.591747
0.586848
0.013083
-0.146367
0.997555
-0.038174
0.726651
-0.905644
-0.554068
0.713016
-0.447356
-0.550331
-0.219097
0.441023
-0.286395
0.475585
-0.122184
0.698415
0.072566
-0.751749
0.147231
0.841274
-0.669703
-0.141928
-0.204068
0.242304
-0.705558
-0.776070
0.244470
1.296916
-0.257126
0.307109
-0.018409
0.711606
0.150221
-0.178249
0.338787
-0.107076
-0.385371
1.086351
-0.557646
0.251472
-0.057542
0.629129
1.221885
0.860122
0.632891
0.496795
-0.076676
1.530016
0.571997
0.605324
-0.262319
-0.527711
0.513879
0.832516
-0.512539
0.972468
0.283014
-0.390640
0.148346
0.647385
-0.305897
-0.999604
-0.921522
-1.564351
0.528483
0.779135
1.173939
0.036797
-0.621704
0.865970
-0.389771
0.240461
0.881499
-0.197685
-0.037074
-0.381125
-0.401209
0.060468
-0.428881
0.079842
0.039716
0.120973
0.651312
-0.679342
-0.501268
-0.181769
0.305867
-0.652045
-0.211497
-0.491858
0.236000
-0.372737
-0.082343
0.225739
-0.825261
-0.644406
0.051383
-1.168446
0.566410
0.558440
-1.489132
0.613769
-0.133469
0.070733
1.082633
-1.155595
-0.835419
0.879988
-1.328520
0.248998
1.105468
-1.761932
0.360457
1.363730
0.508831
0.772543
0.192304
-0.763028
0.903620
0.607458
0.337986
0.044296
-0.588153
-0.269266
-0.819636
-0.146742
-0.414873
-1.155555
-1.503551
1.703445
1.341427
-0.880712
-0.379136
0.412731
1.435417
-0.363618
-0.167027
1.651673
1.773299
0.882610
-0.898987
-0.560832
0.961387
0.120119
0.287245
-0.457994
-0.022809
-1.537964
-0.249647
-0.531321
-0.798945
0.230229
-0.694246
0.555139
0.305299
-0.290014
-0.776927
0.436285
-0.117134
0.252805
0.335438
1.147735
0.063697
1.011444
0.448370
0.458814
-0.429985
0.683129
-0.610850
-0.257068
-0.222935
-0.613093
0.201550
0.024423
-0.974824
0.482064
-0.392728
0.911021
-0.585650
0.302995
0.411155
-0.058592
0.849624
0.903850
0.153978
-0.448422
-0.448937
0.012498
0.277798
-0.294887
0.607715
0.771921
-0.307383
-0.213005
-0.352519
-0.057137
1.117192
0.733422
-0.607034
0.105968
-0.181240
-0.758753
-0.624944
0.339421
-0.320280
0.728673
0.521171
-0.036654
-0.154503
-0.017588
-0.023393
0.136290
0.111155
-0.514786
0.275212
-0.120604
0.055081
-0.511636
0.267616
-0.556714
1.032906
1.075727
-0.847983
0.251815
0.418145
-0.489411
-0.323021
0.973189
-0.036196
-0.643216
-0.415006
-0.559273
-0.016448
-0.766929
0.551848
-0.650475
0.703668
-0.520582
0.977974
1.218209
0.835403
-0.053503
0.983092
-1.124850
0.268199
1.021625
0.559941
1.094680
0.787096
0.219650
-0.035972
1.354249
-0.047232
-0.207429
-0.298686
0.180136
-0.833160
0.162564
0.010207
0.882221
0.421702
-0.392669
-0.927194
-0.807296
0.120692
1.047289
0.260783
-0.317949
0.290698
0.683596
-0.802780
0.032679
0.134881
-0.627618
-0.123195
-0.402598
0.559258
0.624002
0.516803
1.039692
-0.235890
-0.475206
-1.330848
0.251197
-0.340148
-1.276064
-0.372720
-0.928037
-1.454718
0.639913
-0.855697
-1.383913
0.512842
0.706270
-0.580625
0.082027
-0.785013
0.579021
-0.786589
0.054131
0.402700
0.555765
-0.127104
1.098043
0.177249
0.055765
-0.691396
-0.694059
-0.558469
-0.984214
-0.159596
-0.794751
-1.004954
0.315503
-0.376220
-1.211775
0.928905
0.796263
-1.484474
0.567426
0.571114
-1.225755
-0.056900
0.072009
-0.842800
0.295997
-0.428288
-0.164494
0.597287
-0.497980
-0.524761
0.899686
0.090024
-0.205620
-0.727010
-0.317336
-0.010684
0.179734
0.752729
-1.240230
1.478738
-0.517081
-0.495388
0.202125
-0.438303
-0.701154
-0.969098
0.994603
-0.587556
-1.262788
-0.581148
-1.100429
1.032799
-0.753531
-0.471345
0.189049
-0.742568
0.675259
-0.463845
0.911691
-0.151799
0.169190
0.301654
-0.738190
-0.125461
-0.582938
-1.147599
0.923431
-1.122947
-0.445064
-0.521676
0.513156
-1.498000
-0.868243
0.797030
0.716966
-0.551091
1.022534
-0.056437
-0.019055
0.815540
0.584287
0.586385
1.658226
-0.431819
0.103006
1.477838
0.113564
-0.000560
-0.763899
0.338083
0.704928
0.454833
-0.522894
-0.157135
0.267641
-1.680076
0.793708
-0.228523
-0.441148
0.564069
-0.518924
0.546716
0.249496
0.264294
-0.857258
-0.724400
1.086704
-0.204624
0.888865
-0.878485
-0.630143
-0.157544
-1.383154
0.261363
0.835139
0.186335
-0.274878
-0.412878
1.007838
-0.053381
-0.430358
-0.087912
0.369670
0.079621
0.012160
0.557620
0.275419
-0.087974
0.683990
0.304673
-1.571139
-0.301976
0.621359
-0.032409
0.393287
-0.998629
-0.386079
0.415940
-0.474941
1.353088
-1.125338
-1.178964
0.744695
0.436914
0.614726
1.464997
-1.561874
1.446442
0.304202
-0.203186
-0.737472
1.646255
-0.517763
0.228818
0.328376
-0.932536
-0.131343
0.114437
0.292641
0.397730
1.143879
0.386681
-0.023644
-1.296176
0.624107
0.887349
-0.719697
0.089010
0.927648
0.761108
0.279909
0.438295
0.512628
0.666132
-0.614752
-0.864064
0.033929
-0.336699
-0.996169
-0.077733
0.963382
-0.205073
0.562018
0.309465
0.284209
-0.845796
0.656697
-1.136490
0.054361
0.005455
-0.669011
-0.169734
-0.160167
-0.195491
-0.509337
0.486430
0.520272
-0.221244
0.850703
-1.288459
-0.001200
-0.662097
0.259484
-1.353435
0.297526
-0.995687
0.547001
0.480987
-0.370864
-0.703083
0.498337
0.262461
0.522803
0.252379
0.275444
-0.703789
-0.115256
0.233807
-1.002768
-0.382289
0.755147
1.125336
-0.384425
0.373067
-0.055483
0.148578
-0.147143
0.374703
-0.307992
0.353239
-0.039888
1.186042
-0.640503
-0.222788
0.523010
0.265406
-0.519953
0.937267
0.729808
0.018438
0.018514
0.001351
0.063491
-0.149867
-0.473421
-0.681626
0.256879
0.321149
-0.769022
-0.145260
-0.068024
-0.001565
0.774441
-0.039687
0.707435
-0.021197
0.436719
-0.498191
-0.121031
-0.321032
0.065065
-0.602342
-0.191796
0.083033
-0.013267
0.496724
0.997768
0.718570
0.640816
-0.592058
-0.612950
-0.396110
0.032710
-0.429387
0.434074
1.046758
0.733968
-1.047419
-0.099183
-0.181802
0.129307
0.082314
0.581215
1.053561
0.119560
0.961030
0.879879
-0.117509
-1.239515
-0.777610
-0.154493
0.004563
0.848785
1.114947
0.600848
0.261857
-1.045923
-0.300903
0.447991
0.462575
1.061508
0.315741
0.726839
-0.713780
-0.399083
0.291520
-0.322712
-0.639487
-0.317427
-0.517669
-0.114968
0.181570
0.329353
-0.304960
0.714767
-0.026247
0.804180
0.207857
0.090491
0.222901
0.614446
-0.543438
0.534500
-0.002860
1.818532
-0.751400
-0.226184
-1.286065
-0.809617
-1.903508
-1.137739
-1.014470
-1.185803
0.690485
-0.171293
-0.469422
-0.228296
-0.914580
-0.483201
0.048739
-0.095021
0.123221
0.551118
-0.004501
0.509454
0.637036
0.462610
1.794302
0.379408
0.166391
-1.305521
-0.752808
0.246721
0.979628
0.312997
-0.578192
0.143710
0.979510
-1.060580
0.393262
-0.357076
-0.327447
0.416921
-0.864568
0.252731
1.791798
-0.739305
-0.631392
0.985427
0.764195
0.770312
-0.850462
0.090967
-0.371979
-1.050840
0.108585
0.144261
-1.244852
0.786310
-0.906773
-0.792653
-0.444825
-0.596848
-0.122805
0.387977
-0.388620
0.813725
-0.645640
-0.710467
0.668323
0.760636
-0.835126
0.628928
-0.720373
0.781461
1.116704
-0.567059
0.021096
-1.629562
-0.694553
1.309090
0.539753
-0.211472
0.650766
-0.196074
-1.093112
-0.984156
-0.289411
-1.555147
-1.221972
-0.687641
0.904696
0.145836
0.714530
0.150267
-0.762591
-0.129378
0.915767
0.056596
-0.556434
0.386164
-0.494638
0.436314
1.256405
1.025824
-0.490207
1.085529
-0.314647
0.097672
-0.306176
-0.436698
-0.937050
0.574634
-0.282913
-0.157315
0.481098
-0.489038
1.054072
0.615935
-0.416900
-0.995024
0.901981
-0.103183
-0.104409
-0.498303
-0.641094
-1.076983
1.279357
-0.408438
-0.053958
-0.289690
-0.298850
0.054263
0.319833
-0.163336
0.022075
-0.158613
0.488113
-0.058079
-0.516561
0.448691
1.082558
0.306034
-1.326131
0.487432
-0.847796
-1.085923
-1.387523
-1.453223
1.593363
-0.030328
0.928108
1.019151
1.501084
-0.948149
0.160637
-1.562977
-1.114740
0.093925
-0.012765
0.739734
0.738346
-0.496609
1.513041
0.036742
0.302201
0.201605
0.814735
-1.780367
-0.917409
0.452730
1.008700
-1.315285
0.022989
0.252662
-0.144767
-0.429420
-0.495082
0.376645
0.220779
0.551059
-0.595372
-0.231339
-1.086425
-0.146915
0.728681
-0.318072
0.161857
-0.099766
0.664794
0.921453
-0.835360
0.629744
-0.792395
1.036493
0.786150
0.268864
1.000247
0.129658
0.658364
-0.893400
-0.638405
0.465979
-0.554109
0.442418
0.474893
-0.021841
-0.230592
0.221570
0.915349
-0.043059
0.177072
-0.326759
-0.759667
-0.734702
-0.595361
-0.709429
0.162990
2.441717
0.508906
1.654092
1.131020
-0.508763
-0.291500
-0.606076
0.062944
1.198029
-0.685798
-0.636856
-0.152313
0.369868
-1.074290
0.192858
-0.532987
-0.158126
-0.276741
0.195567
0.720959
-0.019075
0.382714
-0.565793
0.304055
-0.335298
-0.637662
-0.220189
1.413212
-0.693008
0.049020
0.569014
-0.346098
-0.267766
0.111957
-0.210520
-0.471637
0.731853
0.664414
-0.140161
-0.480534
1.083852
-0.313751
0.657866
1.092539
-0.788483
0.153708
-0.684935
-0.472281
-1.025396
-0.134463
0.183718
0.480576
-0.512869
-0.194629
-0.388172
-0.254857
0.997352
-0.477663
0.811444
-1.101129
0.570622
-0.318510
-0.053945
0.041853
0.556697
-0.788441
0.863541
0.421014
-0.322838
0.244801
0.281645
-0.533255
0.868047
0.829908
0.460699
0.984862
0.176482
0.405537
-0.743240
-0.561826
1.248232
0.349030
-0.789435
-0.267899
-0.517717
-0.297715
-0.885884
-1.149073
-0.204040
-0.658362
-0.479668
-0.403539
-0.255200
-0.033174
-0.696586
0.704605
1.663761
-0.915303
0.585455
0.290738
-0.350671
-0.596622
-1.409448
0.342756
0.207696
0.269325
0.764791
-0.785752
-0.692996
-0.837904
-0.657770
0.125288
-0.575026
0.122870
0.427168
-0.157084
-0.006153
-0.255382
0.395818
0.159413
0.151741
-0.118084
-0.078302
1.054055
-0.610916
-0.313063
-0.041776
-0.178063
0.577176
0.043683
-0.352627
0.344561
-0.200708
0.782383
0.133421
0.672481
-0.082889
-0.479920
0.021608
-0.554114
-0.900355
0.440478
0.968331
0.285359
0.022672
-0.125474
-0.883788
0.910886
-1.066236
-0.765928
0.144797
-0.692907
-0.228197
-1.337720
-0.779197
0.378654
-0.822743
0.044235
0.320560
-1.049886
-0.553651
0.065485
-0.831402
0.606668
-0.173636
-0.341319
0.555427
0.240093
0.462226
-1.643847
-0.003051
0.639030
-0.269131
1.133616
1.058520
-0.395065
0.642271
-0.786669
-0.066774
0.592404
0.041110
-0.300157
-0.073877
0.781900
0.581100
-0.030773
0.779418
-0.102826
-0.622740
0.046029
0.693393
-0.333522
-0.126377
-0.107001
-0.076224
-0.831413
-0.702239
0.146189
-0.356583
0.622898
-0.478150
0.822182
0.780418
-0.296557
-1.309957
0.729128
0.147095
1.137099
0.460187
0.320661
1.280627
1.469490
0.781290
-0.250903
0.324477
0.237173
0.796984
-0.461612
-0.871477
0.063062
0.536613
1.631651
0.229557
-0.453864
0.730285
1.186568
0.221023
-0.663976
-0.559402
-0.709608
0.665518
0.763945
0.412987
1.518732
0.423044
-0.493875
-0.101340
0.536540
-0.456686
0.610463
1.179033
-0.615728
0.320330
-0.626639
0.530757
0.341817
1.060082
0.406026
0.418408
0.553902
-0.126156
0.247564
0.272852
-0.639325
0.414331
-0.349847
-0.871729
0.041135
-1.380775
1.495986
-0.377766
-0.948343
0.478074
0.945778
-0.406374
-1.571780
-0.334164
1.321671
1.373624
0.046771
0.900208
1.113043
-0.044523
-0.530346
-0.809445
0.485199
0.873535
0.546263
0.395812
0.258400
-1.793806
1.145758
-0.905896
0.260864
1.045695
0.540741
-2.242261
-0.372647
1.424272
0.443669
-0.283682
-0.002418
0.806094
0.217734
1.121443
0.343610
-0.201248
0.723025
0.946661
0.385270
-0.180558
-0.854432
-0.065040
0.316149
-0.414768
0.056317
-0.221160
-0.118669
1.013570
-0.549254
0.140584
-0.655553
-0.473906
-0.370225
-0.167437
-0.821760
1.344550
-0.475348
0.005620
-0.084315
-0.549158
0.203979
-0.012800
-0.175191
-0.524695
0.584258
0.889271
0.408344
-0.438487
0.159648
0.387303
-0.689137
0.719844
0.075560
-1.647915
0.176566
-0.340619
0.284576
0.074987
0.267962
0.533312
0.265618
-1.003778
0.927840
-0.710967
-1.282655
0.493896
-0.605816
-1.051164
-0.401165
0.673509
0.378319
1.373635
0.163239
-0.337497
0.231080
0.629311
0.597826
-0.279480
-0.167861
-0.127866
-1.017569
0.154870
-0.767035
-1.047940
-0.261402
-0.997118
-1.106382
-0.166837
0.853797
0.843186
-0.632622
0.005916
0.893644
0.246613
0.337652
0.061446
0.460457
0.071040
-1.007602
-0.042704
-0.965533
1.441031
-0.310944
0.659284
-0.306438
0.119750
-0.250933
0.749496
-0.277994
-0.914274
0.102990
-0.114593
0.027329
-0.076156
-0.244883
0.282600
-0.105861
0.987201
0.812897
0.875695
-0.374824
-0.694313
-0.213980
0.492126
-0.930439
-1.239689
-0.214456
0.861147
-0.462563
-0.973156
-0.068302
-0.338163
0.071968
-0.794080
0.998968
1.507566
-0.024464
-0.290879
0.081850
-0.719871
-0.565438
-0.537381
-0.136933
0.282524
0.020399
-0.894415
1.341288
0.746069
-0.463863
-0.294211
0.409779
0.778896
-1.066560
-0.874329
-1.027886
0.254643
-0.080767
0.543368
-0.843172
0.204653
0.078415
0.728547
0.581926
0.157553
-0.964776
1.148881
0.242604
-0.418937
-0.066618
-0.458627
1.115262
-0.522320
0.149575
-0.019631
0.436705
-0.384690
0.169338
0.344131
0.491495
-0.454798
1.754316
0.617353
0.799734
-0.104396
-0.391164
-0.143938
0.553134
1.098481
1.316753
-0.624808
-0.614664
-0.143663
-0.300869
-0.108804
-0.078427
0.640598
-0.671444
-0.363491
-0.939525
0.758493
0.114747
-0.331584
0.528791
0.787927
-0.437158
1.087380
-0.242344
0.894861
0.067207
-0.277023
0.982692
-0.509226
-0.304378
0.415894
0.194471
-0.355356
-1.223541
-0.957271
-1.014945
-0.881505
-1.182880
-0.890161
0.070960
0.315591
-0.744886
-0.945005
-0.993006
0.219740
-0.002793
0.614257
0.466277
-0.000351
-0.236670
-0.957194
0.020580
0.400897
-0.361802
0.295802
1.048684
0.121794
0.406379
-0.564440
0.532976
-0.282091
-0.567452
-0.146036
0.322764
0.784769
-0.425416
-1.311230
-0.771739
-1.048657
-0.237869
0.343878
0.662090
-0.099897
1.437841
0.113549
0.484936
0.977283
0.877846
-0.749510
-0.326763
-0.187420
-0.164647
-1.443382
0.832417
0.335460
-0.125832
0.201198
0.545184
0.336238
0.281218
-1.112062
0.050116
-1.476660
1.184464
-0.714193
-0.291688
-0.622667
-0.086245
-0.173425
-0.822020
0.646340
0.807674
0.572537
-0.203438
0.009923
-0.390734
0.037280
0.170618
-0.706796
-1.032125
0.111766
-0.858454
0.857227
0.394234
-0.024641
-0.217581
-0.291915
0.764020
-0.289999
0.513767
-0.535707
-0.155747
0.713697
0.869991
-0.067330
0.559672
0.648115
-0.044693
-0.307760
-0.281898
-1.005539
-0.603353
0.539035
0.228234
0.563466
0.126359
-1.267430
-2.203043
-0.138766
0.507534
1.277965
1.384894
0.172470
1.321626
0.795782
-0.991895
0.465460
0.279404
0.653101
-0.907774
1.432941
1.510227
-1.071091
1.598156
0.416359
-0.419757
0.948567
-0.805342
-1.751804
0.848725
0.805669
-0.190507
-0.553627
-1.132245
0.922371
1.164955
-0.005180
0.391990
-0.722868
0.251416
0.174180
0.683207
-0.517312
0.462693
0.322512
0.373160
-0.136062
-0.819488
-0.206429
0.064366
0.754349
0.069388
0.703499
-0.349557
-0.490829
0.223648
0.561300
0.314704
1.119825
0.584441
0.059564
2.116999
-1.450260
0.387562
-0.615283
0.551014
-0.719153
-0.794992
1.291389
-0.452000
0.056176
-0.223444
-0.199172
-1.324508
0.989577
-1.006927
-0.299351
0.107237
-0.237416
-0.208729
0.701978
-0.704008
0.019695
0.360269
-0.151369
-0.309066
-0.880707
-0.271769
-0.575157
-0.809886
-0.243461
-1.067065
1.285919
0.352427
0.171624
0.630308
-0.369199
-0.993087
-0.587940
0.074301
0.655357
-0.998441
0.437842
-0.786472
-0.183914
1.609257
-0.429319
0.163292
-0.159924
-0.003014
0.030369
-0.180966
0.931032
1.189007
-0.517655
0.209320
0.734903
-0.833442
1.081675
-0.578955
0.442262
-0.095897
0.863316
-0.079277
-0.326877
-0.324609
-0.064070
0.174262
-0.338943
0.579312
-1.751747
-0.773910
-1.127300
1.086567
0.281127
0.485523
-0.030786
-0.066634
0.120140
-0.759278
-0.191465
-0.624087
0.420631
-0.756472
-0.078372
0.304074
0.635933
0.734916
0.123041
0.911494
0.799826
0.058995
1.660466
1.216205
-2.038140
0.151538
0.423518
-1.670519
0.718823
-1.288282
0.208931
-0.094892
0.252861
-0.368026
-0.909124
-0.687306
1.237684
-0.798555
-0.813987
-0.029304
0.424037
0.290436
-0.595250
-0.008469
0.369301
-0.325846
0.423524
0.837195
-0.625521
-0.452209
-0.250226
-0.449678
0.570078
-0.702452
1.042683
0.589863
-0.829132
-0.809111
-1.777471
0.552509
0.617765
-1.143632
-0.724883
0.158175
0.036609
1.051679
-0.363198
-0.920487
-0.074409
-0.546969
-0.646611
0.440011
0.533592
-0.555192
0.248403
-0.825942
1.674768
-0.010091
1.338849
0.296638
0.037293
0.765088
-0.567388
-0.993190
2.106579
-1.292423
-0.530835
-0.351081
0.162034
1.238520
-0.079632
0.578998
0.453622
0.585974
0.167455
-0.390716
0.937777
-1.409738
0.345720
-0.369697
0.776454
-0.506394
-0.293618
-0.578212
-0.996467
-0.144728
-1.680498
0.684304
1.355224
-1.547287
-1.125387
1.425017
0.441424
0.539827
-1.038565
-0.387519
0.233845
-0.090806
-1.015684
0.658232
0.081565
-1.300537
1.540130
0.371466
-0.456819
0.601550
0.687182
-0.926501
-1.881855
0.098952
-1.559810
-0.715963
-0.014298
-0.436199
-1.021326
-0.129378
0.437301
0.963613
-0.821844
0.271415
-0.855536
0.367992
0.545105
0.512879
-0.657221
-1.052718
0.352352
0.635438
1.385612
0.604685
0.321287
-0.825001
-1.087217
0.658092
-0.076310
-0.971480
0.921286
0.175624
-0.270780
-0.259778
-0.407809
1.166301
0.199174
0.785300
1.345250
0.739365
-0.706691
0.388565
0.282596
-0.203120
-0.475697
-0.301698
1.441051
1.359963
0.463310
0.504942
-0.405121
0.005728
-0.418696
0.736354
-0.182147
0.090541
-0.392305
1.315919
0.428850
-0.587381
-0.099661
-0.741724
-0.005941
0.685989
-0.866745
0.188793
-0.174167
-0.830757
0.993581
-0.461028
1.174189
-1.448632
0.069443
-0.017120
-0.088226
1.058034
-1.492201
0.176557
1.642656
-0.826726
-1.131526
0.268892
0.896583
-0.618197
1.270720
0.121660
0.367163
-0.523379
-0.067487
1.294705
0.368748
-0.878641
-0.777790
0.033946
1.011423
-0.844653
0.840754
0.345661
0.413733
0.273304
0.382916
-0.283915
0.984463
0.058388
0.876170
-0.501694
-0.001852
0.330396
-1.158267
-0.049143
0.339140
0.408989
0.371067
-0.218389
1.658706
0.113570
0.494466
1.020180
0.290297
-0.694188
-0.248346
0.471827
-0.421987
0.948943
-0.522121
-1.654835
-0.607418
-0.127765
-1.343165
1.684727
0.668581
-0.601954
0.616987
-0.204900
-3.556339
-1.686369
-0.252501
-2.400450
3.616017
-0.327128
-1.691569
2.814103
4.107097
-5.583737
-1.179751
-0.519008
-2.498248
-1.168143
4.580860
-3.911493
-0.286157
5.075336
-3.884781
0.353870
0.521964
-1.616422
3.777213
-1.552007
-1.655394
-0.707549
-3.382393
0.665192
-7.577311
-0.123249
-0.575952
0.595307
3.972525
0.770164
3.240173
-2.780953
-2.862933
-5.868557
-1.970689
-4.300071
3.351932
-2.688825
-5.618155
1.348595
-3.087375
-2.856810
3.980886
-3.484316
0.451994
2.569165
-3.691622
-1.217982
-0.579068
-1.661499
-9.043185
1.810163
-2.315538
0.079723
5.806540
2.364133
1.095885
-2.088807
4.014029
-2.558313
-3.467043
-3.381554
-3.840137
-2.045889
-0.096431
2.092859
1.407759
2.951651
-5.350355
-0.045390
0.497004
-5.174985
4.142675
-0.924441
1.944574
-1.260253
-1.234726
-0.251707
1.652691
-2.571365
2.111683
3.038307
-1.953242
-1.009790
0.499442
-5.433907
-3.774470
2.209075
-3.371093
-1.047567
-6.934814
5.308861
2.889917
0.375378
-0.400570
-4.214125
1.573803
-5.132254
-3.249475
-3.651981
1.425156
3.765322
-3.321216
-3.213042
0.761748
1.809266
1.961897
2.086675
-7.302801
1.257087
1.919408
2.058396
-5.154645
-1.865366
2.565820
-0.341632
-4.730310
3.356323
-0.867978
1.814532
-1.369285
0.829696
-0.143926
-2.280044
0.482098
-4.458299
-1.888367
-4.255092
-2.992182
-2.748649
-1.289931
5.194870
4.192396
-5.372831
-2.442517
2.398125
-3.211305
-1.271913
-2.892548
4.219220
-0.620142
-4.674613
-1.733428
-2.804806
4.330488
2.804336
3.276696
-3.593003
-0.629446
2.820023
-2.833542
1.807888
-1.256429
1.775821
1.575049
-3.215250
-2.323558
-1.869337
-2.730239
-1.318220
3.968749
4.150872
3.337221
-4.338805
-3.842982
-3.631085
-5.235582
-4.786831
1.059797
1.866625
-6.465728
-2.768303
1.829002
3.849359
-2.937291
1.450437
-0.791144
-2.215108
-0.265091
5.476990
1.203298
-1.663496
-1.854044
2.725442
-3.169001
-1.996317
0.242738
-2.783420
-1.932389
-4.467398
2.438947
-7.573665
3.275275
1.504337
4.735402
-4.942819
-3.325963
-1.937795
-0.124867
-1.197456
-3.547770
-3.211810
-1.499645
-1.493360
-2.574450
-0.145169
4.271467
3.057267
-0.892719
-2.603693
-4.272535
-1.504010
2.504770
-2.927194
-4.143931
-2.308670
-3.670958
3.756071
-4.982274
-2.303839
0.688186
-1.293536
-1.562270
2.981270
-4.030942
1.806290
-2.284789
-1.418723
-0.566438
-2.482436
-1.701794
-3.171597
-1.833003
-2.535667
-4.070636
-0.536018
