0.6 197 24 10 
-0.691517
-0.222467
0.151829
0.356808
-0.545403
0.367880
-1.093106
-0.404465
-0.899203
-0.617180
0.209348
-0.603331
-0.787867
0.126934
-0.337125
1.025798
-0.163591
0.194227
-1.039063
-0.220316
-1.450984
-0.321038
1.546142
-0.706330
-0.646758
0.818398
-0.092276
0.547047
1.129832
1.373953
0.675383
-0.410642
0.568661
0.766899
0.431667
-0.780646
-0.352180
-0.965881
-0.870171
0.974752
-1.387026
0.126739
-0.698756
-0.261199
0.217838
0.336585
-0.501688
-0.881037
0.165014
1.054966
0.734889
0.009464
-0.895763
-0.785122
0.439642
-0.854880
-0.308622
-0.534923
-0.569316
-0.806310
-0.133372
0.414140
-0.285645
-0.012687
-0.022319
-0.874301
-0.093812
0.658777
-0.619434
-0.522017
-0.921963
-0.061254
0.575370
0.075203
0.342918
-0.239062
-1.363426
-0.727744
-0.541805
-0.120597
0.462482
0.658929
0.168946
-0.764415
0.146120
0.571570
-0.580576
-0.520439
0.491910
-0.204570
-0.325831
-0.228036
1.146220
0.067963
-0.362360
0.940962
0.335203
-0.829774
-0.439693
-0.703337
-0.012429
1.063482
0.080801
0.768699
0.551325
0.795022
-0.543050
0.643891
0.300578
0.954296
-0.595200
0.163619
0.165410
0.657714
0.017918
0.634665
0.098397
0.879445
-0.817958
-0.213767
0.143855
0.791173
1.078231
-0.796501
-0.690277
-0.432938
0.709402
0.642255
-0.141898
-0.430399
0.332977
-0.769499
0.489095
-0.309647
-0.002607
-0.133822
-0.431094
0.637500
0.352277
0.051434
-0.199643
-0.747561
-1.164489
-0.318363
1.259745
0.160240
1.217066
0.386263
-0.827393
-0.270023
0.288117
0.509978
0.419551
-0.761906
0.124583
-1.167798
0.671240
-0.086635
-0.625047
0.420856
0.921336
0.843440
-1.602244
-0.063654
0.027950
-1.108051
0.854418
-0.792454
-0.415845
-0.507127
-0.510228
0.063959
0.401786
-0.255614
-0.297494
0.433959
0.682682
-0.633429
-0.478278
-0.034799
-0.164546
1.244064
-1.256123
-0.448013
-0.194348
-0.714224
-0.965714
0.877038
0.331701
-0.887912
-0.905730
-0.329051
0.559029
-0.176685
0.477757
-1.237542
0.296684
0.407662
-0.910929
0.118100
-0.016342
-0.402034
-0.126691
-0.293374
0.168599
1.184701
-0.952785
-0.263498
0.584928
0.924080
0.453541
0.532242
0.712673
-1.082251
-0.395864
-0.741299
-0.074334
-0.038028
0.980496
-0.150335
-0.365424
0.013779
0.343497
0.499089
-0.664807
-0.517455
-0.242306
-0.321635
-0.004287
0.014349
0.648746
1.142162
-0.688284
0.756473
-0.823603
-0.890482
0.117075
-0.682632
0.923208
-0.235866
0.849126
-1.027945
0.443422
0.465694
-0.014569
-0.616737
-0.055953
0.695626
0.342840
-0.072800
-1.188323
-0.769933
-0.464458
-0.771798
-0.842363
0.477880
1.108493
0.594402
-0.674205
-0.627220
-0.514023
0.093823
0.715928
0.160477
0.644574
-1.020707
0.556009
-0.239390
0.369380
-0.694477
0.581432
-0.770126
-0.182561
0.598462
0.668749
-1.166342
0.249442
-0.918396
0.463152
0.868715
0.869763
0.886944
0.679069
-1.626378
-0.382820
0.018602
0.735629
-0.205489
-0.429962
0.716035
-0.710689
-0.160136
-1.157465
-0.158930
0.138323
0.592402
1.087959
-0.771231
-0.543862
-1.117725
-0.757920
0.050252
-1.290412
-0.308003
-0.305511
0.716998
0.747153
-1.182201
0.519662
0.841514
-0.547980
0.473897
-1.106487
0.441193
-0.543045
-0.233739
0.608445
0.355035
0.797703
0.065860
-0.049030
-0.293298
0.419845
-0.497710
-0.650647
0.620172
-0.223607
-1.090656
-0.472309
-0.656472
1.592573
1.158466
0.282559
0.082514
-1.014244
-0.778376
-0.600873
-0.675894
0.231749
0.453364
-1.021958
-0.109847
-0.659390
-0.834979
0.328483
0.467156
0.521677
0.375132
-1.021028
-0.593006
-1.063150
0.653848
-0.436847
-0.681278
-0.180843
0.073220
-0.302908
-0.642016
-0.749248
-0.028990
0.866299
-0.937634
0.906271
0.993655
0.272167
0.619779
0.877698
0.851105
-0.660459
0.077916
-0.292071
-0.047627
-0.003596
-0.321999
-0.002115
0.330513
-0.852707
0.114385
-0.145139
0.167399
0.657640
-0.526285
-0.557853
0.974683
-0.139922
-0.244257
0.167598
-0.363337
-0.135942
-0.622815
0.724128
0.871474
-0.259731
-0.685612
-0.078037
0.255339
-0.683994
-0.737165
0.350220
0.572639
-1.139259
-0.605521
0.063750
-0.789956
0.278348
-0.500168
0.872964
-0.799001
-0.090907
0.536235
-0.134221
-0.866005
-0.575047
-0.510923
0.289341
-1.110749
-0.170736
-0.473037
0.293519
-0.570888
0.489893
-0.979232
0.398173
-0.421349
0.728768
0.026800
-0.037419
0.308926
-0.649402
-0.079570
0.673154
-0.508682
0.916903
0.663986
0.250248
0.251863
0.087406
0.785797
-0.122884
-0.446531
1.260271
-0.377004
0.642464
1.050217
0.688483
0.329454
0.183973
-0.208463
0.471641
-0.221471
-0.383670
-0.645775
0.588334
0.394293
-0.238069
0.751588
-0.070569
0.529737
0.872200
-0.119354
0.696574
-0.709936
0.891728
0.069269
0.402325
0.358233
-0.552756
0.566453
0.813778
0.379221
-0.060984
-0.144552
-0.213814
0.002183
-0.031704
-0.423709
-0.493991
1.011235
-0.426474
-0.048343
-0.367539
-0.828801
0.041015
-0.284039
0.871683
0.857433
0.169926
0.747486
-0.405492
0.903517
0.283074
0.586472
0.535810
-0.138231
-0.408390
0.022192
-0.748837
0.043552
-0.304919
0.046911
-0.842229
0.206094
0.672034
-0.794226
-0.586330
-0.844635
0.627534
-1.104666
0.241515
-0.704092
0.892025
0.640995
-0.206148
0.464184
-0.574476
0.868989
0.201355
-0.656793
-0.316097
-0.110284
0.226660
0.419108
-0.628370
-0.933870
0.454809
0.833382
-0.535609
-0.292301
0.734434
0.279491
-0.709062
0.362512
0.401475
0.956614
0.022693
0.660088
0.510152
-0.687357
0.505367
0.495154
-0.535435
-1.059646
0.369473
-0.225150
-0.242425
0.005006
0.353880
-0.718143
-0.448850
0.430289
-0.173998
0.793862
-0.510264
0.273008
-0.025796
0.672346
-0.705787
-0.312633
1.434912
0.608661
0.069539
0.906492
-1.048412
0.646807
0.084599
0.290456
-0.016651
0.114333
-0.627926
0.022894
0.317133
0.264104
0.048798
0.526202
0.274931
0.908016
0.436762
-0.666319
0.486935
-0.780174
0.614430
0.437525
-0.400832
-0.226195
0.169393
0.034361
0.542286
0.718604
0.649890
0.555295
-0.729598
-0.714561
-0.187164
-0.406583
0.958850
0.215619
0.752574
0.326640
0.609987
-0.259185
0.482445
-0.078094
0.418799
-0.244692
0.626864
1.198281
-0.058475
0.010055
1.015504
0.111870
0.650284
-0.354076
0.648788
-0.473724
0.361895
0.488734
-0.457528
0.239036
0.384967
-0.912330
-0.207147
-0.902367
0.381486
-0.682243
0.324639
-0.456289
0.772153
-0.551708
-0.005264
-0.485455
-1.376804
0.448920
0.565980
-0.552435
0.468861
0.244883
0.218531
0.521688
0.406435
-0.579081
0.630743
0.152090
0.507197
-0.702488
-0.140590
0.458852
-1.045208
0.308923
-0.398814
0.594141
-0.368397
0.121145
1.105112
-0.298511
-1.328950
0.261601
-0.906305
1.230651
-0.876345
-0.671521
0.535470
-1.314294
0.624044
0.569899
-0.345204
-0.351009
1.080248
-0.330014
0.549278
-0.457216
-0.821073
0.333967
-0.062834
0.163787
-0.001676
0.724214
-0.891591
0.910589
-1.472834
0.446708
0.976885
-0.705596
-0.629226
0.584116
-0.729897
0.502808
-0.976694
1.087094
0.135721
-0.118281
-0.244715
-0.367935
0.598759
0.178607
0.762119
-0.464228
0.302630
0.129083
0.383749
1.003215
0.851038
-0.032793
-0.143719
-1.100771
-0.956132
-0.931455
0.506937
-0.461633
-0.709126
0.218037
0.366610
-0.440426
-0.340773
0.631470
-0.558395
-0.119934
-0.633544
-0.310135
-0.270789
-0.803776
0.288127
-0.025048
0.744625
0.437867
0.838969
-0.636953
0.697967
1.042952
-0.872461
-0.031475
-1.134945
-1.072289
0.135988
-0.531809
-0.936554
0.910539
-0.438793
0.233373
0.092731
-0.881973
0.727395
0.153449
0.694041
-0.332461
0.656658
-0.451292
0.088923
-0.622299
-0.262135
-0.269883
0.293909
-0.072357
0.346863
0.114601
-0.693333
-0.546335
0.508961
-0.819362
-0.652464
-0.284808
0.623576
-0.005817
-1.253475
-0.262614
0.720200
0.020986
-0.419313
0.392577
0.931170
0.831729
-0.246998
-0.348063
-0.185790
0.144572
-0.409481
-0.416293
-0.711802
-0.787564
-0.205100
0.603774
-0.685984
0.110298
-0.932940
-0.503273
-0.498799
-0.281200
0.704857
0.476327
0.442501
-0.266371
0.309488
-0.712413
-0.677008
-0.771298
0.683731
-0.744226
-0.725215
-0.995136
0.326733
0.273927
0.623927
1.251679
-0.751484
0.718060
1.024769
-0.460659
0.798975
0.119225
0.332921
-0.003735
-0.121693
-0.036783
0.707841
1.000058
-0.717969
-0.739190
-0.741655
0.079892
1.016248
0.859804
0.862607
-0.759538
-0.769397
-0.598413
0.078455
-0.594155
0.053359
-0.109318
0.930839
0.147366
0.288400
0.238841
0.265816
0.060204
0.814607
0.481493
-0.217827
0.848176
0.007885
0.140386
0.026232
0.256549
-0.576097
0.731341
0.040671
0.289596
-0.397826
0.811918
-0.423339
0.396803
-0.290072
-0.328626
-0.247738
-0.967751
-0.176466
-0.825363
0.036232
-0.195055
-0.363097
-0.164144
-0.320742
0.377730
-0.217243
0.785006
-1.038364
-1.215769
0.682481
-0.070843
-0.701202
-0.976230
-0.800017
0.156663
-0.393544
0.197863
-0.475833
0.872848
-0.245909
-1.285178
0.010289
-0.165695
0.737144
-0.828951
-0.608003
-0.718063
0.329211
-0.726172
0.716243
0.650731
-0.708816
0.089752
0.397445
-0.460044
-0.750950
-0.039704
-0.316336
0.483089
0.643864
-0.302071
0.220682
0.981208
0.906818
-0.356075
0.740434
-0.730397
0.967755
0.643373
0.583301
0.195641
0.504321
0.453505
-0.547870
0.587434
0.699501
0.590492
0.645224
-0.207736
-0.418458
-0.861506
-0.528286
-0.263880
0.646891
-0.760005
0.274852
0.437406
-0.436762
-0.802055
1.005968
-0.031230
-0.094290
0.787032
-1.206239
-0.044049
-0.071763
0.633791
0.222754
-0.861713
-0.025792
0.102055
0.247925
0.539787
-0.648962
0.119984
0.648107
-0.195123
0.770974
-0.579121
0.489504
-0.678299
0.965454
-0.417582
0.098637
0.452349
0.086202
1.164943
-0.518907
-0.396037
0.012099
0.416092
0.541833
-0.884259
0.132469
-0.729966
0.565311
0.395807
0.343788
-0.549880
-1.441714
0.503399
1.091156
0.679508
0.182206
0.656903
-0.544869
0.703333
0.120396
0.000634
0.993077
0.848998
-0.716291
0.518585
-0.013421
-1.191076
0.418193
-0.272565
-0.110397
0.743164
0.220373
-0.832815
-0.429210
-0.808505
-0.732216
0.151098
0.736547
0.458056
0.191573
-1.023951
-0.819897
0.439029
0.883437
-0.129439
-0.100498
-0.233176
0.408265
0.098427
-0.095789
0.357609
-1.105131
0.025461
-0.308374
-0.890555
0.556601
-0.552029
0.093053
0.581960
-0.291353
-0.594396
-0.631497
-1.104435
0.476182
-0.052200
-0.691977
-0.443120
-0.085122
1.423621
0.398587
0.020981
-0.078805
0.098402
-0.531358
-1.006961
-0.987324
-0.047559
-0.089802
0.649566
0.657333
0.621429
-0.855673
-0.791286
1.172451
0.248553
-0.368255
0.189470
-0.441267
-0.065356
0.334771
0.309634
0.001336
-0.453998
0.704718
-0.248623
0.099635
0.767145
0.362777
0.276433
0.574982
-0.242167
0.512518
-0.849655
-0.007126
-0.844495
-0.306668
1.209586
-0.004634
-0.697471
-0.813715
-0.830008
-0.925619
-0.092582
0.263841
-0.917589
0.484792
-0.191964
-0.707846
0.111307
-0.793515
-0.193907
-0.297579
0.643265
0.275808
-0.942074
0.647171
-0.148118
-0.458080
-0.261178
0.062027
0.488102
0.784743
0.485860
0.720049
0.536431
0.847170
0.025687
-0.095743
-0.813264
-0.711752
0.397139
-0.965825
0.142085
1.172960
0.657262
0.493643
0.289421
-1.065424
-0.687064
-0.213002
-0.192705
0.465642
0.237924
0.369670
0.256243
0.793669
0.495201
-0.615434
-0.593696
-0.342801
-0.174011
0.034883
-0.495609
-0.617009
-0.376366
0.669998
-0.135663
0.579803
-0.761770
0.148376
0.739109
0.678580
-0.005339
-0.992141
-0.279433
-0.424528
0.797920
-0.525553
-0.835575
-0.897061
0.424079
-0.112648
-0.945864
-0.517026
0.681127
0.043744
0.463975
-0.297477
-0.082798
0.226023
-0.655457
-0.099174
-0.968061
0.434389
-0.878624
0.440723
-0.781870
0.280321
-0.187313
0.323209
0.042320
0.730593
0.737600
-0.341411
-0.565033
-0.734266
-1.044356
-0.858475
-0.728860
-0.645254
-0.411403
-0.231302
0.559194
0.537704
-0.425546
-0.345510
0.023888
0.064559
0.009636
0.523641
0.110663
-1.037089
-0.408086
-0.516104
0.379300
-0.064909
-0.248723
-0.682861
0.071223
0.336774
0.724652
-0.573356
-0.861188
-0.523152
-0.552990
-0.419018
-0.605827
-0.555812
-0.143091
-0.415474
0.232090
0.437297
0.812303
0.417471
0.691816
0.363942
-0.767462
0.603303
-0.666597
0.673406
0.311074
-1.281066
0.694297
-0.640824
-0.200912
-0.104972
0.250370
0.612875
-1.583136
0.656581
0.596679
-0.505779
1.101736
-0.053880
0.594318
0.200852
-0.711834
0.503584
-0.462390
-0.608934
-0.464983
-0.570890
-0.276471
0.768063
-0.571989
-1.160777
0.229136
-0.305574
-0.173541
-0.261264
-0.192079
-0.018095
-0.571445
0.462837
1.337976
0.015314
-0.065727
-0.074804
0.372676
0.536565
0.578556
-0.153898
0.002508
-0.523340
-0.183568
-0.254405
-0.467810
-0.066354
1.035645
-0.402243
0.670130
-0.338843
0.293905
0.274212
0.703108
-0.303817
0.137004
-0.664023
1.111079
0.835638
1.220112
-0.892555
-0.293252
-0.407277
-0.981159
-0.613458
0.272568
1.209962
-0.014806
-0.166291
-0.720518
1.133718
-0.272392
0.352985
-0.367202
0.332856
-0.407584
-1.125564
0.990796
-0.827573
0.195042
-0.047818
-0.685493
0.032001
0.743595
-0.018899
-0.420252
0.145581
-0.455243
1.123991
-0.976791
0.188149
-0.733632
0.742159
-0.569361
0.335751
0.078868
-0.081643
-1.136720
-0.487164
0.529596
-0.048917
0.495823
1.099240
-0.540090
-0.777375
-0.705681
0.049585
0.753027
0.164853
0.515154
0.733108
-0.446330
0.889473
0.955029
0.662962
-0.687281
0.706058
-0.232522
-1.225698
0.291687
1.555533
0.318481
0.061726
0.544428
0.514986
0.641379
0.173172
-0.748815
0.669322
-0.063349
0.145320
0.185300
1.099638
0.236230
0.930594
0.515716
-0.988989
0.981112
-0.094772
-0.151211
0.962020
0.428636
0.332747
-0.086254
-0.481359
-0.657634
-0.155799
0.514697
-0.527920
0.779468
-1.035357
-0.880320
-0.395028
0.549522
0.369511
0.430157
0.540992
-0.656769
-0.053863
0.666143
-0.796152
0.339262
0.911291
-0.630971
-0.460169
0.826888
-1.039070
-0.114870
0.862320
-0.185792
-0.106552
-0.761796
-0.182829
-0.890532
0.481556
0.043099
-0.148796
0.776729
0.542823
0.755825
-0.234095
0.207844
-0.813339
0.739884
0.671010
0.402603
0.965114
0.530472
0.459739
-0.741361
-0.571976
0.923451
0.616411
0.806614
-0.913471
0.177683
-0.380967
0.685725
0.241093
-1.026006
0.755963
0.800033
-0.447860
-0.156543
-0.155905
-0.329822
-0.788056
-0.909004
0.671738
0.461977
1.677578
0.322640
0.012583
1.100580
0.861178
0.438704
0.743988
0.421484
0.885216
0.421954
-0.628043
-0.592536
0.737518
-0.723505
0.409469
-1.005595
0.053780
0.263877
-0.307373
-0.296272
-0.224136
0.123631
-0.334961
0.253584
0.244259
0.213878
0.304227
1.348030
0.112942
0.907816
-0.715499
-0.497086
0.495261
0.516458
-0.956458
0.094546
-0.549522
-0.815151
-0.979223
-0.765050
-0.081151
-0.338014
-0.961006
-0.538450
0.766154
-0.128651
-0.214683
0.505300
-0.507612
0.062275
-0.123981
-0.322426
0.329703
-0.684613
0.626922
-1.079676
0.201946
-0.226499
-0.687696
-0.769455
0.660915
-1.162215
0.116248
-0.320763
-0.361055
-0.939635
0.418016
0.730183
-0.526790
-0.291679
-0.567758
-0.724896
0.518837
-0.134237
-0.523185
-0.578474
-0.032556
0.490185
-0.770260
0.215420
0.046798
-0.543555
-0.298605
-0.105435
0.544133
-0.895841
0.659235
0.333061
-0.843613
-0.641225
0.108436
0.253525
1.299844
-0.254634
0.446172
0.355063
-0.582019
-0.060240
0.477697
0.006467
0.342512
-0.959276
-0.488768
-1.281952
-1.050728
0.848281
-1.216916
-0.822896
-0.144119
0.784250
1.183533
-0.068155
-0.155949
0.830370
-0.367798
-0.678613
0.759557
0.061728
0.241032
0.514303
0.732185
0.180161
0.905202
-0.338314
0.773623
-0.765630
-0.550342
0.779968
0.826490
-0.435459
0.099721
0.256908
-0.851399
0.004270
0.406733
-0.052105
-0.837252
-0.362388
-0.763296
-0.387557
0.578029
0.415846
0.820152
0.854405
-1.155530
-0.021421
-0.428887
0.605845
-0.178815
-0.542723
-0.340553
-0.638289
0.797807
-0.413617
-0.583465
1.064312
-0.203223
-0.244362
0.854189
-0.833856
1.185993
0.316536
-0.903780
0.591701
-0.667031
0.542260
-0.290529
0.050670
0.497974
-0.487158
-0.437630
1.137612
-0.798473
-0.650209
0.789908
-0.711812
0.260739
-0.018801
0.495311
0.897875
0.352840
0.096373
1.395459
0.318409
0.334606
-1.038871
0.534780
0.197920
-0.982908
-0.780703
0.671121
-0.247317
-1.068167
-0.396048
0.143415
0.953042
0.607242
-0.939219
-0.436612
-0.237346
0.156883
-0.850310
0.432266
0.646365
-0.121608
0.513378
0.626634
0.985233
-0.616570
0.896193
-0.365367
0.067430
-0.791434
0.702325
-0.575613
0.917614
0.845893
1.220230
0.019042
0.611107
-0.673800
0.430199
-0.528382
-0.084000
0.538272
-0.926867
-0.778653
-0.009491
0.251809
0.683282
-0.811920
0.585025
0.518152
0.082172
0.473064
0.907485
0.335011
0.719322
-0.317511
0.349702
0.179199
-0.679381
-0.752903
0.294447
-0.933966
-0.221606
0.694631
0.977133
0.667256
0.071608
0.534252
-1.122713
-0.799802
0.074170
0.354728
0.392547
-0.658986
-0.833856
-0.028281
-1.020664
0.719619
-0.466410
-0.716358
-0.780655
0.805600
1.520368
0.645355
-0.399341
-0.525700
-0.698798
1.112260
-1.060217
0.512291
-0.550250
-1.030155
0.550599
0.610982
0.531596
-1.034952
-0.413856
0.940046
-0.418395
0.238858
-0.355495
0.678522
-0.562941
-0.633174
-0.164750
-0.250794
-0.375361
0.771280
0.307895
0.764944
0.437000
0.626128
0.338976
0.721620
-0.273249
-0.071035
0.859556
0.682309
0.676230
-0.012187
-0.867706
0.539878
0.034223
-0.056244
0.010741
-0.516137
0.127854
-0.104313
-0.556933
-0.145500
0.384927
-0.370626
-0.100514
0.269838
0.130364
0.504546
-0.521338
0.870052
0.898251
-0.955752
-1.125178
1.028430
-0.614543
-0.499073
-0.848576
0.305730
0.340811
0.311637
0.200683
0.663233
0.484795
0.742106
0.323952
-0.066300
-0.139315
0.220805
0.404335
0.921154
0.050084
-0.723577
-0.288391
-0.012559
1.393038
0.826950
-0.188365
0.321460
-0.205580
-0.171447
0.764160
0.174826
0.383961
-0.448588
0.841256
0.886979
-0.266720
0.197614
-0.033509
0.853008
-0.321157
-0.657865
-0.261639
0.446203
-0.581433
-0.858922
-0.468292
-0.141735
-0.791365
-0.085123
0.170216
-0.461457
0.262700
0.417943
0.346052
-0.193759
0.620448
0.822254
0.381053
1.223905
-0.655256
0.130387
-0.414569
0.471735
0.946880
0.260976
-0.628501
0.090197
0.593549
0.047406
0.265581
0.487862
-0.547720
0.359791
-0.412785
0.808750
0.465317
0.315237
0.141513
-0.587676
0.143684
-0.163098
-0.127759
-0.132293
-0.939227
0.854008
-0.239352
0.748367
0.464536
0.700290
0.273709
0.678112
-0.055342
-0.681831
0.051338
-0.529003
0.947707
-0.091377
1.006077
0.098123
-0.956739
-0.701652
0.368786
-0.894854
-0.968771
1.367723
-0.627918
-0.497039
-1.082611
-0.122049
0.469787
-1.100830
0.393739
0.642451
0.122892
-0.601737
-0.092353
0.586271
0.333943
-0.443689
-0.615076
-0.774214
-0.232866
0.726784
0.481718
0.777121
0.746858
0.103344
-0.441597
-0.599011
0.871760
0.116029
0.103968
-0.562017
-0.711974
-1.276993
0.400374
0.240179
-0.450607
0.605821
-0.369665
-0.045835
0.890858
0.598002
0.110500
1.097768
-0.318513
0.484669
0.336470
-0.020345
0.193368
0.847101
0.087428
-1.041393
0.857991
0.055782
0.105895
0.766047
0.028383
-0.691886
0.647707
-0.764027
-0.705306
0.760152
-0.411187
0.866284
-0.811467
0.191441
-0.799796
0.111538
-1.101774
-0.248660
-0.802294
-0.338753
0.064035
-0.232333
0.630511
-0.338823
-0.547620
0.378618
-0.330512
0.543628
0.596014
0.097254
-0.376531
-0.235364
0.302631
-0.267319
0.738816
0.040690
-1.289686
-0.318992
-0.336166
0.637327
-0.299930
0.061152
-0.207612
-0.013489
-0.344779
-0.572416
-0.959921
0.705262
-0.515642
-0.228501
0.553438
-0.882790
-0.670054
-1.188633
1.089999
-0.750142
0.569957
-0.281699
-0.236196
-0.280723
0.809052
0.736453
-0.291935
-0.765426
0.884994
0.215942
-0.306734
0.453557
-0.501981
0.341248
0.806975
-0.307862
-0.407663
-1.294306
0.685332
-0.856151
-0.394342
-0.684417
1.124613
0.665499
0.816711
0.796133
0.231031
-0.100666
0.816109
-0.518686
0.242897
-0.358910
-0.946541
-1.005719
0.198961
-0.603841
-0.474920
-0.736425
0.409340
0.604742
0.092077
-0.280295
-0.918495
-0.488910
0.971982
-0.621310
0.057802
-0.547360
-0.659248
-0.208593
-0.419733
1.350051
0.163964
0.196781
-0.114374
0.828121
-0.041893
-0.376703
0.447986
0.364042
-0.638427
-0.231271
-0.720554
0.781341
-0.002439
-0.417275
0.686294
-0.520893
-0.404269
0.870454
-0.179602
-0.136302
0.242381
-0.360329
0.020341
-0.829519
0.508869
1.182907
-0.116698
-0.746660
-0.275413
0.018848
0.820095
0.743867
1.199814
-0.317720
0.715926
0.165216
-0.635357
0.196571
-0.056036
-0.121511
-0.712496
-0.613886
-0.195379
-0.386596
-0.977205
-0.205413
0.618686
0.389164
0.757709
0.657170
-0.682857
0.160292
0.263955
-0.114048
0.869228
0.729632
0.888081
0.261179
-0.330495
0.543482
-0.016411
0.697313
-0.240775
-0.294257
0.882116
0.665180
0.245531
-0.396365
0.165250
-0.226082
-0.215311
-0.945457
0.236699
0.589884
0.000988
-0.459662
-0.530052
0.640498
-0.504042
0.648735
-0.063069
0.897096
-0.925426
0.942061
-0.609433
0.362519
0.324722
-0.970553
0.247065
0.302427
-0.406481
-0.954916
-0.894742
-0.333736
0.454175
-0.953608
0.349199
0.207546
0.449639
0.903243
-0.519063
0.237121
0.740499
-0.024666
-0.511197
-0.256897
-0.397681
-0.409839
0.695861
-0.224800
0.188853
0.618354
-0.307499
0.950373
0.875166
0.990600
-0.351906
0.260837
0.707311
-1.310447
-0.706874
0.625079
-0.862336
0.607786
0.321774
-0.643343
-0.845941
-0.323677
-0.101918
0.135976
-0.283978
0.802839
0.124166
0.706116
-0.464717
-0.359685
0.056114
0.054342
0.747709
1.076900
0.180542
-0.529454
0.140634
-0.039051
-0.641633
-0.767030
-0.217026
0.510466
-0.501209
-0.349987
-0.816661
0.171698
1.214264
-0.619669
-0.271821
-0.709868
0.377566
1.204602
-0.812320
-0.378168
-0.763612
1.133857
-0.302139
0.351545
0.834929
1.069628
-0.158670
-1.223998
-0.865158
0.600678
0.207080
0.167325
0.248114
-0.786729
0.650171
-0.088722
0.143303
-0.056106
0.056037
0.532299
-1.105472
1.138500
-0.677374
0.732521
-0.552343
0.450855
-0.346843
-0.365012
0.165266
0.455259
-0.679146
0.534801
-0.547262
-0.711610
-0.654621
0.111870
0.155069
-0.958674
0.319626
0.608109
0.565973
-0.243683
0.201881
-0.638683
-0.789675
0.520585
-0.189924
0.630366
-0.029594
-0.508045
-0.928480
-1.053413
0.189941
-0.371029
-0.202843
0.481566
0.080862
0.083666
0.750353
0.116832
0.853330
0.437983
-0.627734
0.997738
0.517693
0.544231
0.113684
-0.716666
-0.189253
-0.949192
0.378178
-0.887266
0.670235
-0.668685
-1.087802
-0.341642
-0.957104
-0.523015
0.648733
-0.497056
0.900881
-0.408146
0.800844
0.027087
-0.192979
-0.668517
-0.613421
0.521448
-0.147483
-0.731691
-0.865086
0.993803
0.504460
-0.789809
-0.998613
0.062398
0.058953
0.554587
-0.647872
-0.762750
0.284580
0.623236
-0.084737
-0.296812
-0.910964
0.883297
-0.443300
-0.489632
-0.383487
0.462727
-0.437129
-0.137523
-0.710200
-0.869180
-0.076100
-0.740557
-0.657022
1.229530
0.422705
-0.146004
0.171211
-0.099339
0.157484
0.814680
0.908208
-0.430338
-0.614847
-0.704612
0.661392
0.116147
0.097772
0.879371
0.802952
-0.103173
0.387419
1.100530
-0.091417
-0.497472
-0.183211
0.682948
0.923994
0.549910
0.306109
0.811224
-0.969867
-0.346923
-0.223117
0.527530
-0.010546
-0.552170
0.682071
-0.638508
-0.281929
-0.740028
-0.269734
0.890287
-0.229514
-0.995741
-0.784554
-0.199275
-0.816145
0.334396
0.512328
-0.800550
-0.179354
0.118829
-0.261369
-0.465812
-0.024630
-0.017448
-0.606506
1.175144
0.501168
-0.294284
0.147661
1.168417
0.356032
0.446913
-0.169399
0.874035
-0.977502
-0.785170
0.187204
-0.421697
0.979549
-0.837773
-0.538789
0.699849
0.256076
0.773797
-0.355892
-1.019514
-0.372982
0.260816
0.994394
-0.231029
-0.774390
0.499166
-0.454363
-0.738855
0.530098
-0.428146
0.008684
-1.152428
0.804070
-0.781200
0.094879
0.960364
0.720384
0.262966
0.916287
-1.005327
-0.315244
-0.041566
-0.929673
-0.422968
0.758837
-0.433032
0.237346
-0.702621
-1.056270
0.258886
-0.236472
0.383381
0.599622
-0.274546
0.846412
-0.789989
0.251250
-0.824678
-0.249705
0.894637
0.417675
-0.140178
-0.890200
-0.273643
0.163229
-0.398243
-0.282922
0.361170
0.854215
-0.633317
-0.363708
-0.779602
-0.956810
0.453867
-0.379528
0.451547
0.495773
0.008306
0.515194
-0.701356
0.316652
0.020832
0.404293
-0.185262
-0.548552
0.108898
-0.091387
-0.556983
-0.757401
-0.352766
-0.681571
0.193774
-0.381702
-0.810773
-0.395967
0.393211
-0.249294
1.128812
0.387281
-0.039696
-0.445466
1.015003
0.929678
0.265400
0.772216
-0.670053
0.335236
-0.137309
0.074475
0.594135
0.634691
-0.392403
0.543947
0.925096
0.227728
1.007051
-0.780251
0.205282
-0.331569
-0.909770
-0.480233
-0.380093
-0.759300
-0.975210
-0.415571
0.686344
-0.385458
0.726967
0.493419
-0.310599
-0.198759
-0.101999
0.758241
0.593897
-0.404994
0.082609
-0.128696
0.117899
-0.593327
-0.443661
-0.464458
0.625276
-0.207088
0.832867
0.667398
0.424225
0.093612
-0.583640
-0.501472
1.289166
-0.186078
0.104887
-0.405720
0.027795
-0.826751
-0.746218
-0.048411
-0.356334
-0.066265
-0.317083
0.117941
1.111600
0.797933
0.889449
-0.827739
0.363864
-0.925320
1.290900
-0.414523
-0.050176
0.943648
-0.586965
0.046780
0.610531
-0.375133
0.988053
0.726084
0.006875
-0.269395
0.614108
-0.565663
0.541563
-0.160557
0.002094
0.332454
0.755670
0.639794
-0.479895
-0.462689
-0.382430
-0.112367
-0.244898
-0.133379
-0.811299
0.167689
0.492266
-0.738567
0.892400
0.763037
0.366132
0.324083
0.706716
-1.153149
0.720849
0.599002
1.147849
-0.017118
0.307535
-1.051190
0.169038
0.617751
-0.773556
-0.266491
0.587359
-0.984476
0.351680
-0.693675
-0.167637
0.157514
0.334493
-0.999578
0.458834
-0.992794
-0.443762
-0.819590
-0.479383
0.379279
-0.112746
-0.219159
-0.333823
-0.728875
-0.164361
0.230220
0.334404
-0.532895
0.187014
0.550462
-0.033035
-0.787775
1.283314
0.406396
-1.291872
0.490502
-0.825356
0.804047
-0.513766
0.035370
0.686864
0.318032
1.172850
-1.015396
0.036993
-0.528625
0.092449
-0.875782
0.141886
-0.442770
0.078274
-0.312282
0.172952
0.326193
0.634793
-0.362010
-0.590395
-0.234193
-0.954610
-0.726162
0.018814
-0.176931
1.057311
-0.705591
-0.240193
0.946494
0.679468
1.011935
0.125092
-0.295638
0.041518
0.300890
0.832098
0.767646
0.677150
0.192712
0.827156
-0.047555
-0.071811
0.732349
0.693113
0.611730
0.854615
-1.219957
-0.693531
0.463841
0.221732
-0.822643
0.651797
0.812894
-0.956261
0.874765
-0.129147
0.109080
-0.433719
-0.639974
-0.012491
0.818446
-0.185825
0.742663
-0.042963
0.797088
0.711557
0.483236
0.141384
-0.127284
0.134741
0.614730
-0.125555
0.804440
0.088388
-0.227262
0.502196
-0.029981
-0.430522
-0.701500
-0.510020
0.262855
0.060489
-0.786446
0.708389
-0.453709
-0.224886
-0.512213
-0.722844
-0.182908
-0.718468
-1.168762
-0.582858
0.263855
-1.284906
-0.476272
0.085399
0.383750
-0.361150
-0.529013
-0.614813
-0.267659
0.350722
-0.508312
-0.972040
1.192360
-0.037400
-0.179692
0.316411
0.251020
-0.201197
-0.241702
-0.116321
0.635482
-0.380713
0.728029
-0.357253
-0.001296
-0.750887
0.908641
-0.146000
0.524147
0.505496
-0.027163
-0.342593
0.750891
-0.971053
-0.269638
0.156555
-0.694392
-0.211869
0.946011
-0.767156
-0.606554
-0.691377
-0.621387
0.594630
-0.144282
0.369541
0.864596
0.820581
0.658077
-0.111807
-0.111333
0.591486
0.565203
0.665287
0.971425
-0.866688
0.483856
-1.108287
-0.796795
0.683768
-0.213440
0.837914
-0.462827
-0.407721
-0.373688
-0.339141
0.282000
0.459210
0.386942
0.375246
-0.853163
0.450525
-0.407633
0.209311
0.026478
-0.096677
0.147143
0.754583
0.830374
0.524752
-0.639478
-0.178017
0.704075
0.443577
-0.582753
0.981133
-0.696509
0.867957
-0.406525
0.217977
-0.030775
-0.187710
0.053530
0.520992
-0.536523
0.642840
0.829372
-0.606787
0.242480
0.241144
-1.091519
-0.462105
-0.659070
0.450599
-1.103676
0.737818
-0.486806
-0.101629
0.196826
0.040871
0.311844
1.113368
0.700489
0.407629
0.443327
-0.403017
0.262377
-0.525303
0.377424
0.264033
0.564294
0.222013
-0.240927
0.390508
-0.099505
1.116454
0.478301
0.405221
-0.499257
-0.753990
-0.605116
0.668625
-0.421320
0.414742
-0.966722
0.739158
-0.609498
0.788019
-0.548199
0.489294
0.001361
0.550960
0.127842
0.173297
0.812628
0.147611
-0.803499
-1.150137
-1.035364
0.532880
0.863947
-0.284883
0.089175
-0.953333
0.126364
-0.870434
-0.925514
-1.054980
-0.043168
1.119421
0.409890
0.485519
-0.427016
-0.911572
0.942425
-0.751708
0.207936
-0.897115
0.912426
0.178510
-0.620912
-0.838544
-0.587628
0.222254
-0.794907
0.018602
0.333988
-0.271800
0.474788
-0.060176
-0.419719
1.296268
-0.623448
-0.296781
-0.443855
-0.492656
-0.585513
0.455689
-0.077297
0.333711
-0.287092
-0.412663
0.376809
-0.399432
-0.837290
0.440941
0.570376
0.363881
-0.791401
0.021189
-0.414907
-0.147387
0.442092
0.641722
0.188976
0.073765
-0.952790
0.650946
0.720491
-1.087606
0.174792
0.327609
-0.422856
0.003865
-0.281414
-0.447287
0.098132
0.815290
0.323776
-0.138457
-0.944777
1.017526
-0.197101
0.776665
0.520044
-0.687913
0.647372
-0.444053
0.558958
0.207389
-0.947505
0.593857
-0.299043
-0.176820
-0.343420
-0.563490
0.396057
-0.302348
0.690103
0.547724
0.548372
0.201130
0.501405
0.788341
1.042056
0.355065
0.327116
0.518920
0.637995
0.258396
0.344319
-1.026534
-0.475395
-0.279075
-0.103057
0.624699
-0.534101
-0.089726
-0.520441
-0.615540
-0.018978
-0.957060
-0.606696
0.306808
-0.876343
-0.397302
0.548336
0.356184
-0.330552
0.378546
1.474427
-0.311869
0.404407
-0.051695
-0.110228
1.148592
0.229668
0.370787
-0.304593
0.846442
0.220927
-1.209458
-0.780519
0.433410
-0.227397
-0.192429
1.050976
-1.220412
-1.074286
0.030062
-0.911294
0.360080
-0.774548
-0.220399
0.357956
-0.231297
-0.134275
0.021035
0.074721
-0.821871
-1.016311
-0.089199
-0.006473
-0.252255
-0.526602
-0.967427
0.494709
0.148689
0.023298
-0.170787
-0.461395
-1.038298
0.266426
0.951839
-0.729705
-1.122130
-0.682115
0.498708
-0.493683
0.033987
0.896427
0.055079
0.780537
0.347435
-0.134613
-0.484769
-0.648090
0.318885
0.272128
-0.624880
0.135876
-0.662045
0.289169
0.745045
0.225550
0.213326
-0.497967
-0.432352
-0.275403
0.115478
0.779846
-0.984343
0.479180
0.078064
-0.366496
-0.694312
0.113071
0.451101
0.273633
0.108048
0.953526
0.665303
0.232372
-0.165407
0.289453
0.702264
-0.786412
0.523134
1.342702
0.678391
-0.369108
0.465106
-0.470856
-0.335693
0.466042
0.098650
-0.024336
0.176252
1.106080
-0.808560
-0.642157
-0.092571
-0.074335
-0.921074
0.110813
-0.046722
0.089372
0.181720
0.585350
-0.754367
-0.123475
0.692185
0.177826
0.349319
-0.597198
-1.233174
-0.067402
0.559127
-0.403462
-0.597956
-0.925520
-0.461622
0.585834
-0.081501
-0.626191
-1.139651
0.000286
0.134518
-0.413917
-0.685474
0.659835
-0.901870
0.508284
0.653082
-0.517162
0.285376
-0.342148
0.231439
-0.826463
0.530952
0.522615
-0.938774
0.646460
-0.299860
-0.022290
-0.790819
-1.087725
-0.052103
-1.015573
0.171932
0.076664
-0.019826
-0.385633
0.806185
-0.955046
-0.407728
-0.695284
-1.020856
0.662980
0.686974
-0.749770
-0.610509
0.961371
0.300341
0.794192
-0.006653
0.405579
0.566371
0.100720
0.393313
-0.777781
-0.345921
0.414514
-0.779245
-0.491869
0.840139
-0.256324
-0.036644
-1.057067
0.966060
0.744472
-0.500842
0.159576
-0.149107
-0.547883
0.914031
-0.048016
-0.732759
-1.029836
0.402040
0.401830
-0.222232
0.425697
0.856722
0.348785
-0.472210
0.847052
0.604208
0.177164
0.594074
-0.393743
-0.595329
-0.120398
-0.222141
-0.083387
1.116532
-0.826702
0.312341
-0.536033
-0.138601
0.192159
-0.204404
-0.462028
-0.273738
0.608775
0.762007
-0.432262
0.801525
0.688743
-0.695194
0.566467
0.584381
-0.077383
-0.190700
-0.672514
0.312415
-0.830148
-0.140867
0.402110
-0.169816
0.141483
0.129323
-1.063734
0.498816
0.373488
-0.869926
0.653856
-0.480332
-0.036410
0.782610
0.607930
-0.195649
0.115342
0.276420
0.987645
-0.843660
-0.431185
0.428226
0.139160
0.052194
0.611406
-0.899878
0.015584
0.071688
-0.777076
-0.720823
-0.434232
-0.154050
0.895210
0.677254
0.439640
0.189208
0.941572
-0.631989
-0.059736
0.324306
0.424212
-0.319040
-0.972284
-1.189597
-0.327854
-0.104380
0.240414
-0.936199
1.020629
0.828559
0.443547
-0.553709
0.262276
-0.522011
0.016466
-0.015781
0.880937
1.123235
-0.875465
-0.671621
0.535531
0.727366
-0.127621
0.428583
0.026035
-0.907998
-1.174892
1.176385
-1.060393
0.015729
0.483063
0.753389
1.066432
-0.037883
-1.040033
0.454321
0.507520
0.007373
-0.541114
0.078028
-0.301730
-0.386045
0.064940
-1.350962
-0.381890
0.241282
0.558535
-0.863916
-0.192874
0.273823
-0.162705
0.017726
-0.661668
-0.710185
-0.082044
0.529980
0.014106
-1.182267
0.179759
-0.274189
0.853904
0.141179
0.228893
-0.023742
-0.819407
0.024569
-0.656759
0.655259
-0.773653
-0.837921
0.248208
0.263128
0.078888
-0.180906
-0.584383
0.202290
0.215263
-0.122575
-0.458684
0.051081
0.002391
1.128115
0.620195
-0.753390
-0.112179
0.111584
0.364598
-0.923868
-0.969062
0.353727
0.122427
0.763408
-0.836066
-0.826691
0.017540
-0.293198
-0.260858
0.181780
-0.690070
0.441833
-0.011641
0.064237
-1.103678
-0.395141
-0.789803
0.848769
0.653715
0.529596
-0.495950
0.608052
1.200362
0.352308
0.297745
-0.153320
-0.187519
-0.389417
0.135222
0.032012
-0.005362
-0.058313
-0.214199
-0.060148
0.848795
0.649047
-0.090703
0.299359
-1.021387
0.294517
0.988290
-0.372456
1.502937
-0.703804
0.369794
0.246846
-1.268540
1.155906
0.161849
-1.009281
0.364010
1.107297
-0.244853
0.446634
-0.382057
-0.457502
0.456198
-0.935048
0.433033
-0.812558
-0.304205
-1.124939
-0.593070
0.501668
0.755877
-0.807877
0.179267
-0.922003
0.008959
0.437113
0.789398
0.065985
-1.565103
0.044919
-0.777806
-0.388831
-0.400443
0.306166
-1.132201
-0.968194
0.101328
-0.378732
-0.192322
0.972660
-0.897441
0.211607
-0.136848
-0.888895
1.013994
0.429740
-0.012230
-0.764622
0.780115
0.373738
0.457807
0.269599
1.161128
-0.816692
-0.429972
-0.606864
0.007212
0.812725
-0.702581
0.837109
0.169700
0.001291
0.418447
0.842920
0.640970
-0.792084
0.672535
0.542811
0.345813
0.327184
0.223980
-0.703121
-0.478437
-0.305727
-0.363519
-0.203860
0.470639
0.441851
-0.836733
0.306554
1.013166
-0.225739
0.437326
0.774571
-0.677086
0.894013
0.686236
-0.317079
-0.395567
-0.688159
0.426161
-0.243209
-0.479605
0.565298
1.100461
0.332702
-0.863041
-0.470615
-0.034909
0.743029
-0.682204
0.298781
-0.407162
0.653670
0.622309
-0.970596
-0.959858
-0.842434
-0.564595
-0.837172
-0.188845
-0.464200
0.755988
0.855480
0.581717
-0.712419
-0.258108
-0.216840
-0.005173
0.592115
0.894929
-0.788281
-0.203199
0.311684
0.126233
-1.085264
-0.861801
0.721740
0.042247
-0.584285
0.840339
0.039550
0.951386
0.131333
-0.454494
-0.904079
-0.329091
0.054093
0.205531
1.163752
-0.754884
-0.295924
-0.303248
0.655425
0.716102
0.456733
-0.565961
-0.611014
-0.578259
0.476752
0.112135
0.953178
0.876113
-0.532726
0.476715
-0.388294
-0.317077
-0.777884
-0.617764
-0.668026
-0.162190
1.186876
0.582237
-0.877660
-1.231440
-0.016335
-1.290973
-0.086121
-0.778983
-0.693622
-0.144383
0.974192
0.524053
-0.087837
0.057287
0.792515
0.336336
-0.463088
0.570300
-0.950608
0.871980
0.581405
-0.696001
-0.593328
-0.585152
0.941678
0.626772
0.126987
-0.762653
-0.518678
0.482877
0.946312
-0.187671
0.304190
0.341083
0.734823
-0.464950
0.673827
-0.480505
0.016750
-0.057634
-0.281380
0.297363
0.483302
-0.599183
0.048526
-0.891827
-0.682429
0.152635
-0.536170
0.626100
-0.749575
0.230394
0.169542
0.327333
-0.737702
-0.435251
0.742111
0.787439
0.905674
0.416440
-0.776268
-0.482597
0.522692
-0.317658
0.869494
0.030452
-0.610179
-0.024309
0.625195
-0.935545
0.253214
-0.069696
-0.173445
-0.699403
1.019327
0.345025
-0.784828
0.652980
-0.158260
0.196168
-0.165393
-0.673017
-0.264272
0.086892
-1.079039
0.582358
0.653517
1.146804
-0.487734
0.328776
0.073498
-0.200775
0.805645
0.762179
0.343208
0.670391
-0.160295
-1.497039
0.913016
0.362225
-1.086692
0.681119
0.461560
0.893391
0.462343
0.799328
-0.072844
0.828560
0.130519
0.638359
0.573263
-0.483534
-1.245330
-0.228581
0.378532
-0.337120
-0.924015
-0.463338
-0.551928
-0.613823
-0.704748
-0.190482
0.337348
0.570941
-0.173996
0.162599
0.707557
-0.734077
-0.725759
1.249782
-0.036643
-0.727930
-0.179995
0.504912
-0.327025
-0.585856
-0.037013
-0.442336
-0.090321
0.388828
-0.730667
1.332026
0.109339
0.521624
-0.966518
-0.865212
-0.056742
0.148228
0.151941
0.667833
0.750342
-0.798754
1.238166
0.221683
-0.612747
-1.040952
0.119619
0.137694
-1.165782
0.007607
-0.907664
0.782557
-1.071299
-0.318672
-0.791748
0.081120
-0.054579
0.698962
0.776536
-1.326689
-0.331481
0.792082
0.956207
0.393093
-0.113311
0.895025
-0.921236
0.292600
1.044367
0.007206
0.447866
-0.285135
0.352849
0.032079
-0.977197
-0.797811
0.116996
0.243587
-0.569151
0.827435
-0.135671
0.710771
-1.073192
0.859256
-0.034037
-0.092353
-1.088267
0.995736
-0.000747
0.829668
-0.496546
0.146167
-0.300610
0.234058
0.363591
1.010093
0.439196
0.888357
-0.475278
0.276124
-1.196903
-0.363594
0.511155
0.778033
0.524911
-0.318802
-0.501498
0.821733
-0.564004
1.057020
-1.281314
1.002920
-0.687435
-0.025299
-0.481462
0.905116
0.799206
-0.205984
-0.974476
-0.700046
0.462709
-0.684746
0.759591
-0.459355
0.656777
-0.407304
-0.557938
0.064850
0.499852
-0.406105
-0.143486
0.899313
0.169415
0.048808
-0.198530
-0.294962
-0.349814
0.982372
-0.545267
-0.262894
-0.550280
-0.438141
-0.786070
0.575978
0.188302
0.170873
0.442520
-0.625449
-0.778528
-0.588019
-0.960426
0.178814
0.197797
0.902028
-1.031893
0.394358
1.002571
-0.978808
-0.075670
1.255981
0.343330
-0.348058
-0.208142
0.061153
-0.409490
-0.542301
-0.117250
-0.791055
0.521939
-1.078285
0.024987
-0.795480
0.907558
-0.214277
-0.493116
-0.920062
-0.195960
-0.770818
-0.763154
0.922542
0.266431
-1.253210
-0.936762
0.113179
0.408666
0.436076
0.163555
0.153255
1.261315
0.290120
-1.105549
0.546751
0.002800
-0.287615
-0.048979
0.291124
-0.830602
0.892967
-0.404749
-0.040773
-0.345631
-0.501612
-0.812778
0.202783
0.270644
-0.345236
-0.077277
0.002487
-0.410315
0.262800
-0.642611
0.552289
-0.215810
-0.486132
0.195488
0.267229
0.168764
-0.209076
0.386098
0.350895
0.873125
0.645867
1.065900
-0.289633
0.872051
-0.470803
0.353404
-1.032017
-0.285662
0.447969
0.681978
-0.064153
0.252711
-0.553562
0.097616
-0.954073
-0.935408
-0.380735
-0.045508
0.414546
1.255740
-0.480561
-0.354847
0.703043
0.100388
-0.157750
0.726462
-0.635509
0.031818
-0.583703
-0.814438
-0.609256
1.393218
-0.013399
-0.212280
-0.863595
0.382920
0.960981
-0.741219
-0.441715
0.798314
-0.055582
0.357053
-0.741517
0.211922
-0.587967
0.696572
-0.199984
0.996432
0.265363
0.236964
0.008239
-0.897202
-0.068174
0.603442
0.307121
-0.375419
0.089394
-0.688599
-0.572720
-0.736364
-0.150682
0.596335
0.185573
0.004434
0.039912
-0.232498
-0.080509
0.171735
-0.281314
-0.216670
-0.026802
0.520068
-0.735640
-0.608280
0.663242
-0.336035
-0.847240
1.005086
-0.217866
0.710661
-0.492429
0.046640
0.088028
-0.003585
-0.958234
0.238387
0.364769
-0.516170
-0.362171
-0.860591
0.901606
0.385700
0.530654
0.165954
-0.819335
0.745183
-0.144267
0.869211
0.614071
-0.533571
-0.189149
-0.253720
0.557733
0.698292
-0.402569
-0.769488
0.098423
0.433375
0.357346
-0.040169
0.972295
-1.409535
0.038372
1.263787
0.159572
-0.221153
-0.738531
-0.773202
0.828536
-0.634595
1.366148
0.189837
0.839341
-0.471506
1.078480
-1.136780
0.730423
-0.092550
-0.127668
0.149592
0.355492
0.843217
-0.038769
-0.135267
-0.742217
0.614561
0.099729
-0.354934
1.198371
-0.985939
0.834209
0.159677
0.633207
-0.717172
0.306969
-0.002746
0.802344
-0.919365
0.684017
-0.862079
0.663780
0.403808
0.677578
0.059159
0.955267
-1.021700
0.051807
-0.160357
0.183407
0.367582
0.218692
0.602729
-0.347725
-1.000880
0.203916
-0.198626
1.279423
0.487924
-0.880782
0.548568
-0.084387
-0.037279
-0.326080
0.087884
-0.655708
-0.099367
0.755079
-0.042220
0.948430
0.090781
-0.949210
-1.046242
-0.045692
-0.607446
-0.049769
-0.065244
-0.255554
0.137218
0.678966
-0.737182
-1.032284
-0.240885
0.171930
0.654323
0.660206
0.886570
0.239524
0.101399
-0.089844
-0.962978
-0.119542
-1.228258
0.153240
0.104127
-0.930170
0.649251
-0.100108
0.597490
-0.380968
0.203488
-0.152765
0.078141
-0.522096
-0.828934
-0.124764
-0.475369
-0.154740
0.217832
-0.962918
0.964803
-1.154302
-0.369195
0.015234
-0.144197
-0.371873
0.438950
0.721815
0.301231
-0.072957
-0.820755
0.660059
-1.008987
0.379459
0.758973
-0.781592
0.722591
-0.494250
-0.397929
0.398543
-0.069776
-0.429208
0.361669
-0.134094
0.448059
0.450865
1.163186
0.058306
-0.254123
-0.352951
-0.843598
-0.238349
-1.328569
-0.513097
1.048094
-0.359083
-0.830618
-0.491568
-0.803518
-0.347139
-0.756797
-1.364944
0.426996
-0.724682
-0.525885
-0.426819
-0.954331
-0.496540
-0.496720
-0.099079
-0.152669
0.920027
-1.165788
0.694959
0.486690
0.942246
-1.142032
0.596941
-0.334709
-0.436058
0.824479
-0.770872
0.243274
-0.025056
0.280033
0.327977
0.665209
0.764619
-0.954768
-0.544185
-0.140224
-0.258963
-0.291093
-0.069386
0.124366
0.901547
0.752504
-0.178008
-0.970520
1.027904
-0.398111
-0.605316
-1.517790
0.036041
-0.449036
-0.835062
0.753925
0.401460
-0.385103
0.889993
-0.607444
0.362059
0.544071
-0.926209
-0.413456
0.710296
0.850874
0.013333
-0.440073
1.209598
-0.014405
-0.275786
-0.734663
0.378533
0.796643
0.258263
0.003088
-0.266298
-0.920299
0.485504
0.633932
-0.632616
0.174311
-0.300271
0.590124
0.069268
-0.509794
0.427966
0.795156
0.661187
-0.272417
-0.207061
-0.000626
0.118666
0.099714
-0.126302
-0.981959
0.700101
-0.289048
-0.825857
-1.502720
-0.857424
0.260639
0.558754
-0.199049
1.496168
-1.247379
1.021021
0.687507
1.195964
-0.419170
0.356746
0.401935
-0.505937
-0.303613
0.710422
0.592882
-0.131786
-0.830429
0.632355
-0.938571
-0.055496
0.288490
-0.204597
0.184555
0.143199
-0.299593
-0.260197
0.986868
0.493343
-0.305832
0.355314
-1.172738
-0.200835
-1.595495
-0.355259
-0.966374
-0.234030
0.542602
0.115463
-1.332667
0.695790
1.064301
-0.116445
-0.561576
0.061301
-0.095285
0.963999
1.250549
0.532152
-0.642063
-0.163966
1.203867
-0.680155
-0.769122
-0.895493
0.197742
-0.192627
-0.429524
0.684212
-0.203358
0.794369
0.422461
1.094292
-0.422366
0.525410
-0.482653
0.491775
0.641238
0.157010
0.588470
0.970469
-0.444215
-0.497325
-0.968281
0.393133
-0.240156
0.703758
0.523737
0.168733
0.602506
0.299915
-1.357952
1.055099
-0.729535
0.306177
-0.369061
-0.515478
-0.403413
-0.809146
-0.807713
0.900907
0.112943
0.861483
-0.533679
0.324482
0.631707
1.132053
0.373319
0.584313
-0.848292
0.497995
-0.081434
-0.158754
-1.327793
-0.424317
-0.208246
0.182796
-0.151453
0.324020
-0.507699
0.908631
0.478936
-0.187458
-0.044147
0.388736
0.568317
-0.189299
0.158705
-0.690297
0.234663
-0.142311
-0.773284
-0.571470
0.837071
0.086782
-0.460477
0.581813
-1.079842
0.146098
-1.016154
0.431497
-0.399898
-0.929400
0.631579
0.379090
0.460325
-0.228777
-0.338701
-0.220091
-0.371218
0.668680
-0.364394
-0.903602
-0.646035
-0.017786
-1.170246
-0.752675
0.493670
0.210045
-0.228995
-0.164374
0.203170
1.198479
0.400471
-0.695262
-0.979319
-0.209761
0.503463
-0.159028
0.080217
-0.679513
-0.097716
-0.821963
1.018892
0.669396
-0.976303
-0.314798
-0.318174
-0.553958
-0.084629
1.163505
1.135805
0.804193
-0.483630
-0.035248
-0.339097
0.324050
0.336100
0.749584
0.203436
-0.633977
0.159115
1.341944
0.009131
0.555735
0.074027
0.201842
-1.498720
-0.411186
0.081299
0.455518
-0.285253
-0.219203
-0.252312
-0.101140
-0.019338
0.272032
0.453593
-0.075454
-0.615537
-0.120879
0.005956
1.150119
0.716591
0.156826
0.902052
0.780657
0.747928
0.238421
-0.786534
-0.022905
-0.653732
-0.348683
0.348463
-0.408044
-0.825914
1.082449
-0.474927
0.047464
-0.561178
-0.484697
0.480270
-0.686144
0.422845
-0.165184
1.002669
1.149726
-0.639949
0.083418
0.242903
-0.207353
0.114282
-0.678818
1.360861
0.671485
-0.156525
0.078308
-0.635451
-0.837733
-0.018404
-0.577939
0.863828
-0.219981
-1.030526
0.882665
0.616992
0.008612
0.379352
-0.085384
-0.846130
-0.105674
0.429772
-0.049268
0.924936
0.202673
-0.093112
-0.029254
0.932062
0.496982
-0.202237
0.866836
-0.003909
-0.879797
0.154158
-0.691039
0.711489
-0.470353
-0.997446
0.029777
0.182138
-0.787440
0.097515
0.481457
0.549909
-0.128177
0.023780
0.250035
0.045855
-0.948496
1.412287
0.121986
-0.309555
-1.282417
-0.106766
-0.266199
-0.273447
0.006735
-0.901785
-0.364398
-0.652554
-0.291483
-0.224869
0.086929
0.150271
0.971365
0.140370
0.332066
0.320619
-0.497806
-0.534780
-0.284179
0.311233
-0.129597
1.025506
-0.289828
-0.883340
-0.957875
-1.015158
0.531301
0.650215
0.623088
0.141688
0.319546
0.714646
-0.714874
-0.249717
-0.500900
-0.475151
0.016558
0.189491
0.630416
-0.049966
-0.136987
0.386191
-0.401710
-0.949096
-0.751252
1.101290
-1.138309
-0.238171
0.424985
0.101593
-1.225799
0.566053
-0.551005
-1.102297
-0.695535
-0.821237
-0.073437
0.965723
-0.890398
-0.785427
0.357876
-0.339252
-0.472487
0.466109
-0.401397
-1.022398
0.344132
-0.856024
-1.077364
1.034166
-0.247329
-0.733767
0.644333
0.360156
-1.074056
-0.379959
-0.920355
0.113446
0.586045
-0.034166
-0.745498
0.076417
-0.633510
0.082815
0.402252
0.592843
0.593240
0.122530
-0.477869
-0.411073
1.165485
-1.336605
-0.149946
0.141658
0.487429
-1.010799
-0.714721
0.222282
-0.174090
1.072893
-0.545265
-0.430590
0.114746
-0.282508
-0.529354
0.216827
-0.449860
0.180357
-0.115207
0.901584
0.621754
0.368326
0.456326
0.304526
-0.559893
-1.298435
0.347877
0.451837
-0.488631
0.123375
1.018227
-0.813383
-0.306505
-0.192179
0.153078
0.585571
-0.263735
-0.386119
-0.737318
0.315179
0.717980
0.011577
0.563685
-0.553271
0.373663
-0.479141
-0.350128
0.899439
0.064557
0.004832
0.741715
1.113950
-0.337378
0.114426
1.129222
-0.004966
-0.317863
1.120974
0.526203
-0.289795
-0.067664
0.160589
0.027694
0.879543
0.531065
0.624561
1.134725
0.095485
-0.712795
-0.081819
-0.657763
-1.214312
0.789849
-1.163443
0.643686
-0.079966
-1.015217
1.026055
0.058856
-0.640702
-0.797224
1.177933
0.944370
0.961509
0.919051
-0.958570
1.221533
-0.345266
-0.913521
0.770515
-0.338137
-0.587022
0.690612
0.727074
-0.524401
-0.478725
0.251429
0.209468
0.327035
0.631851
0.063210
-1.282332
0.853238
-0.707010
-0.493883
0.453639
0.928467
0.312905
0.454623
0.363882
1.126064
-0.276868
0.533255
0.155835
0.757240
0.435725
0.041283
-0.840165
-0.480855
0.704249
0.126356
-0.185949
-0.315761
-0.753136
0.025023
-0.194651
0.438333
-0.125530
1.003292
0.242877
0.441191
-1.098448
-0.528920
-0.223027
-0.540938
0.509537
-0.249842
0.768483
0.745220
-0.503527
-1.121418
-0.692366
-0.513685
-0.577135
0.539064
-1.048640
0.587235
-0.398016
0.034646
0.605285
-0.198815
-0.829369
-0.253841
0.109279
-0.889019
-0.034279
-0.195895
0.160019
0.838054
0.908803
0.502754
-0.079093
0.466419
-0.689560
0.100371
0.177498
0.942529
0.487517
0.473911
-0.569626
0.738169
0.407608
-0.204130
-0.067495
0.645062
-0.046587
-0.620930
0.605501
0.662124
2.227551
0.573401
-2.837227
-2.212946
-1.710953
-2.760871
0.363550
2.274114
-3.097011
3.191973
0.424864
-3.701474
-2.352417
-1.198587
3.844548
-1.150318
-1.689456
0.794225
0.973565
2.046070
0.432050
1.192770
-1.609630
0.688414
-3.728217
-0.420551
0.263766
-0.944682
-2.870872
1.929742
-2.148365
-0.240869
1.793938
-1.347539
-1.780226
-0.692626
1.091767
0.954125
-0.786166
1.286434
-2.886843
-1.555566
-3.586250
-1.057192
-0.399316
0.891116
2.752982
-2.509053
0.540116
0.821604
0.019918
-0.549459
-0.265109
0.064161
-1.462211
-1.984784
0.953201
-1.600980
2.079616
0.273116
1.734620
-1.651046
-1.811509
1.085427
3.268927
-3.781019
0.857313
1.733121
-4.721666
-4.053242
0.304518
0.492794
-2.480748
-0.090214
0.485335
-0.245445
0.523904
-3.061875
-1.880347
-3.821364
-0.230105
0.684631
0.234175
-1.332565
0.507639
0.820726
-3.692856
-2.782824
-2.864960
0.889544
-2.153381
0.486150
-1.924306
-2.151651
0.384898
3.208222
-0.833074
1.006629
1.546432
-2.476848
-2.009748
0.927725
4.213441
-1.215967
-0.343844
-1.642060
-0.772722
0.121000
-1.795852
-1.506351
-0.372986
-3.584876
1.780973
-1.351358
0.268391
-0.792605
-1.310586
-0.469925
1.087712
1.394733
0.796293
1.283756
1.443416
-0.056805
-1.162041
0.547817
-0.686128
-0.679069
0.150398
0.535352
2.369762
-0.522901
2.498165
-2.643730
-0.822682
-2.307165
-1.132409
-0.570070
3.342171
-4.161844
-3.076175
-3.233462
-2.193631
2.478053
-1.351841
1.317685
-2.602231
1.280458
0.364989
-1.252554
-0.181658
0.198973
0.677402
-0.145107
-3.997463
-3.153800
-0.273971
-2.597684
2.260687
-0.512454
0.851238
0.366761
0.798473
-2.557426
1.335558
0.403682
-4.101375
-4.301321
-1.885371
-1.103362
3.434815
-3.367795
-3.213149
2.495868
-3.667188
0.014160
-0.316878
-2.450436
1.164152
0.790277
-5.894385
1.309540
-1.254208
0.408732
2.964687
-4.098982
-0.785683
1.290182
0.742740
-1.346307
-1.027781
-1.804815
0.885623
-5.139693
-3.243415
-0.995236
0.033382
2.376640
0.255658
-1.632691
-0.975038
5.145393
-2.830347
-2.006387
-3.769449
1.936464
-0.673914
2.490007
-3.075465
1.225079
-0.756255
-1.999878
0.110933
1.631580
-2.238059
-1.499667
-2.045326
2.583475
0.247567
-0.296443
-1.336740
-2.051148
0.996571
-1.859756
0.212519
3.015520
2.699662
-2.028567
-2.464754
-1.003264
-3.187356
-2.306863
-0.347805
-0.605509
-0.438635
-0.489698
-0.576378
-1.341098
-0.481328
-1.868473
