0.5 197 21 10 
-0.427754
-1.408171
-0.661830
0.795387
1.363010
0.184380
-0.102341
-0.293256
-0.702412
-0.357272
-0.671074
-0.461797
1.106265
0.736088
0.988602
0.930560
0.507144
0.251509
0.218470
-0.996190
-0.620208
0.423493
0.277458
0.571649
0.372963
0.047515
-1.119584
-0.894383
-0.262613
0.027605
-0.033764
0.073437
1.068519
-0.148281
0.321064
-0.074437
0.720588
0.425581
0.608219
0.756386
0.973054
-0.345995
-0.234873
-0.973073
-0.745872
0.230305
-0.783885
-0.011703
-0.074019
0.099191
0.543142
0.001815
-0.696455
-0.256193
0.481782
-0.079100
-0.300794
0.465754
-0.067226
0.233803
0.706157
0.627845
0.034810
0.672603
0.914520
-0.162646
-0.940467
-0.912720
0.414250
-0.574443
0.701146
-0.109215
0.326257
-0.141880
-0.303242
0.328438
-0.059533
0.125900
-0.049153
0.622608
0.309551
-0.120152
0.233910
0.260121
-0.936124
0.314068
0.012100
0.071646
-0.135775
0.156807
0.425117
1.048216
-0.219532
0.497392
0.292843
0.432995
-0.295206
0.265938
-0.646316
-0.564676
0.180084
0.490025
-0.170851
-0.039462
-0.260090
1.298975
0.432747
0.855009
-0.573923
0.043381
0.044727
-0.701582
0.492654
-0.024217
0.796230
0.754088
0.078815
-0.746497
-0.008263
-0.825527
-0.780154
-0.479704
-0.310615
-0.438275
-0.879083
-0.079848
1.052180
0.194525
1.412822
-0.616888
-1.082116
1.068860
0.306057
1.242173
-0.861561
0.003048
0.156257
0.040359
0.143323
-0.045211
-0.254147
0.605172
-0.920003
-1.074115
-0.204180
0.222095
-0.755031
0.738211
1.130831
0.946997
-0.346347
0.084000
0.997755
-1.207662
-0.434674
-0.755022
1.175510
-0.388589
0.161713
-0.727140
-1.206758
-1.343742
-0.288460
-0.813589
-0.450584
-0.503003
-0.361169
-0.131624
1.277842
1.224216
-0.046913
-0.092452
-1.018248
-0.932425
-0.024126
0.353966
-0.423071
1.604417
-0.801617
-0.360329
-0.625345
0.565109
0.859783
0.175209
0.308981
-0.283654
0.109208
-0.200175
-0.967869
0.652023
0.837485
1.418556
0.561519
0.032501
0.057490
-0.500572
0.584214
-0.245247
0.171968
0.695413
-0.115849
-0.219176
0.876198
-0.904333
-0.802341
0.249648
-0.667077
-0.340171
-0.256687
0.792076
1.079512
0.636403
0.908400
-0.202805
-0.360853
0.361540
0.070374
-0.734808
-0.352722
0.094410
0.041216
0.648211
-0.806388
-0.386321
-0.882117
-0.403107
-0.288414
0.618142
-0.612161
0.782502
-0.376469
0.478850
-0.981203
0.860176
-0.438721
-0.425243
-0.867161
-0.545347
0.204636
0.045395
-1.177272
0.438777
0.455530
-0.484860
0.387615
-0.630823
0.788276
0.182776
0.126267
-0.074400
0.058911
-0.538388
0.222852
-0.937492
-0.908280
-0.089001
-0.513829
-0.594481
-0.497138
0.370799
0.610915
-1.114391
1.103844
0.111564
-0.790482
1.507766
-0.566709
-1.032897
-0.216300
-0.350349
0.134159
0.036056
-0.819388
-0.741855
0.448530
0.641442
-0.619552
0.046015
0.482405
0.227874
-0.879226
-0.261432
0.961124
0.235911
0.291946
-0.958686
-0.537146
0.714431
-0.414293
-0.847070
-0.291762
-0.579769
0.897564
-0.766020
-0.698248
-0.436103
0.441979
-0.913148
-0.371646
0.724881
-0.261564
0.444236
0.219430
0.153732
0.132467
-0.601079
0.517783
0.662646
-0.292888
0.769143
0.221280
0.242472
0.573197
0.686085
0.632034
-0.274789
-0.500696
1.020973
-0.717210
-0.430016
-0.412105
0.359906
-1.050359
-0.983836
0.757181
0.746258
-0.149339
0.065090
0.784795
0.051996
-0.953964
-0.728196
-0.574155
-0.251566
0.185164
-0.367237
-0.223967
-1.185481
-0.184715
-0.495397
-0.079363
-0.424021
-0.542732
-0.628649
-0.015336
-0.709129
0.256023
0.003609
-0.661329
0.008831
0.691856
0.701694
-0.907446
0.905088
-0.736173
0.147629
-0.310219
0.056106
-0.789891
-0.355098
0.569851
-0.398881
-0.644031
0.304197
0.097938
0.202571
-0.013454
0.542024
-0.021485
0.315422
0.180844
-0.669618
-0.571415
0.720306
0.354104
-0.897278
0.103234
0.199115
0.540948
-0.225811
0.294281
0.841779
0.882016
0.596796
-0.574974
0.795728
0.683076
-0.614197
0.726839
-0.177957
0.608720
0.277218
0.307646
0.325694
0.530655
-0.316418
-0.163074
-1.107724
0.536999
0.445407
-0.315902
-0.427057
0.578273
-0.225516
-1.011847
0.683720
0.674269
-1.089159
0.886312
-0.649420
-0.757260
-0.915373
-0.192638
0.238782
-1.013870
-0.324238
-0.418984
0.942819
-0.662336
0.606494
0.750217
-0.440726
1.121976
0.878866
1.163172
0.348827
-0.230507
-0.548704
-0.038064
-0.864514
-0.122159
-0.101265
-0.588964
0.981223
-0.695616
-0.019681
0.619372
0.079765
1.321678
1.301765
-0.504711
0.631382
0.081386
0.433582
-0.189713
-0.423140
-0.389060
0.091673
-0.275989
-0.083090
-0.560223
-0.427443
0.088575
-0.889624
0.012227
0.647012
-0.426711
-1.129353
-0.192726
0.923028
0.461874
0.325609
-0.657390
-1.604835
-0.882307
-0.681300
0.614985
0.519305
-0.487537
-0.547586
0.606376
0.057363
-0.124489
0.694753
0.557920
1.505801
-0.784299
-0.789889
-0.543132
0.859099
0.485068
0.700583
-0.691341
0.593033
-0.067011
-0.600828
0.729153
0.939972
-0.583224
-0.117244
0.455820
-0.176604
-0.349163
0.310981
0.601842
-0.340835
0.418122
0.449029
-1.274757
0.297844
-0.083624
0.385284
0.266572
0.761252
-0.664034
-0.473860
1.031648
-0.081553
-0.642042
0.581793
0.386977
-0.458673
-1.035614
0.762505
0.791276
1.209064
-0.851736
0.152419
-0.214213
0.169697
-0.608129
0.396690
-0.640329
-0.349329
-0.072571
0.758738
0.678865
-0.922450
0.983251
0.466294
0.796789
0.433335
-0.066334
-0.312567
0.123007
0.313105
0.042883
0.466886
0.274661
0.382754
0.718991
-0.672172
-0.110432
0.664950
-0.052518
-0.738733
1.753453
0.701905
-0.676670
0.622829
-0.855347
0.440127
-0.671995
-0.347930
0.779847
0.203316
-0.490107
-0.871884
0.546097
-0.394348
-0.009804
-0.229258
0.099231
-0.730199
-0.034113
-0.016223
-0.144304
0.926215
-0.052217
1.644504
-1.070912
-0.748460
-0.226914
0.840124
0.650624
-0.075817
1.072901
0.646335
-1.124842
-0.912507
-0.325568
0.182711
-0.060481
0.680594
0.720251
0.257792
0.964042
-0.621902
-0.201626
-0.369796
0.918740
-0.003072
-0.465679
0.031150
-0.405937
0.214827
-0.107298
-0.155329
0.470305
-0.554125
0.608544
-0.369031
1.163587
0.028694
-0.920168
0.107544
-0.734930
-0.770645
-0.335701
-0.398119
-0.594931
-0.090120
0.850906
0.665845
-0.095581
-0.039322
-0.838563
0.929544
1.175202
-0.325671
-0.056653
0.681905
0.735916
-1.094832
0.945174
0.774851
0.295483
0.267302
-0.246654
0.559530
-0.587299
0.163431
-0.118711
0.228039
-0.122664
0.800703
-0.774510
0.644762
-0.183352
0.283917
-0.097440
0.707751
-0.079431
1.178536
-0.000299
0.081271
0.657049
-0.026734
-0.133844
0.927606
-0.502323
0.132721
0.616086
-0.416019
0.586237
-0.622310
-0.162692
-0.565144
0.011135
-0.386032
0.293675
-0.196032
0.418380
-0.871133
0.203555
-0.776813
0.870422
0.542327
0.585208
-0.263192
-0.236408
0.528243
0.368608
0.358270
-0.065479
-0.503178
-0.778826
0.854570
-0.233270
-1.141107
0.452201
-0.069842
0.349104
0.231989
-0.784924
0.004249
-0.539708
-0.198265
-0.645759
0.614463
-0.871513
0.375569
0.053900
0.353678
-0.787002
-0.503165
-0.393145
-0.166558
0.484247
0.680170
-0.187780
0.339205
-0.097820
-0.705164
0.052702
-0.652591
0.329319
0.042906
-0.865729
-0.601255
0.228756
1.470696
0.108988
-0.893606
-0.482385
-0.190590
-0.397000
-0.169420
1.125839
0.522917
-0.779345
-0.209508
-0.312913
0.136916
0.237527
-0.415943
-0.805565
-0.127223
-0.404920
-1.037085
-0.454592
0.904709
0.752864
1.435000
0.235043
0.209422
0.759198
0.652035
-1.072625
1.026752
0.275217
-0.298827
-1.287513
-0.227313
0.467104
-0.014551
0.325898
-0.816426
0.375402
-0.212390
-0.450186
0.804473
-0.595330
0.672373
-0.052338
0.435045
-0.585636
0.187664
0.000939
0.213948
-0.080596
-0.506256
-0.457391
-0.388463
0.103042
0.061978
-0.689249
0.586333
0.924530
0.327566
0.542645
-0.246509
-0.610101
-0.052746
-0.293910
-0.286750
-0.501154
-0.630795
0.436034
-0.138789
0.590035
0.125933
0.165870
-0.512412
-0.481910
-0.503013
0.761280
0.005630
-0.269431
0.774298
-0.719629
0.177356
-1.042623
-0.584192
-0.650349
0.026451
1.379241
0.368120
-0.189979
0.498343
-0.409595
-0.513118
-0.048048
0.653370
0.033486
-1.087472
0.267879
0.627769
-0.660297
0.301606
-0.546740
0.443808
0.156621
-0.388382
0.064438
0.710426
0.450207
-0.002947
0.847246
0.546889
1.218567
0.664188
0.640166
-0.799170
0.265084
0.375356
-0.425939
-0.525263
-0.680963
-0.604457
0.287484
-0.841678
0.070321
0.858632
0.395133
0.678779
0.230868
-0.634666
1.319560
0.382544
0.816979
-0.051130
0.411687
-0.692848
0.381118
-0.521862
-0.707591
-0.372113
0.575821
0.436893
0.918077
-0.666125
0.407980
-0.668713
1.273089
1.352443
-0.434282
-0.347903
-0.678865
0.656224
0.724304
-0.147031
-0.492093
0.498745
-1.078139
-0.301541
1.067471
1.104979
0.856772
-0.295533
-0.668150
0.687870
0.805074
-0.648104
-0.783913
-0.649859
-0.739567
0.406652
-0.066241
-0.980282
-0.016042
0.392192
0.972358
-0.687905
-0.706883
-0.135074
0.562728
-0.402408
-0.308190
-0.461519
-0.064111
-0.671584
0.837883
-1.097467
0.804772
0.729976
-0.194620
0.130352
0.230205
0.180614
-0.808141
-0.371345
0.132810
-0.682572
0.530616
-0.895701
-0.284754
-0.075567
-0.250887
0.021467
0.843738
-0.597186
-0.502727
-0.250617
-0.319286
0.083787
-0.468654
-0.203156
0.310984
0.522700
-0.352918
-0.308206
-0.172295
-0.708551
1.150930
0.460818
0.286706
-0.140186
-0.347833
-0.091629
-0.501025
-0.597182
0.850320
0.367510
-0.868569
0.650049
0.813619
0.693387
0.426189
0.573171
0.282155
-0.372217
-0.456477
0.597155
0.689224
0.061116
-0.320110
0.627391
0.144681
-0.452804
0.709460
0.904100
-0.863191
-1.011040
0.154041
-0.788015
0.681001
1.170908
0.522594
-0.442538
0.236614
-0.537983
0.414422
-0.401732
-0.497372
0.449013
-0.761455
-0.767820
-0.264723
-0.966773
0.050081
-0.188979
0.699704
-0.162679
-0.894189
-0.447960
-0.906205
-0.266630
1.026271
-0.250252
0.800395
-0.414262
-0.808166
0.831695
-0.183081
-0.513048
0.700799
1.008412
0.355405
-0.361490
0.725421
0.314925
-0.817120
-0.182495
-0.645364
0.699773
0.940218
0.228868
0.353454
0.859515
0.833460
-0.352395
-1.018738
-0.106752
0.111097
0.452412
0.326745
0.444818
-0.096270
-0.444265
-0.010820
-0.051450
-0.202876
-0.096747
0.677325
0.465770
-0.832929
0.440253
-0.239547
-0.295234
0.517989
0.095984
-0.248752
-0.827320
-0.685956
0.631922
-0.345262
-0.742061
-0.347104
0.971968
0.303485
0.302798
0.020731
-0.202696
-0.224762
0.269162
-0.011662
-0.863063
-0.546972
-0.021251
0.131517
-0.028180
0.189686
0.479852
-0.964067
-0.908453
1.241452
0.055909
0.038201
0.469447
-0.205089
0.906358
-0.707243
-0.117514
0.472177
0.444041
-0.720599
0.717119
-1.130393
-0.229596
-1.188333
-1.025042
0.295228
0.183665
0.871901
-0.251716
0.508945
1.248282
0.685129
-0.115886
0.631381
0.068367
-0.761587
0.520806
0.000802
0.391550
-0.756415
0.764725
-1.002777
-0.492349
0.089315
0.793136
-1.210282
-0.456017
0.282545
-0.362798
0.477080
-0.401124
1.096515
-0.489080
-0.265928
-0.480504
-0.383978
-0.052205
0.467434
0.551254
0.632001
-0.213161
-0.596582
-0.861510
-0.509386
0.166021
-0.772909
-0.137751
-0.817988
-0.949269
-0.183345
0.381810
0.839335
-0.718317
-0.262126
-0.666368
-0.526700
1.003302
0.289147
0.577696
0.039932
0.871358
-0.830317
0.175435
-1.231089
0.643357
1.044888
-0.689276
0.668377
-0.522267
-0.437821
1.056969
-0.244680
0.944538
-0.956517
0.023218
-0.470548
-0.986631
-0.581413
0.406934
0.332779
0.280948
-0.592324
-0.367596
-0.171687
-0.904699
1.209404
0.305826
-0.638834
0.414384
0.071129
0.290799
1.058429
0.702224
0.778796
0.241089
-0.117073
-0.361660
0.043882
0.640040
0.382014
0.723631
-0.079313
-0.880793
-0.073128
-0.171033
-0.068891
-0.327328
0.671059
-0.494701
-0.323756
0.223048
0.357478
-0.834459
0.321983
0.264968
-0.443420
-1.403747
-0.316471
0.065700
0.511627
-0.456175
0.147520
-0.058857
0.086142
0.143697
-0.770672
0.457418
-0.772626
0.063298
-0.673422
-0.207016
-0.364293
-0.097259
-0.094605
0.620022
0.262012
-0.836746
0.224255
-0.525313
-0.409308
1.000013
-0.909566
-0.724302
-0.586222
-0.306269
-0.057437
-0.499129
0.862183
-0.188048
-0.665346
-0.431204
-0.317616
-0.100527
0.887764
-0.774692
0.648205
0.235760
0.519531
-0.236344
0.884918
0.396962
-0.381116
-1.364107
0.387486
-0.280832
-0.763292
-0.307925
0.661405
-0.799977
0.217644
0.053103
-0.726871
0.164063
-0.283099
0.906779
0.593948
0.524952
-0.339090
-0.521093
-0.786050
0.368689
-0.856080
-0.435625
-0.245511
1.049079
-0.467600
0.872082
-0.787610
-0.609623
-0.029090
-0.541447
0.651897
0.054281
-0.397759
1.054585
0.485785
0.926175
0.276058
-0.103906
-0.647984
0.409872
-0.575551
-0.124015
0.034143
0.455564
0.387494
-0.195099
-0.240372
-0.390258
-1.099814
0.106538
-0.125371
-0.026557
-0.598361
-1.461765
0.479066
-0.161754
0.394853
-0.473815
-0.532697
-0.608970
-0.513590
0.433012
0.339293
0.120043
-0.238127
0.470192
-0.255999
-1.070523
-0.115030
0.338878
0.181892
-0.475041
1.151573
-0.022479
-1.195014
-0.292150
-0.571177
-0.593185
0.527935
-0.059881
0.435218
-0.517765
0.042563
-0.188393
-0.720354
-0.810810
0.001608
0.387705
-0.228682
-0.177309
-0.176063
-0.273773
0.051305
0.538706
-0.866227
0.107392
1.070811
-0.321102
0.982514
-0.477493
-0.405004
0.803766
1.549159
0.071243
-0.333077
0.341982
0.640052
-0.308315
0.321192
0.101355
0.186939
0.318645
0.026600
0.373135
0.910965
-1.113466
-0.477949
-0.724689
1.212855
0.204769
0.215211
0.212944
0.288423
0.402665
0.175611
-0.703861
-0.376427
-1.033563
0.055775
0.769939
-0.142426
-0.693488
-1.140536
0.349496
-0.125824
0.151223
-0.398413
-0.342510
0.563155
0.023097
0.626398
0.673940
1.324210
0.650215
-0.032375
1.043055
-0.768066
-0.931516
-0.247792
-0.172439
0.755888
0.179544
0.891529
0.565412
0.951379
0.716852
-1.177639
0.125666
-0.447498
-0.574146
-0.178754
0.641175
-1.148788
-1.002113
-0.514877
1.276811
0.111271
0.784739
0.469835
-0.276836
0.151287
-0.576137
0.962503
0.570163
-0.049257
-0.398833
-0.826316
-0.820545
-0.726871
0.149942
0.424862
-0.227086
0.877020
0.416971
-0.441516
-0.198644
1.155017
-0.096319
0.793519
-0.228698
0.949654
-0.308113
-0.946176
0.552103
0.716501
-0.284588
0.607619
0.123690
-1.545806
-0.422125
-0.279766
0.863558
-1.485919
1.034322
0.646282
0.929521
-1.220742
-0.081626
0.418225
0.454373
0.612764
-0.183613
0.582983
-0.975016
0.325424
0.272973
0.661348
0.263022
-0.600272
-0.636304
0.358929
-0.016680
0.497348
-1.461451
0.817493
-0.120708
-0.501356
0.317878
-0.073344
0.313723
0.676930
-0.130016
-0.407595
-1.232348
-1.389203
-0.258639
1.113177
0.710279
-0.455674
0.390791
0.424097
-0.169884
-0.268858
0.993731
-1.023132
-0.177318
-0.876281
-0.263250
0.298169
-1.342359
-0.073505
0.163176
0.370269
0.345704
-1.499518
-0.243453
0.263110
0.211717
-0.025746
-0.011994
1.510055
-0.805496
0.267442
0.228150
-0.128357
-1.051366
-0.679082
0.202278
-0.228422
-0.978664
0.191531
0.731530
-0.416983
-0.422202
0.017968
0.563182
1.182381
0.707975
-1.055201
-0.635565
0.247002
-0.032021
0.275907
0.481377
-0.920062
-0.480585
0.076898
0.144134
0.065338
-0.757174
-0.269282
-0.077943
-0.446966
0.621542
-0.985327
1.383131
0.180476
0.270858
-1.081724
0.751819
0.257757
-0.536864
0.395353
0.016214
0.845533
-0.281997
-0.674349
-0.838162
-0.972073
-0.835508
-0.573699
0.840286
-0.768650
-1.215891
-0.786559
-0.358860
-0.824427
1.248752
0.131623
0.475597
-0.622356
-0.562063
0.715347
0.301456
-0.070752
-0.857501
0.489223
-0.499180
-0.976358
0.409775
0.069757
-0.010532
-0.493504
-0.099152
0.047759
-0.058032
-0.529154
-0.811269
0.429043
0.531785
-0.593888
-0.619163
-0.627770
-0.361631
0.208995
0.658688
0.113459
-0.451571
-0.583404
0.529269
-0.204587
0.090180
0.879336
-0.743773
-0.728751
-0.893098
0.754375
-0.139920
-1.246895
0.509440
-0.255530
0.162038
-0.046016
0.632839
0.088689
0.423898
0.303309
-0.648396
0.114941
-0.103244
-0.475830
0.143848
1.042195
-0.032440
-0.349794
-0.407127
-0.527174
-0.536101
-0.175592
-1.007276
2.214868
-0.363707
-0.697442
-0.091578
1.237885
-1.249286
0.635160
0.979817
-0.866437
-0.003655
0.622593
0.602307
0.426319
-0.614089
0.496567
1.619961
-0.072094
-0.351527
0.791011
0.558963
-0.459101
0.026424
0.306406
0.208245
-0.828023
0.185659
0.331146
-0.910953
1.431602
0.670476
0.296251
0.009556
0.913247
-0.488677
0.086073
0.928483
1.281105
0.837018
1.098916
0.716903
-0.709158
1.068428
0.425625
0.292789
0.839555
0.311947
-0.500875
-0.749595
-0.129964
-0.473586
0.603521
-0.145067
0.746522
-0.041805
0.313643
-0.792204
-0.257389
0.506850
0.112109
0.792660
-0.760231
0.617828
-0.635869
-0.859525
0.734022
-0.720462
-0.516625
-0.056861
0.123566
0.363223
-0.978750
-0.419370
-0.232311
-0.378562
0.008408
-0.513345
-0.209086
0.535126
-0.884725
-1.010706
-0.244941
0.811271
-0.591979
0.639001
-0.203350
0.988041
-0.054095
0.296772
-0.452597
0.253935
1.114353
-0.192848
-0.958451
-0.019226
-0.046005
0.026367
-0.133782
0.172226
-0.012719
0.952331
0.463769
0.329296
-0.129080
-0.136234
-0.566176
0.134448
-0.366293
0.544339
-0.020780
0.994045
0.593249
0.552142
0.093670
1.070249
0.168686
-0.183387
0.175310
1.067266
-0.165473
0.877808
0.330683
0.787618
-0.320351
0.306389
0.776551
0.744401
0.150304
-0.591786
0.710775
0.105041
0.822989
-0.044901
0.545937
0.604783
0.248834
0.521231
-0.337125
0.356515
-1.154146
0.206319
-0.084538
-0.655484
-0.046728
-0.582535
-0.655925
0.439389
0.874625
-1.170756
-0.975076
-0.205423
0.161741
-0.248701
0.932056
-1.056327
0.165134
-0.656860
-0.677391
1.085522
1.104491
-1.269151
-0.558026
-1.803740
0.668127
-0.927695
0.034914
0.737344
0.997478
-0.273291
-0.844259
0.909013
0.315631
0.630816
-0.340741
-0.318187
-0.456964
-0.410987
0.010103
-0.170333
0.170403
0.296596
-0.311489
0.708123
0.841666
-0.250005
-0.630073
0.541546
0.191480
0.576070
-1.479967
1.001759
-0.694135
0.420587
0.195198
-0.817589
-0.000645
0.143533
0.729872
0.965684
-0.795008
0.249681
-0.658212
-0.678796
-0.789622
-0.591411
-0.097599
0.344879
0.426326
-0.831495
0.612960
-0.594642
0.433826
0.654551
-0.873517
-0.101934
-0.436861
0.325942
0.816546
0.157145
0.157520
-1.040506
-0.153283
-1.280089
-0.796911
0.490737
0.019088
0.616016
-0.684858
0.069359
0.564277
0.348526
-0.023093
-0.303671
0.320864
0.152856
0.072733
0.291312
-0.048179
-0.454982
0.189424
-0.810760
-0.569854
-0.408313
0.464472
0.191840
0.205100
-0.235028
0.103882
0.331642
-1.307246
-0.764942
0.917285
0.212019
0.348869
1.224008
0.257598
0.209235
-0.623281
-0.600166
0.571185
0.570033
0.501229
-0.255142
0.647300
0.219037
-0.436999
1.026779
1.150715
1.003152
0.171826
0.448957
-0.083702
0.411588
-0.777471
-0.806774
-0.232379
-0.083497
0.197935
-1.037081
-0.729011
1.072864
1.086030
0.278582
-0.396850
0.980739
0.295919
-0.077841
-0.246400
0.177021
0.266393
-0.613650
0.265383
-0.368413
0.927270
-0.684247
-0.404813
-0.572062
-0.365011
-0.378081
0.380265
-0.947621
0.721142
0.752659
0.299189
-0.309934
-0.169465
0.668542
-0.340173
-0.128813
0.309794
1.123733
-0.377763
0.490167
0.156031
-0.540776
0.801095
-0.264057
0.442598
0.205020
1.032609
-0.229418
0.056715
-0.377409
-0.228249
-1.040391
-1.686423
0.550634
-0.077163
-0.068697
-0.278394
-0.667598
0.803531
0.941409
0.051300
0.568995
0.693705
-0.396718
-0.116828
0.205131
-0.670494
0.016858
0.787501
0.703545
-0.511513
0.331663
0.073656
-0.528512
-0.087326
0.568726
0.201828
-0.005484
0.253377
-0.189150
-0.030240
0.368661
-0.425962
-0.398591
-0.800771
0.942159
0.925708
0.061621
-0.353867
0.659109
-0.675441
-0.399303
0.432666
0.344155
0.461927
0.302397
-0.167182
-0.161288
-1.035780
0.749999
-0.919804
-0.090609
0.483471
0.661811
-0.656351
-0.000385
-0.424452
-0.907213
0.721642
0.197976
-0.608914
-0.377446
0.035290
0.861035
-0.849868
0.509367
0.827821
0.264755
1.124349
0.434453
-0.939293
0.669097
0.882439
0.188523
0.380294
0.310878
-0.874710
0.838818
0.473548
-0.303081
-0.793448
-0.329655
0.006340
-0.927438
0.309227
0.170354
-0.766025
-0.188282
-0.758891
1.122993
0.092423
-0.037853
0.540699
0.744639
0.603348
-0.502100
-1.046033
1.221088
-0.374053
-0.629983
0.785277
0.181285
0.809103
-0.719989
0.447290
1.232388
0.615266
-0.432366
0.178351
0.945761
-0.062622
0.065615
-0.403773
0.679438
1.214771
-0.802107
-0.299864
-0.375008
-1.151607
-1.609741
-0.027694
0.337221
0.042842
-0.424553
0.016414
-0.739769
1.024195
0.594331
-0.674374
-0.015792
-0.124981
-1.465852
-0.896181
-0.480007
0.408185
0.409006
-0.975853
-0.091215
-0.187334
0.262707
-1.513990
-0.145930
-0.762588
0.097723
-0.813530
0.392707
0.708813
-0.866421
-0.026798
-0.215177
-0.865433
0.502661
-1.339013
-0.277492
-1.021535
-0.029749
-1.189601
0.688596
0.021149
-0.443974
-0.197624
0.695118
-1.077154
0.259297
0.262033
-0.480367
-0.450611
0.538336
-0.149346
0.067654
-1.001480
-0.662094
-0.569465
0.645778
-0.493887
-0.480848
0.287381
-0.898504
0.267113
0.984367
-0.205307
0.973319
0.490707
0.559533
-0.481988
0.709573
-0.940904
-0.713019
-0.588786
-0.301913
-0.192419
-0.517738
0.727730
-1.066034
1.108025
0.069024
-0.757359
-0.716223
0.178508
-0.949304
0.405373
-0.581081
-0.134236
-0.273754
-0.158249
-0.411503
-0.180206
-1.150847
-0.344214
0.375929
-0.189333
0.524442
0.060139
-0.520843
-1.339112
0.844246
0.260200
0.609517
1.254805
-0.557174
-0.790012
0.100268
-0.769426
0.626085
-0.163276
-0.513728
-0.061527
0.976204
0.348408
0.782207
1.142100
0.807757
-0.122001
0.515180
0.423116
0.207187
0.368104
-0.777230
-0.991601
-0.304102
0.651669
-0.048487
-0.763341
0.006589
-0.010622
0.164507
1.143316
-1.000373
0.027430
-0.822482
0.084249
0.152280
-0.078851
-0.061646
-1.136922
0.209144
-0.994307
0.559977
0.402043
0.741407
0.620780
0.211393
0.369032
-0.254996
0.438008
-0.358450
0.170776
-0.587331
0.804496
0.269063
-0.304338
0.098639
0.158367
-0.483098
-0.001505
-1.100429
-0.831842
-0.636056
-0.053150
-0.384463
-0.514203
0.288931
0.624049
0.967113
-0.776807
0.314417
0.507535
-0.184690
-0.008385
0.212093
-0.395892
-0.767161
0.603810
0.971171
-0.294661
-1.313032
-1.158753
-0.386932
-1.359790
0.456064
0.714018
-0.964596
0.136399
-0.209507
-0.302591
-0.500303
-0.086056
0.301354
-0.254368
-0.058063
0.367438
0.679080
-0.149956
0.838670
0.547412
-0.628419
0.071362
-0.143907
0.240722
-0.620637
-0.496684
-0.132528
-0.950726
0.463565
0.232053
-0.405602
0.087774
-0.660736
0.268729
-0.101506
-0.124053
0.107213
0.886970
-1.159088
0.366778
-0.123140
-0.650230
-0.185126
0.474763
1.047149
-0.750510
0.403273
0.036528
-0.860650
0.943010
-0.693492
0.154854
-0.956749
0.576858
-0.290903
-0.527745
-0.017600
-0.694614
-0.412019
-0.190112
0.645667
-0.016856
0.963578
0.211888
-0.619739
1.059965
-0.242399
0.331372
0.661396
0.649538
-0.820126
0.564719
0.804871
0.527067
-0.173800
0.496530
-0.971428
0.491099
0.185060
0.819783
1.047346
0.169973
0.983934
0.181788
0.288226
-0.512100
-0.631652
-0.017890
-0.250366
-0.651722
0.620018
-0.555261
-0.106716
0.775272
0.095280
-0.345538
-0.271365
0.526479
0.801172
0.201888
-0.256133
0.909053
0.758731
-0.293495
0.516293
0.469812
-0.754705
-0.463364
-0.623921
0.514277
-0.439808
-0.769279
0.096441
0.407790
0.201021
0.186034
-0.777433
-1.024002
-0.293934
-1.117013
-0.133034
-0.413390
-0.813165
0.677979
-0.346577
0.584672
0.036310
0.155020
-0.142236
0.223616
-0.544155
0.710882
-0.178900
0.910885
-0.382895
0.281473
-0.511670
-0.491739
1.476406
0.039999
-0.210061
-0.949859
0.084789
0.079877
0.806331
-0.175393
-1.093013
0.131196
-0.626156
-1.474148
-0.295176
-0.676899
0.300766
0.482458
-0.262490
-0.909197
1.203280
-0.438809
-0.171192
-0.892875
-0.052608
0.198239
0.242094
0.244270
0.383507
0.029075
0.229950
-0.768155
-0.558714
0.427544
0.291414
-0.289643
0.015152
-0.144345
-0.744505
0.583439
-0.743949
0.127176
0.457002
-0.166418
-1.222185
-0.020225
-0.751516
0.540572
0.409335
-0.156776
0.780806
0.245881
-0.181160
0.473153
-1.197976
0.958372
-0.421338
-0.142283
-1.157761
0.403970
0.005423
0.890551
0.414715
-0.191006
0.097112
-0.002046
0.356042
0.777447
-0.061566
-0.440462
-0.012512
0.584124
-0.453042
0.535888
-0.381434
-0.681919
0.070094
0.064658
-0.464264
1.111276
-0.489689
0.689095
-0.207739
-0.088522
0.277652
0.829199
-1.399770
-0.864823
-0.801782
-0.118306
-0.270754
-0.775840
0.496622
0.158038
-0.518408
-0.818771
0.553738
0.920498
-0.637300
0.355141
-0.634745
-0.653973
-0.407499
0.259189
0.806768
0.692240
0.086100
-1.490222
-0.181756
0.907262
-0.911085
0.962966
0.032395
0.377994
0.036879
0.390525
0.225777
0.454564
0.598062
-1.513658
-0.484390
0.629734
-0.675751
0.790977
0.114784
-0.668696
0.777956
-0.299209
-0.081944
-0.982349
-0.884350
-0.637832
-0.255115
0.292445
0.700232
1.390683
0.588226
0.526488
0.313251
0.780948
0.349258
0.547064
0.197828
0.263301
-0.845798
-0.778029
-0.796916
-0.446971
0.610276
-1.366482
-0.438105
-1.101809
-0.191742
0.363749
0.276540
-0.116456
0.389475
-0.753130
0.670855
1.198093
1.187475
-0.559474
0.378834
0.331848
1.054131
0.113346
-1.144894
-0.763395
-0.693686
0.195214
-0.759041
0.060914
-0.756460
0.012277
0.171338
0.198958
1.027334
-0.529709
-0.052468
-0.024096
0.148214
0.887771
-0.501419
-0.847904
-0.825393
-0.810263
0.293742
0.738792
0.659470
0.866854
0.697666
-0.630970
-1.285567
0.969655
-0.658911
-0.548411
0.586125
1.336055
-0.485027
-0.819000
-0.794003
-0.717145
-0.812425
0.873992
-0.143951
1.007260
-0.806250
-0.480330
0.043203
0.387825
-0.490996
-1.209209
0.849401
-0.393867
-0.544677
-0.053166
-1.016078
0.505225
0.707235
0.491508
0.372288
0.788429
0.578776
0.769167
-0.887348
0.595788
-0.267171
-0.314442
-0.276765
-0.115141
-0.857274
0.126348
-1.055273
0.983914
0.283420
0.262923
-0.775466
-0.886436
0.133960
0.889643
-0.909486
0.590119
-0.196150
-0.796673
-0.401316
-0.643840
-0.037180
-0.554567
-1.069934
0.327775
-0.932502
-0.303643
0.866178
-0.456458
0.415543
1.010949
-0.327899
0.511650
0.536428
1.246338
-0.009525
0.388128
0.405894
-0.334429
-0.081963
0.602300
0.166952
-0.978030
0.422293
1.416569
0.395916
-0.953546
-0.186686
-0.550999
-0.428660
-0.657276
-0.986609
-0.720857
0.273481
0.001206
-0.208881
0.421701
-0.304723
0.707899
1.409559
0.305285
0.099158
-0.015198
-0.137281
-0.130593
-1.066019
1.127394
-0.223165
-0.405743
0.200827
-0.643903
1.678971
-0.760330
-0.425237
0.657801
0.988739
0.569090
0.129753
0.176029
-1.277443
0.979890
0.473637
-1.131338
0.026119
0.377065
0.587563
-0.815865
-0.060543
-0.766189
-0.037675
0.230767
-1.023348
-0.752837
-0.442211
-0.464503
-0.576692
0.681258
-0.215669
0.108680
0.529495
-1.009338
0.721023
-0.588318
1.116431
-0.722687
-0.098898
0.787292
0.013726
-0.403326
0.100550
-0.925783
0.268311
0.512911
0.547071
0.005639
0.067532
-0.022344
0.686472
0.284338
-0.529119
0.642468
-0.622615
0.029554
0.549023
0.442720
-0.559760
0.628792
0.676356
-0.797195
0.780542
0.669779
-0.729841
0.613284
0.053508
0.360493
0.237958
-0.480250
0.297115
-0.088981
-0.510806
-0.250837
-0.885555
0.288825
-0.374421
-0.361519
-0.203762
-0.561694
0.028933
0.598784
0.806345
0.313044
-0.561118
-0.303331
-0.314962
0.528193
0.831392
0.631528
0.306771
-0.186504
-0.844885
0.334273
0.961623
0.134850
-0.008214
0.329433
-1.413379
0.929183
-0.754911
1.027426
0.180589
0.718471
-0.368141
0.144132
-0.118636
0.639008
-0.914821
0.938643
0.987576
-0.413187
-0.459678
0.690317
0.269512
0.023132
-0.362808
0.239678
1.253383
-0.124009
-0.722022
-0.150383
0.491563
-0.395179
0.213344
-0.163015
0.656623
-0.677002
-0.353564
-0.685635
-0.967410
0.132734
0.487114
0.417037
0.176793
-0.421511
0.054785
-0.139170
-0.192338
0.031941
0.125985
-0.248971
0.247791
0.208937
0.123669
0.367438
-0.834872
1.215856
-0.459788
0.284757
1.171067
0.440386
-0.846850
0.170375
0.936232
-0.724644
-1.306137
-0.126993
-0.444610
0.239038
-0.563800
0.368805
-0.546203
0.342006
1.254646
-0.437022
0.885842
0.787070
1.024289
0.619427
0.556077
0.813722
-0.626342
0.231590
0.790779
-0.222298
0.331508
-0.962523
-0.695101
0.386226
1.664357
-0.631703
-0.108011
-0.463602
0.064623
0.886639
0.387343
-0.293726
0.440623
0.070010
0.563956
0.544949
-1.052570
0.209877
-0.716279
0.324254
1.008749
-1.017426
-0.358476
0.660708
-0.394596
-0.013521
0.373685
0.079685
0.958675
0.397313
-0.665550
0.669731
-0.561625
0.790220
-0.088695
0.433388
0.435336
-0.165552
-0.686704
-0.203764
0.149068
-0.545251
-0.526807
1.269262
0.085608
-0.466225
-0.057720
0.734327
0.481812
-0.987812
-0.846302
-0.932258
-0.125473
0.688298
0.615477
0.455536
-1.121803
0.242721
-0.466597
-0.268275
-0.328999
-0.468348
-0.239722
1.441056
0.193358
0.632271
1.185889
-0.304643
-0.471840
0.439566
0.348080
0.607759
-0.052112
-1.582701
0.470791
-0.072502
-0.805355
-0.996181
0.058187
-0.795577
0.909370
-0.421084
-0.207052
-0.495602
0.052796
0.224707
0.857094
-0.071223
0.079269
-0.327221
-0.044406
-0.634837
-1.261842
-1.196136
0.451400
-0.163403
-0.676288
-0.037865
-0.432217
0.047504
-0.251805
0.447927
-0.874801
0.230595
0.065169
-0.271915
0.462594
0.219267
-0.038584
0.161817
1.146184
0.118287
-0.140163
1.322855
-0.253511
0.636757
-1.273387
-0.145152
-0.308731
-0.064661
-0.432992
-0.118383
0.136447
-1.244192
0.506964
0.337962
-0.120431
0.218493
-0.092799
0.693980
-1.029656
-0.807060
-0.207799
0.162043
-0.649669
0.226733
-0.100896
-0.686232
-1.150297
-0.425606
-0.625745
-0.554546
-0.109151
-0.830662
-0.364953
-0.939885
-0.462100
0.328744
0.546135
1.051031
0.877086
-1.396384
0.032341
-0.894302
0.793212
0.113762
-0.456575
0.331695
0.499408
0.816775
-0.821314
1.143577
-0.063115
0.471834
0.123000
-0.102363
0.689490
-0.994333
0.466368
0.701120
0.597780
0.194685
-0.491522
0.513679
-0.402729
0.729748
0.714918
-0.054317
-0.120435
-0.240349
-0.091651
0.230148
0.551392
0.224491
-0.599998
-0.985849
0.257104
0.093647
0.361855
0.232067
0.253222
1.019446
0.004078
0.412696
-0.205177
-0.582502
0.075107
0.378125
0.424139
-0.634308
0.400450
-0.292489
0.908062
1.011330
0.288668
-0.634634
-0.864696
-0.525047
0.650865
0.331258
0.432275
0.345975
-0.911171
0.432265
0.801435
-0.236240
-0.201106
0.597429
-0.341217
-0.504468
0.942243
-0.152504
-0.105095
-0.316674
-0.097862
0.884777
-1.276466
-0.415942
1.254554
0.143416
0.493017
0.212379
-0.086242
-1.311321
-0.944880
-0.465955
0.762852
1.067983
-0.742104
-0.221388
0.349237
-0.885333
-0.258729
-0.429442
-0.157585
-0.358699
-0.418134
0.973763
-0.562208
-0.461589
0.184137
-0.634726
0.313766
0.710062
0.205953
-0.711298
-0.146628
0.117335
0.427924
0.239744
0.235536
0.208864
-0.462995
-0.401710
-0.102213
-0.714256
1.091714
-0.338965
0.508213
0.410880
-0.531237
0.543105
1.264235
1.247178
-0.453397
-1.219688
-0.438147
-0.567011
-0.649116
-0.399738
-0.066435
-0.207252
-0.291578
-1.328588
0.577850
0.513220
-0.223181
0.532223
0.680566
-0.007143
-1.503285
-0.521950
-0.212274
-0.000093
0.076085
1.416392
0.503654
0.520869
0.229787
-0.081337
0.661943
0.155910
-0.270752
0.389466
-1.698587
0.484465
-0.765854
0.198860
-0.230518
-0.656197
-1.014495
0.194282
0.406383
0.145903
-0.207134
0.276764
-0.359393
-1.019121
0.601395
0.119863
0.388090
-0.131447
-0.327082
-0.111164
-0.005086
-0.306235
-1.085193
0.707909
0.007905
0.050520
-0.131598
-1.139342
0.193017
0.055878
0.201122
0.567259
0.637516
0.454093
-0.069991
0.572219
0.968612
0.553823
0.284991
-0.626857
0.964241
-0.951726
-0.633930
-0.250077
0.447742
0.214639
-0.980689
-0.482206
-0.776600
0.693997
-0.089073
-0.767636
-0.907859
0.372977
0.149670
0.558669
-1.289409
0.038494
0.032727
-1.042152
0.401834
-0.991216
0.612049
-0.775637
0.023562
-0.791565
0.385114
-0.519893
-0.562138
-0.723461
1.037039
0.893098
0.585154
-1.093490
-0.697928
-0.212898
1.309479
-1.112487
-0.568713
0.495841
-0.579791
-0.853545
0.148895
0.733036
0.930683
0.505040
0.277728
0.721268
-0.457765
-0.691824
0.387971
-0.489456
0.418068
-0.136695
-0.607592
-0.201449
-0.987981
0.143834
-1.132510
-0.886471
0.986419
-0.238386
0.686446
0.132740
1.134893
0.140743
0.311819
0.296464
0.965606
-0.015851
-0.503151
0.304053
1.188828
-0.945839
-0.668676
0.354627
-0.161149
0.315305
0.413768
0.141643
-0.886549
-0.355347
0.485133
0.392689
-0.690948
-1.423414
-0.822850
0.109635
-0.693365
0.047650
0.766428
0.257456
0.281351
-0.136291
-0.953294
0.094412
0.478604
0.712368
0.833975
-0.061499
0.184960
0.064072
0.356081
-0.376637
0.328311
-0.700797
-0.327495
-0.764601
0.035379
-0.232647
0.254823
-0.489172
-0.720319
0.434822
-0.604650
-0.888054
-0.699522
-0.002296
0.365088
0.950958
0.353346
-0.079834
-0.411547
-0.808733
0.780506
-1.069034
-0.038122
-1.116504
0.230010
-0.135843
0.198386
0.033678
-0.264271
0.970559
0.777390
0.313952
0.219057
0.758771
-0.541953
0.826617
-0.661480
0.137382
-0.450726
-0.311608
-0.961506
0.341904
-0.012731
0.919032
0.699870
0.218973
-0.191870
0.859364
-0.719080
0.049261
-0.665042
-0.924928
-0.178998
-0.811980
-0.641959
-0.742430
-0.829954
-0.451536
0.841860
0.333406
0.929870
-0.461511
-1.026422
0.748848
0.469157
0.420455
0.423810
-0.298931
0.974814
-0.175069
-0.650964
-0.006300
0.448205
0.678878
0.316744
0.555719
-0.594200
-0.093519
-0.355993
-0.105037
0.206738
-0.069398
0.378246
-0.089124
-0.248415
0.364723
0.199949
-0.049856
-0.119657
0.812805
-0.687603
-0.789969
-0.540249
-0.120391
0.185948
-0.122975
0.542521
-0.808105
-0.421827
0.376332
-0.076620
-0.167398
0.908933
0.883741
-0.337953
0.739684
-0.014339
-0.478109
-0.048274
-0.252532
-0.025683
-0.386680
-0.476860
-0.229915
0.040523
0.766011
0.554378
-0.811941
0.298817
-0.408465
0.363259
-0.457657
0.284906
-0.679072
-0.654348
0.238518
0.168720
-0.725762
-0.057409
-0.313672
-0.294468
-0.589931
0.866043
0.220656
-0.714715
-1.280964
-0.840711
-0.387632
0.470203
0.000523
0.405830
0.388664
-0.515478
0.085598
0.368687
0.492722
-0.381486
0.260851
-0.911791
-0.568744
0.151301
-0.528524
-0.437582
-1.010482
-0.273322
-0.915024
0.051508
0.939900
-0.071424
-0.077290
-0.050266
0.527907
-0.592891
-0.005029
-0.565006
0.147445
0.085812
-0.702697
0.966912
-0.151815
0.602641
-0.018855
0.460660
0.639455
-0.614516
-0.214036
0.276902
-0.930958
0.723776
-0.204182
0.092690
0.583155
-0.288406
0.844440
0.412053
-0.471510
-0.240450
-0.673718
-0.532163
0.424413
0.500085
0.871837
-0.169696
0.867224
-0.383943
-0.720968
-0.218307
-0.777080
0.189230
1.109490
0.889224
-0.634048
-0.964938
0.125087
1.226336
-0.030702
-0.561236
0.530323
0.719237
0.430095
-0.552856
-0.680765
0.060271
1.060594
0.314702
-0.391453
-0.427397
-0.478048
0.530035
-0.729677
0.754157
-0.335762
-0.726263
0.408063
0.581739
-0.275756
1.045500
-0.989701
0.601061
-0.726718
-0.207890
-0.530044
-0.477262
-0.415980
1.248300
-0.849164
0.449567
0.376630
-0.740096
0.066204
0.761180
0.544320
-0.091270
-0.655512
-0.401763
-0.986229
-0.845672
1.357930
-1.362082
-0.736593
1.255878
0.178285
0.183362
1.349276
-0.150846
0.684504
0.849221
0.011176
0.261176
-0.467196
0.219986
0.689143
0.979793
-1.527073
-0.711121
-0.193505
0.232149
0.810876
0.348587
-0.183368
0.092692
-0.658729
-0.445257
0.876491
0.079760
0.233233
0.291095
0.752697
-0.050557
-0.837345
-1.056896
-0.072912
0.338179
0.031911
-0.465835
0.016247
0.435093
-1.305095
-0.122059
0.263690
-0.308486
-1.953002
0.729206
0.325494
-0.866737
0.038464
0.750530
-0.315034
-0.382512
0.386391
0.149934
0.121516
-0.351718
0.546565
0.608390
-0.475705
-0.697836
-0.070008
-0.364188
0.045028
0.247273
0.040194
-0.007918
0.717259
0.278243
-0.309661
-0.384006
0.211728
0.450259
0.338312
-0.227973
-0.250140
-0.186480
0.294651
-0.788979
-0.588753
-0.823255
-1.187141
0.243243
-0.260403
-0.215932
-0.489237
0.635043
0.034779
0.626385
-0.691384
-0.355760
0.241009
0.868255
0.443255
-0.620659
0.282594
-0.022054
-0.549535
0.430653
-0.044738
0.693108
0.765569
0.148910
0.068335
-0.220887
-0.788052
0.053487
-0.581895
-0.703630
0.485486
-0.106194
-0.166345
-0.089125
-0.473352
-0.634110
-0.378077
-0.177875
1.208127
-0.588370
-0.435910
-1.144508
-0.937295
-0.181701
-0.547774
0.914432
-1.027618
-0.066351
-0.005033
0.214335
0.239979
-0.052481
0.325220
-0.995365
-0.782394
-0.255736
0.415688
-0.830126
-0.747827
-0.418572
0.702419
0.055590
-0.500641
0.044580
0.592284
-0.699444
0.350482
-0.040875
0.182862
-0.542865
-0.856962
-0.002880
-0.931489
-0.483834
0.088314
-0.604334
-0.279459
0.618475
0.922120
0.020683
0.974421
-0.766045
0.781990
-0.371670
0.562112
-0.287555
0.900228
-0.638981
-0.421272
1.078380
-0.048374
0.402169
-0.005736
-0.689858
-0.935241
-0.673954
0.441698
1.684167
0.477473
-0.672928
0.109361
-0.155212
-0.514598
-0.471311
0.661419
0.576553
-0.684555
0.760882
0.408657
-1.336412
1.084295
-0.040551
-1.452150
0.419023
0.145619
-0.088409
0.734104
-0.495358
0.951363
0.950856
-0.591345
0.035548
0.475056
-0.894113
-0.528129
0.848479
0.651903
0.451832
0.179667
-0.667027
-0.422816
1.024019
-0.775711
0.180805
-0.014224
-0.485836
0.121526
-0.427095
-0.163730
0.712477
0.056157
-0.547321
1.002024
0.017048
-1.129639
0.483601
0.331379
-0.528351
0.250468
-0.500217
-0.187458
-0.026899
-0.329531
-0.207510
-0.379725
-0.841567
-0.451829
0.796534
-0.888166
-0.534449
-0.408977
0.594167
-0.616262
-0.692053
-0.675235
-0.685895
0.592720
0.334350
0.138942
1.032720
-0.976261
0.447093
-0.493048
0.431415
-0.591182
-0.638474
-0.207487
-0.239771
0.163937
1.312974
-0.909778
-0.217798
0.396112
0.192772
-0.255776
-0.886442
-0.166142
0.518525
-0.263340
-0.171098
0.440075
-0.463672
-0.529632
0.276944
0.479608
0.851316
-0.875535
-0.473102
-0.051399
0.314629
0.065945
0.371850
0.148050
0.865293
-0.279152
-0.708503
1.037414
-0.776963
0.928096
-0.091145
0.743458
-0.580254
-0.145815
-0.775476
-0.896785
0.561799
0.435866
-0.794184
-0.637996
0.364842
-1.239841
0.348876
0.423848
0.351845
0.307712
0.113613
0.971437
1.084023
0.202250
-0.202720
0.499838
-0.237681
0.351809
-0.602460
-0.711077
-0.956093
0.742521
1.192366
-0.508573
0.625463
0.275408
-0.931016
0.126793
-0.321847
-0.423896
-0.342807
-0.505716
0.123164
0.060304
0.793522
-0.090164
-0.690252
-0.383785
0.142132
0.773434
-0.442180
0.637660
0.408924
0.241593
0.619396
-1.169886
-0.219537
-0.420646
-0.162421
-1.049253
-0.257665
0.246830
0.925936
0.064316
-0.955895
0.281319
0.481768
-0.163894
-0.725817
-0.965863
-0.440455
-0.214332
-0.323954
0.342500
0.680555
-0.093726
0.452159
-0.678621
-0.638330
-0.750851
-0.660926
0.080676
-0.079229
0.766500
-0.563994
0.397693
-0.085365
0.659671
0.295808
-0.726102
0.660817
-0.256852
-0.136693
1.669585
0.077699
-0.569714
0.300640
-0.974641
0.959697
-0.180257
0.316388
0.025227
0.310508
-0.953894
-0.962551
0.700468
0.099027
0.286743
0.340049
-0.587812
-0.620845
0.211496
-0.122724
-0.101428
0.524498
0.207730
-0.107489
0.442736
0.448839
0.092808
0.102232
-0.667262
-1.070044
-0.538691
-0.793348
-0.307346
-0.505128
0.025663
1.186137
0.401853
-0.639261
-0.327312
0.203323
0.207452
0.710410
1.111291
-0.679999
-0.135088
-0.709213
-0.799635
-0.529442
1.050568
0.559814
-1.707091
0.346832
0.370023
-1.088326
-0.876079
0.039306
-0.287457
-0.940488
-0.438078
0.708513
0.711552
0.857930
0.487357
-1.085503
-0.624732
-0.163675
0.453263
0.407439
0.761562
0.880865
-0.627510
-0.207328
0.855433
0.700635
0.017656
0.204221
0.351674
-0.575510
0.283894
-0.734040
0.367501
1.403476
-0.803316
1.694368
0.174337
-0.832026
-0.453022
0.011809
-1.206195
0.800728
1.840786
-0.734081
0.755846
0.115102
0.452152
-0.335937
-0.539232
1.092323
-0.801721
0.202147
0.188121
0.252662
-0.043224
-0.930783
1.588226
-0.083122
0.466049
-0.243611
-1.148351
-0.196525
1.083596
0.328653
-0.228761
-1.260189
-0.400653
-0.933034
0.741557
0.103498
0.584717
-0.181310
0.870969
-0.167566
0.510667
0.133512
0.647403
0.076379
0.521133
-0.512600
0.629661
0.500584
-0.357561
0.997064
0.111047
0.351361
-0.010348
-0.559945
0.991092
0.056802
-0.750419
0.282326
-1.853919
-0.660535
-0.831613
-0.185759
0.442891
-0.726396
0.124405
0.937673
1.563764
-0.914454
0.560462
-0.068590
-0.143974
1.460890
0.410462
-0.516641
0.544242
-0.207871
0.687031
-0.610848
-0.623634
-1.289180
0.388565
-1.198859
-0.731585
0.592839
0.495139
0.030047
-0.166918
0.027470
-0.062412
-1.081081
0.914056
0.400565
0.842104
0.334964
-0.179592
-0.114617
0.114466
0.034226
0.273048
0.283419
-1.352711
0.325106
0.337832
0.552542
0.376411
0.247034
0.728874
-0.454658
0.247452
-0.583185
0.284419
-0.607344
0.933325
0.877445
-0.245888
-0.911798
-0.171044
0.912907
-0.835577
-0.881894
0.467457
-0.347603
-0.679623
-0.711390
-1.083492
-0.093102
0.158634
0.556162
-0.128642
0.812149
0.928813
0.007466
-0.683879
1.025563
-0.390453
-1.284893
0.297412
-0.434461
0.102736
0.195877
-0.278388
-0.183507
-0.773874
0.686764
-0.112828
-0.785623
0.030429
0.663716
0.692751
0.605813
-0.926034
-1.145567
0.113116
0.457776
-0.482760
0.867896
0.008729
0.199345
0.864367
1.178187
1.319928
0.154015
0.676979
0.568616
0.772850
1.838740
3.365105
-3.597867
0.793716
-2.525520
-0.402532
-2.141340
-5.055978
-1.390431
0.977905
3.935453
-4.267355
-2.792094
-2.264971
-5.133740
2.351381
-2.089522
2.104740
3.589540
-1.402733
-3.372558
5.513057
-3.603350
-2.928744
-0.176480
3.780608
0.448112
-4.852886
2.722997
-3.413014
-2.071855
-1.007932
-0.851683
-1.587128
1.889603
-0.520381
0.548114
-1.015863
-1.329033
0.539694
-1.311650
-4.083906
0.812337
-1.406699
1.281320
1.453834
0.087656
-1.633003
-0.776986
-2.308818
0.141981
-0.266947
-0.102323
-2.234312
0.848346
-1.633705
-3.841069
0.889324
-4.470305
-2.601617
-3.420954
-3.856716
-3.936646
-1.916216
3.428771
-2.227347
-1.529837
2.685164
3.456226
-2.072493
-0.927361
-0.291579
1.315558
0.431653
-2.681542
-2.952013
-3.490342
1.162951
1.192535
-3.151098
-2.382713
-1.705688
-1.381789
-1.747276
1.771768
-1.907300
-1.486384
-0.577535
-3.017142
3.373902
-2.486850
2.715260
-4.973697
-2.283529
-4.105568
0.880491
2.594459
4.880545
-3.045576
0.601839
0.661518
-0.783063
0.019816
0.720004
1.610230
-2.592813
-1.418754
-2.867150
-1.413319
-3.469330
2.971613
-1.364621
-1.524027
-2.833114
3.858944
-1.123742
2.093339
-0.755138
-4.721313
-1.828442
-1.136616
0.874888
3.745943
-2.213738
-2.298440
-2.910863
0.631573
1.460173
-1.980493
0.882503
-0.752660
-2.941008
-3.902154
5.335303
-1.827440
-1.959138
5.724194
-1.561403
-0.798849
-1.554697
-2.648033
-2.417743
1.237835
-1.883052
-2.401794
1.455662
0.330323
-2.770116
2.457372
1.726468
1.404626
-0.583776
1.176571
-1.692337
-3.804975
-6.104082
-0.023734
-2.225402
1.515957
2.302040
-0.555153
-0.956797
-0.562738
-0.334730
1.505728
-1.692386
1.285919
-2.936486
0.829804
3.109450
-4.720666
0.034170
0.932052
1.268536
-3.006457
-0.007178
-0.424397
2.110517
-2.148475
-2.786283
-1.399891
-1.345520
2.398341
-1.052323
-1.341478
3.826953
0.900023
-2.380654
-0.428100
-2.417879
-2.459273
-3.716176
-2.685999
3.175668
-0.806692
2.741364
-3.045856
-0.414169
-3.567159
3.604806
-1.636150
-2.244853
-2.690519
-1.408251
-0.529579
-1.954243
-2.017989
-2.518718
-1.988984
-1.148894
