0.4 197 21 10 
-0.149653
1.368782
0.014570
-0.040121
0.003587
-0.662349
0.357158
1.049023
-0.663114
0.529722
0.769303
-0.889663
0.245540
-0.514227
0.356756
0.481666
0.664723
-0.310851
-1.489224
0.995712
-0.828892
-0.318088
-0.067245
-0.494520
0.319114
-0.654838
-1.033486
-0.466327
-0.411937
-0.333800
0.712450
0.001217
0.058345
0.644194
0.766076
-0.146455
-0.886879
0.509454
0.576340
0.179093
-0.615622
-0.636267
0.620916
0.586953
-0.417207
0.221772
-0.676344
0.680495
1.011153
0.409028
0.225365
-0.848356
-0.187036
-0.460867
0.036827
-0.868901
-1.042030
-0.197639
-0.295261
-0.006071
-0.878148
-0.163911
0.599196
0.895205
0.074072
0.148462
0.124940
-0.213914
-0.432698
-0.017082
0.214151
0.045589
-1.262299
-1.142484
0.825772
-1.134856
-0.363754
-0.164599
0.550235
-0.045850
0.570446
0.415019
0.973254
-0.684183
0.473954
-0.478026
1.079250
-0.112709
-0.599887
-1.007265
0.681800
-0.354132
1.209921
0.267636
0.559663
-0.334189
-0.357386
0.896812
0.385423
0.550840
0.043222
0.276853
0.181356
-0.013734
0.207160
-0.150474
0.631628
0.673100
-1.248717
-0.623120
0.686462
1.296938
1.060096
1.259867
0.426589
0.875227
-0.241902
0.292739
0.020091
-1.083166
-0.196621
-0.635005
0.952092
0.361486
0.503574
-0.626198
0.962109
0.237590
0.916175
-0.501276
-0.780362
-0.586611
0.491148
0.115068
0.221870
-0.616291
-0.304062
-0.732273
-0.056489
-0.291862
0.013306
-0.205545
-0.423212
0.647566
1.829374
-0.541187
-0.407371
-0.138174
-0.310017
-0.021365
-0.836941
-0.464516
0.838929
1.208739
1.009057
1.307251
0.152853
-0.254670
-0.613120
-0.202455
-0.209295
0.321338
1.134826
-0.315544
-0.512239
1.097452
-0.466544
-0.685712
1.049090
-0.503964
0.028182
-0.514277
-1.247032
0.999006
0.722489
-0.187773
0.580068
-0.264534
-0.404894
-1.181564
-0.314890
-0.270907
-1.131956
0.420612
0.135737
-0.418406
0.609413
-0.855123
-0.056921
0.465946
0.556536
-0.940111
-0.520172
-0.226737
-0.803869
0.251242
-0.304641
0.668456
-1.075733
0.223320
-0.201183
-0.954547
-1.243986
0.024917
-0.067031
1.479672
1.061455
0.680273
-0.546858
0.874231
-0.220335
0.234567
0.489217
-0.442204
0.199080
-0.852834
0.757859
-0.862368
-0.209385
-0.600647
0.531217
0.863882
-0.985892
-0.882018
0.485819
0.394544
0.446350
0.738203
0.508936
-0.445132
0.750150
0.921600
0.140589
0.160838
-0.615922
0.573924
-0.115472
1.409756
-0.845717
1.387937
-0.828044
0.020383
0.341869
0.286923
-0.096615
-0.201668
-0.481677
0.132391
-0.420951
-0.060039
-0.054795
-0.230865
0.012172
-1.059434
-0.831615
0.118149
0.771740
-0.978312
-0.338884
-0.323284
-0.559943
-0.368247
-1.655691
-0.898801
-0.923344
-0.353360
0.812856
0.464644
0.262748
0.473728
-1.382309
0.192575
0.788635
0.954053
-0.546184
0.413870
1.544554
0.649335
0.230873
0.599291
-0.832782
-0.792277
0.297371
0.292508
-0.946246
0.607165
1.816996
-1.805963
0.628526
0.367643
-1.273109
0.100841
-0.181676
-0.092764
-1.093715
0.563770
-0.732535
-0.468239
1.047813
1.047360
-0.178534
-0.611299
-0.603372
0.564732
-1.176932
0.261810
0.144439
-1.300731
1.228311
-0.028385
0.008598
0.941038
-0.712562
0.113948
0.491274
-0.132954
0.087798
-0.615177
0.858071
0.019264
-1.349176
-0.303733
0.580468
0.001217
0.668973
0.203870
-1.006421
0.779275
0.071899
-0.521476
0.061329
0.752747
0.054981
-0.295818
-0.470319
0.113537
-0.222619
0.031811
0.202403
1.439678
-0.349710
-1.105684
-0.751439
-0.134571
-0.152117
-0.609112
-0.330535
0.355628
0.054637
-0.049705
0.303172
-0.250746
1.103967
-0.533514
-1.143519
-0.236996
-0.721499
-0.288692
0.186480
1.005745
-0.018430
0.955734
0.850898
0.787484
0.250022
-0.034235
-0.011762
-0.281403
0.245924
-0.069244
0.718175
-1.042212
0.014421
-0.118428
0.719046
-0.644033
-0.152345
-0.214407
-0.293498
-0.258935
-0.133053
-0.004744
0.739212
-0.618925
0.302517
-0.273310
0.824400
-1.023122
-0.249273
0.136620
0.730465
-0.558745
-0.493521
-1.004646
0.645432
-0.188018
-0.067055
0.237693
-0.822868
0.564816
-0.593655
0.402228
-0.894100
0.535952
-0.156649
0.518479
0.206948
0.496791
-0.784057
0.433670
-0.058904
-1.013509
0.973364
-0.129468
-0.016096
0.654978
0.812528
-0.394646
1.262370
-0.399098
-0.858346
-0.240615
-0.720436
-0.660583
-1.393866
-0.083287
-0.439090
-1.424197
-0.148637
0.833229
1.012534
0.606277
-0.592479
-0.880415
0.522187
0.033375
0.024888
0.640717
0.641349
-0.294248
-0.634802
-0.197256
-0.075442
0.526780
1.090624
-0.460703
0.149981
0.039954
-1.050434
0.013553
0.328632
0.700209
0.577763
0.374724
0.571301
0.333014
-0.145222
1.056673
-0.822588
-0.409907
0.826421
-0.181531
-0.848239
0.820838
-0.090652
-0.911193
0.098650
0.292941
-1.649392
0.030083
-0.364682
0.701015
-0.793806
0.234683
-0.558266
0.476119
0.933730
-0.889662
0.751515
-0.627832
-0.056395
-0.671067
0.824771
-0.751578
-0.586604
-0.733166
0.510499
-1.063172
0.479547
0.097859
-0.937032
1.247204
-0.450584
0.450017
-0.108583
0.234536
0.614386
-0.482787
-0.841836
-0.830581
0.081661
0.248749
0.015703
0.780572
-0.768140
-0.277303
-0.077837
0.417192
-0.216692
0.174807
0.440671
0.118166
-0.174449
0.710823
0.358672
0.358572
0.029619
0.561904
-0.101750
-0.223379
0.263059
0.280993
0.173919
-0.787046
-0.185346
-1.194323
0.991787
0.309955
-0.842712
0.318276
-0.539908
0.242198
0.262945
0.542383
0.463625
-0.015855
-0.748492
-0.891910
1.181616
0.466894
0.270431
-0.990187
-0.209997
0.144419
-0.399303
-0.877786
0.256488
1.019615
0.601028
1.536104
-0.277657
-0.123655
0.783993
-0.936419
0.725843
-0.752720
0.352556
0.303726
0.213626
-0.682097
0.142356
1.097891
0.015852
-0.626011
0.819713
-0.605201
-0.334221
-0.002231
0.399064
-0.787022
0.138632
0.353026
0.446366
0.376207
-0.776942
-0.195727
0.060731
1.563729
0.316875
-0.782263
0.324213
-1.321513
0.809540
0.851684
-0.282788
0.677687
0.199023
0.913744
0.483014
-0.312374
-0.055760
0.088502
-0.302922
-0.461827
0.399139
0.593903
-0.583817
-0.493585
0.539083
-0.362490
-0.117245
-1.584199
-0.267321
1.069875
0.788129
0.693430
-1.256077
0.161644
-0.239444
0.309277
0.350569
-0.741409
-0.480346
0.609992
-0.613073
0.577775
0.437465
0.260286
0.490847
-0.250561
-0.839017
0.524138
-1.227400
-0.704510
-0.405915
0.746589
0.215877
0.611277
-0.083440
0.756424
-0.793237
1.526104
-0.526530
0.378359
0.568338
-0.620141
-0.331868
-0.574019
-0.009724
-0.373059
0.265151
-0.196334
0.144550
0.119430
-0.813042
-0.693046
0.790262
0.505217
0.172010
-0.157561
-0.678728
-0.036010
0.860681
-0.182541
0.105795
0.639253
-0.509329
0.458566
0.603588
0.399340
0.525466
0.601249
-0.520185
0.442854
-0.226918
-0.617969
-0.734149
0.136500
-0.809384
0.450798
-0.313172
0.762305
0.361992
-0.288471
0.595880
-0.187819
-0.430421
0.405703
-0.342515
0.046730
-0.249423
0.639814
-0.779606
0.568299
-0.514645
0.304580
-0.888606
-0.933395
0.836780
-1.046493
0.558971
0.289710
0.671002
0.479586
-0.995813
-0.533796
-0.636877
0.207123
0.092070
-1.159800
0.474525
-0.146904
0.807131
0.525993
0.286070
-0.547902
-1.048748
1.249197
1.371686
0.031876
-0.172486
-0.122095
-0.246384
0.700959
0.401358
-0.152929
0.458099
0.547608
-0.597886
-0.978888
-0.724974
-1.012058
0.285947
-0.478535
-0.055607
0.190225
0.669269
-0.506749
0.113071
0.660133
-0.203978
-0.552729
-0.082148
-0.412611
-0.656216
-0.352701
-0.619964
0.672323
0.411029
-0.440629
0.132606
0.660083
-0.295594
0.525062
0.277878
0.114837
-0.768980
0.413220
-0.248756
0.222504
0.257717
1.316360
-1.142476
-0.429594
0.356445
0.489881
-0.477316
0.179272
-0.537083
-0.534337
-0.835575
-0.874721
-0.953534
-0.469228
-0.675995
-0.536275
0.734938
0.441708
1.004403
0.494287
0.547518
0.731543
1.063409
-0.832849
-0.020292
0.705822
-0.759327
0.442041
0.190186
0.209901
0.549401
-0.226785
0.223472
-1.300445
-0.144358
0.776254
0.261511
-0.744635
-0.711198
0.806575
0.322714
0.765379
0.965303
0.646604
-0.036965
-0.419806
0.301795
0.027480
0.342166
-0.764096
0.128476
-0.412580
-0.471441
-0.732811
0.540971
0.490952
-0.830691
-0.040118
0.174122
0.862524
0.231288
-0.812051
0.426366
0.209458
-0.324042
-0.495404
-0.614794
-0.651273
-0.082373
0.202514
-0.471823
0.811877
-0.859172
0.105184
-0.375190
-0.335771
0.531880
-0.844982
-1.431546
0.784745
-0.154571
0.603651
0.301890
-0.805730
0.166928
1.503392
-1.194795
1.015914
0.768953
0.283578
0.286198
0.103781
0.535961
-1.435984
-0.001964
0.930172
0.037475
0.286817
-0.541396
-0.402583
-0.498781
1.014482
-0.798907
-0.071612
0.075258
-1.087916
0.008036
-0.379262
0.390330
-0.873691
0.044052
1.084732
0.295964
-0.095925
-0.962321
0.344951
-0.776260
0.268506
-0.879726
0.531296
-0.412766
-0.467912
-0.056890
0.670179
0.187493
-0.157716
-0.170513
0.580153
0.614694
-0.364898
1.216109
-0.980509
0.041251
-0.776624
-0.363622
0.734566
0.859430
0.019583
-0.347480
0.430885
0.546944
0.394583
0.030652
0.736698
-0.135875
0.585815
0.186792
-0.241026
1.199172
-0.409277
0.017666
0.077144
0.612811
0.220638
-0.518816
0.395308
0.078591
0.583563
0.167838
-0.661658
-0.441923
-0.510676
0.261403
-1.375236
-0.126236
0.088075
0.124165
0.143074
-0.656890
-0.650954
-0.464191
0.343453
-0.232248
0.736492
0.181979
0.985625
-0.205731
0.748776
-0.073141
-1.712690
-0.255306
-0.907396
0.943144
-0.487632
0.619334
0.634641
0.227854
0.576860
-0.022013
-0.624649
0.405426
1.217899
-0.342154
-0.022182
-0.830039
-0.374846
-0.342446
0.931034
-0.919214
-0.490447
-0.551711
0.148308
1.078363
-0.276071
0.060633
0.634282
1.032457
0.612017
-0.780656
-0.002586
1.178199
-0.248281
0.012952
-0.219002
0.530912
0.957731
-0.417033
-0.155969
-0.201630
-0.438709
-0.159869
-0.817852
0.670699
0.824700
0.316292
0.015307
0.742138
-0.496677
0.058546
-0.574683
0.231874
1.076364
0.804293
-0.121150
-0.410831
-0.729684
-0.746391
-0.741103
-0.710648
0.133611
0.342036
-0.628125
0.034443
-0.253337
-0.171850
-0.828548
-0.668696
0.936958
0.092029
-0.309739
-0.061235
0.089586
0.058152
1.001494
-0.417941
0.073172
0.707175
-0.974745
0.351548
-0.318347
-0.043666
-1.177036
-0.532095
-0.731317
-1.008721
-0.903966
-0.926164
1.278277
0.376077
-0.208673
0.552869
-0.692143
0.293918
0.050349
-0.478036
0.112324
0.590830
0.269128
0.504955
-0.407589
-0.697817
0.475396
-0.652097
0.592761
-0.424034
-0.195678
0.165320
0.006177
-0.346402
0.242778
-0.858299
0.649926
-0.837256
0.112157
0.522479
-0.218212
-0.532380
-0.428090
-0.102917
0.813168
-0.854707
-0.023224
0.297679
0.048417
-1.727586
0.597511
0.335112
0.634869
0.452515
0.506746
1.123690
1.405049
0.003324
0.005705
0.189591
0.359379
0.196486
0.251247
-0.518906
-0.358382
0.191378
-0.536264
0.288749
0.273932
0.933221
-0.584042
-0.436886
-0.794296
-0.626167
-0.298895
0.447769
0.035448
0.329052
0.888959
0.757637
0.037658
0.279081
1.537367
-0.832869
0.365526
-0.739486
-0.526523
-0.736653
-0.319677
0.378096
-0.269068
1.094591
-0.460914
-1.118674
-0.134824
0.745272
0.196532
1.269199
0.569710
0.352614
-0.141718
0.367188
-0.017323
1.140576
-0.526926
-0.119752
0.596316
0.842884
1.593259
0.532778
0.826638
-0.856254
-0.037014
0.379054
-0.218889
0.213066
-0.999964
-1.006926
0.275477
-1.078608
0.267552
0.407877
-0.250897
1.428415
-0.117328
-0.878885
-0.407166
0.052575
0.177737
1.366889
-0.821035
0.685061
-0.120013
0.962982
0.010115
-0.401431
-0.767909
-0.454279
-0.676309
0.677498
1.044199
0.268343
0.160944
-0.534064
1.246612
-0.533941
-0.862385
-0.075810
-0.730202
-0.437723
0.137800
-0.086295
-1.018005
-0.886142
-0.751596
-1.166732
0.698372
0.908558
0.728030
-0.861897
-2.242899
-1.155126
-0.457714
0.769075
-0.408187
0.412871
0.676952
0.982236
0.772856
0.952133
-0.788881
-0.132130
-0.850502
0.911462
0.582475
-0.376959
0.044735
-0.107353
1.214106
0.893789
-1.435733
-1.071438
0.135128
0.539408
0.286471
-1.071864
0.139203
0.948610
-0.077533
-0.316261
0.174019
0.570192
0.039999
-0.101760
0.236509
0.170952
0.802413
0.085872
0.236720
0.231171
-0.151921
-0.049051
-0.629908
-0.573510
-0.215150
0.886795
-1.062806
0.104974
-0.574410
-0.733365
0.978737
0.352827
0.413343
-1.072830
0.429207
-0.047277
0.394312
-0.669547
-1.165914
-0.339703
0.108659
-0.497627
-0.461717
-1.424257
0.384376
0.084952
-0.519789
0.129141
-0.247226
0.533742
0.277940
0.674911
0.218618
0.464008
1.157899
0.382921
0.107352
0.103610
-0.491808
-0.479008
-0.520943
0.589289
0.153329
0.256389
0.708847
0.851174
-0.165378
0.132329
-0.799037
-0.785101
0.738631
0.220571
-0.231960
-0.735965
-0.678550
1.175897
-0.144520
0.511386
-0.208442
0.203793
-0.102703
-0.587464
0.906238
0.365152
-0.235170
0.678075
-0.050687
0.756552
-0.231082
-0.734010
-0.253056
-0.139151
0.921888
1.036358
-0.647780
-0.688705
-0.472786
-1.061315
0.259564
0.665767
0.195889
-0.020641
-0.382807
0.234726
-0.449171
0.707645
-0.963344
-0.612946
1.302784
-1.392286
-0.093121
0.704464
0.620083
0.296048
-0.220321
0.964402
-0.787436
0.437302
-0.105693
0.469190
-0.886955
-0.135184
0.252715
-0.479864
0.314154
-0.163725
-0.563026
1.059080
-0.052360
-0.208461
-0.682322
-0.796565
-0.162222
-0.379790
-0.501993
1.033822
0.687273
-0.598248
0.231568
-0.610010
0.077680
-0.590961
-0.284046
-0.430808
0.180925
-0.134694
-0.938763
-0.094108
0.452568
0.472251
-0.273098
-0.650439
0.995345
-0.532441
1.123291
-0.864928
-0.432687
0.136593
-0.888598
0.058803
-0.031489
0.531000
-0.889810
-0.656895
-0.287622
-0.294398
-0.242073
-0.359845
0.786935
-0.554984
0.057761
-0.135771
-0.527414
0.387676
0.617173
0.480932
-0.747664
-0.707786
0.324829
0.615637
0.302583
-0.980179
-0.440386
-0.142059
0.563050
-0.291350
-0.522680
-0.248095
0.427474
-0.496175
-0.741232
-0.157972
-0.767071
-0.032312
0.205486
1.347226
0.146300
-0.494659
-0.604772
0.813879
-0.460147
0.653352
0.495951
0.502703
-0.228487
-0.669649
0.555668
0.711953
-0.158659
-0.357176
0.612367
-0.668037
-0.655572
0.008988
-0.583564
0.912071
0.140775
0.853943
-0.880586
-0.925930
-0.603343
0.831967
0.997365
0.264829
1.427269
0.937807
-0.838107
1.139839
0.150488
0.290694
-1.114552
-0.514691
0.109573
-0.355874
0.176842
-1.077058
1.073580
0.392912
0.117986
0.117730
0.529278
-0.448690
-0.052246
-0.007307
0.002188
0.407248
-0.436342
0.924334
0.707894
-0.202104
0.041258
-0.827326
-0.741135
-0.026101
-0.732574
1.516866
-0.448334
0.187195
-0.114881
-0.984078
0.557049
0.120609
-1.091028
0.527805
0.230985
-1.302914
-1.194841
-0.646201
-0.007327
-0.573690
0.124953
-0.347058
0.459617
-0.017574
-1.470546
-1.665159
-0.399993
0.059394
0.249319
0.267119
-1.092234
0.220217
-0.069828
0.157023
0.259941
-0.781097
-0.441845
-0.338799
0.308037
0.761249
0.574526
-0.636904
1.041867
-0.631249
-0.578503
-1.028186
0.202081
-0.606153
0.919115
-1.021357
-0.684796
-0.886832
0.849729
0.702279
0.989335
-0.826256
0.647523
-1.169236
0.126275
-0.198285
0.482190
0.713262
-0.544929
-0.241952
0.151320
-0.248991
-0.345294
-0.547923
-0.965269
-0.376110
0.678686
0.892108
-0.588794
1.369730
-0.797375
0.267313
-0.529255
-0.342398
-0.050050
0.383482
-0.009673
0.874905
-0.047189
0.662167
-0.815390
0.967479
0.650515
0.454861
0.677695
-0.881867
1.388234
-0.687683
0.624591
-0.967758
1.092359
-0.252733
-0.004507
-0.295683
-0.398633
-0.302564
-0.863297
-0.829595
-0.116010
-1.073831
-0.252449
0.850872
-0.949223
0.238245
0.381051
-0.205298
0.076529
0.156363
-0.030923
-0.531019
-0.301718
0.241809
0.172483
0.912918
0.660541
0.321496
-1.110223
0.187257
0.178781
0.674969
-0.330164
0.834520
0.423854
0.485284
-0.125181
1.188713
0.126050
0.553675
-0.269648
0.089904
-0.224585
-0.318554
0.748390
0.987642
-0.081046
-0.739089
0.312144
-0.882794
-0.147660
-0.026362
0.684787
-0.021634
-0.824602
1.011064
-0.770871
0.707438
-0.653486
-0.876202
0.868105
0.422115
1.284135
-0.167950
-0.684566
0.117210
-0.202684
0.157419
0.928325
0.979864
-0.934803
0.407713
-0.724306
0.611821
-1.403982
-0.330535
0.066103
0.718886
0.004549
0.268123
-1.178923
0.313779
-0.829445
-0.919311
0.399609
0.728557
0.480240
-0.137531
0.296103
-0.374488
0.165929
-0.014791
-0.096795
-0.656309
0.106827
0.022134
-0.294542
-0.844158
-0.270443
-0.960761
0.053541
-0.228075
1.100311
-0.809606
-1.194106
1.285270
0.699800
0.290749
1.017212
-0.945192
0.539333
-0.235994
0.497611
0.376947
-0.447295
0.288208
1.346739
-0.353743
-0.247570
-0.296501
-0.926785
-0.504597
0.946789
0.737747
0.383356
0.307323
0.892580
1.082001
-1.213298
-0.675746
-0.390458
0.874135
0.691564
-0.450314
1.102886
0.064075
0.199387
0.000319
0.842698
-0.420770
0.210166
0.519687
-0.414101
-0.668133
0.715342
-0.603336
-0.673017
-0.162853
-0.013800
0.316256
-1.579422
-1.501916
-0.131579
0.433599
0.220770
0.305804
1.255761
0.343443
0.294683
1.129795
-1.030685
-0.895334
0.918457
0.051153
0.887776
-0.776721
0.382009
-1.074803
0.990169
0.611428
-0.457829
-0.937755
-0.840037
0.398182
0.571309
-0.179784
0.098726
1.262913
-0.258197
0.536405
-0.332359
-0.270603
-0.266066
0.237350
1.200345
-0.277161
0.399049
-0.016731
0.564359
-1.311929
-0.227242
0.316852
-0.931400
0.089928
-0.449405
0.480842
-0.520329
-0.271892
0.207213
0.964005
-0.400202
0.175811
-0.002042
0.005890
0.019247
-0.121904
-1.366550
1.381949
-0.740418
-0.543706
0.837143
1.196730
-0.472819
0.642880
0.196356
0.720729
0.031223
-0.709294
-0.436126
-0.338139
-0.646586
0.712336
-0.273834
0.896373
0.666360
-0.169016
-0.872252
-0.226614
-0.558015
-0.313252
0.785241
1.347032
0.007510
0.430293
1.112665
0.333624
-0.516782
-0.011835
-0.030936
0.982693
0.548917
1.180354
-0.130626
0.762046
-0.167546
-0.431666
-0.741718
-1.477721
-0.093579
-0.778146
0.377957
0.439928
-0.100731
0.081503
1.084599
0.585912
-0.173853
0.654393
0.411519
0.302299
0.208506
0.236281
-0.169311
0.071802
0.098442
-0.054766
0.759359
-1.229967
-0.114100
-0.424159
-0.273437
-0.419612
0.135408
0.159735
-0.517449
0.298887
0.678124
-0.290512
0.094760
-0.218877
0.283949
-0.070986
0.370744
-0.142182
0.068910
0.174022
-0.716799
-0.573243
-0.155222
-0.272941
-0.390183
0.583017
0.256327
0.528960
0.166121
-0.223606
-0.953482
-0.498731
-0.345512
0.020930
0.972620
-0.695418
-0.985881
-0.434343
-0.220126
-0.316401
-0.065599
0.826842
0.121820
-0.989533
-0.843335
0.653082
-0.446678
-0.219055
-0.439846
0.213116
0.360849
0.886748
-0.061385
0.597559
0.518609
1.183717
-1.253069
-0.801870
0.687357
-1.431432
-0.161272
0.199514
0.472672
-0.533139
-0.343601
-1.150477
-0.395714
1.181444
-1.394515
-0.668893
1.070161
0.100145
0.461423
1.137892
0.664312
-0.875805
-0.297954
0.382769
0.315391
-0.228237
-0.839717
-0.343362
0.368465
0.323133
0.567228
0.621773
-0.054776
0.274871
0.780441
-0.002576
-0.419459
0.777888
0.546513
0.774778
-0.381649
-0.181013
-0.815464
-0.191432
0.215924
-0.053107
-0.049367
-0.886514
-0.294015
-0.479995
-1.187216
-0.060525
-0.955478
0.352998
0.459992
-0.124797
0.002693
-0.980625
0.503973
0.670469
0.478810
-0.498829
0.007140
-0.287075
0.025565
-0.535542
0.849371
0.432245
-1.156132
0.064856
-0.843800
0.056794
0.484111
-0.181743
0.409784
-0.524479
-0.539776
0.191447
0.397535
1.199235
-0.878735
0.301886
-0.679540
-0.078431
-0.156407
-0.439670
0.028031
-0.315408
1.027932
0.573406
-0.449096
-1.314963
-0.019602
-0.580472
0.200492
-1.006153
-0.614869
0.588435
-0.044158
0.779665
0.489546
1.011593
-0.472071
-0.551439
0.707703
0.594669
0.010177
0.145191
-0.721456
0.803983
-0.223226
-1.476839
-0.816531
0.433271
0.610431
-1.176495
-0.451390
0.725732
0.385865
-0.427586
0.276963
0.409318
0.411984
-0.810629
0.771418
0.773651
0.434152
-0.200575
0.432895
-1.000499
0.576665
0.013245
0.105219
0.320170
-0.550438
-1.081195
-0.313106
-0.180813
-0.500062
0.300383
-0.071840
-0.160583
0.035252
0.472425
0.818092
0.406325
0.599878
0.204886
0.718785
0.232065
-1.360805
0.388038
0.706011
-0.319730
0.075767
-0.263038
-0.388132
0.512935
0.277619
-0.492411
0.938478
-0.414957
0.081952
0.344066
-0.183504
-0.277426
-0.414971
-0.830380
-0.481447
-0.073290
-0.405288
-1.003445
0.000150
-0.533866
-0.838703
-0.418623
-0.944676
-0.390061
0.278067
0.430929
0.646522
-0.576400
-1.006421
-1.137404
-0.119319
0.106407
0.063397
-0.149910
-1.027739
0.165059
-0.471884
0.393233
0.133158
-0.062175
0.168195
-0.471912
-0.965592
0.928217
1.518839
-0.294311
-1.595016
-1.025496
-1.309534
0.374466
0.518829
1.170600
-0.527496
0.844297
0.121397
1.204691
-0.406348
-0.093406
0.183302
0.247711
-0.428467
0.322430
0.386358
0.250065
-0.843997
-0.348284
-1.363976
-0.390215
0.890470
-0.105529
1.433641
0.504753
-0.179779
0.191788
-0.059038
-0.041307
0.637559
0.580832
0.561909
-0.175652
0.275307
-0.165850
-0.347345
0.742005
-0.086796
-1.019294
-0.316952
-0.745760
-0.473700
-0.115551
-0.606593
-1.069908
-0.967414
0.407200
0.002172
-0.790029
0.610682
0.538656
-0.492010
-0.210513
-0.513332
-0.042080
-0.552774
0.098256
-0.122220
0.691961
-0.950558
0.070111
0.704531
0.374715
1.054496
0.246303
0.232774
-0.663285
-0.219655
0.194861
0.840202
0.771376
-0.884008
0.967467
0.029303
-1.030010
-0.546358
0.492879
-0.365025
-0.506099
0.559248
-0.321921
-0.685908
0.181612
-1.176195
-0.690444
0.620828
-0.973245
1.073307
0.675991
0.602823
-1.007700
0.280846
0.344144
-0.111928
0.758143
-0.648958
0.670814
0.650323
-0.322249
-0.908061
-0.921001
0.108296
-1.029082
0.309525
-0.026384
0.670295
1.095644
-0.893078
-0.405493
0.221820
0.623941
0.438727
0.457337
1.273266
-0.791867
0.070248
-1.604234
0.656216
-0.220876
-0.656485
0.379261
0.203459
-0.239594
-0.292705
-1.315318
-0.525490
-0.809306
-0.135515
-0.087049
0.849498
1.484953
-0.030286
0.061963
0.590936
0.305223
0.052404
-0.029966
-0.393567
0.258092
-0.494572
0.197458
-1.406737
-0.717387
-0.990468
-0.514931
0.253453
0.549376
0.558850
0.609445
-0.450348
0.079835
0.745772
0.054497
0.323196
0.280496
-0.199751
-0.155115
0.710345
0.085830
1.008038
1.300644
0.002512
-0.873734
0.642333
-0.429286
-0.318812
0.754633
-1.065503
0.732112
-0.943421
0.844232
0.042102
-0.114672
-0.210820
-0.699704
-0.353876
0.874872
0.821710
0.313033
1.192884
-0.424654
0.154295
-0.669997
-1.158530
-0.419269
0.299247
0.468848
0.429622
1.066929
-0.692009
-1.168416
-0.385991
0.755712
0.188101
0.108153
-0.272401
-0.765020
0.351046
-0.202031
0.122032
0.475602
0.371612
-0.504730
0.399186
-1.213344
0.986702
0.257853
0.883428
-0.426415
-0.167046
-1.062687
-0.564532
0.475133
1.066136
0.756523
0.493945
-0.398450
-0.646922
0.516224
0.145697
0.514064
-0.398397
-1.241294
-0.624204
0.202357
0.749047
-0.664010
-0.090411
-0.015936
0.231128
-0.793109
-0.379000
0.106507
-1.709250
-0.016698
1.052059
-0.253954
-0.713811
0.113222
0.136377
0.863079
0.718390
-0.685286
-0.012929
0.703663
1.286578
0.370133
-0.673374
0.233913
-0.353116
1.239731
0.091435
0.398311
-0.341415
0.029465
-0.270522
-0.472992
0.832261
0.365169
0.320131
0.298518
0.070608
-0.713278
-0.256137
0.126962
0.075912
-1.053938
-0.177356
0.075466
0.451455
0.505056
1.121392
0.700286
-0.490559
-0.186827
0.539644
-0.393442
0.769467
-0.549802
1.288800
0.249096
-0.935530
0.136110
-1.062453
0.191695
-1.009528
-0.137479
0.908310
0.133852
-0.939820
0.449264
1.242624
0.156871
-0.373347
0.214955
-0.099916
0.346034
-0.957766
-0.316492
0.082745
1.247066
0.506197
0.380028
0.558566
-0.138259
0.603267
0.265825
-0.045628
0.951545
0.618023
-0.622713
-0.551490
0.025952
-0.983093
-0.103380
0.597907
-0.853027
0.303211
-0.319811
0.105942
-1.531823
-0.746122
-0.339731
-0.188466
-0.019877
-0.354267
0.070905
0.394957
-0.084320
-0.128911
0.503576
0.034084
-1.185732
-0.072550
1.263448
-0.058513
-0.881141
0.371638
0.840129
0.723863
-1.220070
0.188533
-0.727211
-1.179880
-0.466082
0.611735
0.744706
0.102363
-0.535965
-0.840406
0.484839
0.383049
0.718063
-0.504757
-0.430334
-0.209070
0.011307
-0.926705
-0.755532
0.499350
-0.043988
-0.369298
-0.067682
0.469489
-0.146279
0.387133
0.929870
1.017360
-0.571578
0.761563
-0.806941
-0.318180
0.167003
0.214411
-0.040804
0.136196
1.245366
0.719407
0.980911
-0.832617
-0.405492
0.443319
1.317849
-0.233898
0.575672
1.052230
0.851806
-0.594972
-0.310778
-1.089540
-0.763327
0.377541
-0.345211
-0.117461
0.077334
-0.308054
0.238693
0.297668
-0.602787
-0.878393
0.006070
-0.854751
-1.206319
0.081414
0.608117
0.389513
0.620936
-0.520954
-0.292861
0.587292
-1.392311
-0.379861
0.532095
0.429988
0.317994
0.452907
1.208186
-0.789847
-0.183498
0.134986
-0.597124
0.439307
-0.283759
0.454029
0.104647
1.622003
0.197539
0.319001
0.062945
0.325257
0.013724
-0.405477
-0.310655
0.793948
-0.568256
-0.383994
-0.568570
0.066295
0.184051
0.748690
-0.403939
0.531403
0.136479
0.616550
-0.504106
0.373312
1.334432
-0.439694
-0.344370
0.675988
-0.491893
-0.312308
-0.634620
-0.074461
1.152649
-0.360450
-0.643229
-1.373789
0.611183
0.373340
0.698312
-0.480182
0.004930
-0.146831
0.122666
-0.976029
0.502775
0.838521
-0.620412
-0.531398
1.324484
-0.631647
-0.651885
0.314187
-0.549211
-0.930427
-1.737203
-0.604817
0.351181
0.524878
-0.091703
0.618354
-0.561300
0.945571
-0.587698
-1.719783
0.422005
0.482446
0.932374
-0.215176
-0.511947
0.094248
0.166063
-0.663408
-0.749896
-1.204215
0.985222
0.198098
0.276232
-0.184561
-0.346090
-0.195291
0.344651
-0.304384
-0.453752
-0.751064
-0.023638
-0.539328
1.227927
-0.077337
-0.437452
1.034906
-0.239021
0.956691
0.246023
0.177249
-0.278578
-1.155243
0.625006
0.561161
-0.892829
0.487544
0.203052
0.427488
1.143308
-1.197435
-0.138589
0.797283
-1.587595
0.171286
-0.791460
0.290226
-0.149759
-1.021044
-0.535320
-0.421219
0.492286
-0.026917
0.740626
-0.296340
-0.138836
0.181738
-0.253037
0.381794
0.243241
-0.111249
0.398217
0.544530
0.773494
0.428765
-0.848275
-1.529715
0.878490
0.103871
0.696116
0.384311
0.737874
-0.276340
-0.261425
-0.054385
-0.630761
0.386204
0.149955
-0.289687
-0.734296
-0.086041
0.126948
0.347796
0.311849
0.492572
0.432162
0.698573
0.263944
1.162808
0.441295
0.122813
0.585028
-1.339790
0.014446
-1.108480
0.902777
-0.598866
-0.872095
0.328866
0.816526
0.450873
-0.148942
-1.890342
0.152283
-0.267667
0.295838
-0.573334
0.885069
0.187822
1.492492
0.372043
0.651659
-0.461406
-0.016676
1.475324
0.590241
1.765883
0.398837
0.453683
-0.650941
-1.446837
-0.008732
0.736015
-1.373483
0.594353
-0.224787
2.460591
1.519513
-1.450369
-1.081931
0.339381
-0.119922
0.573932
0.751745
0.305009
0.998071
-0.306939
0.522397
0.837098
0.128768
0.294221
0.529031
-0.205584
-0.205140
-0.777499
1.024960
-1.164650
-0.284727
0.171770
0.548162
-1.291500
-0.067376
-0.375187
0.667298
-0.176221
0.170167
0.527453
-0.542672
0.675373
-0.638935
0.150519
0.421908
0.353487
0.427882
-0.047550
-0.621311
-0.984041
-0.660626
0.835914
0.936099
0.569890
0.089680
0.545816
0.499873
0.340165
0.969220
0.597684
-0.597459
0.594538
0.941800
0.275797
0.402063
0.054476
0.052783
-0.844386
-0.724369
0.237886
0.400897
0.332394
0.123835
0.132378
1.124961
-0.336556
-0.645259
-1.141565
-0.645994
0.146859
-0.262031
-0.155966
0.288567
0.288457
-1.084027
0.312140
-0.975356
-0.610175
-0.401975
0.773874
0.813710
0.194352
-0.877597
-0.233930
1.085005
0.384843
-0.717525
-0.314317
1.077018
-1.045559
-0.792157
-0.088888
-0.684505
-0.518567
0.190689
-0.311257
0.361507
0.533277
-0.515187
-0.333869
0.153734
-0.488255
0.701231
-1.245860
-1.119556
0.104137
-0.962459
-0.345465
-0.594509
0.120569
0.313760
0.023423
-0.673327
0.648361
-0.863945
-0.818963
-0.274148
0.439210
-1.256520
0.057483
-0.755279
-0.045516
1.103108
0.133584
0.549106
-1.455307
0.136060
-0.192480
0.658143
-0.425899
-0.326865
-0.412618
-0.555184
-0.122927
-0.766752
0.044802
0.254336
-0.638430
0.032218
-1.187945
0.408379
0.453377
-0.294078
-0.584053
1.352257
1.252031
-1.131038
0.147121
0.719078
0.925715
-0.728843
-0.339937
-0.194659
-0.795433
1.356608
-1.417831
0.451425
0.862605
0.751834
-1.256969
-0.915443
-0.414561
-0.931222
-0.529647
-0.495580
0.443056
0.954098
-0.767596
0.066475
1.595677
0.409058
-0.287820
1.274841
-1.388933
0.046698
0.523597
-1.064897
-0.997060
0.536811
0.172774
-0.230778
0.096396
-0.791424
0.537979
0.310752
-0.155470
0.932847
0.264915
-1.068141
0.258863
-0.156317
-0.009647
-0.468540
-0.040799
0.019790
0.382271
0.481807
-1.152296
0.260843
1.073293
-0.993463
0.338691
0.492832
-0.981003
-0.823046
1.011836
-0.941660
-0.214301
-0.338836
0.148377
1.365160
0.310925
-0.913810
-0.039748
-0.045006
0.658026
0.595912
-0.482238
-0.708846
0.008117
0.445468
-0.884508
0.268727
0.374662
-0.323653
-0.005711
0.958411
0.365545
-0.094044
-0.788402
0.452997
-0.264705
-0.996792
-0.661376
1.284797
0.611894
0.402734
-0.553266
-1.234074
0.228807
-0.798644
-0.601879
-0.383331
-0.650772
0.376669
0.179702
0.049232
0.479976
0.258989
-1.074627
0.724758
0.026894
-0.633790
0.206950
0.437692
0.766372
0.259543
1.290363
0.436188
-0.079531
1.707088
0.414350
0.441027
0.667148
0.973452
-1.131778
1.043950
-0.341575
0.835310
-0.302307
0.033130
-0.499239
-0.499143
-1.542930
1.018244
-0.978289
1.121826
-0.471056
-0.394873
0.173657
-0.713089
0.201911
0.342097
1.298570
-0.616652
-0.151617
-0.795499
-0.348327
-0.656751
0.512800
-0.555971
0.118068
0.366854
0.673782
0.878217
-0.216226
-0.532880
-0.839355
0.380000
0.246167
-0.000941
-0.078618
-0.675124
-0.166613
0.875581
1.116126
0.261129
-1.229257
0.620809
0.712629
-0.687222
-1.240793
0.179800
0.768539
0.772609
-0.550025
0.636166
0.236652
-0.441282
0.229027
-0.011648
0.122199
0.285644
0.594139
0.869997
-0.058346
-0.521152
-0.019017
-1.086814
-0.009814
-1.254176
-0.466758
-0.584473
-0.808818
0.605710
-0.727973
0.142426
1.022408
0.608128
0.036570
-0.113476
-1.216461
-0.037031
-0.842992
0.611420
0.699936
0.584048
0.931641
1.031861
-0.383184
-0.027647
0.371343
0.578036
1.009136
-0.291877
-0.724625
-1.023187
0.367461
0.327825
-0.850185
1.072188
0.165119
-0.338566
0.716154
-0.226480
-0.674474
-0.511102
1.582745
0.512681
-0.956073
-0.069659
-0.139432
-0.045417
1.134169
-0.725517
-1.250879
1.317067
0.210510
0.319416
0.781984
-0.812868
0.205875
1.180767
0.121326
0.107355
0.923616
-0.235907
0.100727
0.219816
-0.056616
0.400084
0.126689
0.131958
0.557915
1.174572
1.460711
-0.231114
0.065442
0.923241
0.527553
-0.697377
0.110917
0.954101
-1.222578
-0.617306
0.034252
-0.458901
-0.304199
0.983754
0.201619
1.097268
-1.477759
-0.739654
0.194244
0.313768
-0.318562
0.448310
-1.255714
0.176087
-0.512340
0.122228
0.375691
-1.000779
0.524247
-1.030869
0.760663
0.506721
-0.650702
-0.349318
-0.745750
0.376330
1.429427
-0.763457
-0.387706
0.067184
0.163256
0.206868
-1.183211
0.332869
0.443854
-0.025322
0.988774
-0.340911
-0.016199
-0.578852
0.201564
1.000382
-0.396247
0.788964
0.262756
0.591109
0.224888
0.191224
-0.382844
0.562667
-0.992734
-0.307489
0.318038
-0.568019
0.821393
0.178906
1.482222
-0.462524
-1.351990
-0.842820
0.472933
-0.411022
0.481788
0.645759
0.585928
-0.439626
-0.337785
0.602205
0.533602
1.429102
0.120673
-0.118121
-0.417982
1.401343
-1.196938
0.268160
-0.834750
0.815577
0.529931
-0.622743
-0.412764
0.282934
0.686402
0.093459
-0.390458
1.193952
-0.068740
-0.960816
-0.404329
-0.920114
-1.647229
-0.266685
-0.632254
0.102208
0.912066
-0.422073
-0.783416
-0.893493
1.575708
-0.161978
-0.624340
-0.413232
-0.489468
-0.154429
0.675759
0.839035
0.732032
0.528254
-0.571676
0.341287
0.142546
0.764463
0.423814
-0.932658
0.294183
0.252221
0.602517
-0.383159
0.734325
0.622160
-0.979331
-0.022624
-1.219045
1.039500
0.246085
-0.709996
-0.685320
-0.640258
-0.330096
-0.134137
-0.134071
-0.429745
0.663714
1.009375
0.468539
-0.030340
-0.015552
0.576487
0.145509
-0.628890
0.220659
-0.796053
-0.781309
-1.473097
-0.126366
-0.319094
-0.961533
0.751571
-1.688377
1.532385
-1.179558
0.882053
-0.719889
0.956699
0.633962
0.523776
0.268819
-0.776091
1.691261
1.487374
-1.394999
-0.176760
-0.148213
0.745744
-0.648727
1.733725
-0.752748
-0.932568
0.335156
-0.721111
0.432449
-0.605380
0.323816
-0.311154
0.634801
0.685262
-0.001990
-0.931719
0.204486
-1.064341
0.428223
0.239424
2.034720
-0.740669
0.236815
-1.082267
-0.365218
0.681840
-0.477265
0.115451
0.416072
0.296015
-0.977474
0.376422
0.291967
-0.262065
-0.785831
-0.404323
-0.573402
0.381405
-0.382316
-0.741780
-1.017149
0.584830
0.739108
0.147282
-0.864804
0.051580
-0.255324
0.128133
-0.300105
-0.736081
-0.356427
-0.363812
-0.440370
-0.572238
0.165327
0.056523
-0.987863
-0.761819
1.563945
0.627435
0.179891
-1.003554
1.264877
-0.219987
0.245212
0.206619
0.968833
-0.340728
0.562226
0.228807
-0.628790
0.001330
0.745562
0.716745
0.734485
-0.542022
-1.005291
0.152916
0.682483
-0.181424
-0.144981
1.022632
0.076367
-1.160387
0.481287
0.347729
-0.174050
-0.687015
0.049926
-0.334512
0.616664
-0.232333
0.806370
0.014134
-0.222645
-0.308819
0.151627
0.024936
0.705128
-0.671717
1.111407
0.246394
0.698641
-0.670160
-0.649448
0.038491
0.140111
0.396865
-0.732004
0.422274
-0.027299
0.345177
0.582809
1.256357
0.203212
-0.567112
0.009132
0.376787
-0.732215
1.258949
0.382499
0.470470
1.700003
-0.557415
-0.225441
-0.444253
0.586044
-0.660332
-0.987293
0.378204
-0.315767
0.447968
0.596446
-0.314983
0.164500
-0.337982
-0.087705
1.082413
-0.826077
0.981845
-0.004502
0.518853
-0.132340
0.085582
-0.615666
0.501689
-0.986189
-0.507309
0.036605
0.128981
-0.864687
0.109464
1.098257
-0.517568
0.036163
-0.060575
-0.103999
0.340354
0.129850
0.363098
0.071237
0.153903
-0.474423
-0.071017
0.493409
-0.242376
-0.374712
0.656909
-0.375625
-0.672399
0.911395
0.522161
-1.056040
-0.369003
0.385322
0.428711
0.166776
-0.473359
0.740912
-0.049596
-0.728340
1.133729
0.344049
0.727152
0.739216
0.142338
0.171187
0.396151
0.400693
0.491380
0.234356
-0.098177
0.513663
-1.013992
-1.207885
0.901549
-0.346020
0.564013
1.177785
1.516299
-0.515515
0.686588
0.632374
-0.046627
-0.650969
0.622026
-0.043058
0.021972
0.153405
-0.182925
-0.547884
1.473490
-0.154813
-0.644422
-0.176992
0.004242
-0.882504
0.328795
0.839466
0.525132
-0.315671
-0.091051
-0.332903
-0.812584
0.565124
0.205045
-0.365229
1.574926
-0.275917
-0.617977
0.105391
0.416034
0.602236
-1.282614
0.624063
-0.322820
-0.476973
-0.041793
-0.523730
1.488037
-0.378637
0.524537
-0.705612
0.706608
-0.095639
0.549437
-0.818952
0.614892
1.122032
0.790717
-0.398416
0.011943
-1.671525
-0.040405
-0.180010
0.079831
0.275841
-0.824325
0.620505
-0.013221
1.031564
-0.460938
1.012036
-0.665123
0.167345
0.665338
0.211070
-0.233371
0.825334
1.364285
1.143797
-0.959202
-0.538708
0.213744
-0.173519
-0.610242
-0.376674
-1.045162
-0.900546
0.177291
-1.091404
1.901349
0.029201
1.200083
0.836509
1.112775
-0.736808
0.701760
-0.059803
-0.603878
0.410611
-0.433648
0.070602
-0.999534
-1.499897
-0.880786
0.126055
1.613079
-1.230439
0.057214
0.039993
-0.196460
0.854012
0.692080
0.099998
-0.813709
-0.050431
-0.192178
0.834073
0.744655
0.063716
0.633035
0.261732
-0.048234
0.173944
-0.923065
-0.227924
-1.217981
0.280873
0.513922
-1.049312
-0.763847
-0.688280
0.414975
0.140862
0.508501
0.712302
0.193111
-0.654493
-1.088160
1.041025
-0.215590
0.641711
-0.246722
0.215828
1.345057
0.610767
-0.401839
0.397903
0.128745
0.321882
-0.642085
0.353842
-0.009720
0.885681
-0.269893
-0.408708
0.598110
-0.122557
0.309965
0.712224
0.081894
0.592649
-0.200353
-0.328599
-0.139861
0.079610
-0.470421
0.526214
-0.642507
-0.104055
-0.924189
-0.355111
0.592152
-0.089629
-0.791640
-0.520230
-0.970533
-0.347513
-0.230039
-0.782779
-0.898998
0.282541
-0.039831
-0.262545
-1.000765
0.597134
-1.145808
-0.229967
0.129506
1.483618
0.063327
-0.412564
-0.342722
-0.857431
-0.418738
-0.115494
-0.782552
0.268807
-0.372747
0.564683
0.074572
0.339755
-0.171290
-0.510855
0.460701
-0.130411
-0.622664
-0.444042
1.065696
-0.043340
0.679649
-0.878518
-0.712050
0.194499
-0.689590
-1.165621
0.276253
-0.258549
0.626305
0.421110
-0.638033
0.773775
0.268040
-0.881195
1.240698
1.126492
-0.073189
-0.678506
0.852439
0.789726
-0.732994
-0.403284
-0.636328
-0.392347
-0.869644
0.684403
0.160427
1.662658
-0.307276
1.211690
1.199153
-0.490834
0.412054
-0.622063
-0.996012
-0.076617
0.021847
-0.498632
-0.451896
-0.961586
0.005372
0.146048
-0.824221
0.098723
-0.359138
-0.752564
-0.673479
-0.768354
-0.280161
0.151596
0.280113
0.721407
0.600421
-0.672006
-1.211022
-0.837982
0.776614
-0.275606
0.384329
0.202777
0.519598
-0.276083
-0.174787
0.119049
-1.265807
-0.052285
-1.167544
0.340413
0.477724
0.581312
-1.250344
0.832648
0.945206
1.023467
0.000406
-0.696428
0.389438
0.687861
0.135482
-0.335349
-0.526311
-0.741449
-0.592984
0.026750
-0.579145
-0.761319
-0.478889
-0.135741
-0.964460
-0.590223
0.811944
1.094851
-0.529271
-0.063643
-0.159119
0.353896
-0.768907
-0.899330
0.893735
-0.801229
-0.904673
-0.210135
-0.460760
-1.282721
-0.953815
-0.216845
-0.039852
0.895215
-0.066690
0.859695
-0.249883
-0.051008
-1.088407
-0.298291
-0.060312
0.480433
1.161728
-0.282779
-1.242197
0.692431
1.169712
-0.269736
-0.852535
0.532953
0.730642
0.420366
-0.489512
0.739063
-1.123744
-0.334624
0.383135
0.679439
-0.033083
0.548466
0.129880
0.438938
-0.895348
1.071901
-0.068722
-1.367714
0.608007
0.690039
0.362524
-0.088531
-0.348605
-1.472993
0.255651
0.713347
0.773070
-0.615269
0.584671
0.020512
-0.919745
0.074725
-0.978679
0.729998
-0.204564
-0.369988
0.691210
-1.262535
0.323810
-0.122994
0.383536
0.558146
-0.726933
-0.819539
-0.481885
-0.285153
0.305966
1.044829
0.614011
-0.894109
0.229063
-1.585719
1.769542
-0.390144
-0.126937
0.815650
0.692437
0.121967
-0.712402
-0.344769
-0.636648
1.244981
0.707902
-0.742018
0.158759
0.001311
0.302232
0.559028
0.412713
-0.162179
-0.897524
-0.434895
0.392561
0.795646
0.401535
1.591883
0.458641
-0.194053
0.663196
0.190504
-0.215304
0.017982
-1.343373
-0.416384
-0.922171
1.024869
-0.190887
0.418397
0.011210
-0.534899
0.188164
-0.566534
-0.130003
0.843013
-0.092976
-0.414372
0.521594
-0.217800
-0.215086
0.842718
-0.756622
0.396674
0.620421
-0.488507
-0.367523
0.605908
0.784299
-0.682648
0.527169
-0.580811
-0.406603
-0.304845
-0.644089
0.099760
0.547486
-0.278731
-0.724722
0.164526
-0.587439
-0.382794
-0.108442
-1.394492
0.299825
-0.069037
0.152178
1.178038
-0.348975
0.303455
-0.289205
-0.375196
-0.629534
0.373315
0.338867
0.613568
-0.507684
0.618851
-1.252325
-0.614217
0.141118
0.030364
0.386158
0.725540
-0.314232
-0.840971
-0.958116
-1.105380
0.825795
0.203212
0.187677
0.759093
0.321984
-0.063853
-1.277685
-0.990271
0.681278
-0.785193
0.443512
-0.605963
-1.025686
-0.592347
0.039529
0.427505
-0.670482
-0.231586
0.078887
-0.104459
1.292614
-0.608246
0.112881
-0.229594
0.237988
-0.444608
0.706556
-0.920098
-1.072119
0.102271
-0.248844
0.279186
-1.158937
-0.775545
-1.161072
-1.517340
0.949868
0.088455
0.037265
-0.282617
0.191069
-0.179397
-1.115124
0.360396
0.073583
1.125878
-1.209966
-1.013963
0.179069
-0.468813
0.764408
-0.989886
0.371602
0.058829
-1.326229
-1.260117
0.256330
1.237012
-0.773250
1.134323
0.361132
1.250227
-0.002843
0.097284
-0.791504
-1.233537
1.965448
-0.528199
0.610512
0.726418
0.477664
0.315520
0.446475
0.841365
-0.676361
-0.630348
-1.313362
0.195310
1.237871
0.100269
-0.251930
-0.143999
0.423704
0.599770
-0.807720
-0.171875
0.047606
1.922512
-2.618503
0.384052
-0.760188
-0.395234
0.853956
0.250078
-1.190996
-0.151951
0.276565
-0.554391
0.469297
0.492740
-0.047714
1.101452
-0.808977
1.614068
1.175067
0.158450
-1.406842
-0.808956
0.619469
-0.831946
-0.986151
0.013976
-0.746540
0.653026
-0.271992
0.532535
0.339935
-0.370304
-1.478699
0.537441
-0.136955
0.639277
0.365441
-0.026760
0.073239
0.472990
-0.364264
0.796893
-0.039283
0.528982
-0.329539
-0.760532
0.471131
-0.418549
0.637090
-0.940904
0.300091
-1.012853
-0.680682
-1.192200
-0.270285
0.474400
0.642650
0.408755
-1.503050
0.581060
0.687195
0.724953
-0.478779
-0.151664
0.356010
-1.141233
0.474717
0.163153
0.411351
-0.219478
-0.222180
0.278170
-0.450401
-0.523779
-0.372790
0.117005
0.875795
-0.242043
1.150616
-0.976105
1.253552
0.719684
-0.347410
-0.398900
-0.457793
0.043305
0.237173
-0.820652
-0.225256
0.741854
-0.564448
0.226310
-0.159293
-0.909996
0.860410
0.008105
-0.304293
-0.928092
0.496097
0.305970
-0.927153
-0.353439
-0.764863
-0.128908
0.915177
0.346670
-0.110829
-0.886421
-0.152976
-0.581028
0.371793
1.087764
0.392284
-0.526774
-0.150538
0.471240
-0.423878
1.688362
0.165975
0.779260
-0.258575
1.273451
0.798234
-1.141274
-0.084817
-0.698991
-0.575223
0.293311
-0.918554
1.230055
-0.544517
-1.521395
0.934526
-0.579416
0.305158
1.062126
-0.476728
-0.337368
0.578784
-1.261356
-0.911218
0.794685
-0.789287
-0.763805
0.705531
0.314662
1.272266
-0.609229
-1.634824
-0.598231
1.030724
-0.511644
0.067814
0.434020
-0.753858
-2.942624
1.687938
-3.892955
-4.341868
-1.006487
0.005346
-4.063516
-0.991719
-2.489319
2.943854
2.966703
-3.260532
-2.872675
2.154994
-5.406415
-2.150211
2.221657
-1.404756
3.173120
-4.125723
0.300502
-0.129691
-1.360663
-1.652533
-2.349438
-0.768890
-1.073612
-2.002351
1.481507
2.952398
-4.875319
-2.982981
1.573876
1.813865
-0.829292
-5.659559
-3.786525
-0.060873
3.759693
3.482406
-0.825980
-3.194514
-1.176152
-0.325617
2.583684
-6.352097
-0.711938
-2.510457
-0.114678
2.360315
2.018740
-2.041695
2.686049
-3.823277
-1.329735
-0.067576
-2.702254
-5.785463
5.414086
-2.777620
-0.605545
4.487210
-2.963656
-3.297867
0.738140
-3.754306
-1.088080
-2.384909
1.474873
-1.951226
1.929277
0.582224
2.898735
-4.280327
-3.174393
-5.727156
4.141325
-0.239397
-3.956452
-0.387583
2.789000
1.868128
-2.889794
4.688789
-1.152445
-0.579429
-1.318718
-2.896187
-3.065736
-2.631431
-3.538974
-1.928235
0.543318
-4.619727
0.282889
1.640504
1.002605
2.641541
1.096755
-5.141033
-2.582206
-1.741742
-7.790560
-2.449293
-3.681298
6.601147
5.808723
-2.869290
3.515238
-5.679549
-1.165458
-1.127517
2.953559
0.046088
-3.426653
0.919769
-1.996373
-3.153557
0.369958
0.274473
-0.603459
-2.416819
-3.064822
-3.334143
-1.209905
2.738352
0.735398
1.159421
-3.839365
2.491772
1.719284
-5.662916
-5.960315
-0.704528
6.267646
-4.546797
-4.155795
2.732405
1.771470
-3.245861
-0.268368
-3.690448
4.238899
-1.364488
5.803791
1.206848
-2.943637
-4.501386
-3.840880
-4.893861
-5.090422
0.533138
3.438995
1.024021
-6.507324
2.232507
-4.304261
2.824953
-0.474979
1.521350
-2.998991
1.521453
-1.624861
1.642418
-2.153964
2.929084
1.715372
-7.617776
-4.710643
1.973137
-0.103223
1.376590
1.378488
1.060294
-4.518048
-5.002874
1.772475
4.335949
-2.396383
-5.834962
2.181107
1.016796
-2.948317
-1.718609
-2.964159
2.287486
-3.458830
2.078724
-2.163636
0.551531
-1.738547
-1.460286
0.083909
-0.831386
2.180992
-0.673589
-2.882749
0.844959
-6.199906
-4.068006
-1.649172
-1.684088
-2.793248
-1.673897
-1.652886
-1.625806
-1.182140
-3.674930
-2.071649
-2.290090
