0.5 101 26 10
0.662798
-0.725689
-0.000014
-0.232539
-0.286123
0.376515
0.264588
1.007593
1.052206
-0.421944
-0.048468
-0.796645
1.203258
0.308171
0.149812
1.025820
-0.114299
-0.633026
-0.055682
-0.343778
-0.306959
0.922722
-0.960377
-0.817015
-0.071325
-0.354526
-0.054234
-0.269830
0.655469
0.327253
0.671439
-0.112342
-0.785143
0.915758
0.475565
0.818466
-0.585658
-0.490511
0.946698
-0.426098
-0.594824
-0.574501
-0.555016
0.711011
-0.649204
-0.824855
-0.570201
-0.227531
-1.029429
0.116674
-0.453597
0.357031
-1.093904
-1.085894
1.274723
0.850392
0.479298
-0.419049
0.786799
-0.820092
0.582536
0.825427
-0.610459
-0.975101
0.116353
0.407561
0.758483
-0.903425
0.079873
0.205971
-0.830290
0.250278
-0.513995
-0.088172
0.676309
0.579645
-1.015069
-0.641494
-0.828124
0.765531
-0.452496
-0.587185
0.583037
-0.243988
0.721823
-0.886279
-0.801326
-0.984957
0.512473
0.503247
-0.380331
0.829092
-0.583706
-0.388592
0.557707
-0.296214
-0.029175
1.007222
-0.813432
0.114018
-0.604110
-0.527665
-0.467536
0.925710
1.197757
1.094397
-0.694272
-0.011740
0.173937
-0.815818
1.243233
1.118433
-0.005209
0.060426
0.443936
1.012120
-0.197572
-0.902777
-1.094941
0.834737
-0.201180
-0.858724
-0.933367
-0.494065
-0.009503
-0.695221
0.645573
-1.348382
-0.848235
-0.632513
-0.596547
1.103280
-0.397398
-0.650147
-0.144366
-0.214432
1.289424
0.864412
0.935412
1.155172
0.781001
0.351152
0.087520
0.224465
-0.525831
0.939057
0.400004
-0.429996
-0.068157
1.214588
-0.415742
-0.721137
0.684251
-1.354474
0.373787
-0.893998
0.859890
-0.536928
0.337300
0.843015
-0.806100
-0.952828
-0.475017
-0.274839
-0.001180
0.463562
0.022122
-0.016596
-0.825417
-1.047478
0.697921
0.065865
-0.499420
-0.182676
0.596408
-0.627070
0.684585
-1.005565
0.356027
-0.400825
-0.564561
0.189037
-0.390506
0.607405
-0.614238
0.435785
0.045593
0.849373
-0.688131
1.312502
-0.771695
0.390014
0.736876
-0.228477
0.027827
-0.648862
0.260527
0.430070
0.386240
-0.161736
-0.198525
0.375130
-0.825036
0.900435
0.366285
0.227676
0.851549
0.780838
-0.115690
-0.349816
-0.759226
0.059123
-0.725069
-0.253894
1.026455
0.290353
0.813037
0.940180
0.372393
0.616250
0.616812
0.737828
0.163805
0.884919
0.895334
-0.582315
-0.375254
-0.302012
-0.965769
0.509387
0.173772
0.580906
-0.794170
0.408869
0.233333
0.911316
0.567754
0.811784
0.447546
0.449114
-0.664247
0.936776
0.115871
-0.246151
0.649059
0.307284
-0.504298
0.222032
-0.422982
0.064862
0.348546
-1.159746
0.905050
0.859029
0.687790
0.063560
-0.930404
-0.638630
1.005351
0.696461
0.844560
-0.245814
0.740175
0.180821
1.045733
-1.063093
-0.850474
-0.492764
0.391376
-0.661018
-0.027416
0.612643
0.489411
-0.495219
-0.705100
-0.840681
0.897097
0.280322
0.939796
-0.678645
-0.631817
0.547270
-0.363288
-0.671532
0.256213
0.901742
0.004958
-0.367739
-0.842330
0.020913
0.104288
-1.040457
0.366467
0.471269
-0.814119
0.873928
0.553439
0.136251
0.802055
0.706843
0.776134
-0.705257
0.402623
0.342209
-0.939450
-0.183704
0.903421
-0.316200
0.471060
-0.526808
-0.660135
-0.241221
-0.293760
0.461014
0.148357
0.771628
-0.584790
0.684480
-0.130196
0.751351
-0.837668
0.314588
0.698822
0.096795
-0.449928
-1.019686
-0.207194
-0.176744
-0.871269
0.108398
0.434075
0.180323
-0.364793
0.005954
0.508981
0.368553
-0.765309
0.355961
0.804075
0.402562
-0.043756
-0.434228
-0.748170
0.630326
-0.365022
0.998903
0.101423
-1.061482
-0.875677
-0.361355
0.076195
0.600664
-0.486136
0.209547
0.458573
1.246377
0.425153
0.774912
-0.704534
0.463948
-0.063604
1.199766
0.709604
0.599133
0.314659
0.318474
0.825377
-0.312615
-0.580693
0.536343
0.405356
0.066218
-0.377595
-0.946678
0.592329
0.469046
-0.924939
-0.632073
0.002622
0.310216
0.408672
0.603732
0.348350
-0.681359
0.079548
-0.049078
-0.600889
-0.228211
0.475172
0.233836
0.448118
-0.476839
0.720423
1.164646
-0.621762
-0.379442
0.700265
-0.135058
0.644747
-0.827320
-0.661777
-0.083865
-0.369723
0.628644
-0.387028
-0.674060
0.579014
0.118043
0.708657
0.194172
-0.625594
0.286595
0.470311
-0.054303
0.601655
-0.485461
-0.845037
-0.310359
0.749510
-0.841379
0.512655
0.439649
0.535808
0.442681
0.993805
-0.824633
1.210815
-0.216483
-0.118780
-0.468755
0.857727
0.899272
-0.060330
0.717936
0.182152
0.002223
-0.571235
0.242435
-1.060986
0.026096
0.344602
-0.987618
0.821136
-0.268969
0.927698
-0.147777
0.742986
0.509118
0.302348
0.769643
-0.922798
-0.096840
0.737200
0.001469
0.648179
-0.623207
-0.527157
0.687826
-0.520908
0.890140
0.227610
-0.167767
-0.690759
0.492277
0.993661
-0.251315
-0.050163
-0.618444
-0.043092
0.443651
-0.530664
-0.746865
0.515699
0.641382
1.183922
-0.413423
-0.100863
-0.019216
0.506844
0.867895
-0.634594
0.871360
-0.942373
0.927792
-0.377181
-0.076409
0.025560
-0.371797
-0.988231
-0.497051
-0.694896
0.457506
0.784178
-0.676025
0.638912
0.964083
0.586849
0.391456
-0.593467
0.411601
0.143296
0.111643
1.036002
-1.287748
-0.014918
-0.130788
-0.972996
0.572933
0.043621
-0.391320
-0.856281
0.389586
-0.949187
-1.223075
0.035945
-0.295065
-0.617664
-1.056360
0.810071
-0.300367
0.475769
0.547503
0.603346
-0.214138
-0.462532
0.897649
0.650474
0.588825
0.667686
-0.891879
0.746267
0.775019
-0.800552
-0.625968
0.422566
-0.904707
-0.078911
-0.618130
-0.800705
-0.415314
-0.377471
-0.378478
1.026881
-0.655583
-0.574245
-0.545483
-0.066920
0.643092
-0.574157
-0.817073
0.537261
0.678021
0.859323
0.188159
-0.471528
-0.971575
-0.268323
-0.347856
-0.905746
0.003704
-0.696252
0.742704
0.217066
0.021114
-0.944091
0.475548
0.887610
0.098470
0.380937
-0.191188
0.357482
0.538872
1.272028
-0.003764
-0.832407
-0.484674
0.918307
0.083770
0.219664
0.298926
1.043035
-0.126982
-0.691433
1.036018
-0.902569
-0.101858
-1.064718
0.528565
-0.032797
0.406092
-0.641072
0.783303
-0.992211
-0.542215
0.468312
-0.681575
0.894584
0.557107
-0.314015
1.055323
0.178329
0.025973
0.497843
0.462406
0.780072
-0.193893
0.041046
-0.159559
-0.842473
0.738037
0.606963
-0.069527
-1.098286
-0.323173
0.276240
0.564020
-0.897223
0.704511
0.259662
0.596472
-0.758919
0.573538
0.573975
0.848834
0.727723
0.606626
-0.819936
0.141347
0.444409
-0.084331
0.291297
-0.760927
-0.066588
-0.472613
-0.929684
-0.591317
0.719213
-0.983451
-0.521158
0.433883
0.903122
-0.827417
0.533234
0.588796
0.014820
0.898460
-0.440975
0.028562
-0.181665
0.902060
0.528547
-0.444328
-1.083772
0.496074
1.055333
0.627323
-0.634093
0.789354
0.316000
0.099181
0.467796
-0.046849
-0.153461
-0.945695
-0.174696
-0.928990
0.792371
-0.232017
-0.123056
-0.232132
-0.146764
0.021747
0.078736
-1.130784
-0.014890
0.329117
0.844485
0.878096
0.488127
0.279342
-0.650585
0.074219
0.285546
-0.432000
-0.151521
0.683302
0.091176
-0.678221
-0.374242
-0.285736
-0.090509
-1.089154
-0.726761
-0.056359
1.134544
-0.819346
0.033875
0.539669
0.152550
0.042995
0.461960
0.509540
-0.490592
-0.681884
-0.796292
0.921133
-0.786916
-0.641997
-0.435540
0.466500
0.214531
0.694813
-0.232568
0.712705
0.875331
0.964817
-0.926855
-0.322360
0.180394
1.108829
0.130956
0.428532
-0.326064
0.749317
-1.332442
1.362614
1.077048
-0.130904
0.562674
0.728888
1.094813
-0.567961
0.766666
0.925939
-0.432604
0.304924
-0.157108
0.447264
0.761094
-0.762469
0.663319
-0.156087
-0.599248
0.288221
1.092770
-0.292393
0.514211
0.037559
-0.234080
0.592610
0.261630
0.521482
0.606738
-0.401060
0.173765
-0.457461
-0.535206
0.159512
-0.510173
-0.480537
-0.339339
0.751361
-0.171423
-0.362747
0.435715
-0.428582
-0.568054
1.062153
-0.137520
0.359027
0.749774
-0.883970
0.142001
1.039451
-0.715978
-0.051084
0.822650
-0.436432
-0.720502
0.433354
-0.504860
-0.551726
1.002035
0.376624
0.067817
0.649550
-0.262897
0.165097
0.324789
0.503864
-0.003512
-0.064879
0.234855
-0.382392
-0.170765
0.323089
-0.714567
0.742505
0.302367
-1.035411
0.019795
0.598943
-0.932875
-0.525914
0.367005
0.439548
0.195020
-0.767352
0.571747
-0.358604
1.080168
0.124341
-0.887436
0.311709
0.666721
0.622928
0.709491
0.735177
-0.320644
-0.848334
0.294131
1.290726
0.341239
-0.490808
-0.095661
-0.898529
0.093029
0.499193
0.037482
-0.820379
0.239930
0.200966
-0.491454
-0.118858
-0.798438
0.487106
-0.695922
0.499149
0.048120
-0.460499
-0.034651
0.672296
-0.082707
-0.850630
0.757301
0.113765
0.573947
-0.466440
-0.597454
0.478247
0.628206
0.390046
0.632231
-1.397127
1.386723
0.144588
-0.915327
0.399927
1.088422
0.422226
-0.059376
0.014267
-0.920689
-0.405820
0.374362
-0.645224
0.967757
-0.116744
0.931387
0.922503
0.261406
0.178195
0.653716
-0.146508
-0.312242
0.456550
-0.742385
-0.758196
-0.546928
0.185312
-0.413101
0.018856
-0.512904
0.760943
-0.359125
0.990284
0.323782
-0.773326
-0.261265
-0.853798
-1.138895
-0.587870
0.730624
0.403416
-0.769221
-0.033581
-0.608083
-0.859030
0.629427
0.168915
-0.615242
-0.746921
0.788384
0.279824
-0.914416
-0.506319
0.675533
-0.256411
-0.184537
0.268813
-0.550012
-0.646065
0.141489
0.456719
-1.081844
-0.622259
-0.331388
-0.623386
0.172915
-0.584258
-0.632909
-0.034333
0.052783
-0.540546
0.022686
-0.600374
-0.620603
0.654828
-0.490798
1.158716
0.698833
-0.559663
-0.416972
-0.867937
-0.460218
-0.777211
-0.561060
0.168173
0.782842
-0.936005
-0.697782
0.312622
-0.046203
0.087661
-0.049883
-0.516731
0.237678
1.066282
0.468848
-0.429884
-0.049602
0.885619
-0.171881
0.596778
1.068001
-0.096762
0.080248
-0.331051
-0.068963
-0.386053
-0.082496
0.258248
0.984278
0.989825
0.437260
-0.885755
0.868305
-0.029108
0.927619
-0.595986
0.167557
0.516993
-0.420911
0.503047
-0.917847
-0.202992
-0.887826
-0.139906
-0.413190
0.891329
0.438072
0.227153
0.877306
-0.474906
-0.059046
-0.893034
0.783796
0.220257
-0.333668
0.286194
-0.169085
-0.682909
0.818915
0.836106
1.049369
0.196416
-0.339742
-0.575668
0.526106
0.518142
0.845779
0.490645
-0.666097
0.244155
0.129107
-0.201749
-0.834213
0.836458
-0.090475
-1.144165
0.521664
0.017218
-0.253303
0.500035
0.641747
-1.001706
-0.100281
1.118940
-0.793828
-0.153725
-0.949363
-0.629683
-0.615120
0.171441
-0.584683
0.364165
0.032926
0.556674
0.083438
-0.131610
-0.990237
0.726902
0.662911
0.232281
0.424402
1.381673
-0.386374
-0.107912
-0.656877
-0.031973
-0.070554
-0.100710
-1.211738
0.478822
-0.738790
-0.727442
-0.351902
-0.171594
0.431190
-0.079560
-1.059455
0.176658
-0.331612
-0.066014
-1.212517
1.155904
-0.116100
-0.820003
-0.679614
-1.491248
0.251418
-0.712728
0.701544
0.407545
0.939553
-0.690489
0.103910
0.616049
-0.917919
-0.383804
-0.729979
0.327463
1.399706
-0.654426
-0.793274
-0.602181
-0.377090
1.199223
0.182041
-0.340988
0.600873
-1.157907
-0.167432
-0.326440
-0.399156
1.312757
-0.882513
0.812201
-0.917407
0.484182
-0.886959
-0.224817
0.142289
1.043569
0.384355
-0.688412
-0.057870
0.635492
-0.581553
-0.103463
-0.367608
0.359942
0.210811
0.243985
-0.603419
-0.817885
0.344548
-0.990952
-0.779823
-0.224607
0.169929
-0.860493
-0.293114
0.482551
0.297224
-0.184304
0.341380
-0.983997
0.225413
0.583348
0.535396
0.369890
-0.786128
0.595954
0.467382
-0.736641
0.298295
-0.979887
0.752993
0.405215
0.319615
0.317160
-0.235505
-0.032940
-0.740089
-0.012704
0.107199
-0.146662
0.020260
-0.786939
0.027427
0.372752
-0.672634
0.725998
0.643382
0.587973
0.338425
0.012101
0.222838
-0.145175
0.708140
-0.194049
-0.687681
0.601061
0.947038
-0.901050
-0.738832
-0.682921
-0.059844
-0.310281
0.413275
0.064300
-1.067394
0.373735
-0.373635
0.135167
0.705696
0.533358
-0.172852
-0.252747
-0.686644
-0.419219
0.584646
0.897790
1.380888
0.721215
-0.572288
0.844125
0.897662
0.392471
0.440637
0.548170
1.369205
-1.127984
-0.696726
-0.689507
0.522348
0.299038
0.553758
-0.984074
0.280437
-0.067405
0.534092
-0.300606
0.856634
0.607680
0.408637
0.721353
-0.278863
-0.450182
-0.077100
-0.962198
-0.152479
-0.089916
-0.697002
0.603474
0.811744
0.221248
0.074441
-0.839715
0.543142
-0.803456
-0.330920
-1.017185
0.408527
1.150982
0.863183
-0.637939
0.574636
-0.952452
-0.013110
0.205451
-0.034112
-0.834898
0.935585
0.479505
0.261011
-0.606019
0.468428
0.146819
-0.183341
0.624243
-0.724907
-1.000053
-0.774801
0.023449
-0.568245
-0.217681
0.670958
-0.896034
0.044384
0.509326
-0.558933
-1.038022
-0.582533
-0.705245
0.456270
0.596355
0.196424
-0.268368
-0.650314
-0.770866
-0.221140
-0.129787
0.914211
1.000483
-0.167192
0.965707
0.081710
0.328456
1.098384
0.234689
0.340131
-0.028925
0.528511
-0.002044
-0.269552
0.566763
0.356989
-1.105738
-0.322769
-0.726830
0.659682
-0.814564
0.626283
0.152306
-0.354312
-0.313214
0.564838
-0.670433
-0.243162
-0.813159
0.882073
0.736149
0.751042
0.700600
0.205195
-0.634603
0.465707
-0.504451
0.816160
-0.118909
-0.413240
0.447492
0.098020
-1.338344
0.269049
0.033988
-0.006809
0.706747
-0.301263
0.687772
0.677837
-0.203658
0.770983
0.426098
0.733588
-0.194345
-0.756342
0.947001
-0.441776
-0.511696
0.598060
-0.328239
-0.159738
-0.047426
0.644657
0.522679
-0.710430
-0.364598
0.510264
-0.278614
0.740247
-1.246605
0.463682
0.361011
-0.809462
0.831663
0.316969
0.192004
-0.037464
-1.044641
-0.194510
0.118215
0.888594
0.098070
-0.754013
0.327555
-0.535670
0.444055
0.826529
-0.704562
-0.689420
0.010135
-0.599308
-0.303863
0.614927
-0.881406
0.105459
-0.997217
-0.571555
-0.432396
-0.276089
0.552127
0.357479
1.110059
-0.670575
0.832447
0.237240
0.939590
0.513266
-1.155109
-0.271156
-0.789588
-0.157054
-0.160399
-0.677383
0.144322
-0.315579
0.203422
-0.520352
0.456634
0.780632
0.139208
-0.848190
-0.868594
0.533878
-0.296818
-0.527897
0.970134
-0.758986
0.525437
0.486046
0.195602
0.088763
-0.659500
-0.722408
0.862859
-1.128858
-1.419472
-0.188679
-1.086047
0.569370
1.059285
-0.392771
0.090265
1.042636
-0.887013
-0.593370
-0.121656
0.852685
1.043257
0.135076
-0.295913
-0.343640
0.898180
-0.414816
-1.236923
-0.236892
0.584508
0.043745
-0.726096
-0.526426
-0.171868
-1.007899
-0.590556
-0.923463
-0.645130
0.164035
-0.192548
-0.329771
0.134579
-0.606434
-0.184335
-1.571163
-0.173842
0.595840
-0.174399
1.078264
-0.205429
0.466659
-1.146046
-0.539459
0.147373
0.587582
-0.086119
0.482249
-0.193378
0.405017
-0.665753
-0.574800
0.477459
-0.307749
0.437946
0.264235
-0.309856
-0.436069
0.564071
-0.013586
0.429270
-0.560034
0.857905
0.733446
-0.146716
1.229897
0.189994
0.862342
0.304146
0.294758
-0.643321
-0.197714
0.669374
-0.491168
-0.013167
-0.526854
-0.924615
-0.633453
0.708005
-0.921896
0.496848
-0.192807
0.315261
-0.498781
-1.465763
-0.375060
-0.733202
-0.844224
-0.112233
0.370920
0.285938
0.763423
0.267081
-0.965279
-0.117568
0.978537
-0.605504
-0.691213
0.723125
-0.993832
0.947309
0.417386
-0.581694
0.088259
0.315108
0.813337
1.018509
0.190208
0.713430
-0.359372
-1.153088
-0.544495
-0.650305
1.013601
0.018686
0.043962
0.558273
-1.294190
0.276784
0.570157
-0.653478
0.305693
0.047577
0.880869
0.032043
0.581321
0.353319
0.001025
-0.317181
0.881652
-0.769069
-0.072048
-0.479708
0.295878
0.779255
0.726595
0.147095
-0.090145
-0.070327
1.217720
0.899665
0.274360
0.735106
-1.377017
0.615352
0.263871
-0.420387
-0.450346
0.152036
0.903585
1.017458
-0.184665
-0.114696
0.590626
-0.180986
0.837579
-0.748168
0.281829
-0.811935
0.590256
-0.499110
0.074913
0.969638
0.520106
0.154176
-0.444926
0.859580
1.035087
-1.252595
-0.869734
0.413069
-0.566311
-0.844528
0.486768
-0.861031
-0.494165
-0.123762
-0.305828
1.286626
-0.720579
0.409650
0.975129
-0.665214
-0.414388
-0.250734
-0.544231
-0.210947
1.058691
0.837882
0.566643
-0.811164
0.372536
0.839212
1.179115
-0.940918
-0.188972
0.726367
0.483431
-0.609546
0.185828
-0.579243
-1.042022
0.874280
0.385445
0.092879
-0.897949
-0.116341
-0.821680
1.127030
-1.242447
-0.750918
-0.658362
-0.073864
-0.574611
-0.551755
0.599740
0.247778
0.338378
0.525961
-0.040784
0.202905
-1.449395
0.937318
0.981727
0.867977
0.871727
-0.040065
0.662322
-0.053235
0.634584
-0.190462
-1.283447
0.700016
-0.155372
-0.208427
-1.234404
0.033623
-0.442462
0.023959
-0.622183
1.101940
0.966972
-0.696583
-0.723311
-0.014287
0.175368
0.537888
-1.458331
-0.383981
1.441796
1.116989
0.024007
0.277577
-0.726843
0.350209
-0.072615
0.418261
-0.377114
-0.066024
-0.040354
-0.697564
-0.619303
0.041766
0.936174
0.046515
0.967242
0.520035
0.153906
0.213108
0.609113
0.628506
1.173211
-0.304536
-0.297314
-0.341785
1.407088
0.480847
-0.029376
0.879564
-0.246499
0.114338
-0.596129
0.511576
0.052548
-0.357278
0.249826
-0.182337
-0.536533
-0.762843
0.641226
-0.175480
0.923280
0.347698
-0.440228
-0.790282
-0.491387
-0.703613
-0.512426
0.339912
-1.256337
0.076291
0.947612
0.681737
-0.084480
0.895217
-0.200204
0.353928
0.238659
0.746452
-0.022921
-0.411379
-0.620689
-0.627015
-0.872629
-0.484250
-0.520356
-0.050581
-0.680439
0.720818
0.751451
-0.001125
0.052660
0.673519
-0.089985
0.310108
-0.046881
-0.468786
0.029429
0.058757
-1.099328
-0.615891
0.352192
-0.007123
-0.328930
0.889430
-0.602593
0.539457
-0.479334
-0.295784
-0.616843
-1.091398
0.086598
-0.235560
1.197177
-0.477858
-0.190498
1.004693
0.444279
0.587674
-0.403264
-0.927509
-0.374722
0.212136
-1.053475
1.012132
0.134813
-0.609428
0.259478
0.463053
0.658490
0.049436
0.961673
0.530425
-0.173892
-0.256474
-0.000354
-0.650987
-0.782120
1.193244
0.790046
0.092637
-0.048847
0.977906
-1.360529
-1.389514
0.770886
0.472067
0.715352
0.696495
-0.925932
-1.254547
-0.498027
-0.436674
0.112619
0.929424
-0.598726
0.238843
-1.110240
0.757055
-0.364934
0.244412
-1.034107
1.177544
0.408149
0.497234
0.143017
0.624427
-1.084960
0.491202
-0.232874
1.201341
0.109170
-0.039479
-0.045074
0.184989
0.843323
0.566375
-0.659312
0.898690
0.107339
-1.003318
0.907435
0.239658
0.250689
-0.185829
0.221124
-0.172139
-0.199939
-0.397539
0.431605
-0.440051
0.868574
-0.420885
-0.994839
-1.020617
0.594906
-0.069445
-0.479095
-0.754986
1.290673
-0.737348
0.857758
-0.727652
0.137592
0.485699
1.022152
-0.730000
-0.888581
0.644042
-0.497076
-0.627872
-0.954165
0.765851
-0.118978
0.916677
-1.235675
0.547854
-0.612576
-0.212316
-0.090565
0.037336
-0.610150
0.111969
0.835286
-0.933835
0.315756
-0.119721
-0.325480
-1.253738
-0.296785
-0.379883
-0.049194
-0.890132
-0.171178
0.465196
-0.238584
-0.859458
-0.551344
-0.329887
0.418743
0.956858
1.166094
-0.765212
0.731156
0.164723
-0.598218
0.156946
1.906036
0.368320
-0.910980
0.927288
-0.338548
0.402103
0.039622
0.672023
-0.996041
-0.117764
-0.115754
-0.692841
0.593029
1.069081
0.286364
1.104283
0.831682
-0.453074
0.597223
-0.239054
0.007894
-0.460575
-0.328254
-0.383006
0.193279
0.016469
1.012572
0.018289
0.774981
-0.135205
-0.841672
0.679164
0.549422
0.653752
1.019541
-0.876093
0.475955
-0.734182
-0.407457
0.450535
0.789253
0.929626
0.056761
-0.009941
-0.465086
0.091610
1.046642
0.879779
-0.904895
1.185760
0.573730
-0.084575
-0.999543
0.242419
0.634823
-0.203047
0.065142
-0.431667
-0.416881
-0.740152
-0.272236
0.566385
-0.740685
0.642971
-0.537075
-0.643877
0.465646
-0.080704
-0.265235
-0.703467
-0.570417
-0.878341
-0.629000
1.001384
-0.736005
-1.154914
0.607539
-0.140850
-0.133924
0.468608
0.443800
0.650364
-0.479462
0.040117
-0.438474
0.743681
0.236024
-0.237258
0.126898
0.429148
-0.690809
0.529890
-0.202742
0.589579
-0.018457
0.162506
-0.302399
0.473968
0.139234
-0.388402
0.740688
-0.453950
-0.170073
0.348316
-0.737889
0.184065
0.259631
0.398076
0.682129
0.951735
-1.049263
0.178582
0.883352
-0.147773
0.339187
-0.472483
-0.604919
-0.361716
-0.147088
0.793672
0.650887
-0.174152
1.373169
-0.025499
0.950965
-1.050260
-0.349731
-0.504314
-0.038055
0.899222
0.233437
-1.298285
-0.984420
-1.054136
-0.071730
-0.816106
0.760603
0.348510
-1.012948
0.103315
-0.194575
0.758496
-0.723640
-0.686367
0.668609
-0.572883
-0.572867
-1.072910
1.123065
-0.946919
-0.285054
-0.150621
0.940149
0.364535
0.248588
-0.584360
-0.787331
-1.346180
-0.180513
-0.546811
-0.807170
0.659941
-0.335864
-0.469898
-0.705836
0.177065
-0.816556
0.221968
-0.842032
-0.288514
0.537835
0.375264
0.801604
0.086163
-0.217352
0.333887
0.403599
0.897036
-0.504536
0.200182
-0.225374
0.143498
1.117184
0.145633
-0.556064
0.195881
0.573146
-0.174226
-0.936810
1.004943
-0.332724
-0.257386
0.594285
0.587400
0.344382
0.286870
0.585939
-0.427218
0.909336
-0.030502
0.550148
-0.779525
1.168195
-0.783611
-0.473915
0.299667
-0.313732
1.025324
-0.567843
-0.526554
0.603251
0.484230
-0.400321
-0.459800
-0.453706
-0.539634
0.167994
-0.993236
-0.677003
0.175639
-0.086061
-0.482268
0.636236
-0.684030
0.005750
-0.135504
0.499488
-0.895812
0.881462
0.176673
0.356653
-1.082990
0.942463
-0.679695
-1.023962
0.297779
0.259750
-0.833483
0.275138
-0.388116
-0.551042
0.014895
-0.841286
-0.446340
-0.514823
-0.437703
1.285265
0.450687
0.269181
-0.922917
0.639630
-0.280742
-0.277958
1.124263
0.296171
-1.047687
-0.935963
-0.504947
-0.515498
-0.865182
0.795779
0.568955
0.692561
0.052684
0.320579
-0.944526
0.798306
0.388307
-0.718128
-0.710695
-0.424970
0.369975
0.339442
0.500592
-0.907477
-0.671920
-0.324738
0.675151
0.177880
0.114331
0.131723
-0.717421
-0.839332
0.708656
-0.725890
-0.860157
-0.667430
-0.192358
-0.284031
1.246029
0.401314
-0.308206
-0.034876
0.129232
0.089295
-0.446822
1.307501
0.227470
-0.066638
0.821656
-0.399390
-1.021104
-0.573004
0.251644
1.162677
0.688562
0.641867
-1.020575
0.841314
0.885260
0.396171
-0.404973
-1.384139
0.641359
-0.130764
-0.332529
0.268279
-0.817426
1.402686
-0.723487
-0.241430
0.851224
0.833324
0.342913
0.656383
-0.109404
-0.896347
-0.064128
-0.379101
0.087600
0.023959
-0.982201
0.258283
0.697284
-0.553167
-0.268249
0.487750
-0.114983
-0.056944
-0.364411
-0.670757
-0.799181
-0.962866
-0.302539
1.034155
0.187508
-0.744306
0.750537
-1.064447
0.047027
-0.304032
-0.091654
0.734929
0.196696
0.760185
-0.520310
0.748442
0.584451
0.913285
0.438574
0.478761
-0.405484
-0.428648
0.114125
-0.078609
-0.889895
-0.716286
0.788471
-0.000885
-0.080196
-0.776191
-0.841141
-0.688367
-0.857132
-0.865543
-0.727354
-1.096732
0.089976
1.239099
-0.265538
-0.042150
-0.465450
-0.111894
0.241992
0.424286
1.037011
0.781375
-0.265036
0.711457
-0.330726
1.015820
-0.023318
0.182996
0.705220
0.173871
-0.700999
0.327584
-0.187625
-0.185648
1.048281
0.107538
0.925051
-1.046067
0.759636
-0.736493
1.570294
-0.406544
-0.921366
0.647285
0.355552
0.782463
1.111610
-0.707512
0.708089
0.251857
-0.576401
0.472683
0.995706
-0.707473
-0.609211
-0.532991
-0.326781
-0.383083
0.689855
0.259948
0.712598
0.734820
0.122744
-0.857068
0.879411
0.316451
1.028193
-0.355732
-0.380763
0.624877
-0.859437
0.751261
-0.320952
-0.545343
-0.615177
0.718691
-0.951933
1.066598
0.348397
-0.745974
0.819785
-0.088276
-0.529363
0.241759
0.661632
-0.044928
-0.074177
0.296004
0.799323
-0.811073
0.727184
-0.486483
0.029887
-0.621848
0.450312
-0.796027
-0.223346
0.439384
0.563159
0.897347
-0.377086
-0.605264
-0.549192
-0.234052
-0.543258
-0.527081
0.364008
-0.258037
0.534732
0.328179
0.277735
-0.443118
-0.771192
-0.190314
0.767833
-1.033223
0.423811
-0.883096
0.588866
-0.318208
-0.717133
0.701575
-0.476872
0.847128
0.149152
0.773211
-0.653206
1.024188
0.821654
0.843846
0.806847
-0.723441
0.058523
0.173146
0.625589
0.524703
-0.320861
-0.366198
-0.187634
-0.224074
0.638570
0.165117
1.001988
1.142064
0.352753
-0.932114
-0.960456
0.035835
1.130279
0.930207
0.400661
0.360975
-0.993418
0.400649
0.096043
0.629031
-0.770629
-0.070813
-0.199220
-0.615598
0.271970
-0.410795
-0.619553
0.752487
0.013160
-0.427045
0.788353
0.203785
0.872068
0.031107
-0.139000
0.350410
-1.164108
0.566152
0.366235
0.042965
0.139557
1.098921
-0.972624
0.149686
1.281029
-0.427788
-0.306981
-0.891795
-0.343199
0.587450
0.866544
-0.375291
-0.832793
1.020860
-0.003591
0.055989
-0.520242
-1.055013
0.059017
0.648619
1.025998
0.812796
0.563517
0.135290
1.069582
0.275681
0.169179
0.334137
-0.412864
0.920186
0.452015
0.576566
0.067144
0.276073
1.014482
-0.276599
-0.281115
-0.875778
-0.653277
0.080326
-0.884570
-0.476470
0.507024
-0.385740
-0.889372
0.314422
0.098735
0.341013
-0.603577
-0.652953
-0.471162
-0.326413
-0.008281
0.619113
0.112047
0.419858
-0.705571
0.686510
0.387055
0.846639
0.134749
-0.822153
-0.251263
0.335879
-0.016695
0.260138
0.257906
0.733213
-0.148314
0.677348
-1.154633
-0.425746
0.208515
0.293425
1.360445
0.048249
1.325316
0.089908
-0.654599
0.184385
0.379001
0.857489
1.021048
0.499189
-0.568185
-1.112057
-0.019030
0.961862
0.187812
-0.582774
0.016669
-0.303604
-0.908655
0.770934
-0.121030
-0.359008
0.886290
-0.839374
-0.763891
-0.695284
0.211148
0.182566
-0.478799
0.585915
0.358332
-0.719782
-0.994449
0.849140
0.462708
0.905457
0.415258
-0.602956
0.445325
0.106504
-0.834433
-0.182639
-0.903412
-0.071259
0.998902
-0.045576
-0.971851
-0.019606
0.262748
0.403806
-0.546338
0.153660
-0.243567
0.494201
0.446064
-0.583831
0.180152
0.882492
0.270056
-0.100604
0.401911
0.701162
0.318107
-1.024136
0.208392
-0.786518
0.517751
-0.014927
1.010683
0.053752
0.718029
0.312160
0.428748
0.656576
-0.139714
-0.621941
0.901947
0.022068
0.892580
0.312388
-1.031517
-0.581340
0.361188
0.710274
0.766858
0.738580
-0.748648
-0.304754
-0.256497
-0.539196
0.642632
-0.113220
-0.757926
-0.869643
0.248182
0.181169
0.010841
-1.304637
-0.741956
-0.631920
-0.345312
-0.651945
-0.177873
0.622906
0.293677
-0.097449
-0.527934
0.375840
0.087912
0.438062
0.535792
0.598291
0.573603
0.681800
-1.109671
-0.778242
-0.302658
0.339702
-0.569648
-0.738669
-1.155051
0.600404
-0.806928
-1.036087
0.508972
0.246153
0.798604
-1.007445
-0.601704
0.762347
0.782177
0.740954
-0.011876
1.028796
-0.111593
-0.570196
-0.044968
-0.182818
0.596986
-0.805326
0.273455
-0.734865
0.507279
-0.100236
-0.540535
-0.303954
-0.358033
-2.403288
0.191061
-3.990555
2.141477
-1.848790
-0.519866
1.832155
-0.210327
1.164948
-0.690349
-3.564176
0.556144
1.206222
-0.022214
-2.957753
-1.884959
-0.149788
1.000436
-1.177902
1.594470
2.444859
-2.651171
-1.487044
-1.054164
1.558755
-0.684017
-1.727236
1.982190
0.511027
1.623883
-1.557139
1.763410
-1.444301
-2.516691
-0.059133
0.339102
1.855016
0.482226
2.445814
0.334235
-1.361869
-1.099971
-1.890279
-2.058097
1.998076
-1.755029
-1.819655
-1.329084
-0.736236
-2.905913
-0.174708
-1.570106
-0.385238
-1.064712
0.065731
-0.767311
-0.290920
0.692655
0.650352
1.107415
-0.928350
0.966568
-2.513942
1.572793
-1.419037
0.722686
-2.085285
-2.426727
-1.617429
-0.506855
-1.121580
-1.741615
-0.337032
-0.176108
-1.093192
-1.664275
-1.761732
0.484566
0.666686
-2.769086
-0.865856
1.111548
-0.743095
-2.971060
0.320970
-2.292216
-2.475540
1.112691
-2.131389
1.616518
-1.691423
-1.327969
1.857411
1.898375
1.583642
-1.734754
2.049713
-2.452908
-0.865556
0.647120
0.768645
0.100026
-2.256257
-1.582613
-0.217380
-1.648553
-2.171930
-0.294759
1.743050
0.314598
-0.864802
-1.709783
-2.218472
0.607193
-1.285268
1.538967
-2.661925
0.172708
-1.154373
0.464188
0.632017
2.182821
1.414130
-3.017084
1.960275
-0.463296
-0.874604
-1.248404
0.275133
-1.441785
1.437955
-1.052381
-1.192971
-0.575239
-1.604967
2.849894
-0.754799
-1.015019
-3.720412
-1.036967
0.952552
0.158134
-0.153370
-0.974565
0.504824
0.106903
0.352892
-0.134328
1.036412
-2.845295
0.372071
-3.000368
0.013190
0.904843
0.835289
-2.584962
0.215835
-2.982370
0.327634
-0.035611
0.551316
0.197499
-0.207547
0.534262
-1.937359
-1.950153
-0.848302
-2.594582
-2.199822
-2.500860
-3.185285
1.846183
-0.974714
0.430248
1.646447
1.484218
1.358953
0.036291
-1.733717
1.182515
-0.268635
-3.262247
1.145494
0.989671
0.251214
-0.574953
0.806786
0.423032
-3.584943
0.611806
0.514738
0.825921
0.025675
0.542676
-2.729935
1.035531
-1.964102
-1.344889
-1.072234
-1.191956
2.260356
1.777369
-2.598512
-1.956865
-2.130351
-1.065898
2.913663
-1.506385
0.767214
0.134735
-0.013172
-2.009376
-3.128321
-1.769676
1.708229
2.374551
2.292988
-1.275295
0.303561
-1.814852
0.647223
-0.416596
0.021600
1.620904
-1.730307
-0.873255
-0.382817
2.308778
-1.580659
-1.436158
1.188790
-1.706239
1.676383
-2.695343
-2.528514
1.553470
0.833890
-0.268154
1.500689
0.667153
-3.431352
-2.298065
2.862872
-2.256848
-0.270667
2.061282
-1.828986
-1.511572
-0.327214
-1.655775
-0.433190
-0.460853
-0.611424
-1.158418
-1.359189
-0.303842
-1.999134
-1.276561
