0.5 101 26 10
0.870010
-0.141345
1.149304
0.646749
0.401645
0.150290
0.866918
0.536346
-0.650117
0.649098
1.184209
-0.660914
0.423186
-0.870893
-0.548455
-1.114156
0.412706
0.474068
-1.041788
1.044571
0.073749
0.267111
0.566997
-0.196333
0.990368
0.489800
0.927743
0.107861
-1.547377
0.686663
-0.017699
0.357815
0.008653
-0.681912
-0.745475
-0.227604
0.267083
1.509994
0.383559
-0.553130
-0.881970
-0.624334
-0.513379
-0.108954
-0.397919
-0.419905
0.378247
-1.150993
0.497025
0.721190
1.206612
-0.077114
-0.335730
1.008345
0.410753
-1.165040
-0.869745
-0.783170
0.400095
0.044389
0.136925
0.376010
-0.005725
0.325973
0.146735
-0.112283
1.083653
0.059773
-0.268584
-0.599525
-0.446773
-0.262801
-0.075082
-0.162302
0.599418
-1.030838
-0.947691
0.144536
0.287881
0.633864
-0.336256
-0.851719
-0.289480
0.480347
0.710177
0.581546
0.386171
-0.043287
0.965945
0.337945
-0.778747
0.076425
1.605828
1.308001
0.288550
0.853718
1.085437
-1.339221
0.787287
-0.250443
0.777667
0.355478
-0.660314
-0.984744
0.432204
0.300691
-0.292112
-1.394354
-1.354129
-0.562892
1.176222
-0.646958
-0.327370
0.197315
0.498074
0.043788
-0.608751
-0.063274
1.486342
0.568608
-0.273025
-0.218208
0.436893
-0.975682
0.488096
1.076561
0.307519
0.491454
-0.184162
0.528006
0.810887
-0.259035
-0.463945
-0.797296
0.889930
-1.477497
0.309570
-0.843467
0.582398
0.129230
1.015799
-1.209503
-1.223854
0.176621
0.774455
0.664365
0.273683
1.031062
-0.495375
-0.956217
-0.851193
0.411636
0.207094
0.826148
-0.373655
-0.070728
0.559347
0.793561
-0.174234
0.762197
-0.983443
0.197193
-0.123803
0.586732
-0.408151
-0.441391
-0.520935
-0.740099
-1.151620
0.235036
0.417645
0.092739
-0.060904
0.429655
-0.556187
0.753118
0.514584
0.265371
-0.366130
0.751965
-1.193575
-0.619832
0.747920
0.655782
-0.334102
-0.787828
-0.856206
0.810910
0.796899
-0.279615
-0.221529
-1.294189
-1.000201
0.695339
-0.166331
-0.673165
0.832114
1.268066
0.772029
-1.284757
-1.402416
0.505124
0.836034
-0.849536
0.948662
-0.145548
0.814915
-0.815549
0.588179
1.098802
0.015701
-0.907701
0.476989
0.210901
-0.463179
-0.180592
-0.945651
0.105561
-0.105603
0.467572
-0.140766
0.629655
0.052846
-0.203799
-0.501267
-1.424033
-0.175188
0.259354
-0.488663
-0.358755
0.679074
-0.413625
-0.387093
0.561334
0.260863
-0.673063
0.847632
0.035741
0.207259
0.453130
-1.064650
-0.343633
0.974234
0.921176
-0.406888
-0.287414
-0.337502
0.887702
0.064524
1.207380
1.001191
-0.685220
0.077731
-0.002955
-0.309566
0.429698
-0.928041
-0.024380
0.134585
-0.720711
0.125088
-1.283239
-0.792449
-0.272739
-0.620044
0.958919
-0.299910
0.526753
-1.334716
1.088819
0.072766
0.276476
0.784447
0.060482
0.548563
-0.008464
1.047250
0.345137
-0.433528
0.003173
-0.066598
-0.840242
-0.580202
0.424885
1.224536
0.913426
0.804963
-0.069352
0.509142
0.781127
1.457050
-0.277628
-0.825621
-0.402092
-1.183695
-0.043791
-0.414101
-0.048021
-0.140491
-0.950621
-0.161227
-0.776649
0.028828
0.608004
-0.116057
0.507782
-0.221727
0.115280
0.331448
0.221291
0.341936
0.170342
-0.057784
-0.797193
0.005841
0.063007
0.135407
-0.875559
-0.730058
0.869350
0.212630
-0.282620
-0.289324
-0.404974
-0.192923
0.845024
0.347029
0.011620
-0.829866
0.123193
0.602253
-0.428864
-0.598169
-0.039994
1.066856
-0.374722
-0.224344
-0.326129
0.746141
-0.475036
-0.350360
0.798155
-0.568607
1.107437
1.134143
0.229302
0.938930
0.289475
-0.261541
-0.168936
-1.050128
-0.569566
0.470919
0.328078
-0.478149
0.673505
-0.043750
0.844895
0.879119
0.579277
1.157632
0.793937
-0.309343
0.262370
-0.226525
0.262470
-1.127028
-0.518018
-1.005908
-0.696014
0.138949
-0.293882
0.035262
0.348945
0.499211
0.713164
-0.156206
0.726327
-0.360639
0.304351
0.410123
1.707328
-0.941512
-0.427375
0.197946
-0.120101
-0.111919
0.083271
1.039006
-0.441347
-0.232009
0.470269
-0.958700
-0.295353
0.056322
-1.203284
1.210416
-0.200707
-0.458565
1.347880
-0.975802
-0.267149
-0.788432
-0.326545
0.311556
-0.121991
-0.358956
0.458470
0.745563
-0.620518
-0.118885
0.030931
-0.546143
1.526210
0.637977
-0.910484
0.263391
0.345982
-0.586189
-1.176096
-1.158332
-0.094173
0.834052
0.215115
0.945707
0.154228
-0.245051
0.631792
0.720976
0.968914
1.054243
0.049201
-0.332345
-0.372400
-0.789278
-0.859818
1.055516
-0.153285
1.119348
-0.509810
0.238371
0.211134
-0.211293
-0.567215
-0.028734
-0.314691
-0.897346
0.078346
0.822175
-1.072296
-0.407636
-0.670651
0.033764
0.181142
0.095088
0.926352
0.396645
1.351164
0.608430
-0.096405
-0.544148
-0.299249
0.095169
-0.769266
1.076839
-0.122317
0.032174
0.603843
0.694889
0.133515
1.012423
-0.537226
-0.440241
-0.378313
-0.390716
-0.313177
0.209648
-0.736500
-0.591403
-0.107275
-0.602474
-0.102628
-0.365541
1.229933
0.771644
0.756835
0.776856
-0.602781
-1.014535
-0.858039
0.202830
-0.694666
-0.397276
-0.894214
-0.527453
1.399777
0.014123
-1.372090
0.697114
0.027545
-0.955979
-1.286030
-0.755561
-0.249788
0.096220
0.017451
0.840639
1.069960
0.401894
0.262331
0.304132
0.519391
1.213551
0.770349
0.147632
0.374717
-1.024272
0.701538
-0.285729
0.536397
-0.477905
-0.285393
-0.671047
0.361314
0.591746
-1.422404
-0.746222
-0.873629
-0.801998
1.384785
-1.514356
-0.327903
-0.269053
0.715042
-0.836440
-0.997456
0.066300
-0.597632
0.473756
0.467800
-0.276453
0.909443
1.108297
-0.874291
0.682279
0.201113
-0.446775
-0.360979
-0.607168
0.067350
0.709177
-0.425635
0.629795
-0.383095
-0.189386
0.535534
-0.901273
0.196696
-0.024906
0.472009
-0.896689
-1.316141
1.137567
1.212595
0.176102
-0.350809
0.501117
0.072739
0.374473
0.164240
-0.122684
-0.342758
0.868750
-0.881130
1.188299
-0.572709
-0.327058
-1.226410
0.565037
-0.316717
-1.521572
1.075927
0.301869
0.548204
-0.517170
0.020647
-0.107285
0.985051
0.659207
-0.466532
-0.182358
0.073039
-0.253070
-0.712811
0.978782
-0.851034
0.860723
0.653576
0.327705
0.075667
-0.801286
-1.114544
0.463068
0.269600
-0.220223
-0.139285
-1.184525
0.938085
-1.106897
-0.693743
-1.207310
0.375957
0.683089
-0.267967
0.887153
-0.576794
-0.563695
0.000616
-0.052385
-0.238789
1.062645
0.192793
0.393701
0.934803
0.371477
0.222411
-0.430118
0.635948
-0.366673
0.548432
0.788360
-0.313006
0.008795
0.575336
0.388668
-0.575482
-0.399563
-0.375988
-1.109151
0.094736
0.572032
0.561946
-0.677008
-0.205233
-0.852733
1.488413
-0.092208
0.153064
-0.064295
0.734427
0.569989
-1.320085
-0.722279
0.248379
0.071805
0.773896
0.776721
0.051547
0.579160
0.059839
-0.544734
-0.597073
-0.617173
1.061512
-0.363522
-0.457997
-0.232443
0.527266
-0.307844
0.791213
-0.940207
-0.148714
-0.365906
0.844187
0.622046
0.581124
0.986009
-1.630670
0.306706
-1.007578
-0.215724
0.544796
0.964970
-0.528941
-0.468591
0.696988
-0.881727
-0.173900
0.159741
-0.212729
1.045670
-0.125362
-0.127312
1.785495
0.352966
-0.508162
-1.016027
1.128874
1.092710
0.630898
-0.973965
-0.266055
-0.102928
-0.209432
0.603717
-0.347630
0.317290
-0.768742
1.435257
0.281062
-1.111275
0.094030
-1.078137
0.643603
0.286904
-0.531055
-0.238358
-1.477538
-0.877640
0.472069
0.710924
-0.774534
-0.187341
1.133416
1.048505
0.398377
0.211274
0.768526
-0.816730
0.910336
-0.588240
0.592969
-0.046207
-0.982103
-0.443394
-1.152325
-0.091741
0.970903
0.098070
1.175324
-0.401937
0.153241
-0.528643
-0.688040
-1.129092
-0.081217
0.625364
0.030280
0.504935
0.663922
0.473988
0.059630
0.346111
-0.907364
-0.876800
0.395507
0.250037
0.316916
-0.365458
-0.977718
-0.320175
-0.715104
-1.058507
-0.388372
-0.621685
-0.935093
-0.569614
0.302123
0.754216
1.215731
0.908754
-0.788329
-0.162396
-1.022819
0.909452
1.099154
-0.791271
0.819042
-1.388389
-0.585562
1.050086
0.212827
-0.048224
-0.531952
0.709647
-0.666425
-0.891260
0.229492
-0.247756
-0.486279
0.093691
0.642718
-0.748885
-0.560808
0.599118
0.445115
-1.229457
-0.446516
-0.585916
-0.382799
-0.722351
0.077505
-0.178429
-0.143102
0.227364
-0.733469
0.868250
0.345463
0.307507
0.746490
0.542853
-1.006269
-0.373002
-0.339991
0.134644
-0.502559
0.636910
0.228890
0.840046
1.139390
-0.602268
-0.808376
-0.110667
1.253217
0.508872
-0.905897
-0.544758
0.498151
0.264564
-0.305325
0.763434
-0.144983
0.391824
-0.698230
0.654408
0.105646
-1.948971
-0.459770
-0.874683
0.235754
-0.304317
-0.046917
0.587346
-0.577444
0.476135
0.310586
-0.679363
0.372421
0.299999
0.010485
-0.689726
1.023234
0.225896
-0.020373
-0.423758
-0.394386
-0.260826
0.913803
0.621382
-0.590597
0.465640
0.948221
-1.053093
0.105291
0.598891
0.153008
-0.246344
1.135102
0.517520
-0.075171
0.226204
-0.038771
-0.783728
-0.708248
0.184919
0.253652
-0.833076
0.601803
0.392193
-0.373279
0.331718
0.644252
0.586556
0.464524
0.287685
-0.500821
-0.394047
0.632022
-0.153487
1.071341
0.871741
1.158563
0.505625
0.364468
0.027642
1.182428
0.929542
0.525544
0.503235
0.563180
0.197273
0.489741
-0.652007
1.141940
0.135192
-0.111899
0.424785
-0.535661
-0.687763
-0.117488
-0.468942
0.384129
-0.332677
-0.309030
-1.053636
0.422627
-0.794160
-0.012627
-0.595583
-1.049372
-0.480598
1.907718
-0.146313
1.489330
0.266327
0.222914
-0.785277
-0.645952
-0.377091
-0.223611
-0.613999
0.791514
0.651083
-0.763425
1.052239
-0.673796
0.873716
-0.516052
0.193479
1.160734
-0.616055
-0.418732
-0.108338
-0.815225
-0.200666
0.100479
-0.309579
0.823787
-0.688701
0.925191
-0.596876
-1.191799
-0.331215
-0.052842
0.965267
-0.534244
-0.535982
-0.252653
-0.578454
0.633104
0.972021
-0.815666
-0.911947
1.558782
0.966423
-0.115208
0.319352
-0.763325
-0.734559
-1.160405
-0.585067
0.167173
-0.684176
0.202179
0.446013
-0.303764
-0.285413
-1.550245
0.200677
-0.062685
-0.355515
-0.179067
-0.695276
-0.218625
-0.616965
0.095955
0.260749
-0.078210
-0.427294
1.187596
-0.328881
-0.387041
-0.986756
-0.178372
-0.334990
0.737654
-1.183369
0.152104
0.953668
0.922480
1.483643
-0.309913
-0.419673
-0.111752
0.953485
-0.290230
0.843769
-0.608547
0.141037
-1.086688
-0.434827
0.918800
0.043035
-0.343255
0.616065
1.179963
-0.805518
-1.077736
1.335560
0.155889
0.119057
-0.363413
-0.897230
-1.190131
-0.439210
0.154245
-0.053154
-1.042485
0.768678
0.314329
0.492217
-1.409870
0.081192
0.342076
0.523705
-0.443557
-0.032134
-0.402096
-0.160576
0.480549
-0.797274
-0.873364
-0.505687
-0.286065
0.504756
0.182949
0.406727
-0.742535
-0.539107
-0.955994
-0.576535
1.297049
-0.566341
1.330654
0.108575
-1.519022
0.298381
0.430406
-0.560721
0.604672
-0.592793
0.164308
0.347822
0.738597
-0.714771
0.346181
0.321034
-0.520888
0.885073
0.251197
0.672265
0.347161
0.711143
-0.445250
0.751494
-1.089965
0.652520
0.565943
0.498109
0.756091
0.268909
0.125595
-0.078761
0.479897
0.231047
0.384768
-0.419521
1.199036
-0.648240
0.691553
-1.639811
0.115139
-0.178440
0.138170
-0.518769
0.531058
-0.934812
0.452957
-0.005707
0.752319
-0.407203
-0.830922
0.938071
-0.469980
0.682925
-0.841710
-0.401685
1.082586
-0.097683
0.824513
0.084932
-0.679220
0.202418
0.233114
-0.595092
0.297993
0.736562
-0.212707
0.836360
-0.043983
-0.517923
-0.905022
-0.451288
1.184798
-0.180877
-0.232764
0.233481
-0.081704
0.953186
-0.330199
0.150686
0.980895
0.430657
-0.748730
1.532504
-0.061404
0.346240
-0.138780
-0.800441
-0.114471
0.280010
0.676471
-0.377262
-0.829640
-0.282076
-1.256796
-0.138114
0.732078
-0.875331
-0.263931
0.748941
-0.279722
0.452865
-0.826447
0.065855
0.225314
0.254930
-0.179506
-0.100217
0.313242
-0.279694
1.091625
-0.082367
-0.050139
0.032269
-0.500965
0.810140
1.409553
-0.236219
0.308467
-0.667491
0.167731
-1.074127
-0.061668
0.237212
-0.053778
1.229193
-0.489647
0.901185
0.491876
0.654573
0.967136
0.471185
0.275261
0.885648
-0.591918
0.914033
0.547739
-0.431883
0.598020
0.847807
-0.566004
-0.311784
-0.903916
-1.031931
-0.677795
-0.903310
-0.975874
0.522977
-0.678194
0.290797
-1.170221
-1.464264
1.410348
-0.019032
0.450209
0.847428
-1.473182
0.432824
0.034341
0.381920
0.301242
0.234681
-1.062876
0.130515
-0.698314
0.151124
0.235099
0.210428
-0.902419
0.578682
-0.738593
-0.523989
1.151192
-0.531520
0.910319
1.015241
1.520398
0.403092
0.084956
0.149898
-0.036242
0.253577
-0.447604
-0.091429
1.154898
-1.250951
-0.352798
0.952225
0.492431
-0.130263
-0.658069
0.427744
0.217192
-0.562846
0.837823
0.186773
0.888465
0.318613
1.634641
-0.347963
0.340208
-0.593100
1.470049
0.877534
0.492733
1.136088
0.450940
-0.323144
1.172393
-0.343722
-0.342011
-0.253089
-0.083020
-0.400019
0.531610
1.038749
-0.713716
-1.275815
-0.491825
-0.208357
-0.138579
0.282313
-0.347415
-0.047496
-0.385428
-0.810457
-0.371068
1.194924
-0.300391
-0.249963
-1.158729
-0.359371
0.303341
0.902356
-0.242906
-0.441910
-1.732442
0.390019
1.293233
-0.624956
-0.479446
0.182923
-0.040697
-0.936942
-0.894592
-0.232882
0.805408
1.163496
0.548458
0.673717
0.607015
1.057778
-0.984847
0.887773
0.161220
-1.127280
0.015427
0.192523
-0.076785
-1.323761
-0.895569
0.135638
0.169296
0.689425
-0.175572
-0.571918
-0.099764
0.132370
-0.523892
-0.946196
-1.023734
-0.371298
-1.089580
-0.146906
0.047018
0.604314
0.834493
0.225796
0.307396
-0.452446
0.361155
0.520731
-0.579533
0.177343
0.406225
-0.391512
-0.464482
0.066612
0.924441
-0.310172
0.942975
0.545651
-0.308109
0.307961
0.702395
0.825810
0.936253
-0.483824
0.484003
0.910778
0.218272
0.832418
0.666891
-0.816708
0.562500
-0.123474
0.792530
0.549773
-0.068858
0.302721
-0.838731
0.119403
1.327439
-0.264326
1.183126
-0.862027
-0.224421
0.779706
-0.124350
-0.489754
-0.039453
-1.027975
0.189592
0.505322
0.644961
-0.303457
-0.180155
-0.083367
0.653987
-0.665333
-0.684997
0.517129
-0.747659
0.592109
-0.940844
0.850107
0.704978
0.735155
-0.723013
-1.051185
-1.272146
0.835103
0.319157
-0.280715
-0.211038
0.003505
-0.402553
0.295817
0.024030
0.029461
1.350416
1.294372
-0.810746
0.946993
-0.526407
-1.460884
-0.687465
0.552023
-0.687656
-0.618219
0.676077
0.343459
0.195587
0.932817
0.287342
-0.238315
0.613041
-0.685093
-0.190527
0.026986
0.530781
0.915119
0.659491
0.598214
-0.840903
0.583908
0.891684
0.865712
0.848802
-0.469751
0.658611
-0.177929
0.750599
0.297536
0.856307
0.740184
-0.007185
0.922294
-0.644067
0.474322
-0.279230
-0.569577
0.744976
-0.510902
0.182344
0.783639
0.143789
-0.408834
-1.135445
-0.717818
-0.790590
-0.142315
-0.625668
0.695715
0.811306
-0.303855
0.306593
-1.573622
0.354179
0.213181
-0.370826
0.899638
-0.905986
0.430802
-0.897546
-0.102218
-0.480211
-0.262588
-1.424850
0.462794
0.202910
0.692211
-0.435947
0.525743
0.082343
-0.572035
-0.144252
-0.799339
0.816109
0.181772
0.570732
0.934545
0.645007
-0.611446
1.270156
-0.920533
0.622519
0.616628
-1.016475
-0.403463
0.455333
-0.514938
1.450715
0.326312
0.132577
-0.765535
-0.643050
-0.775768
0.311740
-0.197183
-0.116567
0.075441
1.138794
-0.772466
0.879323
-0.368815
-0.011135
0.287112
-0.878332
-0.621028
-0.755626
-0.008787
0.292436
-1.198649
0.763735
1.107991
-0.976029
-0.588813
-0.647623
-0.125195
-1.232096
0.766625
0.898247
0.527184
0.397864
0.324094
0.322353
1.084153
-0.031313
-0.516036
0.173480
1.081217
-0.032111
-0.207657
-0.180310
-1.222042
-0.072420
0.638445
-0.899305
-0.819128
-0.033396
0.197218
-0.134298
0.122076
-0.516043
0.730663
-1.736157
0.822535
-0.468476
-0.884325
-0.681528
-0.364431
-0.417559
0.519863
-0.151326
0.614552
0.198380
1.087354
0.556273
0.652999
0.351978
0.236963
-0.071739
0.572038
0.266068
-0.343361
-0.254601
0.223034
-0.641079
-1.097014
-0.628855
-0.649206
-0.009084
-0.624554
0.190580
-1.595359
0.926037
0.737937
0.002342
0.926860
1.154141
-0.049850
-0.133629
0.425834
-0.495177
0.074451
-0.042617
-0.190886
0.959106
0.334756
-0.720382
0.085511
-1.887311
0.930812
0.569955
-0.005114
-0.368597
-0.584721
0.321197
0.082988
-0.436174
1.208489
0.689064
1.125451
0.042869
0.791894
0.394872
-0.182096
1.195847
0.845914
0.210589
0.708373
-0.620428
-0.197143
0.905037
-1.670475
0.359375
-0.786159
1.012240
0.150257
0.300381
0.679089
1.015993
0.256314
0.159030
0.050731
-0.300262
-0.798181
-0.409700
-0.001604
0.764065
0.075834
0.557384
0.286960
0.966176
-0.329003
0.304263
0.688440
-0.497848
-0.846186
-0.243286
0.190485
-0.848521
-0.063776
0.022520
0.788450
-0.551168
0.227670
0.127642
-0.662694
-0.118813
0.273990
-0.391293
-0.497367
-0.740336
-0.124227
-0.384045
-0.114204
0.608283
0.152788
0.119621
0.060323
-0.896295
0.555111
-1.059975
0.632736
0.287251
0.786500
-0.038538
1.034858
0.914691
0.321804
-0.039765
-0.307707
1.006890
-0.682807
-0.480035
-0.446086
0.391524
-1.154928
0.698164
-0.760354
0.932065
-0.982695
0.660551
1.221617
1.047789
0.733875
0.930443
0.174972
-0.690358
0.458557
-0.962378
0.557503
1.001055
0.295318
1.228166
0.809553
0.571176
1.317991
-0.304275
-0.004743
0.604105
-0.600214
1.119914
0.416695
-0.601577
-0.330361
-0.401049
0.434418
0.560490
0.801095
-0.064345
0.702827
0.431960
-0.701199
-0.171376
-0.392688
0.085693
-0.698988
0.912788
-0.538795
-0.637487
0.568886
-0.170775
0.921813
-0.888155
0.292810
-0.589692
-1.192390
0.409576
0.496132
-0.722599
0.650019
-0.109433
0.635761
-0.106626
-0.773639
-0.440932
0.283491
0.040935
-0.209109
-0.429932
1.031669
-0.374517
-0.496784
-1.199367
-1.259858
-0.820660
0.922338
-0.546963
0.005186
1.028791
0.216950
-0.745443
-0.798388
0.069709
-0.326353
-0.303978
-0.748638
0.200067
-0.869269
-0.059329
-0.900267
-0.416655
-0.558115
-0.589725
-0.503276
0.235464
-0.385541
-0.544773
-0.351886
-0.849969
-0.070132
-0.696836
0.419412
-0.106526
0.970371
-0.369723
1.142659
-0.159602
0.703087
0.871251
-0.919124
-0.349082
-0.419884
0.043134
-0.515968
1.014252
-0.670865
-0.315982
0.622016
-0.126889
0.323973
-0.610090
-0.705506
0.562942
0.704092
-0.015458
-0.066498
0.580002
-1.214150
-1.020668
-0.181098
1.145040
0.264100
-0.423120
0.711625
1.022801
0.119716
-0.229120
0.278257
0.993833
1.070359
-0.785206
0.583947
-1.219776
1.081713
0.879164
0.402900
0.274257
0.565821
-0.926478
0.583822
0.791162
-1.817065
-0.184258
0.841041
-1.107296
-0.652642
-0.902278
-0.419660
0.713542
0.426601
0.042765
-1.273826
-0.113928
1.047680
0.575426
0.213987
0.213204
0.952037
-1.175054
-1.023972
-0.951069
0.336643
-0.466602
-0.909685
0.361802
0.236096
-0.605676
-0.487862
-0.821468
-0.934450
0.847437
-0.485746
0.935435
0.895713
0.122600
-1.100422
-0.303075
-0.336917
0.925880
0.281090
1.273828
-0.443651
1.490242
0.608521
-0.059758
-0.292577
-0.533191
0.129196
-1.118831
0.835116
-1.269226
0.573873
0.498927
-0.211713
1.187114
-0.164786
0.759867
-0.679046
-0.046407
0.947173
0.250572
0.599260
0.776822
-1.539289
-0.032015
0.100499
1.098142
-0.483016
-0.892550
0.891570
0.729845
0.500547
-0.488152
0.557514
-1.077997
-0.147965
0.437772
-0.862270
-0.469069
-0.838675
0.916968
0.505551
-0.603556
0.721920
-0.122977
0.714745
-0.508591
-0.480870
-0.846699
-0.877541
0.629769
0.559958
0.668779
0.546717
-0.548534
0.531237
0.139977
0.480260
-0.285314
-0.520564
-0.369689
0.921001
-0.340977
-0.164504
0.799373
-1.242369
0.979805
-1.080856
-0.160297
-0.465886
-0.472071
0.480714
0.841558
-0.440624
0.432207
0.009165
0.921797
-0.411376
1.158151
1.227190
-0.544526
-0.125413
0.058744
0.704255
-0.447822
-0.244262
-0.892877
0.320807
0.295605
-1.086592
0.117610
0.593287
-0.434663
0.380799
-0.056880
0.259307
-1.440568
1.374086
0.711903
-0.532156
-0.421507
-0.305750
-0.823291
-1.005693
0.701411
0.628938
-0.076795
0.249553
-0.030484
1.162269
0.874097
-0.503039
0.622323
-0.341713
0.973492
0.299978
0.128237
-0.467611
-0.513738
-0.919530
-0.959085
-0.529879
-0.863251
0.860167
0.427281
0.741651
-0.651326
0.003771
-0.909826
-0.141148
-0.466979
0.000051
0.742107
-0.509324
0.225737
-0.232445
0.832395
0.959330
-0.628911
-0.001133
1.457813
0.670027
-0.923304
-0.065673
0.261718
0.678187
0.034664
0.573358
0.207239
0.897720
-0.000071
-0.031168
-0.744124
0.042964
-0.680597
0.873650
-0.167838
0.238267
0.257159
-1.045381
-0.087560
-1.210518
0.192272
0.806062
-1.079637
-0.324722
-1.535223
0.095156
0.402297
0.844431
-0.506221
1.156270
-0.565351
1.209067
-0.226130
0.843666
-0.208530
1.120119
0.938551
0.356466
0.444235
0.809922
0.489961
0.213024
-0.526734
-0.717593
0.363282
1.264394
0.091331
-0.134087
-0.359694
-0.311334
0.505855
0.293698
0.866016
-0.081181
0.508732
-1.225117
-0.634542
-0.085629
1.141054
-0.649695
-0.282440
-0.511739
-0.588045
0.467691
-0.460801
-0.374702
0.152542
-0.477221
-0.255122
0.145928
-1.492265
1.067575
-0.569479
0.414681
-0.764707
0.520421
-0.818880
0.013642
-0.574389
-0.374772
0.776265
1.032294
-0.420028
0.062602
0.597993
1.104739
-0.275239
-0.294158
-0.743907
-1.772762
-0.340451
-0.099055
0.080694
-0.317975
0.819948
-0.621079
-0.684697
-0.445506
-0.213579
0.858675
0.155316
0.356490
-0.883361
-0.012790
-0.543408
-0.406204
-1.135053
-0.162923
0.406736
-0.683844
-0.627316
0.874805
0.049365
-0.949779
-0.969027
-0.970335
0.290287
-0.257195
0.865353
0.617150
0.750282
0.534645
-0.631271
-0.019198
0.093269
-0.411340
-0.223476
0.573780
-0.510643
-0.283519
-1.167477
-0.218650
0.509170
-0.772097
-1.145091
1.021321
-0.533069
0.208953
-0.519835
0.099923
-0.311289
0.771485
0.473609
0.778798
0.335495
0.300770
-0.085831
1.198607
0.974278
-0.410245
0.325619
0.031712
0.531500
0.766416
1.126620
0.611454
0.610955
-1.130630
1.038560
-0.352354
-0.177882
0.692607
-0.216876
0.580740
0.405440
-0.193957
-0.318636
0.603051
0.841242
-1.298679
-0.322445
-0.129959
-0.870292
-0.988581
1.100620
-0.690737
-0.604388
0.256594
-0.292763
1.668882
-1.007408
-0.789337
0.812527
-0.540246
-0.053784
-0.051577
0.470387
-0.995617
-1.338556
0.945280
1.837480
-0.212760
-0.734051
-0.329545
-1.488697
-0.920509
0.407462
0.748062
0.097709
-0.442764
0.332861
1.008337
-0.254229
0.659996
0.209900
1.177957
1.982125
0.903182
-0.194377
-0.836781
-1.397397
-1.101218
0.445623
-0.140613
-0.862707
-1.280525
-0.269501
-0.369041
-0.619228
0.237083
-0.621560
-0.920114
0.798050
0.676106
1.623752
-0.314643
-0.065261
-0.873906
-0.641611
0.464837
-0.830526
-0.083954
0.573286
0.530780
-0.382029
-0.072512
-0.484348
-0.675999
-0.234705
0.403425
-0.125520
-0.221579
-0.233191
1.080303
-0.234895
0.285082
-0.639149
-1.396662
0.802154
0.183372
1.902133
0.102452
0.881649
-0.880520
0.711760
-0.175487
-0.776152
-0.438701
0.760288
-0.274948
-0.000400
-0.602277
-0.188957
0.775641
-0.968086
0.686294
-0.412251
0.307055
0.740107
-0.218036
-0.229763
1.146186
-1.328244
-0.514873
0.534020
0.950561
0.554269
-0.511896
0.882525
-0.395546
-0.406450
0.427759
0.341152
-0.826868
-0.560109
-0.400311
-1.092282
0.152806
-0.533965
0.587536
0.693275
-0.430549
0.277271
1.069748
-1.208181
0.201989
0.377410
-0.347328
-0.658268
0.123222
0.268902
-0.680765
-0.603886
-0.527948
-0.124782
-1.017520
-0.459181
0.584175
-0.270162
0.486798
1.362509
-0.290304
-0.981118
-0.260383
0.400465
-0.832178
-0.669877
-0.712486
1.712997
0.496977
-0.355052
-0.322559
-0.695970
0.531931
-0.088952
-0.655810
0.089534
1.235731
-0.366778
1.097056
-1.593192
-0.722742
0.328978
0.653225
-0.911551
-0.099010
0.169747
0.908453
0.238469
-0.022622
-0.038205
0.634429
-0.225518
0.916401
-1.002531
-0.245748
0.200084
0.711819
-0.089377
-1.007637
0.286606
-1.274577
-0.076270
0.249207
0.287660
-0.823386
0.868358
-0.347505
-0.400977
-0.607346
-0.375254
-0.222175
0.750458
0.754666
-0.224872
0.319245
-0.519152
-0.488300
-0.501911
0.290076
-1.425421
-0.878384
-0.168701
-0.202941
-0.471774
-0.439618
-0.115709
-0.751580
-0.436759
-0.666868
-0.429234
-0.019777
-0.584212
0.120111
0.020707
-0.580806
0.386413
1.610186
-0.180902
0.036392
1.107034
-0.084544
0.591366
1.233458
-0.089134
-0.755909
-1.068091
0.202226
-0.250567
0.656436
-0.352909
-1.218798
-0.065216
0.646751
-0.535419
-0.141143
-1.350507
1.034569
0.246944
-0.519588
-0.128006
1.083017
0.515676
1.830761
-0.172144
-0.115690
0.694184
1.083801
0.389025
1.073344
0.617995
1.074652
-0.081695
-0.469714
1.078275
0.021391
0.877907
-0.843511
0.159993
0.853517
-0.609144
-1.292076
-1.597390
-1.011380
-0.217014
0.677202
-0.488160
0.101136
0.024737
0.537261
1.111197
-0.464859
0.537189
1.190806
0.530310
0.120678
-1.476489
0.952948
-0.088539
0.331520
0.608446
-0.864102
0.791200
0.660588
-0.015837
0.071186
-0.898164
-1.298822
-1.568084
-1.060936
0.445074
-0.207852
0.779483
-0.535887
1.469124
1.433835
-0.354033
-0.690845
-1.023246
0.458818
-0.445799
-0.919514
0.597390
0.752795
0.149909
1.007477
-1.039038
-1.034603
-0.709224
0.228971
-0.270967
0.691475
-0.931063
-0.955353
0.164992
-0.286914
-0.071228
-0.158118
0.121274
0.803030
0.267646
0.776342
1.168990
-0.885993
-0.630147
-0.742188
0.616720
-0.308766
-1.261834
0.138189
-0.897274
-0.046813
-0.304257
-0.380831
-0.321475
0.405655
-0.493844
0.743842
-1.104742
-0.943643
-0.339445
-0.084343
0.416868
-0.338780
-0.616466
1.153530
0.472674
0.782448
-0.067261
-0.703647
-0.916747
-0.414095
0.199725
0.972065
-0.176127
1.050705
0.094095
1.104849
-0.191431
-0.482530
0.518072
0.096128
-0.516787
1.065388
-0.341251
-0.125542
0.603206
-0.069913
0.883296
-0.694166
0.281687
-0.372236
0.582545
0.229907
0.331446
0.949380
0.173082
-0.999232
0.331370
1.001105
0.022131
-0.871845
-1.111556
0.592821
-0.106504
-1.347866
0.319933
-0.675532
0.495481
-0.168102
0.348579
-0.937233
-1.000930
0.243270
-0.563769
-0.777902
-0.967464
0.575812
0.954266
0.002559
0.459888
-0.017847
-0.252563
-0.164597
-0.382482
-0.802281
0.656930
-0.518795
0.430807
1.380425
-0.510372
-1.296596
0.082011
-1.376921
0.051588
-0.776680
0.768918
0.947786
-1.170575
0.614830
-1.015355
-0.409031
0.395047
1.031196
-0.047998
-0.321535
-0.696487
-0.804402
-0.657984
-0.458137
-0.379195
0.461210
-0.085556
1.106723
-0.929075
-0.582573
-0.843536
0.645742
0.611477
-0.579632
-0.988916
0.109971
0.154789
0.174715
0.325978
-0.375009
-0.498735
-0.151084
0.188534
-0.772783
-1.101970
-2.533763
-0.999743
-0.586886
-3.133166
-0.760872
-1.145201
-3.440999
-0.393146
2.809799
0.794952
2.168237
-2.036153
1.336055
-3.731374
-3.025097
-4.283116
0.854424
-2.474583
2.048070
-4.371135
-5.211986
-2.844427
-0.324919
0.477745
0.711813
-2.897732
1.853313
0.494733
-0.600055
-1.393687
1.024743
-2.543847
-3.637685
-0.487727
2.348212
-2.079435
3.901327
-1.988727
1.909955
-2.054664
1.390116
0.005608
-2.268428
-3.902201
-1.528634
0.527885
0.186275
1.102301
-2.336906
-1.005339
0.986490
2.341542
3.485128
1.513240
-1.570290
-2.749332
-0.469219
-2.023969
-2.113328
2.918271
3.047608
-1.163488
-2.853654
3.203522
-2.532212
-2.089627
-1.831509
-0.957454
-0.239428
-2.138098
-1.551274
0.060208
1.813649
1.329311
3.434026
-2.278270
-1.976380
-1.980205
-2.417393
-2.892011
0.820643
-0.843310
3.304586
2.886127
-1.780164
3.364605
-1.747899
-1.064884
-0.533019
-0.382231
0.931746
-1.671646
-0.111005
-1.369617
-0.088693
-0.698622
-2.597312
5.111255
-1.602612
1.812999
-1.699890
-4.531391
-1.437191
0.618692
1.556612
0.932726
0.661518
-2.434360
-1.974223
-0.156512
2.753028
2.790107
-2.574615
-1.229528
-2.456674
-2.226530
3.615357
-2.157893
-2.817461
-2.968707
1.598284
-1.585767
1.940944
-3.447191
2.175200
0.491080
-1.284623
-4.258498
-3.110720
-1.669660
-3.056406
0.905407
2.029464
1.448966
-2.413067
-4.201617
2.544050
1.207715
3.108200
0.877634
-3.204956
1.331253
-3.521856
1.746744
-2.333123
0.117748
-2.466262
-2.731623
0.148847
1.466769
-4.283855
0.333606
0.846260
0.731486
-2.649731
2.191271
-2.175299
-2.761086
-1.550490
5.437005
-2.355155
-2.487549
-1.707064
-2.188809
0.927392
-2.322478
1.895365
-0.036088
-0.974952
-1.147639
3.937892
-0.286944
-1.883781
3.433430
-1.594446
-1.370164
-1.574304
2.324778
1.292528
-1.872093
1.629738
-4.197746
1.213745
-1.514037
-2.209725
-0.164357
-1.441246
-0.776786
-1.761844
-2.307192
-1.204356
1.977135
-2.309459
-2.032846
0.844440
0.905571
-1.852992
-0.260533
-0.604697
-0.967306
-2.095066
1.431464
-1.726492
-0.070890
0.929492
1.072655
1.915025
-1.546749
-2.108494
-1.169467
-2.552359
-0.624049
-3.831100
-0.400529
-2.007491
2.504877
4.454858
1.774978
0.328815
-1.035182
0.301463
0.737274
-3.942177
1.422454
2.158062
-2.215259
-3.832078
-0.227213
-4.613907
1.670989
0.319561
-2.304651
-2.201416
-0.971474
-4.151205
1.231953
1.838026
0.699334
-3.579714
0.150836
0.038144
1.050586
1.923970
-3.365434
1.275011
-0.697505
-3.901630
1.526348
-1.595101
-1.714079
-1.738051
-0.654932
-0.875437
-2.817524
-0.968179
-0.923453
-1.749616
-2.509275
