0.5 197 21 10 
-0.548183
-0.837690
-0.244634
0.753173
0.331130
-0.775879
0.253548
-0.239060
-1.494247
0.862668
-0.579051
1.735931
0.419891
0.345610
-0.901867
-1.316664
-0.036803
0.497250
-0.868374
-0.190962
-0.709131
0.008626
0.323323
0.577869
-1.207212
1.049199
-1.081819
-0.270520
-0.463719
-0.502515
0.229370
-0.956496
-0.192418
1.166798
-0.370922
0.044886
-0.664076
-0.541557
-0.386056
0.415084
0.570056
0.499176
-0.772546
0.364237
0.766899
0.966417
0.048426
0.546940
-0.370289
-0.801239
0.232121
0.692905
0.172864
0.288277
-0.360956
0.173970
0.389767
0.201002
-0.358958
0.188520
-0.655035
-0.647454
0.615263
0.088611
0.290532
-0.263023
-0.846498
-0.700010
0.473797
0.273948
0.024858
0.949574
-0.864085
-0.471868
0.346246
-0.482979
-0.003203
-0.203273
-0.810235
-0.219501
0.119063
0.865932
-0.909338
-0.163058
-0.925851
-0.168785
0.771676
-0.634666
-0.679316
0.449306
-0.334590
-0.227767
-0.529225
-0.806576
-0.256116
0.407737
0.845445
-0.573026
0.737949
-0.616959
0.415119
0.346303
0.583919
0.269419
0.540546
0.298413
-0.501154
-0.194913
0.169962
0.570701
-0.423064
0.614844
0.752490
-0.435342
0.321992
-1.016501
-0.998523
0.173203
-0.875535
-0.364574
1.199093
0.989577
-0.772002
-0.191925
0.781013
-0.335219
-0.614704
0.187920
0.928603
-0.633157
0.855090
-0.014734
0.172137
-0.087706
0.305934
-1.621850
0.558033
-0.236644
1.736567
-0.356718
0.787317
0.104711
0.769147
-0.718520
-1.493524
0.236915
-0.352054
0.315096
-1.138957
-0.709435
-0.425678
1.011179
0.432137
0.943323
0.487759
-0.459271
-0.749838
-0.979647
-0.229031
0.443667
-0.742201
-0.212650
0.806291
1.601740
-0.808064
-0.027330
-0.505840
0.710123
0.804821
0.216267
0.243208
-0.924646
-0.307479
0.957209
0.927050
-0.946167
-0.729179
-1.365563
-0.250927
-0.590840
-0.266783
-1.155418
0.477182
-0.090888
1.106626
-0.434994
-0.373813
0.271690
0.927043
0.759883
-1.253172
1.226532
0.194349
0.392835
0.559199
0.266734
-0.527203
0.111870
0.404372
-0.681130
-0.888082
1.336187
0.606411
0.851744
-0.556284
0.935972
-1.156099
-0.772136
0.453773
-0.536060
0.879021
-0.586010
1.062338
-1.030681
0.566948
0.937485
0.985819
-0.638593
-0.632005
0.801351
-1.040127
-1.258953
-0.834283
-0.357301
-0.218157
-0.951587
1.203354
-0.381060
-0.727855
1.139169
0.141611
-0.547933
0.064948
-0.012851
-0.520309
0.357545
0.959121
-0.560327
0.305976
0.098890
0.750245
0.616823
-0.217206
-0.113917
-0.690212
-0.664165
-0.669310
-0.211871
0.645064
-0.205235
0.513580
-0.698232
0.547153
-1.356218
0.733429
-0.241806
-0.113829
1.075597
0.963029
-0.050438
1.035570
-0.087427
0.708414
0.603537
-0.350601
-0.062836
-0.503384
0.480646
-0.361173
-0.213998
1.246492
-0.216666
0.439417
-0.485438
0.823858
0.983504
0.168555
0.442806
-0.551517
0.204810
0.477114
-0.016290
0.136319
-0.822678
0.780567
0.727881
0.006151
0.164622
0.875039
-0.536107
0.114768
1.819377
-0.707739
0.957372
-0.532459
0.577604
-0.386010
1.198571
0.320490
-0.002666
0.949465
0.130957
-1.333615
1.092013
-1.229561
0.726563
-0.611357
-0.013788
0.926554
-1.585041
-0.257163
0.589387
-0.956286
-0.597630
-0.347639
-0.274607
0.479632
-0.226937
-1.385694
-0.091171
-0.677889
0.160080
-0.547209
0.687561
0.808217
0.098044
-0.446606
0.892782
-0.413047
0.176220
0.233902
-0.018557
-0.198503
-0.028225
0.225569
0.290151
-0.056661
-0.525583
0.033223
-0.096510
-0.830696
-0.070733
-0.289939
-0.166346
0.927380
0.782983
-0.560996
1.241615
0.611687
1.099745
-1.034131
-0.211141
-0.568246
0.951990
0.668081
0.548750
0.351467
-1.071807
-0.076203
0.475592
-0.568973
0.084555
0.820827
-0.009880
-1.381923
-0.013961
0.588239
-0.088674
-0.412471
0.630525
0.583335
0.586409
-0.090184
-0.491142
0.798947
0.778623
-0.798827
0.809638
-0.299248
0.823634
0.631903
0.105836
0.059765
-0.267360
0.557716
0.685739
0.910279
-0.061595
-0.811802
0.094338
-0.677746
0.764824
0.275153
-0.444075
0.500452
0.258945
0.083795
-0.796401
-0.447594
-0.117605
0.158344
-0.219589
-0.732796
-1.159153
0.237292
0.058630
0.085016
-0.467083
0.056991
0.888984
0.516230
0.070327
-0.025788
-0.411467
0.405269
0.994317
0.260740
-0.530797
1.243540
0.578588
-0.652575
-0.744464
0.063795
-0.211467
-1.088370
-0.028240
0.036098
0.779952
-0.612100
1.330118
0.541316
1.087474
-0.255095
-0.354041
1.499167
0.014001
-0.987381
-0.955574
-0.475705
0.546603
0.989898
-0.920468
-1.103446
-0.662584
1.096751
0.132846
0.121141
0.375331
-0.895462
0.248449
0.298268
-0.114988
-0.181736
0.127583
0.839083
0.190417
0.842494
-0.431830
0.368896
-0.831706
0.646454
-0.783276
0.302367
-0.074596
-1.148898
0.558667
0.033302
0.822371
-0.398795
0.302075
-1.028043
-0.273405
-0.260703
0.286443
-0.667213
0.457610
-1.230692
0.712105
0.488975
1.382667
0.888002
-0.297268
-0.646674
0.801314
-0.345396
0.022429
-0.082108
-0.398923
-0.475138
-0.155602
0.386639
0.598700
0.746870
0.514527
0.446780
0.038759
-0.696400
-0.429769
-0.979089
0.364343
-1.614977
-0.371873
-0.555082
-0.391706
-0.546106
0.248728
0.138808
-0.183174
1.083738
0.524110
0.191443
-0.603109
-0.685692
-0.257954
0.221678
-0.529312
-1.228494
0.980794
-0.219898
-0.158916
0.743165
-0.263867
0.584344
-0.207771
-0.157817
0.097041
0.169641
-0.459715
0.140425
0.263718
1.194237
0.820388
0.522702
-0.099943
-0.636142
-0.779688
0.403072
-1.097127
-0.889357
-0.504624
0.454995
-0.032339
0.661438
1.009811
-0.038064
-0.552913
0.183120
-0.369672
0.326487
-0.985140
0.512021
-0.130569
1.073575
1.397467
-1.010998
0.667997
-0.170472
-1.339899
0.139820
-0.004730
1.062790
-0.819675
0.379580
0.724108
0.197826
-0.058277
-0.819180
-0.289166
-0.788607
0.285498
0.436756
-1.191361
-0.378905
0.675450
1.038188
-0.287183
0.544598
-0.864995
0.668323
0.246507
-0.079372
0.481793
-0.293494
0.084555
-0.322959
0.293163
1.281859
-0.666921
0.125273
-0.127079
0.251178
0.778552
-0.220294
0.161643
0.900628
0.723921
-0.354600
-0.449320
-0.072597
-0.295120
-0.599663
-0.134709
0.991018
-0.724692
0.028101
1.321321
-0.212759
-0.907133
-0.069062
-0.093446
0.491599
-0.190452
-0.362862
0.032942
0.257529
0.854683
0.412296
-0.990203
-0.617102
-0.525839
-0.060621
0.646391
0.259054
-1.405245
0.225715
-0.183096
0.648813
-0.797496
-0.649123
-0.803089
-0.425934
-0.246534
0.294954
0.191177
0.838328
0.155520
-0.266073
0.431968
-0.195987
-0.140172
-0.480169
-0.579244
0.153462
0.597215
-1.447279
-0.125380
-0.899524
0.342433
0.825609
-0.086739
-0.057958
0.803373
-0.753080
-0.572154
0.055044
-0.658051
-0.679416
1.044270
0.311077
-0.220860
-0.122210
-0.818639
0.272234
-0.118121
0.663174
-0.379001
0.474873
0.411192
0.877617
-0.427652
0.074732
-0.665073
0.185244
-1.192132
-0.528424
0.396072
1.198836
-0.101536
0.635010
-0.874352
0.127784
-0.506295
0.000902
-1.214999
0.501561
0.911500
-0.335873
0.642059
0.087123
-0.636097
0.370242
0.122946
0.250790
-0.727775
-0.252387
-0.494041
0.497529
-0.253443
0.403896
0.041406
0.089117
-0.885793
0.726383
1.280854
0.600594
-0.181054
0.734145
0.304452
-0.714297
0.371091
-0.915469
-0.951040
-0.320663
0.282567
-0.459722
0.300481
-0.075791
0.805446
0.246907
-1.296846
-0.754945
0.234326
-0.524643
0.005101
0.025197
1.341132
0.101546
1.114637
0.009957
0.705268
0.421072
0.138658
0.590567
-0.322249
-0.873029
-0.380829
0.167885
0.554568
-0.242991
-0.884521
0.343845
0.128240
-0.212194
-0.435918
0.877562
1.078753
0.931934
0.324155
-0.381065
-1.312110
-0.459204
0.166324
-1.406069
0.149254
0.341952
-0.336937
0.680539
-0.827403
-0.817832
-0.268309
-0.461437
1.308413
-0.031924
-0.164366
-0.250193
0.131328
-0.630389
0.510842
1.025161
-0.836527
0.779744
0.571055
0.668091
-0.663667
-0.373418
0.536442
-0.504692
0.289083
-0.132835
0.580561
0.092528
0.933759
0.404233
-0.738590
0.623401
0.400316
0.793866
-0.887769
0.908270
-0.399647
-0.605136
0.827145
-0.203573
0.392024
0.397820
-0.785836
-1.363059
-0.421936
-0.597055
0.081775
0.879292
0.570581
-0.596039
-0.451238
0.190691
0.982036
0.320623
0.294182
-0.026543
0.007999
-1.103670
-1.204717
0.805375
-0.275626
-0.653908
0.168163
0.340507
-0.448128
-0.851809
-0.743002
-0.149258
1.192346
0.305347
-0.770800
-0.140568
-0.686688
-0.003626
-0.519412
0.640414
0.363626
-1.032318
0.465762
-0.776015
-0.535174
1.149406
-0.829877
-0.280749
0.312475
-0.575355
0.145078
-1.148572
-1.104672
-0.069950
-1.143521
0.882347
-0.802608
0.708929
0.569830
-0.863270
-0.056102
0.650487
-0.265517
0.614801
0.198189
0.920895
0.262626
0.461662
-1.262627
-0.495478
-1.218914
-0.704234
-0.164698
0.440236
0.823437
-0.821577
-0.362923
-0.288497
-0.476593
-0.681159
0.691296
-1.128361
0.062917
-0.963013
0.880931
0.057533
0.605474
0.504775
-0.142760
-1.622428
0.366397
-0.311300
0.552540
0.266396
-0.590588
-0.081704
0.136249
0.399436
1.044126
0.049076
-0.736035
-0.494889
0.768932
0.177453
-0.777691
0.028089
-0.737954
1.137050
-0.600323
-0.399100
1.298262
-0.639080
0.041764
0.648811
-0.322422
1.697303
-0.260522
0.026971
0.524859
-0.041686
0.001097
0.102737
-0.477018
-0.688540
0.835330
-0.991427
-0.776630
0.148665
-0.655532
0.029006
0.074923
0.115649
0.334396
-0.749443
0.147246
0.812363
-0.114494
0.375193
-0.957682
0.104347
-0.888364
-0.086050
-0.821638
0.254399
0.374343
0.028521
1.052699
0.865982
1.287797
-0.043481
-0.063184
-0.120096
0.390272
0.873689
0.877730
-0.249897
-0.279409
0.755363
-0.513132
0.720914
-0.674685
0.473778
0.518390
0.330438
0.839738
-1.537287
-1.462839
-0.335025
0.484268
-0.529360
0.088316
-0.727516
-0.302764
-0.339244
-1.418382
-0.669755
-0.727421
-0.647995
-0.514739
-0.351573
0.771076
-0.043504
-0.089226
0.564227
0.524100
0.601824
0.419703
0.566687
-0.597233
0.383758
-0.300808
-0.659998
-0.051180
0.028293
0.015877
0.069337
-0.029043
-0.703824
0.571142
0.468392
-0.042754
-0.042514
0.104052
0.635465
0.747973
-0.129283
0.757720
0.044317
-0.147892
0.510386
0.066468
-0.057746
0.235111
-0.455522
0.659410
-0.887889
-0.063814
-0.710607
-0.947855
0.833833
-0.890658
-0.992401
-0.880945
0.327113
-0.121947
0.880100
0.949651
-0.237680
-0.153526
-0.599376
0.923480
0.395208
0.465770
-0.680842
0.029536
0.353565
-0.347244
-0.517306
0.505906
0.139602
-0.040880
-1.091682
-0.538779
0.117636
-1.026642
0.128596
0.783792
1.097638
-0.719188
0.195823
0.141891
0.720229
1.088105
-0.508471
0.544924
-0.549879
-0.324818
-0.382164
-1.177621
0.502748
-0.693555
0.401328
-0.924684
0.278810
0.913566
-0.000696
-0.628440
1.100184
-0.230322
0.066928
0.254838
-0.046420
-1.137301
1.079889
-1.303377
-0.811844
0.091317
0.341697
0.266717
-0.854029
0.928539
-0.770598
-0.807749
-0.939540
0.697814
0.406877
0.930580
-0.588843
0.397255
0.098798
-1.115291
0.280899
0.845301
-0.867215
0.267143
-0.038407
0.505567
0.276739
0.706884
0.317739
-0.702130
0.878243
-0.924768
-0.660645
-0.347144
0.167627
0.378721
0.187764
-0.454139
0.095257
-0.175020
-0.319314
1.174148
-0.262868
-0.266688
0.045877
-0.096650
0.404887
0.833223
-1.081051
-0.818341
-1.101913
-0.743323
-0.587536
-0.486356
-0.394533
0.417287
-1.277495
0.173033
-0.361602
0.538464
0.534032
-0.861651
0.415030
0.458849
-0.030009
0.374616
0.630108
-0.089600
0.627594
0.447705
0.335209
-0.736458
0.278306
0.602065
-0.625342
-0.123187
0.873337
-1.129482
-0.557056
0.089850
-0.123720
0.665514
-0.066967
1.403184
0.380147
-0.766246
0.078144
0.086412
-0.068697
1.150272
0.149777
-0.903454
-0.813061
0.206274
-0.458360
-0.269229
-0.781827
0.727934
0.848158
-0.212222
0.753294
-0.755336
0.047577
0.150210
-0.564474
-0.988735
0.278232
0.390726
-0.450589
1.175786
-1.058495
0.675088
-0.716685
0.085398
-0.168705
0.458033
0.085159
0.535131
0.322163
0.633856
0.082948
0.942076
0.814307
-0.283013
0.408420
-0.991372
-0.298809
-0.274116
-1.214875
0.234924
1.002783
-0.970963
-0.610806
1.577546
0.921285
-0.301369
0.257562
-0.238311
0.791445
0.303176
-0.469170
-1.164179
1.354047
0.136048
0.216054
-1.085997
0.459885
0.367475
-0.692122
0.419501
-0.097697
1.423475
0.189568
0.440039
0.455675
0.645340
-1.435926
0.107866
0.166963
0.930361
0.894892
-0.889004
-1.016064
0.546045
-0.716575
-0.898173
-0.771185
0.696430
-0.724014
0.892394
0.200667
1.218357
-0.388882
-0.457196
0.091644
-0.507188
-0.076656
0.334807
-0.046601
0.302978
-0.476141
0.766515
-0.657296
0.151334
-0.872467
-0.217682
-0.445610
0.153606
0.822382
-0.319944
1.090166
1.643836
0.969919
-0.496002
0.454871
-0.297882
1.301508
0.330502
-0.839680
0.554118
0.924097
-0.848629
0.246453
-0.131197
0.931460
-0.185096
0.202452
0.151209
-1.019380
-0.144291
0.368950
0.791231
1.620665
0.742273
0.605206
0.628205
0.121385
-1.272360
-0.959033
0.088146
-0.601668
-0.324973
-0.988727
-0.689925
1.154956
-0.801581
0.658276
0.177057
0.343741
0.362322
0.042826
0.344971
0.457244
-0.151002
0.717314
-0.649663
-1.146194
0.036888
0.892747
-0.656742
-1.608969
0.665328
-0.089945
-0.042758
0.502096
0.240991
-0.292912
-0.581332
-0.383916
0.451316
0.305096
0.630624
0.958858
0.044706
1.851150
0.805809
0.152682
0.407078
0.223253
-0.607849
-0.156781
-0.286932
0.171112
-0.949883
0.160266
0.514846
0.281606
-0.930651
0.265510
-0.264755
0.591708
0.381551
0.792070
-0.472893
-0.393175
0.514077
0.004093
0.275717
0.055081
-1.098771
-0.803682
-0.610819
0.111177
0.865046
-0.595966
-0.297515
-0.230967
-0.004557
-0.353889
0.348367
0.927351
0.051728
-0.399318
0.390782
0.497467
1.444976
0.157970
-0.688208
0.454369
0.419781
0.061392
-0.064058
-0.178082
0.007336
-0.894116
-0.363190
-1.410815
0.180476
-0.204163
-0.504294
-0.003592
0.850533
-0.466534
0.888974
-0.444677
0.898298
0.376859
-1.075047
-0.279344
0.334030
-0.411807
-0.506686
0.248057
-0.158848
0.647265
-0.475594
-1.221161
-0.382318
0.120949
-0.080013
-0.263349
0.463086
0.207424
0.921331
0.502237
0.404924
0.334150
0.401439
-0.988030
0.952859
1.192350
-0.069032
-0.415375
-0.076055
-1.114902
-0.461372
0.325550
0.085939
-0.094154
0.790642
0.975589
0.470186
1.399450
-0.964002
1.557246
-1.492551
1.069230
-0.147726
-0.850642
-0.781685
-0.171641
0.284061
1.003372
-0.963840
-1.130692
-0.113466
0.198771
-0.313000
0.827234
-0.208651
-0.123038
0.712827
-0.117446
-0.059938
0.482038
-1.093827
0.065108
-0.256463
0.348217
-1.417622
-1.298300
0.870758
0.417860
0.314947
-0.692024
-0.202418
0.246182
-0.793635
0.862046
-0.182003
-1.038150
0.255087
1.268320
0.088435
0.497886
-0.146447
-0.645914
1.454845
-0.160823
-0.351310
0.952935
-0.722708
-0.906342
0.728882
-0.398022
-0.304666
0.214834
0.022045
-0.269348
0.717701
0.548159
-0.465683
0.285122
0.645161
-0.522217
0.305643
0.863926
-1.615315
0.512102
-0.670188
-0.212704
0.801121
-0.549306
0.769029
0.184870
-0.337622
0.833854
0.505955
1.186348
-0.263748
-0.652436
-0.013168
-0.071033
0.586323
1.165699
-0.414860
1.096176
0.121751
-0.692036
-0.008246
0.066128
-0.336063
-0.783565
-0.271727
-0.769112
0.767914
0.505175
-0.762999
-0.666904
0.935294
-0.618140
0.694820
-0.844622
1.484880
-0.508940
-0.132010
-0.691204
-0.233181
-0.608243
0.836099
0.876793
-0.921154
-0.672465
-1.026782
-0.240264
0.128171
-0.056524
0.090645
0.489285
0.075031
0.180859
1.086776
-0.402770
-0.680130
-0.206206
-0.778418
-0.064622
-0.371236
-0.160628
1.057788
0.239599
0.333893
0.050723
-0.723365
0.708758
-0.040018
-0.641575
-0.013653
-1.000028
0.759498
0.386940
-0.711664
0.649813
0.476563
0.436737
0.410448
1.064398
0.496878
0.699429
-0.144380
1.030069
-1.059153
0.526384
0.644033
-0.134698
0.392765
-0.314097
-0.654294
-0.424340
-0.525079
0.313050
0.013036
-0.728209
-0.505041
0.164021
-1.092760
-0.083702
-1.386837
0.854894
0.227024
0.181289
-0.239553
0.220839
0.408975
-0.261623
-0.423049
-0.169640
0.095527
-0.336121
-0.194146
0.823243
1.059891
0.840641
-0.029351
0.702837
-0.481321
-0.451615
0.361945
1.175805
0.273522
-0.861268
-1.350975
-0.194972
-1.380150
-0.021768
-0.858777
0.151805
0.491785
1.734948
0.580648
-0.801612
0.699423
-0.062782
-0.604030
-0.941635
-0.282054
-0.015402
-0.577026
0.035475
0.003779
-0.366210
-0.442206
-0.004960
-0.499834
-0.031966
-1.699903
0.571623
0.984090
0.269597
0.595820
-0.734897
-0.165260
0.424434
0.230401
0.685078
-0.219540
0.552240
-0.117952
-0.735553
-1.135734
-0.570262
0.688329
0.532831
-0.561321
-0.833061
-0.422402
0.510129
0.728406
-0.303113
1.086244
0.396313
-0.530959
-0.611925
0.862335
0.905099
-0.186404
0.364500
0.853552
-0.815289
-0.155253
0.261417
0.208450
-0.616785
0.416950
1.182312
0.348869
-0.124574
-1.315051
1.059737
-0.050629
0.166131
-0.827985
0.413582
0.338194
-0.539088
-0.721181
1.112657
-0.246208
-0.899247
-0.840358
-0.404516
1.183364
-0.280143
0.631715
0.297706
-0.980751
0.895321
0.030252
-0.388527
0.546559
0.912077
-0.154841
-0.452401
1.352777
0.888264
0.479351
-0.314236
1.206163
-0.494859
-0.952619
0.891201
-0.687992
-0.425372
-1.192485
0.080413
0.038125
-0.413667
-0.576102
0.571767
-1.288646
0.917699
-0.582360
0.092521
0.482728
0.533871
0.232998
-0.503396
0.081975
-0.470880
-0.028143
0.444886
0.015933
1.006871
-0.237096
0.394797
-0.621195
-1.119520
-0.145935
-0.516067
-1.024424
0.601929
0.190976
1.117983
0.564300
0.818621
-0.588024
-0.691748
0.704683
0.007991
0.575690
-0.279852
0.164087
0.701367
0.360112
0.461667
1.034642
0.401083
-1.047785
1.517594
1.094634
-1.204960
1.224455
-1.583887
-0.387387
0.724620
0.307953
-1.424674
0.235670
-1.492717
-0.104045
0.417833
0.209259
-0.368874
0.943899
-0.572166
0.521411
1.165683
-0.133901
0.364352
0.776539
-0.458312
-0.022037
0.095634
0.722916
0.969447
0.424395
0.010019
-1.022979
-0.421309
-0.108266
-0.295533
0.017332
0.525545
-0.370538
0.268359
0.602711
0.005526
0.407817
0.905884
0.793984
-0.901496
0.508860
-0.576980
0.141437
-0.057024
-0.398364
0.137692
-0.304955
0.007746
-0.896661
-0.161827
0.650181
0.359949
-0.336362
-0.657852
0.011744
-0.536134
-1.274230
0.047077
0.436263
-0.846070
-0.237559
0.701022
0.544156
0.836832
0.152810
0.900069
-0.004284
0.378531
-0.252359
-0.208258
0.075203
-0.114730
-0.036209
1.211840
-0.245920
0.532853
-0.436723
0.613280
0.111402
0.161629
-0.156219
0.671649
-0.041594
-0.209025
0.105573
0.364398
-1.183022
0.116347
0.178431
0.600402
0.831455
0.044206
0.334909
0.853171
0.396020
0.078235
0.631430
0.269709
-0.723484
-0.476178
-0.429279
-0.168705
0.793124
0.779207
-0.706337
0.528983
0.409738
-0.036333
-0.130729
1.610059
-0.356065
-1.174019
-0.280525
-0.862067
0.705198
-1.334253
-0.149001
0.507725
-0.348324
-0.951016
-0.377226
0.950730
0.792511
0.321171
0.654340
-0.643792
0.077269
-0.409390
1.266715
1.262784
0.964139
-0.084130
-0.427401
-0.059297
-0.894073
0.451656
-0.447995
-0.969532
-0.396959
0.300375
-0.680217
0.671768
-0.042354
-0.932888
-0.119144
-0.521892
0.202449
-0.500100
0.672240
0.420585
0.501529
1.183683
0.326446
0.074672
-0.736038
0.650255
-0.142208
-0.652237
0.530813
-0.474047
0.402369
0.728024
-1.267607
-0.160742
0.040752
-0.124642
0.516966
0.708212
0.734086
0.728194
0.672254
0.625526
-0.175207
-0.536542
1.626074
0.500334
-0.424158
0.083066
-0.979710
-0.757504
-0.726582
0.200043
-0.753302
-0.628108
0.522822
-0.793172
1.042431
0.091171
0.403632
-0.264948
-0.231724
0.711194
0.685870
-0.548316
0.838954
0.376173
-0.704115
0.479271
0.733224
0.183521
0.690776
-0.403912
0.479904
0.657431
-0.353360
0.110612
-0.130378
0.388392
0.178951
-0.153529
0.964165
0.711367
0.202211
0.401382
0.090557
0.954908
-1.159127
0.153088
0.277540
-0.277520
0.164719
-0.384169
-0.974063
-0.910763
0.136338
-0.127542
1.366613
-0.257390
0.076197
1.064102
0.985968
0.403109
-0.637518
-0.283445
0.740918
0.307393
0.305671
0.073528
0.544456
-0.128902
-0.779551
-0.738503
0.585793
0.359083
-0.877825
-0.456534
-1.061946
0.167386
-0.699833
-0.290157
0.815796
0.815553
0.307783
0.991828
0.485961
-0.585543
-0.039722
0.237402
0.377696
0.317942
-0.523067
0.514264
-0.363132
-0.091791
-0.546277
0.607236
0.335947
0.009514
0.919832
-0.530334
0.183410
0.278179
0.548522
-0.592775
0.200116
-1.734990
-0.640967
0.994511
-0.727559
-0.567270
0.846327
-0.382117
0.011377
0.270266
0.330014
0.271138
0.084614
-0.189241
0.756452
1.113613
0.710416
0.219195
-0.409324
-1.121347
1.055832
-1.763233
-0.318778
0.964890
-0.181697
-0.933080
-0.224460
-0.326343
-1.224034
0.271662
0.051262
0.776829
0.455123
-0.105820
0.252443
-0.163651
0.181707
-0.534094
0.398276
0.992291
0.079469
-0.335985
-0.558732
1.117352
-0.753332
0.262660
0.842847
-0.215987
0.831847
-0.517384
-0.152281
1.280554
-0.315052
0.496650
-0.557154
-1.088349
-0.118584
-0.481827
-0.024913
-1.053251
0.399266
-0.340181
1.024414
-1.239282
-0.197702
0.431458
-0.228725
0.018606
0.503972
0.546329
0.314945
0.918927
0.018382
0.820524
-0.346767
0.943276
-0.845432
0.389198
-0.569479
0.589625
-0.604306
0.899885
-0.034834
-0.030836
0.879007
0.524759
-0.059433
0.142143
-0.862225
0.177231
0.743363
0.446075
0.211703
-0.727509
0.919255
-0.187968
-1.149295
0.124739
-0.480220
0.626103
-0.798453
1.264412
0.383564
-1.044418
0.850787
-0.738814
0.556424
0.583366
-0.191249
-0.802185
-0.103348
0.499373
-0.186330
0.956620
-0.139544
0.266288
0.537424
-0.487995
-0.487249
0.157466
-0.184873
-0.784715
-0.597311
0.291506
0.342505
-0.078900
0.072108
-0.565588
0.394632
0.746307
-1.167611
-0.344815
-0.632860
-0.392449
-0.071717
0.112078
0.190433
0.104663
-0.799866
-0.564900
-0.821293
0.672076
-0.955471
0.604210
-0.459448
0.665927
-0.386940
0.022467
0.672516
-0.027255
0.586362
-1.607437
-0.217629
-0.225471
-0.579863
2.052545
-0.565811
-0.342046
0.641967
0.489088
-0.389856
-0.650926
0.409418
-0.593123
-0.475179
0.129100
0.082253
0.635546
-0.124499
0.073588
0.748851
1.062856
-0.147764
-0.556613
0.477553
-0.220676
1.150470
0.388239
-0.455898
-0.907240
0.970849
0.441923
-0.060332
1.083269
-0.217388
1.361756
0.005270
-1.244889
0.654374
-1.065429
0.120778
-1.177098
0.101374
0.084384
1.010799
0.739413
-0.165794
2.022767
1.567615
-1.176856
-0.965834
-0.642049
-0.602133
0.272830
0.608958
0.007510
-0.055664
-0.814555
-0.386379
0.097569
-0.449570
-0.502216
0.737007
-0.308423
-0.025134
1.012867
0.275587
-0.288534
-0.326172
-0.108927
0.429488
0.263596
-0.907712
0.284260
0.069755
0.800051
-0.068773
0.384480
0.284084
-0.490331
0.097100
-0.285305
0.635960
0.213232
0.722481
0.478899
0.584836
0.811957
0.345399
-0.642488
-0.318282
0.447732
0.032259
0.192577
-0.678324
-0.694698
0.156291
-0.379024
0.424734
0.063660
1.299252
-0.124960
1.218989
0.343476
-0.157135
0.829819
-0.426460
0.240532
-0.108482
-0.618804
0.857634
-0.273586
-0.615470
-0.917064
-0.476021
0.217674
-0.137852
-0.317075
-0.317178
-0.129888
0.107496
0.055966
0.950905
-0.105891
0.177697
-0.637029
-0.267036
0.688221
1.035546
0.369233
-0.664773
0.719921
0.157618
0.868383
0.093434
0.167403
0.364535
0.334580
-0.885840
-0.475492
-1.109708
-0.033585
1.297129
0.931448
0.871729
-0.708557
-0.351581
0.418527
-0.274449
-0.438531
-0.084039
0.681619
1.020239
0.202634
0.913938
-0.097612
-1.229146
0.221912
-0.596084
1.249683
1.205725
0.144925
-0.613763
-1.156707
0.755210
-0.250758
-0.312501
-0.611711
0.479508
0.143424
0.710530
-1.617274
0.407615
-1.035839
-0.715720
0.695452
0.417424
-0.770164
0.749028
0.628044
-0.331112
-0.571556
-0.828973
0.723525
1.040510
-0.568488
-0.372416
0.230981
-0.036077
-0.633471
-0.252823
0.417534
0.916081
-0.991056
-0.592722
0.726110
1.197139
0.099791
1.035146
0.352995
-0.011752
-1.229193
0.505221
-1.192123
-0.699247
-0.436192
0.614448
0.167455
0.931986
-0.111427
-0.790696
-0.281947
0.420890
-0.350716
1.008139
0.547723
1.095563
0.706079
0.245516
0.405163
-0.731124
-0.851147
0.382953
-0.068100
0.495010
0.255412
-0.623792
0.262416
0.652925
0.439587
0.593608
-0.792766
-0.095283
0.179113
0.006916
0.433231
0.517038
-0.465400
-0.513616
-0.472136
0.392224
-0.496643
-0.956613
-0.188969
-0.094585
-0.175690
0.558661
1.079161
-0.019875
-0.078234
0.179335
-0.323045
0.234504
0.283705
0.793037
0.486963
-0.438845
1.083404
-0.946676
0.658801
0.873791
0.308949
-0.454519
0.895995
-0.601976
0.580602
-0.360784
-0.200459
0.144193
0.502574
-1.076336
0.078633
0.338702
1.245311
0.281443
0.163302
0.322967
-1.122962
0.392150
-0.656048
0.715544
-0.203224
-0.200281
-1.511710
-0.426017
0.074690
-0.709736
0.398542
-0.000915
-0.593545
0.298781
-0.311915
1.175820
0.540806
-0.407735
0.433180
0.457448
0.462081
-0.052119
1.077029
0.035016
-0.009961
0.849643
-0.368216
-0.633590
1.174234
-0.071912
0.172484
0.531621
-0.322372
-1.028700
-0.424028
0.520700
0.778016
-0.550939
0.642560
0.590321
0.725532
-0.031076
-0.808245
1.447981
0.634813
-0.181410
0.036748
1.096964
-0.315484
0.251896
0.999173
-1.329085
0.405038
-0.709896
-1.058160
0.507833
0.765480
0.924840
0.944356
-0.148906
0.018336
0.607073
0.169501
0.156949
0.743850
0.214445
-1.136644
-0.979993
-0.653192
-0.385836
0.574060
-0.419936
-0.887967
0.335290
0.084161
-0.319873
-0.846697
-0.505375
-0.429545
0.352091
1.076838
-0.551077
1.007042
0.766144
0.180694
-0.017489
-0.672417
-0.548009
0.118330
-0.505637
0.706532
0.342858
-0.252857
0.111988
0.124392
-0.512769
-0.700715
-0.286606
0.325835
-0.488746
0.661455
-0.885213
-0.462477
-0.173833
-0.987798
0.068524
0.344773
-1.086506
-0.685569
0.417372
0.474330
0.115615
-0.144514
-0.604982
-0.178689
0.093184
0.772574
0.143057
0.404817
0.144244
-0.581322
0.224483
0.223831
0.557666
0.671957
0.602249
0.530358
0.363048
0.873500
0.693727
-0.327178
-1.129570
0.823203
-0.905667
-0.600104
-0.287912
-1.214829
-0.237334
-0.393377
1.252148
-0.364551
-0.698198
0.090378
-0.602357
0.125573
1.113109
0.572413
-0.779391
1.206153
-0.196745
1.220103
-0.693953
-1.012806
0.589251
0.163993
-0.011535
0.201001
-0.658486
0.055867
0.363074
0.917083
-0.656898
0.406257
-0.193100
-0.707763
0.164384
-0.550491
-0.152086
0.295932
0.966415
0.244991
0.035962
-0.742986
-0.227680
0.142075
0.112550
0.417320
0.675967
0.177839
-0.725136
-1.439060
-0.561003
-1.131170
0.374491
0.200364
1.438314
-1.346028
-0.679983
-1.140746
-1.216331
-0.677840
-1.264347
0.752391
-0.002275
-0.270538
1.270866
0.011522
0.512181
0.571286
0.247798
-0.302643
0.028477
-0.880523
-0.920013
-0.345217
-1.010805
-1.120516
-0.201227
-0.092577
1.157314
0.058054
-1.677297
1.841952
0.253469
-0.470303
-0.699908
0.094783
0.589609
0.175941
-0.119906
0.011838
0.380606
-0.006942
-1.079372
0.633384
1.038397
0.784425
-1.011338
0.340395
0.157909
-1.248443
0.085785
-0.495488
0.179405
0.296908
0.745360
-0.558889
-0.037093
0.533145
-0.716868
-0.594073
-0.758371
0.112436
0.229092
0.310337
0.483431
-0.939036
0.130310
0.041838
-0.224740
0.474550
0.871902
0.285736
-0.731802
1.045420
-0.231912
0.018329
0.345646
-0.671159
-0.187560
0.987522
0.133222
-0.059175
0.326704
0.826354
-0.730840
0.692006
-0.222351
-1.216665
-0.441487
-0.942954
0.267061
-0.487715
-0.411342
-0.586710
-0.225929
0.065420
0.631480
-0.816728
0.193509
-0.402538
0.950664
-0.374716
0.020962
0.542775
0.203931
0.436114
-0.343043
0.324277
-0.883595
0.261425
-0.077249
0.198142
-0.954627
0.729277
-0.172424
0.087346
-0.834226
-0.099983
0.312301
0.339378
-0.777879
-0.813292
0.873332
0.945951
-0.223393
-0.162790
1.119524
-0.521225
-0.866457
-0.082593
-0.853613
-0.328861
-0.054045
-0.052250
0.574654
0.165949
-1.096317
0.725908
-0.092887
-0.130689
-0.531613
-0.030624
0.001760
0.256102
-0.455842
1.147240
-0.123798
-0.509588
0.715796
0.004412
1.047765
-0.237204
0.870392
0.303941
-0.790744
-0.535091
-1.212069
-1.421791
0.182701
0.930210
0.052562
-0.627358
0.435365
-0.555462
-0.655017
0.925125
0.670854
1.422326
-1.182997
0.620333
1.009194
0.206992
-0.091437
0.289067
0.174588
-0.563107
0.332741
-1.191466
-1.046480
-0.311462
-0.233241
0.148566
-0.882007
0.974019
-0.590537
-1.004433
-0.959002
-0.413818
0.022107
-0.264229
0.619111
-0.370595
1.138870
0.626864
0.739460
0.494200
-0.664602
0.548018
0.786671
-1.050666
-0.192253
0.234851
-1.100765
-0.638171
0.607051
0.955104
0.387022
-0.462393
-1.125137
-0.731548
-1.574739
0.527891
-0.937905
0.587329
-1.126436
0.017856
0.388171
1.008067
0.302228
-1.180895
-0.618100
-0.394232
0.651499
0.406391
0.250085
-0.077693
-0.211174
0.162379
-0.767096
-0.508395
0.065921
1.008359
0.076951
-1.099101
0.240776
0.255190
0.388315
0.384700
-0.147088
0.509707
1.338957
0.154598
-0.052539
0.928304
0.618401
1.440224
-0.678608
-0.068537
0.125675
-1.330590
-0.328710
-1.047440
0.294262
-0.568626
-1.010878
-0.591680
0.389789
0.545268
-0.070778
0.416735
0.149989
0.442824
0.880029
0.514012
-0.524672
-0.389828
0.995094
0.293400
-0.309623
-0.790036
-0.695138
1.011216
-0.810966
0.095064
-0.704425
-0.393554
0.547183
0.258242
0.281162
-0.104912
-0.752162
0.734717
0.649809
0.736250
0.135145
0.502383
0.264293
-0.903775
-0.647747
0.963827
1.269503
-0.400175
-0.633586
0.234406
-1.801701
0.141402
-2.447818
0.498895
1.018902
0.055162
1.170343
-0.184740
-1.085682
-0.757641
-1.295359
0.674745
0.819602
-0.007420
-0.279432
0.207378
0.279971
0.679365
-0.659269
1.077960
0.713213
-0.332845
0.010110
-0.494187
-0.538900
-1.375121
-0.364577
0.996980
-0.309106
-0.248141
-0.511344
2.052889
-0.066957
0.504783
0.514627
0.000132
-0.306191
1.593583
0.036125
0.629316
-0.612208
0.924314
-0.180316
0.049707
0.750202
0.564821
0.303526
0.417117
1.247376
-0.268398
-1.034133
0.212058
1.224036
-0.470170
-0.681202
-0.645842
0.308659
-0.618456
-0.517172
0.169192
-0.105548
-0.990502
0.141193
1.344712
0.457450
-0.530034
-0.623958
0.091474
0.691576
0.070671
0.181339
-0.881308
-0.454313
-0.117539
-0.673387
-0.677085
-0.714169
0.442998
-0.529629
0.771092
-0.319927
1.108376
0.342943
0.234378
-1.102506
0.852708
0.314767
0.057910
-0.357688
-0.959509
0.988621
0.151071
-0.609928
-0.599154
-0.272272
0.489638
-0.119686
0.548572
1.236663
0.670775
0.152242
0.263402
-0.808518
0.179466
0.274094
0.390068
0.737530
0.084490
0.194106
0.233292
-0.052586
-0.356292
-0.162976
-0.379130
0.603181
0.463283
-0.477068
-0.172394
1.048688
0.363917
-0.121947
-1.208570
0.583399
0.529219
0.243451
-0.102590
-0.366348
-0.481109
0.912600
0.131475
0.168569
-0.106369
-0.208922
0.449401
0.393366
-0.260823
0.021719
1.886420
0.786167
-0.373986
0.574560
0.051427
-0.701792
0.634093
0.145927
-0.677796
1.092049
0.030423
0.952591
1.563958
0.869811
0.341158
1.194923
-0.573438
0.264315
0.207828
-0.367468
0.124250
-0.170349
0.407596
0.539389
-0.980490
0.279335
-0.154161
0.972378
0.565447
-0.227509
0.586921
1.187708
-0.093786
1.025189
1.536561
1.031601
-0.639664
-1.585191
-0.198064
-0.004174
-1.022932
0.834276
0.931000
0.390331
0.940096
-0.434797
-0.630349
0.604363
0.143175
-0.738629
-1.148022
-0.998229
0.919450
1.222162
1.051403
0.687846
0.491243
-0.524857
-0.601849
-0.054951
0.408108
1.014429
1.867617
0.895287
-0.481255
-0.621582
1.377197
-0.009662
-0.131298
-0.155218
-0.611276
0.342482
0.096682
0.001610
0.487937
0.331649
-0.375776
-0.848122
-1.218747
0.096568
0.039704
0.676273
1.187391
0.639589
-0.197762
0.358921
-0.655484
0.699271
0.943875
0.344345
-0.097143
-1.153395
0.108623
-0.282789
0.096359
-1.116827
0.637635
0.750236
0.549981
0.396577
-0.181462
-0.056996
0.737815
-0.069930
0.214894
1.460135
-0.458838
-0.656748
1.327596
1.001311
0.561932
-0.390902
-0.716468
0.292060
0.750175
0.038218
0.233992
-0.659714
0.010639
-0.018012
0.798534
0.863865
-0.474009
-0.193931
1.012423
1.043206
0.936617
0.039252
-0.585040
0.554189
-0.462374
-0.521380
-0.299069
-0.549677
-0.444505
1.055947
-0.039636
0.273508
-1.011920
0.038039
-0.931963
-0.053743
0.498153
-0.704369
-0.127473
0.155145
0.381185
0.073828
0.524071
-0.979860
-0.767900
0.363784
0.828921
1.731656
0.162263
0.689659
-0.530777
-0.574194
-0.795647
-1.076890
-0.541424
-0.138483
1.486160
0.234423
-0.958347
-1.387792
0.550984
0.161923
1.148506
0.457169
-0.521232
-0.108421
0.729010
0.914959
0.847795
0.350790
0.398571
-0.143045
1.017993
-0.393659
0.535082
0.460412
0.181290
0.874538
0.406946
1.352013
0.017867
0.705927
0.999770
0.779668
-0.375621
-0.762723
0.452785
0.578625
0.337282
-0.912422
0.024109
0.369679
-0.734449
0.098183
0.856386
0.732450
0.084643
-0.792542
0.144459
0.818808
0.854476
-0.211866
-0.524981
0.367454
0.096194
0.030340
0.203385
0.088644
0.752614
-0.333998
-0.594400
-0.088805
-0.213094
-1.293414
0.773786
0.346719
-0.378133
0.401026
-0.697482
0.693073
-0.333133
-0.770169
0.450634
-0.017653
1.185558
0.133550
-0.185786
0.373053
-0.515253
0.024548
0.042668
0.323958
0.381193
0.085562
0.781720
0.326403
0.022881
0.645676
-0.350639
-0.413839
-0.820286
-0.106543
-1.094590
-0.493703
0.690557
-0.256993
0.094873
-0.219933
-1.028508
-0.027899
-1.035668
1.146052
0.201898
-0.342465
0.638073
-0.330072
-0.553266
0.779657
-0.704777
-0.279553
-0.772218
-0.078605
0.088689
-1.127522
-0.816012
0.142256
-0.300744
0.090438
-0.870230
-0.039657
0.574586
-0.647439
0.321529
0.424540
0.179016
-0.273109
0.821631
1.545874
-0.546758
-0.852505
0.513817
0.385372
-1.126456
-0.093421
0.438017
0.304724
0.144320
-0.125255
1.365314
-0.411501
1.254334
-0.291627
-0.618939
-0.978123
0.746412
0.877935
-1.297400
-0.286834
0.010492
0.667614
0.274399
-0.633006
0.093495
0.840484
1.175738
0.007720
-0.747706
0.757543
0.148120
0.216540
0.524851
0.609492
-0.548216
-0.437444
-0.944573
-0.095931
0.513748
0.843973
0.268044
0.726169
0.983196
0.139223
-0.843764
-1.272039
-0.830391
0.525760
0.368620
-0.969365
1.243610
0.150433
-0.228702
0.876024
0.909214
-0.248636
0.819531
0.670014
-0.585926
0.192175
-0.292492
-0.428842
0.758811
0.450930
0.802816
-0.297839
-0.597677
0.750060
0.580573
0.459085
-0.234033
0.088074
0.447979
0.607787
-0.275425
0.660970
0.203077
-0.352030
0.401494
-0.385772
-0.898644
0.088072
-0.278024
-1.217905
0.416116
-1.118141
0.112118
-0.185250
1.192908
-0.496035
0.191386
-0.373656
-0.381427
0.557389
0.467713
-0.509440
-0.684795
0.243444
0.929779
-0.174451
0.359773
-0.386203
-1.020561
-0.001750
-0.177104
0.672469
-0.478631
-0.579733
-0.344456
0.143664
0.248155
0.283969
-1.181966
0.583117
-0.441863
-0.363583
0.576528
0.072449
-0.035081
0.856706
-0.676045
0.979862
0.443445
0.726888
0.944686
-0.871984
0.221764
-1.738664
-0.613459
-0.781355
0.884548
-0.044454
-0.254874
-1.016264
0.135586
0.310802
0.668977
-0.837020
0.429173
0.505971
0.337548
0.808062
0.922929
-0.990705
0.154325
0.682078
0.357937
-0.159854
-1.648794
-0.998650
0.199581
0.832645
0.812936
-1.048362
0.212880
0.309953
0.685246
0.802660
-0.222167
-0.801837
0.173253
1.050722
-0.342748
0.043083
0.482713
0.981973
-0.288816
-1.463130
-0.083963
-1.252141
-1.051557
-0.077288
-0.171127
0.776804
-0.613591
-1.044613
0.312130
0.237259
0.174382
-0.321038
-0.924492
1.093350
0.087126
-0.844784
0.911216
0.347031
-0.726784
0.923837
0.123444
-0.681319
-0.267399
0.478916
-0.527983
-0.452301
0.294553
-0.523224
-0.579358
-0.869118
0.941523
-0.839094
0.808257
0.974165
0.276180
-0.891424
-1.232186
-0.015788
0.668729
0.591802
-0.385836
-1.051730
0.852755
-1.236062
0.776639
-1.310815
-0.517940
0.499394
-0.285392
-1.260485
0.453561
-0.189888
0.283533
0.066298
-0.489014
0.385341
0.906102
0.160297
-0.447411
0.037959
-0.148572
-0.336465
-0.124301
0.949763
-0.507431
0.087495
-0.974896
0.864610
-0.811222
-0.211327
0.302697
0.153506
0.310167
1.271065
-0.006201
-0.094479
-0.480156
-0.036171
-0.080291
0.493302
0.059050
0.593436
-0.893802
-0.373590
0.069671
-0.305622
1.236954
0.633984
0.697861
0.884817
0.113449
0.165027
-0.619709
-0.327069
0.531765
-0.751556
-1.102650
-0.112788
-0.981958
-1.037602
0.202306
-0.577951
0.739495
0.270571
-0.488783
0.344458
0.558425
1.148526
-0.164849
0.438168
0.285815
0.407616
0.817814
0.193336
-0.122066
-0.810101
0.215762
0.821432
0.309861
-0.261873
-0.478275
0.995659
-0.246388
-0.601283
-0.230563
-0.203735
1.102439
-0.967928
-1.198960
-0.216036
0.270194
0.196952
-0.360388
0.793410
0.350910
0.375944
0.082425
-0.548438
-0.756462
0.034032
0.564449
0.052674
-0.399298
0.145257
0.438566
1.152177
-0.343062
1.088876
-0.064193
-0.751206
-0.801170
1.130610
-0.203706
0.726044
-0.488995
-0.046078
0.500617
-0.116424
-0.498140
-0.013366
-0.544774
0.658531
-0.497597
0.121606
-0.974461
-0.250381
0.728656
-1.318439
1.502599
-0.933673
-0.259996
0.034602
1.665233
0.696112
0.890161
0.807847
-0.831715
0.185778
-0.040119
-0.613627
0.621707
0.648854
0.438430
-1.204815
0.665328
-1.096685
-0.326266
0.749894
-0.105741
0.035101
-1.092982
0.055719
0.788726
0.273455
-0.296030
1.121497
-0.655011
-0.324822
-0.330726
0.159876
0.004407
0.158549
0.926479
0.223383
0.078208
-0.902750
0.236978
0.131973
0.194911
0.746117
-0.199670
-0.579994
-0.536325
1.120897
-0.351219
0.373828
-0.740170
-1.142163
1.127895
0.735055
-0.662888
-0.898130
0.377814
0.764506
-0.620655
-0.153435
-0.564757
-0.496592
-0.309690
0.866859
0.651125
0.510049
0.656883
-0.823004
-0.265402
0.665357
0.078081
0.251421
0.758891
-0.219720
-0.229157
0.421634
-0.616522
-0.715345
0.369331
0.726667
-0.325711
-0.173023
-1.289157
0.654154
1.094803
-0.192305
0.750448
0.041880
-0.110386
0.860996
-0.149557
-0.416411
0.218578
-0.084923
1.187706
-0.416783
1.036723
-0.799136
0.189119
0.204146
0.726870
-0.471633
0.935322
-1.116209
-0.149149
0.541475
0.236813
0.522468
0.484457
-0.084896
-0.498122
0.715656
0.113296
0.560342
1.108602
-0.104799
0.855985
-0.710101
-0.151539
-0.571885
-0.168934
-0.454689
0.759493
1.672650
-1.106330
-0.694803
-0.367538
-2.008358
0.525873
-1.990775
-0.400590
-0.471604
-0.116229
-0.383423
-0.941664
-1.242753
-0.364094
-0.195378
1.378543
-0.376044
-0.262103
0.300454
0.143353
0.979947
-0.153466
0.405828
0.768368
0.296008
-0.178503
0.412866
-0.420316
-1.316368
0.245832
-0.600592
-0.072594
-0.559049
0.183815
0.755409
-0.396107
-0.196266
-0.170437
0.408012
0.244469
1.057610
-0.367221
-0.358781
-0.045010
1.080978
0.313930
-0.652772
-0.496060
0.560491
-0.646074
0.425695
-0.229934
0.698774
0.561681
-0.939275
0.244100
1.250612
-0.100930
0.786820
-0.243534
0.077446
-0.063009
0.680860
0.379576
-0.511151
-0.654125
0.154999
-0.111771
-0.561296
0.397605
-0.642325
0.877641
0.665037
-0.334927
0.887649
0.531463
-0.553941
0.780734
0.082877
0.992502
0.946282
-0.771437
-0.432277
-0.842280
0.876173
0.307388
0.161692
-0.179254
0.032681
0.629709
0.828072
-0.113520
-0.123728
-0.417420
0.296159
-0.381808
-0.127160
-0.099597
0.736232
0.982312
-0.135261
0.955977
-0.409931
-0.582912
-0.314437
-0.323109
0.514535
0.539385
-1.101938
0.660280
0.864037
0.203812
-0.160457
-0.323251
-0.514741
0.804126
-0.184780
1.342196
-0.343863
-1.102225
0.175145
0.897107
-0.615185
1.224794
-1.027130
-0.685476
-0.005356
-0.032462
-0.099526
-0.008040
1.469239
0.799483
1.102513
0.412425
-1.791365
-0.628169
-0.009620
0.951895
1.062089
-0.229040
-0.797835
-0.052963
-0.641391
0.784731
0.331513
0.034632
-1.541489
0.527925
0.675312
-0.081353
-1.436738
0.873386
0.155636
-0.392453
0.116511
-0.831043
-0.955713
0.287860
0.204910
2.296351
-1.294386
-1.042804
0.614370
-0.362587
-0.005608
0.114166
-1.373117
-1.608853
0.360280
0.918613
0.716646
-0.457947
-0.097490
0.274984
1.330024
0.356640
-1.200609
-0.740102
-0.375337
-0.145418
0.720707
0.618402
-1.272942
1.054230
0.679673
1.068417
2.461656
0.053451
0.247647
0.616032
-0.164176
0.250955
-0.120452
-1.134371
0.252676
-0.324965
-0.728792
-1.780900
-0.449156
-0.706621
-0.666824
1.737827
0.125520
-0.721590
0.159506
-0.828233
0.104194
-0.193442
-1.262682
-0.486526
0.307684
0.481490
0.477491
-0.244588
0.534559
0.249345
0.372946
0.245606
0.097136
-0.300099
-1.317236
-0.641955
1.925406
0.666573
-0.946165
0.937701
0.819024
0.059902
1.031249
-0.289107
-0.792074
0.292279
-0.658877
0.876506
0.967901
-0.676659
0.898702
-0.160412
0.171449
0.189348
0.704313
-1.316892
0.120625
0.051612
0.798259
-0.775082
0.579926
0.422542
0.580166
1.841430
-1.012723
-0.575179
-0.144995
-0.010046
-0.703582
-0.657682
0.146354
0.084303
0.366568
-0.256077
-0.600751
0.626420
0.728269
0.973622
-0.725680
-0.361729
0.382262
0.280490
-0.283461
-0.825160
0.603252
-0.101735
-0.523495
-0.085672
-0.872147
0.784256
-1.381606
1.051070
1.199463
1.312343
0.597695
0.334461
-0.306587
-0.816457
0.584239
0.862296
-0.008463
-0.815954
-0.284092
-0.456496
-0.331383
0.589774
-0.880035
0.068644
0.835228
-0.571978
0.285181
-1.284654
0.008185
0.279780
0.109481
0.134890
-1.137958
0.713650
-0.018212
-0.218069
-0.764101
-0.036017
0.703782
-0.281312
0.737770
0.526413
0.231099
-0.714096
-0.175749
-0.218925
-0.879975
0.984691
0.715849
0.324265
-0.176849
0.874260
-0.016230
0.711407
1.359895
-1.233624
-0.189067
0.280130
1.229262
0.295048
-0.581073
-0.252737
0.764562
1.118239
-2.508936
0.176742
2.988965
-1.351354
2.233504
-0.890669
-2.284114
0.804727
4.265569
-4.061921
-0.703695
-7.290335
0.202997
-2.756124
1.157413
4.121859
2.448237
-4.647287
0.678017
0.409469
-4.285204
1.576615
-1.940740
-0.351143
-2.579778
2.005245
-0.556851
0.471674
-3.147800
-2.438642
5.009744
2.272231
-4.377133
-3.519569
-2.417768
2.543873
-2.015888
0.593896
0.951353
0.808594
1.611979
-1.273799
-2.248885
-3.426696
1.393968
-2.986139
0.819555
-4.794803
1.460960
1.636791
4.414002
2.324319
0.878976
-2.827880
-4.420735
-5.500179
-2.716287
-1.101808
-0.831921
-1.727097
-2.193171
-0.729750
-3.081895
-0.501766
-0.532456
-4.718120
-3.236006
-2.368236
-1.468514
-1.512761
-0.927853
-2.769822
-5.336879
3.274079
-2.190965
-0.069476
3.867115
2.997446
-1.906296
4.448313
-1.595512
-4.621306
5.512329
-2.101549
-3.574131
6.196580
-2.444130
-3.128466
-6.396514
-5.477285
0.834076
-2.302097
0.273967
1.910165
2.169716
-5.236836
4.813267
2.098148
-1.796533
-1.338182
0.678240
-2.848384
5.934751
2.273529
-3.573005
-3.236648
-7.087450
5.944595
-2.762038
-2.410926
0.654572
1.622904
1.343881
1.942243
1.079292
3.507586
-7.475201
-1.710765
-5.121735
4.461764
-6.346738
0.533571
-7.399252
0.770727
3.600926
2.271359
-5.657117
2.854985
-4.174664
-2.188905
-3.720206
-0.818182
-0.815052
-4.120080
4.129204
-0.682313
3.913714
2.247677
-0.628386
-0.831037
2.601378
-0.085320
-6.132538
1.478976
-6.159382
-0.226647
1.419143
-1.661729
-1.931960
-1.940901
-1.805614
-3.457422
2.508910
4.176242
-4.294101
-1.051107
3.156044
0.865927
2.923434
2.438538
-1.506961
-5.618930
2.626741
3.826509
0.754041
-2.926774
-3.847529
-5.626669
-5.153236
2.723524
2.689561
-5.788217
1.733845
-5.792607
0.815910
-1.602059
1.292127
3.142372
0.709111
-3.798959
-6.211439
3.232209
4.481885
-8.460356
-3.976321
1.091198
2.794390
3.092701
-0.022664
-2.027542
-3.280682
1.341462
-1.431625
1.269973
0.271790
-1.790781
-0.220592
-6.832914
-0.426092
-2.325531
-2.364525
-1.015405
-3.343946
-2.185776
-0.032428
-1.018423
-3.464431
-1.518049
