0.5 101 25 10
0.483258
-0.964180
0.694767
0.719868
0.869189
-1.245433
-0.861958
-0.661416
1.078771
-1.239461
0.603596
0.405001
-0.431084
-0.591005
0.305154
1.454394
-0.805022
-0.669329
-0.422086
-0.482662
-0.301070
1.622600
-0.593176
0.404369
0.479434
-1.402245
0.019345
0.051280
0.858324
0.685287
-1.314218
0.269638
0.288425
0.311601
-0.594387
1.131762
-1.172849
0.738836
-0.731782
0.069584
-0.297532
0.192166
0.204685
0.251060
0.306470
0.518161
0.830291
-0.667972
0.591957
-0.034559
-0.070551
0.319645
1.358769
0.155216
-0.429976
0.712651
0.419048
0.005764
-0.703064
0.387461
-1.016544
0.832683
0.472065
0.217704
-0.209724
0.175896
0.700468
0.569790
-0.373950
-0.858349
-0.884211
-0.403400
0.102136
-1.657512
0.697172
1.215962
0.548254
0.946042
0.713777
-0.033588
-0.619776
0.412888
-0.970190
-0.362622
-0.294768
0.351385
0.112510
-0.284054
0.786747
-0.317529
0.437477
1.112810
-0.837020
-0.979747
-0.932830
-0.834511
-0.110020
0.274303
0.097703
-0.359131
-0.501270
-0.596458
-0.659242
-0.280876
0.189688
0.509554
0.312640
0.271562
-1.740230
0.217569
-0.479284
-1.378026
0.737186
-1.613273
-0.299767
0.803442
1.453421
0.862162
0.636436
-0.487597
-0.164163
-0.620929
-1.053704
-0.058697
-0.031879
0.057845
-0.994784
0.282418
0.282433
-0.826356
1.460379
-1.055867
0.868131
-0.192730
0.302960
0.480435
-1.041069
0.428782
-0.342666
-0.378130
0.499787
0.167321
0.156732
-1.295272
-0.581236
-0.601790
-0.900044
-0.837214
0.545732
-0.963166
0.683848
-0.472716
-0.616881
-0.732157
0.663448
0.548958
-1.325582
0.704958
-1.613690
0.058220
-0.634519
-0.027953
0.100315
-1.152829
-0.707478
-0.172738
0.061159
0.027227
-0.407531
0.587172
-0.975231
0.327609
-1.387292
0.600291
-0.796480
0.751536
0.628541
-0.427381
-0.750209
-0.549081
0.217972
-0.088995
0.631414
-0.831573
-0.947117
0.420400
0.237934
0.598687
-0.445868
-0.164665
-0.551929
0.395132
1.180826
-1.177386
0.127355
-0.177437
0.412061
-0.432481
0.748465
0.250282
-0.450281
0.311239
-0.687636
0.251609
0.599210
-0.270444
0.257493
0.927810
0.048377
-0.250643
0.391418
-0.355368
-0.283918
-0.906024
-0.018412
-0.055521
-0.164300
-0.110500
-0.992786
-0.469396
-0.292166
-0.037093
-0.075623
0.050169
0.134062
0.315880
-0.199723
1.037524
0.459282
-0.039215
-0.273923
0.114701
-0.875691
-0.772456
-0.183243
-0.278464
0.535576
-0.019996
-0.719926
-0.033421
0.143776
0.348161
1.168677
-0.581949
0.335284
0.023161
0.327564
0.647773
-0.335694
-0.512420
-0.308560
0.484405
-0.086237
0.916223
0.443072
0.568064
-0.134773
0.459150
-0.357363
0.368765
-0.911853
-0.785253
-0.140836
-0.976127
0.087999
-0.789370
0.088263
-0.550220
-0.185203
-0.899097
-0.888543
-0.036712
0.266165
1.260755
0.651627
0.504059
0.322903
0.875988
0.470584
0.977927
-0.677190
0.568796
-0.564255
0.893159
0.220597
0.870860
-1.104382
-1.290423
-0.809570
-0.552877
0.546746
1.649334
0.407376
0.364169
0.257822
0.808529
-1.137161
-0.875971
-0.674058
0.044792
0.217404
-0.877531
-1.551415
2.078904
0.247523
-1.383804
0.770051
-1.328081
-0.349974
0.001657
-0.145546
0.021884
-0.605949
-0.793805
0.392755
0.096842
1.484005
0.045213
0.815342
-0.611767
-0.417417
-1.026229
-0.258089
-0.224828
-0.292351
-0.294708
-0.270532
0.308356
-1.692762
-0.514752
1.763774
0.862803
0.132292
0.881725
0.819343
0.594195
1.142321
-0.820062
0.058941
-0.653474
-0.887358
-1.438551
-0.603662
0.759624
0.906355
0.385120
0.283465
1.173654
0.034029
0.933882
-0.197898
-0.347153
1.371173
0.250149
0.467750
0.088493
0.692969
-0.578950
0.421745
0.820677
-1.098513
-1.024471
0.837245
0.679035
1.448817
-0.277298
-0.464556
0.571680
0.503586
-0.272555
1.012238
0.627026
-0.017801
0.014364
-0.951545
0.940536
-0.663597
1.145852
-0.851994
0.137285
0.017149
0.371716
0.552260
1.351318
-1.335022
-0.089147
-0.527378
-0.687758
-1.087140
1.114611
-0.450182
-0.879111
0.799164
0.716370
-0.203481
0.658251
0.935893
-0.983311
0.290138
0.287866
-1.611587
1.179644
-0.568651
0.082403
-0.287778
-0.499724
-0.488742
-0.372403
-0.986831
0.576539
-0.800342
-0.357143
1.173957
-0.449429
-0.102735
0.086275
-0.866260
0.310440
0.583728
-1.337915
-0.560988
0.092125
0.100283
0.615023
0.847627
0.392800
-1.376147
0.601842
-0.847343
-0.176400
-0.453466
0.488455
-0.456023
0.499036
0.469069
0.903923
-0.283725
-1.029400
-0.385255
1.187863
-0.378592
-0.714744
1.297300
0.127466
0.370286
-0.931323
0.830546
-0.408980
-0.074485
0.542133
0.563148
1.097007
0.598690
0.228436
-0.699857
0.121039
0.099643
0.136409
-1.331916
-0.249119
-0.682545
-0.451302
-0.097909
1.069129
0.834716
0.031184
-0.009882
-0.013841
0.859251
-0.240187
-0.904424
0.775626
0.059821
-0.179451
-0.015091
0.062569
0.157775
0.743945
0.546029
0.993571
-1.496340
-0.648230
0.471589
0.547971
0.282536
-0.890062
0.947604
-0.915718
-0.044830
-0.616699
0.786786
0.086481
-1.178819
0.368050
-0.531295
-0.454748
-1.093306
0.521102
0.192799
-0.351425
0.530700
0.129011
0.220794
0.681983
1.032887
-0.707732
-0.774272
-1.222476
-0.735953
0.303744
0.809410
-0.562111
0.510184
-0.048597
0.070498
0.176952
0.162884
0.552554
0.413410
-0.271045
-0.565117
0.677677
0.399356
0.090349
-0.544760
-0.526410
1.308036
-0.132612
0.380750
0.112446
0.954918
-0.141032
-0.520357
1.085871
-0.362586
-0.147421
0.094851
0.823729
-0.174387
-0.268070
1.105290
-0.667393
0.010754
-0.062175
0.673237
-0.944798
-0.747472
0.133165
0.611505
0.259032
-0.787719
0.966551
0.669271
1.441549
0.700130
-0.313737
-0.103376
-0.816709
-1.002629
-0.686493
0.429458
-0.196305
0.606133
1.105944
-0.037653
1.062086
-0.497587
-1.459297
0.166699
0.467548
0.639957
-0.032034
-1.060665
-0.264828
0.711128
-0.183005
-1.215415
-0.137043
1.065360
0.686913
-0.654830
1.030774
-0.207626
0.395742
-0.121959
1.109611
0.267587
-0.121243
-0.972349
0.637627
-0.668240
0.514872
0.875550
0.358936
-0.655267
-0.685065
-0.351724
-0.052545
0.024660
-0.403324
-0.221679
-1.377370
-0.165012
0.317339
0.362413
0.218493
-0.592104
0.668680
-1.032720
0.449290
-0.824917
-0.201942
-0.067649
-0.315611
1.195796
-0.745532
-0.391562
-0.648261
0.438160
0.297886
-0.362196
0.783871
-0.772443
0.308192
-0.906008
0.803162
-0.079875
-0.440802
-0.369427
-0.670214
-0.661466
-1.007506
-0.351688
-0.506841
-0.179842
0.132387
-0.849699
-1.021027
0.155892
-0.169868
-0.521060
1.018304
0.606892
0.430380
-0.456974
0.740909
-0.007232
-0.719361
0.231599
-0.543931
0.864401
0.477018
-0.580925
0.308532
0.569655
-0.421786
0.434884
-0.446431
-1.008926
0.936863
-0.957396
0.126857
-0.548830
-0.550309
-0.545669
0.701437
0.786143
-0.800618
0.910183
0.398913
0.108236
-1.106673
-1.112772
0.520039
-0.251046
1.172998
0.222644
0.006574
-0.629598
0.619310
1.010643
-0.008278
0.466589
-0.152190
1.038500
0.659894
-0.343110
0.909031
2.183805
0.275615
-0.199523
-1.330338
-1.955790
-0.755177
0.519889
-0.402146
-1.071680
0.097286
0.033248
-0.070986
-1.419063
0.627205
-0.229111
0.991832
0.779357
0.412022
-0.213487
0.768830
-0.319507
-0.748203
-0.650736
-0.514339
0.910674
0.314092
0.501009
0.066638
0.749468
0.175314
-1.089090
-0.383052
-0.378010
0.515372
-0.483092
0.795397
0.302463
-0.948553
1.220511
-0.292464
1.526252
0.570889
-0.707778
-1.188164
-0.051432
0.028848
0.341860
0.508237
-0.138841
-1.262181
-0.012796
-0.410070
0.524572
0.075555
-1.452450
0.607838
-0.413555
-0.594020
0.814189
-1.618044
0.808801
0.694234
0.238598
-1.289022
1.968589
1.103215
-0.652770
-1.532308
-0.576501
0.677952
0.618791
-1.169375
0.700623
1.571603
0.067194
-0.592475
0.282230
0.021744
-0.507519
-1.795035
1.078694
0.759693
0.512564
0.062473
0.037851
-0.218490
-0.720814
0.202111
-0.642325
-0.316317
-0.452923
-0.722064
-0.723821
1.114067
0.231434
1.773205
0.797877
1.138646
0.364340
0.509910
-0.449996
0.263736
0.239575
-0.357901
-1.084325
0.686618
0.390803
-1.220931
-0.497681
0.038148
0.173588
0.341106
-0.368112
0.111374
-0.578617
0.567418
0.438863
0.253392
-0.374496
-0.204442
1.056496
0.994964
0.822449
-0.213684
0.450285
0.223231
-1.056188
-0.417733
0.063623
-0.622264
-0.302231
-0.390981
0.379862
0.418629
-0.253130
0.026860
-0.183905
0.369939
0.613078
-0.447504
-0.395666
-0.228376
0.044800
1.158667
0.081384
0.934004
-0.739621
0.948492
-0.006596
0.929976
-0.796708
0.007865
0.545453
0.762457
-0.057801
-0.433779
0.053736
-0.651421
0.915799
-0.328130
-0.501080
-0.316019
-1.088238
-1.657017
0.517274
0.415761
-0.410835
1.360621
0.904451
-0.290691
0.170480
-0.423452
0.615608
-0.564332
0.918674
0.203967
-0.469878
-0.054006
-0.172184
0.667334
0.198414
-0.132411
-0.218360
0.189112
-0.337067
0.057496
-0.823996
-0.209575
-0.549614
0.881277
-0.013262
-1.127706
0.590579
-0.160270
0.130007
-0.967443
-1.187239
1.144404
-0.353801
-0.163883
1.235287
-0.408195
1.167189
0.456409
-0.365137
0.182025
-0.672594
-0.131674
-0.098076
-0.352364
-0.931796
0.483193
-0.859045
0.486228
-0.832986
0.683753
0.172722
-0.460291
0.234992
0.481701
-0.779936
0.533547
1.370223
-1.045134
0.461017
-0.294794
-1.546507
1.050274
0.541793
-0.308574
1.530429
0.439438
-0.117144
0.049019
-0.873227
-1.004813
-0.745093
-0.470075
-0.013524
1.335754
0.408423
0.734924
0.020312
-0.786653
-0.414657
0.161706
-0.301497
0.328689
0.350535
-0.011209
0.320378
-0.259608
0.464880
-0.929481
0.718614
1.252369
-0.259436
0.304758
0.977636
-0.095649
-1.310952
0.697084
-0.097127
1.162903
1.298557
0.282174
-0.999879
0.738696
-0.455337
1.019879
0.353388
1.062731
-1.181281
0.392576
0.670623
0.438055
-1.095327
1.088049
0.187457
-0.892834
0.589265
-0.757756
-0.184542
0.200490
0.492945
0.289786
0.508201
-0.143695
0.538311
0.591635
0.113251
-0.993676
-0.171230
0.061730
0.503777
-0.262433
0.567829
-0.563182
-0.900868
0.673964
-1.020769
-0.166323
-0.447440
-0.602873
-0.364506
0.273662
0.495383
0.778532
0.333803
-0.270130
0.993103
-0.722092
-0.514754
0.617708
-0.113006
0.660644
0.551250
-0.283158
0.331561
-0.465589
0.957668
-0.652872
-0.761895
0.066950
-0.176056
0.147184
0.976143
-1.091067
0.274937
-0.631227
0.271643
-0.590671
-0.659120
-0.632494
-0.029871
1.158294
0.187584
0.912781
-0.558773
0.463294
0.308870
-1.589992
0.859825
0.313122
-0.683128
0.856279
-1.276729
1.287223
0.158166
-0.185151
1.375216
0.083159
-0.234981
-0.269540
0.535779
0.472375
-0.433510
-0.682813
-0.160978
1.010930
-0.023116
-0.318814
0.760414
0.681783
0.344094
-0.774441
0.932595
-0.824065
0.409418
0.799395
0.473319
-0.482213
-1.302973
0.086670
0.993256
-0.885252
-0.235250
-1.363783
0.053545
0.596359
0.425161
-0.429094
0.567067
-0.238610
1.025645
-0.436314
0.586625
-0.538678
0.245412
-0.350340
-0.432979
0.411271
0.052032
-0.113661
0.515410
-0.176271
0.328185
0.242566
0.721423
-0.825823
0.627887
0.204094
-0.213642
-0.102233
1.314821
0.292206
0.381286
-0.727131
0.595593
0.463829
-0.858490
0.427124
-0.158129
0.024153
0.381349
0.320385
-0.518122
0.101666
0.772879
-0.125836
-0.524743
0.441827
-0.236903
-0.350003
-0.900848
0.540756
-0.264443
-0.646593
0.351859
0.847320
0.036272
-0.654313
-0.502972
1.091760
-0.018897
-1.281072
0.148430
-0.332680
-0.018358
0.142552
0.109139
-0.505953
-0.051806
0.003958
-0.334702
0.343672
-0.135125
0.601072
-0.109125
-0.592573
0.321316
-0.843372
0.140326
0.012214
-0.019278
1.297035
0.137973
-0.578706
1.022148
-0.697612
0.345810
-0.865518
-0.541493
-0.380521
0.339151
-0.365397
-0.372618
0.449614
0.472408
0.713113
1.111797
-0.453966
0.919262
0.852989
-0.513472
-0.195772
0.474022
-0.607599
-0.724363
0.436156
-0.445213
0.325102
0.540820
0.361195
-0.534820
1.479600
-0.790494
-0.829306
-0.048685
0.414382
-0.177754
0.004486
-0.409665
0.040781
0.800766
-0.905223
0.920937
-1.005181
-0.736519
-0.576681
-0.750323
-0.838907
-0.181900
-0.296020
0.206965
0.091837
0.998146
0.336558
0.288290
-0.180699
1.355591
0.998406
0.672395
-0.261749
1.407237
-1.031472
0.578807
-0.529211
0.728422
0.660076
-0.981463
-0.666596
-0.266090
0.332525
0.962751
-0.247544
-0.096665
0.009175
-1.049639
-1.336258
0.338955
0.147516
-0.202121
-1.188640
-0.239757
-0.444845
0.162175
1.419682
-0.456902
0.309849
-0.379010
-0.777271
-0.909699
-0.716459
-0.538244
-1.070032
0.118620
0.877119
0.317352
-0.252260
0.321990
0.905381
-0.177737
0.218469
0.186659
-0.193713
0.290877
1.122592
0.568677
0.622876
-0.041831
-0.582912
0.609386
-0.574663
-0.411332
-0.440947
-1.518577
-0.299264
-0.871471
0.353306
0.567713
-0.335667
0.090753
0.810580
-0.583766
0.876345
0.400895
0.216745
-0.078050
-0.266607
0.838401
-0.491499
0.420981
0.055695
-0.497834
-0.721373
0.642107
0.689027
1.089431
-0.612297
-0.534928
-1.008088
-0.780681
-0.606787
-0.473648
-0.865177
-1.325822
0.249934
-1.417212
-0.358602
1.127834
-1.291938
1.260267
-0.087831
-0.450905
0.825534
-0.407906
0.113569
-0.055584
-0.175611
-1.242690
-0.243079
-0.046436
0.356522
0.177943
-0.364370
-0.571958
0.013546
0.463402
0.024667
-1.537906
0.527106
-0.647683
0.148875
-0.302406
0.839338
0.114805
-0.519922
-0.020459
2.162951
0.692938
-0.428193
0.657136
1.118920
0.664640
-0.758055
0.622640
-0.693455
0.362995
-1.856191
0.439765
-0.267145
0.471611
-0.751980
-0.360933
-0.996589
2.095812
-1.130066
-0.099683
1.097043
0.239030
-0.760345
-0.061617
0.143455
-0.902862
0.007801
0.776032
-0.061114
-0.760847
-0.481990
-0.338169
0.607339
0.674619
0.501677
-0.709026
-1.723278
-1.580179
0.573171
-1.919707
0.643682
-1.058095
0.070434
-0.913554
-0.206902
0.819578
0.420331
0.230564
0.951674
0.188247
-0.112361
1.015747
0.295547
-0.280512
1.196513
0.051135
-0.018787
0.064406
-1.095694
-0.810078
-0.201256
0.471895
-0.371249
0.209891
-0.584914
-0.047445
0.293215
-1.314808
-0.462141
-0.619130
0.514667
-0.552472
-0.635378
0.166949
0.625347
-0.322754
0.698136
-0.226006
0.383925
0.603223
0.757490
-0.511908
-0.503488
0.652492
-0.208813
-0.496795
-0.281809
-0.775064
-0.150565
-1.095353
-0.377292
-0.830988
-0.397517
-0.782385
-0.652772
-0.055498
0.969106
1.276510
-0.719253
-0.299906
-0.142770
-0.940554
-0.910676
-1.033093
-1.378768
-0.396067
-0.926417
0.974788
-0.719602
0.507658
-0.089488
0.496626
1.460701
0.539500
1.140521
0.637831
-0.799612
0.527448
-0.353855
-0.182744
-0.618260
-0.089982
0.875063
0.885385
0.264667
1.161060
0.157915
-0.601499
-0.168500
-0.206116
-0.747282
-0.324112
-0.744644
-0.397541
1.686833
-0.881269
-0.439104
-0.897253
-0.877311
-1.047541
-0.267300
-0.031664
0.074995
-0.270816
0.470954
0.599477
0.832996
-1.146370
-0.130052
0.410391
0.338024
0.290026
-0.069125
1.299355
-0.237149
-1.026859
0.058094
0.730269
-0.836622
-1.303472
-0.179119
0.779969
0.209627
-0.574516
-0.550942
-0.110141
0.510235
-0.252921
-0.350278
-0.268468
-0.433869
-0.695952
-1.044302
-0.733399
0.146913
0.856498
-0.378440
0.195625
-0.191386
0.453621
0.323677
-0.177091
-0.975944
-0.041737
0.848167
-1.099863
0.383428
0.710471
-0.016941
0.799012
-0.405708
1.212423
0.136956
-0.605022
0.722287
0.525533
-0.249276
0.364635
0.848017
0.118835
1.467696
1.082765
-0.447252
-0.598740
0.833505
1.114997
0.253728
-0.434298
0.719745
-0.032456
-1.218130
-0.089443
-0.715131
1.369565
1.056713
-1.085983
0.702077
1.296631
-0.240617
-1.521032
0.287992
0.000022
0.392900
0.332354
1.584301
-0.053252
0.378211
-0.328153
-0.186819
0.415565
0.820649
-0.823270
-0.557123
-0.580813
-1.204384
0.500593
0.397187
0.744247
1.172776
-0.086982
0.453072
-0.014641
0.162878
-0.461024
0.454959
0.495048
-1.426624
-0.473831
1.294283
0.331795
0.774301
0.551125
0.948753
-0.650359
0.075317
-0.050811
-0.075789
0.903856
0.008039
-1.028054
-0.999113
0.523460
-0.272874
-0.263271
-0.595087
-1.519918
1.158894
-0.582831
-0.495285
-0.349919
-1.607071
-1.120747
-1.076324
0.396088
0.411390
0.844450
0.522637
-0.521135
-0.710676
0.676233
-0.676933
0.105424
-0.335885
1.025704
0.216692
0.562512
0.318178
-0.975292
-0.025290
0.649319
-0.466996
-0.326648
-0.114684
0.178895
-0.933281
0.079506
0.358746
-0.212843
-0.063898
-0.544467
-0.659594
-0.533037
1.109085
0.271022
-0.705323
0.270998
-0.720122
-0.741465
0.571447
-0.654076
0.895316
1.302021
0.369230
-0.259687
0.432868
0.219125
0.099451
0.114940
-0.592992
-0.176839
-0.976867
-0.680648
-1.010835
0.163828
-0.048551
1.080720
-0.751027
-0.622685
0.637688
-0.519994
-0.269928
-1.061858
-0.572503
0.470653
0.628378
0.214996
0.348868
0.073364
0.987093
0.017597
0.896332
0.080400
0.575992
0.967071
1.070048
-0.113995
0.619649
-0.191676
0.921164
0.100852
-0.207356
-0.227281
1.048534
-0.743863
0.484039
0.319558
-0.702860
-0.226239
0.767833
0.785435
-0.860706
-0.470377
-0.700492
0.182540
-1.232844
0.231691
-0.932679
-0.400226
-0.080284
-0.577375
-0.770858
1.079798
0.456114
0.399296
-0.872566
-1.284183
0.880434
-0.073518
-1.259144
1.557883
1.274522
-1.055264
0.176264
-0.551178
-0.538385
0.156756
1.048264
-0.316658
-0.924148
-1.080664
0.971478
-0.228057
-0.717422
-0.632686
-0.065108
0.330294
0.943767
-0.425467
-0.168992
0.234177
-0.592270
0.144332
1.064088
0.143124
1.074457
0.887214
0.743455
-0.055481
-0.560799
-1.479284
-0.400681
0.156135
-0.417834
0.255106
0.333135
1.001057
-0.861052
-0.111801
-0.682019
-0.270373
1.054418
0.738773
0.008299
0.004649
-0.079921
0.255630
-1.201552
-1.081452
-0.561271
-0.702727
-0.731800
0.947506
-0.168904
1.173732
0.999266
1.282768
-0.514806
-0.175995
0.189803
0.429310
0.438485
0.648040
-0.444731
0.446820
-0.051935
0.324755
0.922648
0.933861
-1.155392
-0.708179
0.917603
0.340356
0.898536
0.627506
-0.289545
0.325862
-1.389338
0.992646
-0.849765
0.020836
0.007547
0.968293
1.339736
-0.134941
0.831604
0.781364
-0.184633
-0.669959
-0.520917
0.408411
0.180648
0.651660
-0.263101
-0.426438
-0.049876
-0.614171
-0.132461
0.100877
-0.588364
-0.827833
-0.857241
-0.285927
0.815395
0.647754
-0.306021
0.428221
0.597481
0.828603
0.368381
0.003207
0.590622
-0.848299
1.464903
0.493255
-0.557303
-0.321610
-0.677795
-0.036258
0.012184
0.620539
-1.183490
0.445188
0.165907
0.139515
-1.102921
-0.183895
-0.404542
0.941606
0.742567
-0.214610
-0.042567
-0.168124
1.246343
1.127377
0.426108
0.219165
0.397783
-0.362646
0.170112
0.322442
0.032154
-0.041742
-1.103534
0.946376
0.889583
0.259416
-0.614491
0.865657
-0.817375
-0.394336
-0.151643
0.386892
0.826360
-0.775432
0.556669
-0.176778
-0.361045
-0.286940
-0.546699
-1.269554
0.352521
0.351382
-1.088681
-0.173573
0.442116
-0.627200
-1.141248
0.391418
0.355782
0.505533
0.876676
-0.497083
0.756888
-0.906730
0.502806
0.380868
0.604705
-0.750091
1.212664
-0.761784
0.594192
-1.268267
-0.249854
0.959932
-1.187986
0.465149
-0.533581
0.351560
-0.205870
-0.490827
-1.197168
-1.360373
0.927208
0.059519
-0.544663
-0.440341
1.251987
-0.361995
0.182678
0.564050
0.420422
0.441030
-0.084339
0.109718
-1.062352
0.823593
-0.727065
0.220035
0.359663
-0.555354
-0.072053
-0.033241
-0.573476
-0.502820
-0.254652
-1.205584
-1.076630
2.012602
0.134939
0.335583
0.154996
-0.272195
0.072761
-0.775086
1.335505
0.825645
0.799968
0.434346
0.496910
-0.042613
-0.173787
-1.374799
-0.718224
-0.486921
-0.518986
-0.731272
0.915016
0.328606
-0.718208
-0.316833
-0.994375
0.158448
1.389563
-0.662617
0.653690
0.817474
-0.953572
0.812014
-0.109487
-0.415242
0.436250
-0.197561
0.081975
-0.624124
0.466908
0.412306
0.410379
0.865129
0.253827
-0.789615
-0.652248
-0.671084
1.445108
-0.067264
0.678592
-0.279492
-0.375714
-0.194149
-0.036943
0.398602
-0.768886
-0.571291
0.232694
-0.498217
-0.308395
0.348059
0.495037
-0.642826
-0.512240
-0.879829
-0.803122
1.264584
0.996477
-0.989412
0.719442
0.489988
-1.338290
0.946665
-0.863151
-0.335533
0.359018
-0.429474
0.651161
0.468561
-0.397866
0.350387
0.809870
0.828288
0.781200
-0.005257
0.328406
-0.941606
0.841635
0.134451
-0.795405
-1.659351
0.998492
1.309650
-1.274323
-0.554393
0.804220
-1.370539
1.520915
0.522801
0.652827
-1.248859
-0.316127
-0.154913
0.461005
-0.405890
-0.773421
-0.046313
0.065747
0.481394
-1.165066
-0.679609
0.360120
-0.411870
-1.289446
0.529700
-0.441938
-0.398907
0.583528
0.323156
1.109557
0.299506
0.121394
-0.131342
0.147090
0.069381
0.470259
-0.263561
-0.733185
-0.297700
0.130017
0.896599
-0.669592
0.197994
1.322334
-0.994746
0.370648
-0.104308
0.346166
-1.166622
-0.000516
-1.350404
1.580926
0.439472
0.294052
0.964410
-0.542731
0.470464
0.888913
0.214168
0.288016
0.184873
0.058884
-0.353738
0.322238
-0.322237
0.079343
-1.397442
0.243866
0.387087
0.041230
0.006553
0.566250
0.711173
-0.867725
-1.003815
0.749278
0.119802
-0.541812
0.602324
0.409562
-0.810978
0.793787
-1.771975
0.723174
-1.025476
0.250038
0.368125
0.171211
0.375305
1.496481
-0.650868
0.069440
-1.216119
-0.448935
-0.932527
-0.547181
1.274726
-0.574363
0.743937
1.065278
-0.471933
-0.357379
-0.371370
-0.401522
-0.398188
-1.243485
0.583658
0.226283
-0.648349
0.430346
-0.678728
-0.281869
-0.386436
-0.476441
-0.213371
0.374366
-1.012915
-0.427476
-0.878527
-1.139410
0.758905
-0.616327
-0.238089
0.586787
-0.747133
0.050353
0.011980
0.691262
-0.927435
-0.708446
-0.441213
-0.729443
-0.670421
-0.081474
0.028629
-0.358835
0.570113
0.818861
-0.484863
0.757874
1.644922
-0.254278
-0.980903
0.065608
0.686637
-0.144015
0.868017
-0.520044
1.124071
0.479797
-1.782124
0.131183
-0.091378
0.286766
0.017075
0.814064
0.049764
-0.355745
-0.901105
-1.073011
-0.042247
-0.916389
1.039495
-0.186777
0.097030
-0.077417
0.728875
0.740899
0.182180
0.302154
0.610047
-0.796068
0.695851
0.177611
-0.999344
-0.660075
0.426307
0.698221
-0.476229
-1.139810
-0.788193
-0.921166
-0.098571
-1.016920
0.462014
0.609165
0.400183
-0.093165
0.285771
0.358357
0.901997
0.011652
0.397470
0.259614
-1.152202
-0.123345
0.032057
0.098084
0.537813
0.574658
-0.395096
-0.286542
-0.435091
-0.532954
0.343849
0.118756
0.665497
-1.587357
-0.047993
0.706787
-0.608175
0.959123
0.066465
0.214430
0.306286
0.080708
1.060144
0.317438
0.252849
0.482183
1.081615
-0.074313
0.347072
-0.823458
-1.258900
-0.242461
0.341183
0.653747
-0.010663
0.748167
0.352970
0.043842
0.238059
-1.072755
-0.056671
0.668176
0.029981
0.789768
-0.970283
0.946950
1.592257
1.229338
-0.786020
-0.164040
0.200064
-0.264045
-1.425816
0.495592
1.109756
-1.359990
0.051526
-0.372759
0.506201
-0.176950
-0.271384
-0.512142
1.085315
0.594973
0.357160
1.598918
0.944739
-0.037123
0.715942
-1.688648
-0.210853
1.081495
-0.570170
-0.840342
-1.202282
0.606718
-0.082885
-0.930078
0.595273
-0.819272
-0.855721
1.305905
0.861628
1.063431
1.231393
0.465325
0.108076
0.530173
-0.875512
-1.023585
-0.350374
0.134720
1.340963
0.053422
-0.381390
0.445528
-0.256585
-1.248277
-0.387326
-1.003101
-0.490548
-0.096269
-0.813694
0.818086
0.253918
-0.008408
1.364990
-0.034431
0.488234
-0.346348
1.053511
1.050126
-0.599550
-0.916001
0.549348
0.531040
1.436716
0.899784
0.484173
-1.367921
-0.579492
0.522023
0.173023
-1.082887
-0.004919
0.361210
0.721972
-0.385601
0.176096
0.445986
0.400743
0.589606
0.101053
0.030341
-0.955900
-0.375760
-0.294865
-0.653092
0.933106
0.767539
-0.374185
-0.572360
-0.742093
-0.444322
-0.599366
0.391355
0.132078
-0.619742
0.021346
-0.532848
-0.572167
0.624998
-0.280584
0.712283
-0.087092
-0.555617
0.400495
-0.729903
-0.591096
0.227114
0.368999
0.247447
-0.238307
-0.662425
0.097305
1.165613
0.182312
0.857379
-0.675210
-0.911714
0.862539
1.072715
0.116950
0.128029
-0.023205
1.018043
0.541501
-0.134710
0.911218
-0.745735
0.383858
1.327645
0.197516
0.451300
0.864816
1.026250
0.199256
0.933777
-0.710905
-0.365932
1.168373
0.538954
-0.305199
-1.491170
-1.449023
0.301757
-0.559897
-1.441535
0.021008
0.444665
-0.478894
1.486678
0.883438
0.624444
0.045040
0.320903
-0.436328
0.905696
-0.455202
-0.335173
0.006176
0.263899
-0.408494
1.058599
-1.038143
-1.438842
0.135363
1.272366
0.139194
1.486983
0.278440
0.856978
1.023342
0.668236
-0.885989
1.385167
-0.033667
-1.382098
-0.826785
-0.468774
-1.030624
-0.092158
0.042964
-1.173531
-1.510194
-0.091815
1.360352
-0.945413
-0.700654
0.717977
0.076609
1.018756
0.035211
-0.678410
0.261933
-0.797734
-0.545379
-0.145357
-2.186990
0.626542
-0.025962
-0.879484
0.095546
-0.489497
1.590672
1.583455
-1.531357
-0.372620
-0.055913
-1.688635
-0.706539
-0.539015
0.845504
0.717481
0.547607
0.503279
0.363813
1.068272
-0.644697
-1.110464
0.951623
-0.808898
-0.560268
0.832620
0.155279
-1.522813
0.803331
-0.673492
-0.385943
0.625762
-1.157715
0.533636
-1.021060
-0.466450
-0.474117
-0.254561
-0.216186
-0.952347
0.158307
0.801570
-0.255280
0.292060
-0.249073
0.587497
-0.515893
-1.612030
0.139842
0.849908
0.468934
-0.540568
0.251232
-0.071000
0.793012
-0.847465
-0.632887
0.974043
-0.143977
-0.405494
-0.591475
-0.635740
0.468878
0.966357
-0.023825
0.110060
0.004579
0.355652
0.436373
0.548168
-0.295815
-0.043072
-0.551489
-0.946019
-0.639825
1.310756
-0.098729
0.597077
1.277411
0.283832
0.960245
-2.808295
1.349958
-5.234504
1.457275
2.112314
0.402325
-2.261378
-2.571092
-1.190175
2.116987
3.173179
-4.402127
0.244358
-0.530115
1.362216
-0.807877
-2.843599
0.927219
-2.856875
1.181494
-3.768187
1.465595
0.593009
2.273652
0.344114
-3.004806
0.566331
1.399807
-3.415072
-2.769513
2.715886
-3.747637
1.162806
1.465924
-2.843877
-1.821865
0.734694
-1.992304
1.841783
-3.098927
-0.400105
-2.031862
2.726852
-1.939360
1.982146
-2.203857
-0.296264
-2.755637
3.751722
-2.236587
-1.865361
0.831162
-1.636517
-1.246885
-1.721935
4.211599
-1.941879
3.513094
-0.143380
-0.547396
-1.261027
-0.516952
0.965208
-0.112208
-2.341246
-2.739764
-0.437594
2.536163
3.299217
-1.597596
1.390055
0.275066
-0.311705
-2.878819
-0.183544
-0.742508
-1.389384
-1.146195
-3.440319
-2.881122
-1.860053
-2.977069
-2.312989
-1.537314
-4.087009
-3.596558
2.845441
1.871765
1.072919
2.917797
-0.757596
-1.928244
-1.842990
-1.772889
2.641668
1.050783
-1.062330
-1.443477
3.277344
-3.446538
-0.225514
-1.410920
-2.998932
0.838473
-1.470279
0.004118
1.007950
1.904555
0.180997
-1.025685
-0.586402
-1.469789
1.489698
-2.912832
1.505816
-3.338697
-0.136715
1.292711
0.599286
1.708626
2.216762
0.585999
0.804850
-1.598892
-2.229371
0.884048
-1.768900
0.949825
-1.405996
-3.945342
-0.587572
-2.599235
1.152139
1.260437
2.176094
-2.327744
-4.019106
0.753852
-2.376727
0.086520
-3.036457
2.785598
-0.441388
-1.707265
2.798909
-3.078050
0.816851
-1.243162
-2.122066
-0.661798
-1.436537
-1.855426
0.083048
1.666086
-0.970849
2.938611
2.473140
-2.841643
-0.503336
-1.615342
1.697192
0.421602
-1.010056
0.822422
-4.155444
-1.377331
-2.001013
-3.602421
1.190836
-0.301095
-3.627397
2.845830
3.172829
-1.770783
-4.418789
-0.798023
-2.824840
-2.661194
0.660514
2.115242
-1.702488
-3.226566
-1.232047
0.919770
-0.164878
2.629163
0.891821
-2.413267
-2.573464
-0.805012
-1.548839
-1.894892
-3.039803
-2.732807
0.965200
2.356373
-0.007460
-1.386203
1.835576
-0.114996
-0.021302
-0.698688
0.386197
-0.830528
1.999383
-0.268263
-0.248337
0.610580
-0.859955
-1.434005
-2.283216
-0.181643
2.860743
-3.118790
-1.331460
2.400530
3.126976
-2.201388
-4.327253
1.157609
-2.334980
-1.233629
0.008138
-2.112918
-1.382456
0.159173
-2.138159
1.505671
-0.107987
2.339248
2.770440
0.088464
-3.717490
-4.837411
-0.599093
-1.143344
2.206144
0.166685
-1.643074
-2.172964
-0.901528
-0.531863
-2.319787
-0.120221
-2.040571
-2.701556
-1.993792
-2.350322
-1.036774
-0.604751
