0.6 197 25 10 
0.437575
0.781880
0.007917
-0.542750
0.695103
-0.510771
-1.125521
0.637623
0.648883
0.839457
0.488548
0.004312
0.283856
-0.158413
0.337060
-0.268924
-0.127566
-0.138989
0.385358
-0.183177
-0.736230
-0.654976
-0.416914
-1.248030
-0.106274
0.400193
-0.101869
-0.429613
-0.110829
-0.183775
-0.601195
0.039836
0.506645
-1.055448
0.670769
0.542340
0.262043
-0.503001
0.783118
0.112496
0.978517
0.193037
0.905173
-0.402333
-1.075887
0.417569
0.328425
-0.298251
0.147467
-0.003687
-0.687713
-0.518063
0.510680
0.106341
-0.482617
-0.385950
0.421640
-0.561806
-0.410800
-0.347127
0.591309
0.361740
0.294619
-1.125508
-0.347495
-0.510865
0.114743
-0.923166
0.434676
-0.604446
-0.094891
-0.921025
0.452744
0.592638
0.554825
0.170873
0.950441
0.806548
-0.096764
-0.203824
-0.949028
0.490752
0.455712
0.670806
0.025142
-0.126648
-0.227426
0.309050
-0.331830
-0.272868
-0.720603
-0.661081
-0.178252
0.036166
0.669623
-0.675468
-1.145786
0.587417
0.449295
0.143986
0.097924
0.578486
-0.544103
0.439919
-0.550987
0.530848
0.294818
0.680251
-0.622682
0.643094
0.179801
-0.673313
-0.534838
0.892351
-0.441883
0.442244
-0.616611
0.056434
0.307116
0.627021
0.612322
0.023016
-0.813288
1.097871
-0.346164
-0.092632
0.020779
-0.659896
-1.014032
0.112260
-0.916764
0.882434
-1.068667
0.940023
-0.791352
0.526293
-0.688811
-0.026087
-0.266710
-0.528097
-0.839766
0.999001
-0.982728
0.057184
-0.011972
-0.167416
-0.219518
-0.866955
0.200848
-0.628448
-0.143320
0.425418
-0.913537
0.573875
-0.342606
0.072949
-0.113323
-0.308972
-0.765132
0.106100
0.606111
-0.050485
0.104722
0.245232
-0.452857
0.993974
0.867906
-0.813226
0.404373
1.182818
0.610474
-0.580055
-0.254311
-0.260922
0.960272
-0.514133
-0.646466
-0.902206
-0.552958
0.542807
-0.330638
0.759408
-0.911384
-0.512510
-0.857351
1.439021
-0.184438
-1.232837
1.478696
0.837851
0.052769
0.726644
-0.862434
0.548088
0.020476
0.930991
-1.453844
-0.683307
0.955493
-0.440137
-0.289996
0.924678
-0.703802
-0.652451
0.801357
0.175482
-0.395706
-0.659432
0.326946
0.444641
-0.149638
-1.106931
-1.396960
0.893715
0.992462
0.153800
0.533939
0.575290
-0.101884
0.823757
-0.650994
-1.109759
-0.887162
-0.243532
-0.168971
-0.397367
-0.429078
-0.814747
0.421693
0.681040
-0.606422
-0.407530
-0.221349
0.625048
0.647350
0.235478
-0.728951
-0.874270
-0.454806
0.557582
-0.011760
0.685027
0.014466
-0.753120
0.709086
-0.306268
0.475131
0.200730
0.234691
0.982015
-0.912249
-0.801238
-0.339973
0.546366
0.190961
0.659173
0.808793
0.536596
-0.138111
0.608296
0.902689
-0.131526
0.398106
0.641443
0.593889
-0.175232
-0.403719
0.039043
0.510898
0.484005
-0.131405
0.664959
-0.076595
0.676307
0.807264
0.171501
-0.843319
0.787543
-0.161606
-0.187847
0.037697
-0.356364
0.336749
0.423866
0.613226
1.278459
-0.869266
-0.607252
1.185276
0.044578
0.229903
-0.152937
0.977117
0.771072
-0.722459
-0.360195
-0.633469
-0.636998
-0.100007
-0.243782
-0.392673
0.630075
-0.303308
0.114506
-0.764333
0.156051
-0.070954
-0.556499
-0.260969
0.469175
-0.042448
-1.033500
-0.672833
-0.560813
0.567458
-0.579196
0.577115
-0.367362
0.735386
-0.264160
-0.898236
0.572612
-0.694306
0.793149
0.937068
-0.620706
0.055241
0.014377
0.704165
-0.474970
0.143714
-0.237980
0.110177
-1.100627
-1.145477
0.054021
1.362162
1.073882
0.347635
-0.023522
0.476406
-0.200085
-1.230158
-0.464682
-0.578515
0.308662
0.332175
-0.099795
0.883202
0.108218
-0.579090
-0.195956
0.468100
0.085185
-0.768155
0.269335
0.836781
-0.059774
0.893150
-0.109485
0.188469
0.347875
-0.248940
-1.052460
-0.481534
0.505949
0.929265
-0.573718
-0.352546
-0.441238
0.024929
0.678881
-0.296153
-0.828793
0.538779
-0.346979
0.849423
-0.777961
-0.387495
0.014044
-0.549175
-0.054543
0.231419
-0.239917
-0.561617
0.258151
0.074030
-0.565744
0.041117
-0.232026
0.507232
0.514992
0.448543
-0.484211
-0.081830
0.016304
0.727996
-0.002677
0.623978
-0.344856
-0.607784
0.224922
-0.098221
-1.063113
-0.923321
0.772745
-0.660958
0.751301
0.042759
0.388183
-0.600485
0.817193
0.355344
1.061361
-0.540466
0.640375
0.509923
0.543343
0.028009
0.255691
-0.108009
0.777816
-1.259150
-0.769518
-0.991008
0.233443
0.440299
0.540561
0.177445
-0.070982
0.193105
0.880042
-0.805826
0.825750
0.136446
-0.534648
-0.074277
-0.725799
-0.716944
0.350634
-0.113042
-0.432305
-0.230016
0.534947
-0.859864
-0.162974
-0.395176
0.825947
-0.084887
0.245009
-0.173332
-0.566238
0.163339
0.506647
-0.108989
0.963019
-0.373591
-0.074032
-0.158842
0.641682
0.468180
-0.327220
0.209744
0.763687
-0.400118
0.795868
0.334038
-0.913633
0.023576
0.963183
0.929792
-0.959876
0.247579
0.555262
0.470895
0.024526
-0.396736
0.421927
0.247869
0.802302
-0.823983
1.123894
-0.490677
0.075544
-0.216389
0.083447
0.233146
-0.524404
-0.082638
0.688569
0.176960
-0.752795
0.786052
0.165079
-1.088474
-0.733064
0.053481
-0.538072
-0.243206
-0.800688
0.277474
-0.482374
0.367165
0.112638
0.053286
-0.426563
0.329426
0.307957
0.896478
0.835138
-0.624630
0.772877
0.570181
-0.658063
-0.154738
0.780068
0.136117
0.439898
0.292207
-1.315146
-0.529930
1.687637
-1.312148
0.847257
-0.781502
-0.057610
-0.082558
-0.215618
-0.143830
-0.978157
-0.248912
0.382871
0.364662
-0.045031
0.140971
0.129672
1.165726
0.808496
0.609631
0.478260
0.674689
-0.270225
0.116295
-0.073373
-0.737904
0.842572
0.015854
-1.027881
0.444772
0.916887
-0.238443
-0.683047
1.021533
-0.544522
0.345681
0.243461
-0.002670
-0.799118
-0.738491
-0.687594
-0.741329
0.438807
-1.019063
-0.218118
1.056488
-0.637872
-0.685154
1.237184
0.692852
0.244043
0.007684
-0.653143
0.550279
-0.975301
0.612924
0.347852
-0.258289
0.489648
0.817235
-0.316246
0.783030
-0.045073
-0.644729
0.555194
-0.912742
-0.701279
0.152703
0.588509
0.347472
0.592757
0.911658
-0.192458
-0.211323
0.110382
-1.008196
-0.266659
0.442614
-1.162982
-0.189456
-0.331798
-0.528250
-0.990889
-0.391345
-0.593150
0.352515
-0.835046
0.700805
-1.085954
-0.633673
0.338375
0.675706
0.983869
-0.432286
0.235383
-0.116660
0.419102
-0.177740
-0.650488
0.282768
-0.272569
-1.041301
0.191700
-0.473674
0.331477
0.306710
-0.482055
-0.547572
0.673972
-0.919566
0.151953
-0.333670
-0.174563
-0.048948
-0.795756
0.247507
0.045064
1.009899
-0.960314
1.298733
0.869625
0.510439
-0.110709
0.428701
0.291392
-0.191241
-0.281359
-0.743323
0.645045
0.435166
0.659909
0.444521
0.554851
0.501221
-0.836593
0.735698
0.125564
-0.585140
0.334042
-0.233897
0.389130
0.763837
-0.370587
-0.926463
0.048662
0.385842
-0.774116
-0.352861
-0.674077
-0.295402
-0.438900
1.063157
-0.635309
-0.816776
0.015181
-0.704258
1.034696
0.528182
-0.623133
-0.007578
-0.390371
-0.751889
0.095809
0.416731
-0.381503
-1.029595
1.149540
0.098308
-0.016702
-0.759359
-0.939413
0.297903
0.910777
-0.214471
0.250306
-0.008060
-0.231068
0.255668
0.008956
0.539227
0.854936
-0.580575
-0.135752
-0.122272
-0.948670
0.512362
0.456543
0.357823
0.522639
0.721811
-0.435215
-0.599568
0.455188
-0.841864
0.235309
-0.282275
-0.270362
0.189357
-0.460749
0.432678
-0.595665
0.658914
0.365745
-0.350601
0.287641
-0.382902
-0.334852
0.367856
0.650069
0.765351
0.765988
-0.114703
-0.202345
0.626274
0.240983
0.849485
0.625072
-0.646780
0.237451
1.348914
0.510583
0.182386
0.240115
-0.717242
-0.163561
0.295048
-0.388268
-0.145840
0.843610
-0.019374
0.025468
-0.094415
-0.635028
-0.209131
0.160716
-0.536711
-0.154079
-0.097284
0.784041
-0.476438
0.057892
0.868451
0.686848
-0.543731
-0.492571
1.825086
-0.432613
-1.560338
0.142449
-0.775223
-0.513541
-0.984107
-0.056858
0.498743
-1.038371
0.721929
0.821219
1.272598
-0.000293
-0.033202
0.263282
-0.713707
-0.108932
0.515652
0.786389
-0.911139
1.088645
0.321640
-0.162978
0.673603
-0.080564
0.338701
-0.457836
0.479751
0.350346
0.777040
-0.076204
0.404887
-0.070337
0.300457
0.682610
-0.389927
-0.814731
0.459572
0.016295
-0.225480
-0.726435
0.273542
1.009657
0.187231
-0.379422
-0.377682
0.560457
-0.129207
-0.577448
-0.166801
-0.714041
0.784479
-0.142277
0.293100
-0.874481
-0.807023
0.585636
0.755089
-0.823897
-0.740911
0.609162
0.600469
-0.656190
0.095588
-0.784472
-0.102094
-0.811690
-0.943018
-0.639110
-0.298947
0.380561
-0.128822
0.116103
0.674903
0.329570
0.161673
0.923155
0.151312
0.150393
0.949096
0.768361
0.980951
0.224567
-0.002331
0.111633
-0.666482
0.243011
0.299250
0.623223
-0.161534
-0.745180
-0.546096
0.038748
-0.389116
-0.374170
-0.323450
0.403941
0.336281
-0.315057
-0.718310
-0.436427
-0.949775
-0.367243
0.366272
-0.921444
-0.400589
1.113293
-0.670714
0.217465
-0.282710
0.472854
0.662730
-0.173885
1.043922
0.433402
-0.275110
0.448794
-0.210122
-0.386256
0.718339
1.029062
0.341108
0.427847
-0.047151
-0.618356
0.428212
0.428936
-0.166100
0.179337
-1.075846
0.563650
1.094351
-0.990018
0.299376
-0.854304
-1.090871
-0.447038
-0.631708
1.478816
0.595824
0.680098
1.085534
-0.355500
-0.367081
0.629729
-0.390803
-0.256156
-0.146090
0.055553
0.615438
0.493297
-0.573524
-0.327503
-0.059288
0.321515
-0.932493
0.727103
-0.744738
0.980899
0.007157
-0.218858
-0.554764
0.602326
0.876432
0.516869
-0.084395
-0.299019
-0.976540
-0.107929
0.880328
0.238879
0.445769
-0.777964
-0.447044
0.726445
0.942358
-1.185631
-0.030398
-1.199245
0.381792
0.626612
-0.198490
0.597671
0.415527
0.590594
-0.739028
-0.759102
0.362869
0.817805
-0.334870
0.038940
0.919395
0.145821
-0.470404
0.124047
0.623257
-0.001723
-0.286817
-0.986492
-0.340755
0.092825
-0.496647
0.082938
0.762604
-0.696261
0.374746
-0.363080
-1.065987
-0.789173
0.441896
-0.299290
-0.157643
-0.952957
-0.183760
0.562432
-1.324383
0.221597
1.063945
-0.363166
-0.890902
1.237230
-0.123990
-0.848105
-0.050579
0.043286
0.206536
0.446087
0.140066
-0.662100
0.849886
0.847616
0.404423
0.688983
-0.303396
-0.418782
0.755610
-0.623395
-0.888230
0.499467
-0.111199
-0.596162
-0.261270
0.462926
-0.412611
0.845873
0.666270
0.652862
-0.430118
0.504516
0.045722
-0.280565
1.180333
-0.287103
0.521199
-0.240670
0.935697
-0.275819
0.161829
-1.049203
0.924960
0.026603
-0.391721
0.339681
-0.226381
0.195946
0.102509
-0.444838
0.701656
-0.449586
-0.407605
0.140458
0.602796
-0.233840
0.121599
-0.204520
-0.681344
0.165740
-0.388665
0.540993
0.361407
-1.132826
0.896118
0.981670
0.816892
-0.523801
0.128527
1.065359
-0.343070
0.311012
0.718508
-0.464167
0.667554
0.494243
0.295481
1.083146
-0.146174
0.188990
-0.761143
-0.423288
-0.775651
0.649657
0.097791
-0.533205
-0.811994
0.336900
0.748624
-0.760670
0.937344
-0.070221
0.609769
-0.980625
0.691629
-0.063285
0.637355
0.245061
-0.222026
-0.220326
-0.919655
1.039100
-0.447168
-0.419320
0.929442
-1.033467
0.213155
0.521705
0.869826
0.574830
0.056259
-0.096391
-0.815580
0.164742
-0.614213
0.872365
-0.607851
0.206025
-0.183807
0.208540
-0.363670
-0.709366
-0.123705
-0.191148
0.336818
-0.644520
-0.925990
0.199661
0.804888
-0.993593
0.789368
1.169891
0.376911
-0.386805
-0.962871
0.349966
-0.544137
0.774944
-0.107381
-0.356206
0.331542
0.631215
-0.598648
0.212538
0.234101
0.326646
-0.476198
-0.759474
-0.305922
-0.179775
-0.139172
-0.391878
-0.694957
-0.489665
0.471373
0.694742
0.856980
-0.701409
0.714537
0.111517
-0.437221
0.189140
-0.102304
-1.109771
0.239763
0.457928
0.496895
0.963397
-0.459136
-0.262433
0.702650
-0.612264
-0.037199
0.508640
0.918649
-0.084179
-0.773374
-0.660660
0.724716
0.925467
0.027888
0.665523
0.330987
-0.793131
-1.117331
0.280363
-0.364733
0.308933
0.406766
0.811646
1.014163
0.973545
-0.130142
-0.904343
-0.728743
-0.237668
0.683736
0.237038
0.474971
0.893013
-0.157018
-0.536974
-0.203687
0.983711
-0.599906
0.510423
0.023814
-0.376914
-0.001702
-0.290835
-0.473690
0.135652
-0.993272
0.619484
-0.496938
0.067318
0.865530
-0.399342
0.372957
-0.169569
0.513574
-0.094064
-0.789464
-0.294894
-0.454050
0.522323
0.664394
-0.079033
-0.681462
0.294166
0.097309
0.639780
0.574531
0.673490
-0.573224
0.680061
0.113651
-0.220438
-0.008142
0.808745
-0.873796
0.465388
0.294863
0.305252
-0.255762
0.455789
1.199620
-0.070643
-0.416305
-0.540938
-0.622246
1.025342
-0.485284
0.389174
-0.155222
-0.051708
0.366203
0.361234
-0.022752
0.773592
-0.585309
0.428493
-0.324257
-1.146942
-0.371603
-0.812724
-0.049525
-0.428138
0.230128
0.099595
0.150625
1.201679
-0.199676
0.760584
0.727959
1.431768
-0.992266
0.682655
-0.540477
0.217810
-0.515213
0.290140
-0.496396
0.482193
0.658009
-0.884991
0.296650
-0.121405
-0.209719
0.040831
-0.579901
0.920352
0.416984
-0.505726
0.363721
0.252037
-0.270596
-0.350052
0.101954
-0.763142
0.566862
-0.566980
0.005880
0.288689
-0.798279
-0.942893
0.990471
-0.057494
0.936928
0.038118
-0.770899
-0.124275
-0.995065
-0.394894
-0.384257
0.657851
0.714601
-0.623070
-0.121181
-0.335920
-0.139175
0.145070
0.937807
0.617721
-0.121133
1.008024
0.441201
-0.581540
1.033691
0.598788
-0.990432
-0.492948
-0.722196
-0.783292
0.344131
0.247984
-0.149646
0.062217
0.270605
-0.481207
0.164572
-0.042055
0.205512
-0.034774
0.478646
0.041809
-0.050916
-0.448580
-0.808292
0.270338
0.191365
-1.311531
0.949590
-0.197838
1.046544
0.218872
0.492617
-0.015004
0.681630
-0.531326
-0.844169
0.086481
0.794609
0.364159
-0.772854
-0.866884
-1.167281
0.538895
0.858535
-0.012765
0.861209
1.133138
0.623532
-0.063097
-0.928030
0.151013
0.736575
0.680401
0.943497
-0.497467
0.319780
-0.047453
-0.780958
1.045539
-0.294574
0.838448
0.404336
0.669559
0.394826
-0.990259
-0.792128
-0.227443
-0.370084
0.544270
-0.168537
0.896064
-0.099900
-0.152637
-0.145361
1.243083
-0.760585
0.984716
0.078625
-0.590029
0.370224
0.447614
-0.947923
0.906597
0.936976
0.241339
0.080185
-0.676229
0.537705
-0.551050
0.085261
0.712250
0.352254
-0.364529
0.043419
0.846619
-0.829937
-0.260938
-0.068588
-0.317518
-0.055208
0.797594
-0.304711
-0.583913
-1.206946
-0.067864
0.236857
0.568296
0.874347
0.567096
0.343132
-1.351087
0.157561
-0.000493
0.912346
-1.315669
0.577145
0.006316
-0.472432
1.023246
0.076342
0.665746
0.208927
-0.433806
-0.052923
0.102332
-1.122339
0.620694
0.773357
0.529345
-0.950363
-0.223232
-0.989402
0.797551
0.604790
-0.062527
0.314688
0.543581
-0.638282
0.850033
-0.713276
0.177046
-0.796593
-0.067852
-0.406102
-0.148870
-0.399111
-0.295890
-0.813967
-0.007601
-0.210039
0.161261
-0.974022
-0.964051
0.148153
0.764424
0.377996
0.090069
-0.057700
0.149128
-1.020518
0.355586
0.914551
-0.245543
0.328364
-0.703941
0.255558
-0.966976
0.574785
0.345220
0.376136
-0.673199
-1.009774
0.856459
-0.546952
-0.006933
-0.518111
0.676219
1.072818
1.048037
1.024334
-0.136569
1.190385
0.220670
0.740643
-0.645804
0.682798
-0.620434
0.010702
-0.052922
-0.516080
-0.560921
0.293687
0.001155
0.007316
-0.546067
-0.384058
0.751929
-0.253245
-0.372446
1.043090
-0.612341
0.029192
0.423884
1.110833
0.262745
0.042400
-0.350779
-0.880365
0.406478
0.533767
0.084682
-0.984529
-1.021785
0.540069
0.149901
0.308595
-0.705687
0.884161
-1.037088
-0.301749
-0.329436
0.262953
0.958203
0.845177
-0.250374
-0.543317
-0.134142
-0.826955
0.847064
0.412625
0.643567
0.072130
-0.139924
-0.475704
-0.960402
0.196559
0.316458
-0.244792
0.132277
0.063843
-0.262186
-0.295828
-0.709435
0.509904
0.064019
-0.277145
0.927729
0.132496
-1.234346
1.079593
-0.010849
-0.638992
0.769614
-0.347638
1.038590
-0.466022
0.050424
-1.362139
-0.689323
-0.693243
0.702649
-0.533862
0.272088
-0.627053
-0.339656
-0.538397
-0.994414
0.565548
-0.893836
-0.693271
0.920431
0.489234
0.790068
0.384991
-0.280087
-0.642518
-0.389440
0.694042
-0.292602
-0.408338
1.029205
-0.659049
-0.902820
0.102518
-0.996796
0.795023
-0.112168
-0.287455
-0.569798
0.917747
-0.246819
-0.206295
-0.981560
-0.170961
-0.542816
-0.485645
0.264737
0.689656
-0.821936
-0.509604
0.742425
0.105989
-0.059330
-0.754729
0.693419
0.028010
-1.079716
0.153346
-0.489199
-0.029930
0.272244
-0.572406
-0.278298
-0.023247
0.368757
0.150341
-0.204306
-0.195607
-0.466221
-1.301439
-0.120101
0.379567
-0.068479
0.393733
-0.249518
-0.385335
0.777493
0.262349
0.541688
-0.322253
0.520546
0.274359
-0.062285
0.259956
-0.491340
0.621281
-0.882388
0.600099
0.566534
-0.643766
0.668418
0.355450
0.752352
-0.496026
-0.607072
0.415289
0.726391
-0.015592
-0.857035
0.576547
-0.966477
-0.858343
0.502619
-0.791634
-0.612077
0.777499
-0.397141
0.636282
0.607842
-0.823490
0.567930
-0.739693
-0.555134
1.007154
0.531204
0.651110
0.719742
0.639218
-0.786669
-0.963345
0.161722
0.420773
-0.173472
-0.358852
-0.925209
-0.169081
-0.532796
0.607914
0.253834
0.025976
-0.327961
-1.225987
-0.858080
-0.626796
-0.323730
1.201475
-1.040378
0.214461
-0.105764
-0.628573
0.157131
1.052390
-0.504685
0.699584
-0.518254
0.725969
-0.584626
-0.855723
-0.568414
-0.311870
-0.614988
0.267959
-0.047587
-0.869900
0.315073
0.610436
-1.133980
0.062906
-0.745015
0.711447
-0.642264
-0.260136
0.206394
-0.109638
0.415703
-0.211636
0.691651
0.075879
-0.988743
0.385548
-0.365424
-0.304727
-0.249886
0.096191
1.179265
0.491012
-0.362842
-0.403900
-0.371360
0.651826
0.254907
-0.130101
0.696492
0.822202
0.786442
0.576423
-0.902698
0.359029
-0.384584
0.117772
0.063895
-0.248061
-0.408343
0.612547
0.649308
-0.097304
0.388148
-0.182922
0.405002
-0.893898
0.046175
-0.226076
-0.760173
0.715153
0.841474
0.748738
0.148801
0.938791
-0.657769
-0.650939
-0.131325
0.766744
-0.466588
0.424117
-0.256277
-0.692723
0.310784
-0.217876
0.546930
-1.146305
-0.957911
-0.013023
-0.269676
0.261483
-0.886686
0.505719
-0.350542
0.681114
-1.021517
-0.069582
-0.174303
0.093628
0.735149
-0.285402
0.972396
-0.147500
0.655330
0.423397
-0.567756
0.471856
-0.145422
-0.950950
-0.996327
0.798576
-0.844161
-1.169053
1.055173
-0.903796
0.595322
0.919948
-0.202718
-0.007170
0.960110
0.401106
-0.105318
-0.378737
0.034094
-0.525620
-0.569333
-0.746660
-0.444804
-0.227056
1.012098
-0.368538
0.682248
0.499383
-0.725623
0.090387
-0.559513
0.064794
-0.996233
-0.081320
0.196275
-0.879450
0.726054
-0.904131
0.436652
-0.326200
0.471062
0.832071
1.287162
0.670948
0.054044
-0.254529
-0.428415
0.677317
-0.336307
0.725426
-0.011037
0.843977
0.772953
0.634370
-0.138943
-0.102525
-0.945241
0.980370
-0.555150
0.396122
0.817333
0.155982
0.739146
0.435622
-0.295637
-0.447466
0.397646
-0.076999
0.255737
0.325195
-0.677098
0.864500
-0.569125
-1.097249
-0.304066
0.552478
-0.611485
-0.649995
0.203544
-0.965570
-0.403170
0.258088
0.310132
0.229290
0.733656
0.188072
-0.521846
1.098346
0.715046
-0.018644
0.837366
0.041082
-0.617476
1.177219
0.962432
0.410967
0.191749
-0.370541
-0.099077
0.773363
-0.740395
-0.270485
0.032501
0.257481
-0.824425
0.198258
0.276676
0.116068
-0.587336
-0.608473
-0.472170
-0.078595
0.182727
-0.480500
0.851946
1.171259
0.669954
-0.092845
0.387130
-0.497409
-1.095241
-0.877355
-0.839374
-0.662311
-0.371420
-0.349806
0.598339
0.630166
0.894280
-0.302438
-1.008119
-0.130011
-0.301792
0.536097
-0.701336
-0.639435
0.513898
-0.396321
-0.656081
0.460503
-0.600274
-0.609828
-0.184878
0.688155
-0.262079
0.289563
0.571794
-0.801816
0.333072
0.310398
-0.400113
-0.569075
0.608000
-0.119919
-0.575190
-0.340502
-0.093620
-0.127058
-0.693749
-0.624216
-0.429190
-0.687746
-0.797313
0.270819
-0.016230
-0.812461
0.351298
0.522930
0.461153
-0.582516
0.029162
-0.286305
0.207099
0.123856
-0.505291
1.370632
-0.226731
-0.118439
-1.108926
0.203713
-0.939568
0.053270
-0.325322
0.015893
-0.255544
0.373802
0.205772
-0.164273
-0.998276
-0.272927
-1.132803
0.234072
0.111215
-0.893209
-0.596172
-0.671018
0.270748
0.582677
0.577638
-0.234550
0.155522
0.851993
0.914105
-0.430972
0.679016
1.031662
1.186180
0.839228
-0.516591
0.624014
1.026039
-0.408864
0.725539
-0.760604
-0.003464
-0.754293
-0.771947
-0.576676
0.763504
0.990000
0.104084
-0.695113
-1.318601
-0.374684
-0.262904
-0.527343
0.807399
-0.316997
-0.428418
-0.408576
-0.038786
0.230444
0.516781
-0.123769
0.106688
-0.454699
-0.229944
0.694107
-0.553904
-0.111197
-0.049430
0.236273
0.116766
0.299984
0.933577
-0.287151
0.514375
-0.600898
-0.153738
0.323020
-0.392446
0.920622
0.586702
-0.497777
-0.931754
0.035250
1.210046
-0.935044
-0.719022
-0.182558
1.078387
-0.274410
0.596368
0.312073
1.072824
0.997882
0.293411
-0.060539
-0.878734
0.502911
0.506376
-0.146461
-0.760792
0.492332
-0.616271
0.581664
0.334489
0.255472
-0.428523
-0.165618
-0.099734
-0.748445
-0.315446
1.248637
-0.824037
-0.914658
0.047257
-1.017247
1.492616
0.232550
-0.160739
-0.703853
-0.553107
-0.565999
0.327968
0.734017
-0.981490
-0.619104
0.691406
1.068550
0.486601
0.647252
-0.443782
-0.165562
0.813432
-0.490328
-0.253540
0.535301
0.161637
-0.275504
0.268912
-0.173459
-0.497066
-0.809811
-1.107450
0.503695
-0.525253
0.542467
-0.830568
-0.136136
-0.878479
0.286789
0.650875
0.523975
0.208207
0.710972
0.538411
-0.275779
-0.446048
-0.923365
-0.634875
0.860108
0.014312
-0.403515
1.049707
-0.985305
0.147202
-0.015430
-0.127055
-0.596294
1.093927
0.392845
0.589177
-0.715934
-0.820202
-0.172410
-0.277090
0.137437
-0.965670
-0.577980
0.286823
-0.841323
-0.406437
-0.171711
0.581546
0.375693
0.273139
-0.477302
0.958837
0.246606
0.057300
-0.404582
-0.118604
0.746157
-0.154906
-0.512266
-0.014739
-0.609226
-0.659108
-0.340890
0.934569
0.055496
-0.920124
-0.521061
-0.382649
-0.338508
0.799731
-0.001062
0.989494
-0.691774
0.303508
0.462607
0.248610
-0.725296
-1.029862
-1.084479
0.441765
0.243180
0.832673
1.065794
0.539954
-1.067090
1.099372
0.206975
-1.133318
-0.644151
0.003256
-0.268155
-0.120986
0.530641
0.563186
0.656551
0.862632
-0.026045
-0.465656
-0.392323
-0.979605
0.095231
0.651635
0.403114
-0.682599
-0.453059
0.575735
-0.080088
0.626468
0.561921
-0.399916
-0.682711
-0.091500
-0.716882
0.651342
-0.701025
0.053179
-0.028500
0.724158
-0.193745
-0.228341
0.226957
0.488815
-0.803702
0.836559
0.310306
0.297026
0.286073
1.039600
-0.304125
1.144527
0.199805
0.137521
1.095653
-0.512619
0.428462
-0.718321
0.123514
-0.867073
-0.670013
-0.020187
0.565150
0.711410
-0.198586
-0.698133
-1.263957
0.388484
0.288476
0.741557
-1.228379
0.755543
0.237036
0.922828
0.691747
-0.142949
0.389640
0.269121
0.418793
0.963009
0.890715
0.790876
1.016193
0.591065
-0.679998
0.736327
-0.842940
0.752667
0.401423
0.493326
0.836635
-0.073167
-0.659937
0.770500
0.492447
0.703968
0.689951
-0.554569
-0.190581
0.751005
-0.418739
-0.755352
-0.529948
-0.254464
0.325009
-0.979908
-0.793401
-0.437562
0.433918
-0.403442
-0.046969
-1.150132
-0.331452
-0.157763
-0.220028
0.670136
0.102504
-0.185497
0.924483
-0.601842
-1.043577
0.033866
-0.938233
1.060635
-0.958808
0.044158
0.346995
-0.441099
0.899866
-0.440998
-0.882196
-1.046154
0.208049
-0.164987
-0.384126
0.761104
1.164849
0.991410
0.854316
-0.527396
-0.528285
-0.629296
-0.717826
-0.328355
0.650278
-0.639452
0.389619
0.102675
-0.371963
0.477766
-0.744819
-0.704335
0.950162
0.519388
0.648736
-0.175833
-0.904082
0.999567
0.111580
0.364860
-0.181542
-0.025246
-0.767426
-0.082508
0.193205
-0.580163
0.926450
0.576340
0.541586
-0.046820
0.028805
-0.408977
0.902195
1.047908
0.032083
0.065902
-0.925863
-0.870929
-0.136459
-0.080580
0.532893
-0.229090
1.011822
0.114989
-0.971674
0.168026
-0.647192
0.788332
0.406558
-0.233685
-0.974523
-0.617698
0.828114
-0.086419
-0.795026
0.140638
0.378459
-0.455106
-0.103090
-0.236073
-1.128878
-0.763396
-0.646185
-0.446909
0.314259
0.821910
0.426735
0.537353
-0.946593
-0.418318
0.208819
-0.728978
0.023852
0.720844
0.318056
-0.133203
-0.500031
0.708269
-0.109437
-0.587701
0.707880
-0.172376
-0.237016
0.236798
-0.319315
-0.941039
1.086619
-0.165091
0.308047
-0.242796
0.513818
-0.465448
1.154401
0.488186
0.247941
0.948194
0.372990
0.202225
0.269071
-0.244425
0.074916
0.123250
0.815476
0.545434
-0.307146
-0.784155
1.128000
0.738960
-0.315141
-0.563202
-0.436993
0.762758
0.399280
0.026052
0.087927
-0.217530
-0.398429
-0.758182
0.526004
0.029463
0.261750
0.191334
0.239578
-0.851964
0.028888
-0.635956
-0.286106
-0.676096
-0.692973
-0.037748
1.032893
0.956105
-0.169913
0.239601
-0.280608
0.813311
0.654513
0.211137
-0.520587
-1.152920
-0.039189
-0.092830
-0.627390
-1.065823
0.257399
-0.008391
-0.029656
0.396157
-0.505577
0.152230
0.849193
-0.303100
0.496061
0.035859
-0.067058
-1.338428
-0.029128
0.526902
-0.086658
0.122360
0.815457
1.125548
-0.972901
0.274286
-0.902301
0.467830
0.923453
0.136539
0.974321
0.131148
-0.622867
0.828584
0.454683
1.017171
-0.369076
1.178328
0.098163
-1.172259
0.753146
0.082475
-0.925059
-0.337593
-0.360662
0.007286
-0.117966
-0.060322
0.197924
-0.223922
-0.330015
0.809867
0.894603
0.350833
0.413195
0.159989
0.178849
-0.292307
1.045917
-0.853555
0.003421
-0.725165
0.206655
-1.023709
0.840237
0.374773
0.270732
0.589860
-0.088010
0.694149
0.779847
-0.177382
0.364826
0.645707
0.265655
-0.821719
0.011741
0.020983
1.199345
0.507491
0.188788
0.698284
-0.604877
-0.157272
-0.694975
0.196444
0.630021
0.236586
0.253501
0.752356
0.060415
0.514741
0.208408
0.716369
-0.223721
-0.096378
0.469496
0.642097
-0.138135
0.385653
0.309421
0.166386
0.238545
0.209976
0.458371
0.420792
-0.307680
0.979768
-0.333461
-0.299020
0.994159
-0.158410
0.826048
-0.419175
0.661701
-0.184044
0.718689
-0.893272
-0.657759
1.240601
0.318532
1.097334
0.071806
-0.526152
-0.066523
0.897999
-0.636761
-0.243156
0.033470
0.107267
-0.514319
-1.097637
-0.337196
0.174256
-0.819290
-0.098554
-0.212580
0.010871
-0.868222
0.302589
-0.302290
-0.931962
-0.074463
0.045933
0.899183
0.140852
0.633645
-0.823361
-0.363991
0.851899
-0.108217
0.760778
-0.159613
-0.547525
-0.686895
-0.416970
-0.142000
0.073355
0.068963
-0.523555
-0.365569
-0.094842
-0.643973
-0.673490
0.450496
0.442233
-0.952766
0.006039
0.156048
-0.751693
-0.232947
1.056708
0.096468
-0.163181
-0.909273
0.742414
-0.532992
0.463977
0.743362
-0.508564
0.277600
0.113443
-0.519928
0.935957
-0.502681
-0.228976
0.531215
0.191925
0.418261
0.885104
-0.219322
0.112465
-0.851863
0.063504
0.073802
-0.386668
0.101324
-1.390475
1.392207
0.244817
1.154216
1.037791
0.398548
-0.475944
-0.612736
0.012031
-0.750183
-0.320827
-0.136723
0.649936
0.108672
-0.765429
-0.396048
-0.330564
0.030963
-0.466511
0.918656
-0.098416
-0.897857
0.636881
0.513188
-0.247727
0.112603
1.093857
0.007391
0.327345
0.424989
-0.482536
-0.330776
-0.278992
0.692426
-0.468439
0.472694
-0.196406
-0.245868
0.596772
0.794936
0.026361
-0.565527
0.914526
-0.172220
-0.211983
-0.991915
-0.761813
0.784485
0.359608
-0.108625
-0.102902
0.496840
-0.940013
0.419801
0.747613
-0.696540
-0.372453
0.858587
0.248483
0.672870
0.285905
0.634873
-0.590709
-1.084287
0.483315
0.427749
-0.005331
1.085719
-0.284625
-0.344248
-1.377953
-0.206954
-1.016667
-0.925033
-0.403035
-0.356949
0.441383
0.279119
0.217359
0.093049
0.638651
0.621687
0.877439
-0.590306
-0.185135
0.483296
0.297552
0.599664
0.084532
0.230336
0.179920
-0.367039
0.659314
0.512533
-0.896570
-0.151923
-0.458770
0.113703
0.670219
0.537506
0.486137
-0.150185
-1.167794
0.589729
-0.231548
0.337038
-0.276828
0.372254
-0.462055
-0.628125
0.570127
-1.230705
0.073375
-0.968508
0.831968
-1.049485
1.044679
0.765138
0.710559
0.644087
0.654715
0.618923
0.438479
-0.212390
0.173478
-1.014972
-0.462194
-0.553964
0.072558
-0.313550
0.186423
-0.585203
0.233591
0.620470
0.390312
-0.459000
0.217088
0.467288
-0.398279
0.744705
-1.001861
-1.189011
-0.587132
-0.457916
-0.935444
-0.486019
-0.418668
-1.261677
-0.528644
-0.582559
0.342356
-0.438877
-0.410387
-0.278960
-0.548816
-0.597756
-0.131352
-0.735482
-1.500373
-0.945175
-0.157887
0.551338
-0.610890
-0.702375
0.080466
-0.221935
1.016743
1.093871
-0.811603
-0.464704
-0.930911
-0.519426
0.210104
0.201363
-0.429163
-0.025998
-0.712748
-0.610622
-0.260739
0.591828
-0.325813
0.035059
0.573273
0.368632
0.652925
0.904045
-0.393725
0.163026
-0.016675
0.490265
-0.018477
0.484439
-0.584675
0.618413
0.245278
-0.354947
0.353163
-0.323934
0.814366
0.185535
0.257871
0.258029
0.731864
0.989580
0.730374
0.102187
-0.536845
-0.829133
-0.492983
0.263307
0.047952
-0.863564
0.162042
-0.064008
-0.863589
0.177397
0.431766
-0.488505
-0.099705
-0.891549
0.037338
-0.772044
0.908856
0.414142
0.036272
-0.544389
0.450765
-0.574850
-0.555514
1.004650
0.160359
0.324360
0.157262
0.058207
0.073016
-0.411035
-0.219954
-0.771279
0.404245
-0.566701
-0.405593
-0.427620
0.245471
-0.519847
0.447145
-0.824116
0.231760
0.818893
0.205157
0.477411
-0.134734
1.292825
-0.990950
0.295144
-0.152198
-0.795208
-0.496103
0.144853
0.457746
-0.949312
0.150190
-0.573289
0.198778
0.416727
0.486397
0.360215
-0.572685
0.390127
0.563020
-0.976742
-0.343907
0.636445
0.388494
-0.083775
0.124146
1.056038
0.186602
-0.263660
1.237336
0.638634
0.254009
-0.852512
0.864302
-0.386076
-0.287741
-1.009469
-0.298319
0.250151
-0.727070
0.504071
0.446226
0.335137
-0.516601
0.353197
0.593214
0.383692
-0.730540
0.741823
-0.725571
0.331126
0.704610
0.051556
0.566290
-0.352318
1.008130
-0.240972
-1.115869
-1.096385
0.477201
-0.322096
-0.488327
0.817139
-0.730957
1.055828
0.810552
0.458194
-0.461583
0.321125
0.587804
-0.164989
-0.731182
0.523152
0.525337
0.196416
1.094871
0.760772
-0.256311
-0.228131
-0.241234
-0.674884
-0.087201
0.302657
-0.381034
-0.621072
-0.217277
0.343920
-0.631098
0.860902
0.640145
-0.716795
-0.310337
0.226633
-0.388219
0.088150
-0.769870
-0.263981
0.170745
-0.682778
0.064884
-0.372015
0.430691
0.324502
-0.744370
0.060373
0.556309
0.453686
0.676800
0.520087
-0.427542
-0.522375
0.364850
-0.481825
0.441071
1.045792
0.910084
0.526226
-0.484361
0.139291
0.588412
0.015266
-0.820096
0.008361
0.879115
0.095039
-0.209409
0.798571
-0.848116
-0.202855
0.650586
-0.606568
0.605257
0.073077
-0.248542
-0.534472
-0.058117
0.097174
1.055679
0.363458
1.012093
-0.079865
-0.948073
0.200042
-0.112979
-0.193567
-0.910795
-1.091792
1.065058
-0.897451
-0.445714
0.392539
0.231668
-0.750328
0.656539
-0.599147
-0.001421
-0.904200
0.000614
-0.143354
-0.350330
-0.383036
-0.214271
-0.705299
-0.095679
0.636334
0.845769
-0.546589
0.997089
0.097311
-0.410188
-0.281019
-0.393357
1.057933
-0.132782
-0.484119
-0.802858
0.971136
0.373882
-0.729324
1.045098
-1.178088
0.469337
-0.254363
1.259624
-0.177726
1.098014
-0.777454
-1.008351
-0.982148
0.624475
0.587933
0.404893
-0.437844
-0.281868
0.503922
-0.642320
0.495048
0.585575
-0.855768
-0.103252
0.292428
-1.086062
-0.655735
0.602100
0.458896
0.284543
0.566135
-0.524007
0.670580
0.854543
-0.175163
-0.080209
-0.532643
-0.270025
-0.814200
1.005655
-1.254629
0.122762
1.061267
0.734328
0.449256
0.762965
1.117651
0.527073
0.231468
-0.693229
-1.439240
1.033132
-0.549017
1.053317
-0.251225
0.683394
-1.380039
-0.447979
0.990534
0.557223
-0.625235
0.484782
-0.773001
0.101437
0.721821
0.048398
0.794465
-1.048902
-0.346263
0.567084
0.825923
0.499138
-1.129302
0.610344
-0.883058
0.316531
0.219079
-0.786342
-0.035140
-0.949124
0.298031
-0.328028
-0.524345
-1.322100
-0.427035
0.650734
0.784913
-0.747813
-0.884428
-0.791009
0.060319
0.273432
0.141240
0.711475
0.292246
0.647511
0.115224
-0.689380
0.776301
1.298476
-0.371419
-0.171248
-0.791445
0.145452
-0.290208
0.626064
0.540085
-0.563335
-0.581395
0.453869
-0.126983
-0.588241
-0.599913
-0.481238
-1.002822
0.282183
-0.861029
1.058411
0.285916
-0.595521
-0.087819
-0.115028
-0.315686
1.046706
0.555911
-0.009056
0.312116
-0.025125
-0.418806
-0.640970
0.038629
0.643257
0.018580
-0.748649
-0.570723
0.081166
-0.568533
0.623882
-0.036479
-0.472472
-0.913382
0.275286
0.401629
-0.171838
-0.869309
-0.540699
-0.478507
0.506466
0.172716
-0.277145
-0.356630
1.037669
0.170149
-0.344245
-0.237292
-0.683006
0.140773
-1.262022
0.153867
-0.646052
0.825272
0.447814
-0.704783
-0.002913
-0.514505
0.117060
-0.032465
-0.593056
-0.604856
-0.961368
0.664629
0.749411
-0.181507
-0.092109
0.373036
0.631572
1.138032
-0.647767
0.385716
0.304651
0.416538
0.839753
0.655716
0.065035
0.041116
0.450401
0.176297
-0.311817
-1.094237
-0.760086
0.780209
0.226454
-0.080080
-1.115483
-0.795395
-1.218022
0.259587
-0.453497
-0.475346
0.352483
-0.004430
-0.641304
0.876042
0.644293
-0.429356
0.380006
0.094401
0.929021
0.267749
-0.407570
-0.531365
0.301382
0.124455
0.507451
-0.295597
-0.587710
-0.296967
0.564238
0.880102
0.627108
-0.701522
0.404736
-0.300705
0.412151
-0.216188
-1.159332
-0.333479
0.064089
-0.631645
0.217571
0.481196
-0.084583
-0.027851
-0.260062
-0.241502
0.859904
-0.015965
0.572538
-0.628282
-0.682457
-0.047710
0.393610
0.396540
0.639690
0.988082
0.338627
-0.167775
0.998887
-0.013974
0.148163
-0.144040
0.153756
0.473858
0.745220
-0.063178
0.403177
-0.598161
-0.313596
0.210495
0.439663
-0.164596
-0.626439
0.409227
0.010180
0.171919
-0.626577
-0.195101
-0.165965
0.764956
-0.911431
-1.136487
-0.530081
0.138178
-0.179119
-0.072776
0.585106
-0.453238
0.804871
0.516846
0.619833
-0.474672
-0.570203
-0.070123
-0.794767
0.203836
-0.222588
1.005841
-0.447073
-0.485113
-0.007296
0.205360
0.439065
0.167913
1.041525
-0.085954
0.631586
-0.968115
0.539695
-0.692538
-1.013020
-0.896931
0.472065
0.411101
-0.528723
0.831635
-0.581186
-0.405217
-0.137072
0.458227
-1.031649
0.921315
0.088295
-0.020004
0.514442
-1.179975
0.838932
1.112635
-0.019365
0.357408
0.700161
-0.651903
-0.089092
0.297915
-0.215664
0.824064
-1.093107
-0.102704
0.699941
0.539738
-0.003868
-0.697318
0.984199
1.460219
-0.892669
0.432567
0.515002
0.449049
0.589933
-0.004567
-0.218417
0.243301
0.444606
0.800407
0.160440
-0.267249
-0.095460
-0.520472
-0.448409
-0.628828
0.820959
-1.080426
0.819488
-0.513708
0.512508
0.382465
0.372976
-0.706453
0.973869
-0.114903
-0.366917
0.028871
0.033307
-0.255753
0.969519
-0.014730
-0.674301
-0.013335
0.218095
1.253983
-0.018214
1.375140
0.585908
-1.412573
0.065875
0.509749
0.460155
0.454779
-0.032200
0.818336
0.545769
0.421554
0.026518
0.645786
-0.243613
0.314454
-0.781275
0.289677
-0.265833
-0.118400
-0.214632
-0.198490
0.564597
0.726133
0.839222
-0.130453
0.704473
0.826968
0.882187
-0.554382
0.296758
-1.081973
-0.319741
-0.012999
0.469708
0.000425
0.179208
-1.018295
0.737417
-0.232834
-0.196817
0.615249
0.359949
-0.042773
0.018458
-0.336759
-0.732972
-1.006800
0.803287
-1.112622
0.182830
1.261916
-0.475068
0.355308
0.230847
-0.944713
1.005759
0.312721
-0.190430
-0.585407
-0.489008
-0.260575
0.784110
-0.131336
0.353238
0.868876
0.980263
-0.367760
-0.151314
0.533640
-0.651803
-0.622882
0.227081
0.046411
0.936335
-0.905951
-0.234898
0.482370
0.739584
-0.646984
-0.510852
0.540511
-0.607365
0.778401
-0.545717
-0.034487
0.091126
0.473598
0.236410
0.076443
-0.461665
0.993133
-0.127475
0.452378
-0.466276
-0.969176
-0.345772
-0.343916
0.505476
0.191215
0.674050
-0.637204
-0.672234
-0.384288
0.244974
0.331653
0.652385
-0.258560
0.271867
-0.317859
0.519192
-0.672823
0.837037
0.481264
-0.111649
0.282667
-0.563755
0.853339
0.088297
0.242933
1.060038
0.055171
0.034380
-0.609425
-1.092560
0.073442
-0.480273
-0.080848
-0.163763
0.829292
-0.586635
0.616427
0.786585
-0.070287
0.497504
0.503048
0.835701
0.040762
-0.209068
-0.457750
-0.551943
0.718778
0.161687
-0.257352
-0.432342
0.337893
0.102270
0.731066
-0.554166
-0.896442
-0.994190
-0.767980
0.551202
0.171453
-0.591103
-1.078602
-0.548819
0.313522
0.701112
-0.554877
-0.081177
-0.418182
0.731659
0.500704
0.545976
0.636608
-0.043816
-0.436672
0.071522
0.336894
-0.111097
0.823350
0.019068
-0.558517
0.017383
-0.689010
-0.520712
0.576908
-0.246639
0.413916
0.064147
-0.121602
0.063941
-0.690903
0.071707
0.748649
0.296740
0.734727
-0.356721
-0.477294
0.379904
-0.058339
0.660151
-0.123458
0.405363
0.802312
1.067558
1.264822
0.518820
0.165676
-0.682214
-0.781422
-1.094725
-0.222586
0.723857
-0.122132
0.344043
-0.918498
-0.428372
0.342739
-0.053291
-0.291648
0.311545
0.964407
0.788046
0.284806
0.814073
0.540987
0.919768
0.960828
-0.783599
0.260309
0.853458
0.355882
0.057702
-0.173627
-0.351351
-0.498513
1.198971
0.327145
0.047284
0.890300
-0.904379
0.047225
-0.733796
0.484901
-0.918546
1.152457
0.205604
-0.733317
0.346505
-0.325567
0.169218
1.036577
-0.084043
-0.826201
-0.783499
0.219410
-0.289661
-1.148504
-0.674985
-1.059080
0.962236
0.152027
-0.059729
-0.287608
0.142556
-0.011377
-1.094283
-0.225944
-0.450064
0.006927
1.347512
0.208148
-0.384944
1.489545
0.245970
0.198759
-0.418158
-0.159140
-0.055858
0.517288
-0.403133
-0.076486
0.840179
0.383538
-0.447643
0.736228
-0.757503
-0.289071
-1.039512
0.330058
-0.427076
-0.539767
-0.838880
0.258599
-0.225651
-0.342846
1.126824
-0.315867
-0.195385
-0.208843
-0.061440
0.561398
0.011451
-0.317682
0.834378
-0.707821
-0.951936
-0.373745
0.067444
0.134955
0.138058
-0.084394
0.183076
1.001210
-0.362912
0.679111
0.156483
-0.488045
-0.046726
0.554398
0.961064
1.084406
0.942409
0.604111
0.712587
-1.043087
0.011008
0.687218
1.065367
-0.720714
1.086605
0.257060
-0.627408
-0.313599
-0.242563
-0.125787
0.354432
-0.188415
-0.477771
0.533152
-0.396902
-0.334889
-1.001443
0.467181
-0.403318
-0.162413
-0.015513
0.220732
-0.755246
-0.037438
0.065195
-0.865110
0.751727
0.228397
0.157187
0.411909
-0.195330
-0.897043
0.957748
0.742053
0.186452
-0.778956
-0.419111
1.048681
-0.618427
0.602053
0.146266
0.404961
0.012954
0.017244
-0.451363
-0.724254
-0.666688
0.807777
-0.192149
-0.451552
-1.184342
-0.046212
0.331702
-1.205635
-0.469511
0.535639
1.201604
-0.278456
-0.026059
-0.194922
0.302882
0.136555
0.149357
-0.637447
-0.188374
-0.221179
-0.666165
1.129431
-0.464073
-0.777334
0.702708
0.260615
-1.105627
0.148955
0.794562
0.667980
0.616322
0.627101
-0.742534
0.250214
0.423699
-0.054063
-0.985652
0.626963
0.860520
0.146556
-1.011717
-0.290694
-0.274697
0.523474
0.574631
-0.105459
-0.924648
1.094028
0.924781
0.423149
-0.195923
0.782053
0.051251
0.871556
-0.057018
-1.177510
0.685722
1.003215
0.984729
0.368524
-0.829512
-0.785162
-0.729895
0.434852
0.284533
-0.539823
1.353901
1.108965
-1.002297
0.243875
0.310964
-0.387576
0.330969
0.631495
0.880052
-1.393524
0.073693
0.712404
0.002887
0.422796
0.579428
0.675046
0.181817
1.036574
-0.724542
0.891300
0.298608
-0.545611
0.494613
0.417786
0.969430
1.197536
-0.680333
1.027022
-1.036264
1.175729
-0.761482
0.016203
-0.347026
-0.105501
0.089917
0.597449
0.518845
-0.150050
0.453330
-0.429297
0.690621
-0.178518
0.047894
0.663310
-0.337822
-0.723390
-0.567969
0.276774
1.192559
0.633482
-0.181267
-0.731526
-0.222273
0.991647
0.822924
-0.143383
0.192217
-0.759126
1.008488
-0.025053
0.331347
-0.249349
-0.028107
0.210764
0.041709
-0.252648
-0.806819
0.911282
-0.363286
0.391276
-0.081187
0.453122
-0.332028
0.781794
-0.395786
0.093112
-0.501835
-0.544451
-0.399225
0.553073
0.518938
-0.879556
-0.316174
-0.032570
0.578438
-0.680868
-0.175308
-0.804241
0.468145
0.129433
0.910124
-0.659989
-0.100810
-0.540682
-0.515567
-0.065115
0.682055
0.452655
-0.768985
0.344178
-1.180395
0.746555
0.631219
0.796067
-0.041349
0.850084
-0.798453
0.998123
-0.058909
0.263019
0.429417
-0.364283
-0.308584
-0.193731
-0.746582
0.125419
0.589088
-0.284170
0.522012
0.500295
-0.893461
0.182575
-0.634157
0.571825
-0.000158
-0.458607
-0.640347
-0.263192
0.485771
-0.030647
0.625616
0.757528
0.861145
0.837508
0.191174
-0.311016
0.836177
0.262815
-0.995320
-0.391006
-0.884109
-0.311738
1.020573
0.545139
-0.516507
0.001898
0.454883
0.280220
-0.001599
-0.428945
0.694467
0.792568
-0.607967
0.213867
0.417357
0.369741
0.056823
-0.255919
0.144985
0.234457
0.199441
0.765189
-0.391485
-0.780557
-0.769514
0.514023
0.470979
-0.831753
-0.614086
0.461087
-0.942302
0.098707
-0.579254
-0.301795
0.648770
0.602185
0.207276
0.336411
-0.491510
0.781735
0.516485
-0.853018
-0.552843
-0.677767
-0.545975
-0.350162
-0.113554
0.179308
-0.244245
-0.832799
-0.240641
0.080897
0.055992
0.534484
-0.843998
0.095181
0.114019
-0.195291
0.667330
-0.839318
-0.022228
0.212580
-1.126282
-0.383416
-0.175282
0.004934
-0.287833
0.888538
-0.772246
-0.797084
-0.467845
-0.047055
0.651711
0.705197
-0.242014
-0.116972
-0.744819
-0.243075
-0.071112
-0.654386
-0.138915
1.352660
-0.377022
-0.877546
-0.628902
0.712681
-1.093737
-0.486167
1.454631
-0.796964
-1.074702
0.879149
0.196678
-0.186834
0.120376
-1.292669
0.947077
-1.049366
-0.959240
-0.286602
0.836134
0.408888
1.188646
-0.846450
-0.076233
-0.442807
0.679652
0.666901
-1.162760
-0.425578
-0.942544
-0.006071
0.474848
0.779314
-0.669158
0.491520
1.366145
-0.252278
0.223743
-0.507380
-0.863400
-0.719150
-0.163341
-0.210338
-0.315848
0.204938
-0.967232
0.466392
0.089757
0.089496
0.968477
-0.782816
0.119768
-1.307718
-0.673073
-0.185203
-1.091350
-0.594479
0.725348
-0.237729
0.435203
-0.222308
0.888333
0.836730
0.463012
-0.739026
0.857772
0.283658
-1.263539
-0.019346
1.209025
0.023597
0.469255
-0.942124
0.043987
0.308885
0.553579
0.462241
0.457357
-0.272169
-1.155028
-1.516736
-0.486835
0.986737
-0.696262
0.539095
0.878096
-0.095584
-0.856480
-0.573139
0.440895
0.118183
-0.801799
0.091764
-0.386563
-0.694313
-0.309943
1.237892
0.658993
0.388117
-0.494938
-0.786617
-0.857891
-0.731830
0.809469
0.244758
-0.358193
-0.019689
-0.947915
-0.014138
-0.957952
-0.652120
0.870540
0.789239
0.336914
0.240676
0.856944
-0.131601
0.711008
0.411012
-0.546487
0.504498
-0.573470
0.546084
0.668111
0.561273
0.885448
-0.239407
-0.281646
0.551034
0.414320
1.003716
0.057843
0.180941
-0.308446
-0.187453
0.593905
-0.632815
-0.421249
-0.919943
0.303354
-0.519409
-0.074839
0.184870
0.618791
-0.947802
1.049202
-0.337174
0.739001
-0.284705
-0.853735
0.466892
-0.185817
-0.763357
-0.444747
0.380518
-0.993880
-0.554460
0.413991
-0.929291
-1.061947
0.277062
-1.141012
0.231521
0.336851
-0.987681
-0.654754
-0.778073
0.734958
-0.675037
0.572378
0.032455
-0.549428
0.371612
-0.537858
-0.070089
-0.312575
-1.061292
0.844066
0.549046
-0.613132
0.109390
-0.406434
0.652148
0.224293
-0.742949
0.668129
-1.146057
-0.672929
-0.597431
-0.377025
-0.142926
-0.196007
0.613518
0.772980
0.522859
-1.123883
0.843467
0.494165
1.140396
-0.677527
-0.085973
0.235098
-0.425194
0.185101
0.593866
-0.901796
0.849238
-0.046120
0.020162
0.409493
-0.096389
-0.966728
-0.199237
-0.741983
0.884900
0.272229
0.671458
1.315836
0.843291
-0.848940
-1.199011
-0.636742
-0.190689
0.320662
-0.609078
-0.439299
-0.659580
-0.813466
-1.533670
-0.881604
-1.007368
-0.349376
0.939987
-0.423201
-0.760348
-0.628062
-1.160095
-0.017310
0.259237
-0.038564
0.751929
0.966034
-0.257659
0.707162
0.054834
0.344041
0.633139
0.163088
0.552911
-0.161827
0.776142
-0.642363
0.231747
-0.207264
-0.865378
-0.705621
-0.626917
-0.126219
0.212051
0.522239
0.498738
-1.220333
0.605537
0.614496
-0.207252
0.815946
0.625561
-0.977600
-0.352880
-0.712454
-0.051483
1.318762
-1.069650
-0.847152
-0.868514
1.392138
-0.599880
0.123267
0.311773
0.834328
0.245451
-0.845861
1.330273
-0.554133
-0.703706
0.695012
0.514149
0.532522
-0.635079
-1.251645
-0.207517
0.600932
-0.832984
0.798292
0.963484
-0.723550
-1.043239
0.063680
0.558467
-0.555350
0.990442
-0.313503
-0.100977
0.396746
-0.960422
0.409784
-0.012020
0.700809
0.804177
-0.555515
-0.691680
-0.065703
0.849660
-0.374333
-0.821238
-0.424096
-0.592443
-0.793819
-0.667747
-0.716783
-0.423486
-0.832296
-0.108917
-0.324658
-0.464325
0.575060
-0.119775
0.128109
0.465021
-0.148571
0.356306
0.047090
0.314077
-0.259214
-0.441898
0.807790
-0.344338
-0.275031
0.755273
0.014080
0.388885
0.564634
-0.840905
0.387896
0.411131
0.303783
0.197397
-0.131129
1.256689
0.979703
0.937076
0.256483
-1.280901
-1.299154
0.741792
0.367928
-0.413317
0.042715
-0.460193
0.685300
-0.677552
-0.912377
0.717445
0.091533
0.199415
-0.278370
-0.506645
0.285356
-0.670491
-0.419805
0.477865
0.548915
0.795571
0.319376
-0.931834
-0.322546
-0.580321
0.861575
-0.350013
-0.539038
-0.607131
0.451273
0.989157
-0.187265
-0.325511
0.245160
0.445482
0.784889
0.849451
-0.048025
0.149428
-0.155968
-0.739152
-0.743746
0.722764
-0.491893
-0.298005
0.207992
0.130538
0.034248
-0.284349
0.832155
0.125433
-0.654188
-1.198596
-1.040052
-0.937977
0.814784
-0.384108
0.547709
0.878542
-0.457381
1.146234
0.990354
0.201956
0.485874
-0.380341
0.259715
-0.357781
0.383934
0.197797
0.377334
0.453821
0.213032
0.839663
-0.770018
-0.241269
0.755672
0.023944
0.009775
-0.403814
0.588145
1.333778
-0.607988
0.216833
0.880926
-1.229382
-0.382974
0.454146
0.183338
-0.147202
-0.888066
0.743105
0.284589
0.367872
0.675011
1.067513
-0.593045
-1.284017
0.030835
0.797047
0.361768
-0.899991
0.202194
1.227772
0.950784
0.380349
-0.563649
-0.641883
-0.575449
0.676128
0.215907
-0.515007
-0.898331
0.095402
0.055704
-1.175654
1.012709
-0.089239
0.095522
-1.043977
0.454262
-0.628522
-0.219897
0.231025
-0.028067
-0.090717
0.248634
-1.214157
0.490379
0.956749
-0.135295
0.667216
-0.291685
-0.625003
-0.849446
-0.663988
-0.377823
-0.075410
-0.733210
-0.023378
0.794469
0.198170
0.476802
0.170242
-0.488561
0.275079
-0.291303
-0.071420
-0.434141
0.238068
0.073816
0.278839
0.297932
1.083112
0.743389
-0.691517
0.584155
0.513128
0.003466
0.274047
-0.279938
0.040373
-1.030938
0.260731
-0.751101
0.187150
-0.538274
-0.645809
-0.740179
0.756454
-0.469826
-0.708165
0.000964
0.596676
-0.239637
0.676659
0.319791
0.433479
-0.747477
0.307247
0.718376
0.143417
0.157920
-0.814002
-0.954198
-0.428535
-0.494341
-1.274240
0.306767
0.364537
0.848310
0.238122
0.382259
-0.552237
1.129765
-0.404719
0.869235
0.229914
-0.005183
-0.330217
-0.978646
0.431877
0.128201
-0.246634
-1.280185
-0.808394
-0.770805
-0.805446
-0.605944
-1.144647
0.195878
-0.716237
0.065602
0.725154
0.284760
1.101952
0.468420
-0.365797
-0.539138
1.421779
0.224128
-0.248943
-0.408206
-0.853315
-1.284433
-0.799680
-1.639957
-0.110667
0.012805
-0.349930
-0.122853
-0.696970
-0.480140
1.352813
0.029112
-0.365309
0.659742
0.983512
0.771702
-0.484468
0.606683
0.597447
-1.396692
0.574341
-0.232131
0.803516
-0.310231
-0.404472
-0.196371
-0.262872
0.386165
-0.181043
-0.204662
-1.128349
0.174416
-1.024906
-0.258082
-0.296785
1.393251
-0.642699
-0.286680
0.439182
0.222481
-0.795345
0.080577
0.074342
0.394590
-0.794911
-0.052691
0.262366
0.247756
0.177980
-0.557458
0.411828
0.343547
0.699520
-0.135001
-1.121293
-0.768512
0.782763
-0.719698
-0.476824
0.316909
-0.256531
-0.636450
0.055434
0.524400
-0.670711
-0.572391
-0.194599
0.475393
1.236639
-0.644882
-0.590919
0.261908
-0.686199
-0.084288
-0.495960
0.240560
-0.460815
1.046106
0.379595
-0.092147
-0.801374
0.164756
-1.152515
-0.780683
0.453825
0.165501
-0.574516
0.241189
1.021084
-0.746408
-0.632945
0.295605
-0.335999
0.214548
-0.796610
0.880868
-0.489935
-0.978624
0.414780
-0.945834
-0.075591
-0.449727
0.324141
0.431737
-0.804614
-0.667631
-1.163159
-0.424825
-0.728762
-0.275631
-0.180515
0.337296
0.449039
0.559381
-0.436198
0.336633
0.955468
-0.239935
0.971873
-0.796664
0.173544
0.859896
-0.290161
-0.101817
0.426337
-0.929555
0.516984
-0.291762
0.087031
-1.552701
0.735820
-0.637014
-1.515136
-0.368046
-0.275445
-0.042244
-0.798203
-0.383446
-0.057213
-0.203989
-0.301251
-0.502122
0.067292
0.524929
-0.382942
-0.329866
-0.291461
-0.536388
0.286134
-0.034445
0.003006
0.194984
-0.249920
-0.967095
-0.789397
0.221310
0.469148
-0.720229
0.032898
0.257980
0.028275
0.382094
1.009142
-0.411777
0.383541
-0.380046
0.825361
-0.338944
0.692326
-0.723659
0.581288
-0.129494
-0.829108
0.318015
-0.020766
-0.100044
0.578249
0.977141
-0.234279
-0.854765
-0.564158
0.305504
-0.467183
0.450995
-0.769890
0.418232
-0.998236
0.194021
1.268010
-1.110464
-0.344148
-0.688566
-0.343760
0.614217
0.029693
0.214365
0.354407
-0.698184
-0.461788
-0.117679
-0.178514
0.421866
0.921525
-0.092383
-0.629669
-0.944018
0.563236
-0.845792
0.789597
0.905687
-0.309148
-0.238093
0.327507
-0.813992
-0.300679
-0.031639
0.049491
-0.324418
0.478191
0.643084
0.004300
0.237729
-0.167272
0.216298
-0.754288
0.209858
0.803965
1.232197
0.452324
-0.643319
-0.009999
0.831878
-0.003893
-0.391175
-0.105323
-0.240525
-0.537807
0.010429
0.364977
0.618547
0.628858
-0.179051
0.646846
-0.637873
0.654390
0.326058
0.632064
0.227795
0.242682
-0.655768
-0.312503
1.850958
-2.699341
-2.690057
-0.469785
-2.639400
-2.354848
-0.552873
0.352775
2.552821
-0.550292
1.045646
-1.417820
0.587803
-0.860507
0.384892
-3.547954
-0.226283
0.679915
-0.206885
-0.533560
-2.335718
-0.896942
3.119350
2.574671
-0.185092
-3.153877
0.412635
-1.992244
-3.598889
0.664173
-1.750867
-2.223339
-2.547249
2.268022
-3.229883
4.335131
-2.457473
1.467840
-2.980242
1.264814
-1.270997
-0.260299
1.542735
-2.782142
-1.904238
-0.413431
-1.973030
2.829345
-0.560817
2.941317
-1.856702
-0.587702
-1.221159
-0.692982
5.159064
-2.950861
-0.903876
-0.295843
-2.312170
1.004160
-1.811877
1.331221
-1.357269
1.511551
-2.271777
-0.408649
-3.075040
1.991970
-3.106211
-1.540380
-1.878365
-0.489428
-0.944351
0.508488
-2.275397
-1.591981
1.874397
-3.094684
3.485028
1.719676
-2.225359
1.630433
2.743045
0.204945
-1.043356
-1.026569
-1.018853
0.598847
-1.491792
-1.851995
-2.597744
2.159457
1.917261
-1.499275
-2.326994
2.026923
2.249433
-1.972481
-2.418874
-2.092156
0.387255
0.831359
-3.206677
-0.322131
-2.789362
-0.853029
2.236853
-0.135818
-1.230301
0.602602
-2.603284
-0.850806
-2.422758
-2.606336
1.418109
1.120054
0.335057
1.429148
-2.186143
1.648965
-3.166005
-2.433480
-0.419535
-2.589843
0.721402
1.216244
0.935574
1.923947
1.127876
-4.224845
-1.472777
4.239264
-3.728373
-2.359043
-0.531673
-0.105674
3.366589
-1.679869
-0.696603
-1.478444
1.918323
-1.472722
-2.769522
1.598456
2.375840
-3.589008
0.505188
1.080252
-4.164190
-1.528186
0.719258
-2.675974
-0.935448
-1.694900
-2.223604
-1.284339
-1.047208
0.134215
-1.195781
-1.372977
0.914389
2.048693
-0.639935
-1.062189
-0.293592
0.436999
-3.724055
-4.649612
0.266392
-1.639408
-0.109836
-2.954908
1.660209
0.431980
-1.904561
1.372624
0.936650
-2.801765
-2.019439
-2.293736
-1.310261
0.439476
-1.176984
3.313286
0.603342
-1.645220
-0.751454
-2.090138
0.429615
-0.624934
2.034356
1.801957
0.133972
-1.882059
-2.155176
-3.074609
-0.244472
2.120228
0.131450
-3.103088
0.733764
-1.535903
0.506172
-1.926690
1.204450
1.367601
-3.853266
-4.521464
-1.396685
1.153750
-3.387735
-2.852146
-3.212936
1.914250
0.967103
1.968544
0.404970
-0.234090
2.805962
-3.024123
-0.553848
-0.992059
0.118227
-2.561442
0.093356
-1.947790
-2.038400
-0.510169
1.528862
1.001219
-2.854984
2.300014
-2.233482
-0.797263
-0.724829
-0.742654
-2.353328
0.543362
1.676447
0.079363
-1.047954
-1.778249
-1.011661
-0.830222
-0.219626
-0.146355
-2.169734
-2.496976
-1.037504
-0.337415
