0.5 101 25 10
-0.597862
0.327346
1.133350
-0.016544
-0.501108
-1.152486
0.191572
-0.510257
-0.755581
0.301500
0.605386
-1.273979
0.795270
1.189516
-0.779752
-1.053071
-0.574927
-1.071556
-1.145987
-0.695334
0.193318
-0.941501
-0.330736
-0.301762
-0.789555
0.376548
-0.445158
1.239362
1.290405
-0.584191
1.071067
0.982932
-0.441491
0.907501
-0.291604
0.578937
0.856030
0.609759
0.347457
1.060942
-1.148592
0.038027
-0.858045
0.616122
-0.095766
-0.837672
-1.001027
-0.167366
-0.110231
-0.715791
-0.618537
-0.490962
0.485208
0.299722
0.535227
-0.129703
-0.224244
-0.243492
0.260304
0.245396
0.111965
-0.239090
-0.478911
-0.497149
-0.456729
-1.424029
0.192369
-0.717068
-0.935262
-0.584974
0.220314
0.670020
1.047172
1.530737
0.257920
0.596375
0.090995
0.508896
0.493468
0.168704
1.092626
-0.514733
-0.225900
-0.527337
-0.259060
0.885871
0.639252
0.548396
-0.805753
-0.014098
-1.245705
-0.986142
-0.107607
-0.233552
0.387821
0.693362
-0.960236
0.575341
1.035201
-0.683517
-0.287833
0.090451
0.772659
1.601544
1.013983
2.038542
-1.025650
-0.032507
1.096430
0.960498
0.372857
-0.068380
-0.706422
0.076628
1.545398
-0.496902
-0.201782
-1.278181
-0.204849
0.285903
0.551760
-0.187142
0.889525
1.053204
-0.642356
0.492152
-0.247959
0.224101
1.306657
0.295777
1.174267
-0.386355
0.679612
0.920554
0.660154
-0.242302
0.797635
-0.045046
-1.122414
-0.053808
-0.365173
-1.203266
-0.197846
0.021143
-1.146059
-0.693594
-0.071353
-0.287888
0.272380
-0.732884
0.205445
-0.620571
-1.160070
1.243882
0.792681
0.781478
-0.769641
-0.701035
0.894600
-0.335480
0.590781
1.083486
-0.493710
0.376659
0.640795
-0.875376
-0.508368
0.230519
-0.099152
0.261412
-0.074015
-0.021982
-0.740189
0.853586
-0.348701
0.759668
-0.162048
0.271703
0.891448
1.010997
1.291807
-0.680233
0.768946
-0.166874
-0.019084
-0.035168
0.641669
0.727207
-0.782326
0.451299
-0.728586
-0.250431
-0.323673
-0.309712
0.313233
0.190557
0.411287
-0.269647
1.359434
0.038422
0.713625
-0.042675
-0.978863
0.857092
0.232289
-0.055709
0.477482
0.020788
0.429627
0.288052
-0.782035
0.306506
-1.078737
0.746574
0.839020
-0.368653
0.444920
-0.211081
-0.883369
-0.994206
1.436488
-0.220720
0.115576
0.810529
-0.329675
-1.196180
-0.753377
0.722975
-1.533392
-0.899319
-0.092461
-1.936987
-0.998787
0.523930
-0.141735
0.554254
0.103423
-0.615293
-0.358250
0.905763
0.571404
0.485541
1.820619
-0.093254
-0.930357
0.811920
-1.046635
0.416603
1.023701
0.553406
-1.181689
0.320011
0.078713
0.269949
-0.730626
0.282249
1.119393
0.342727
0.662943
0.825792
0.973664
-0.214567
1.116411
0.830728
-0.123715
0.169859
1.058766
-0.327474
-1.411061
-0.227749
0.119786
0.586877
0.046932
1.049513
-0.259737
0.505143
0.557924
-0.254983
0.006090
-0.611238
-0.264292
-0.060139
0.341410
0.239216
0.743021
-0.840897
-0.916886
1.028927
-0.673184
-0.270236
-0.181025
0.558751
0.883432
0.138212
0.291306
0.130726
0.506947
0.377910
0.163911
0.320603
-1.091487
1.014398
-0.303901
-0.215065
0.284109
0.882420
0.133155
-1.037541
0.737367
0.061856
-0.722959
-0.865811
-0.366549
0.705937
-0.367088
-0.729266
-0.421343
0.135136
0.559480
-0.189241
0.085177
0.828129
-0.298804
0.592727
0.748991
0.721161
-0.060898
0.610605
0.270016
0.703654
0.675024
0.388470
-0.659836
0.553713
0.006544
0.082283
0.328309
0.058488
0.175645
-1.230300
-0.702711
0.071626
-0.815575
0.182434
-0.228191
0.638770
-0.819431
0.078022
-0.889392
-0.590339
0.394367
0.912654
0.050323
0.604248
0.516163
-0.354140
0.153532
1.522021
-0.298152
-0.893602
0.177262
0.285256
-0.577745
1.387614
-0.705067
-0.039278
-0.026215
-0.801418
-0.347178
-0.469440
-0.302123
0.661692
-1.341406
0.069297
0.771355
-1.033737
0.359376
0.284113
0.131273
0.397506
0.744505
0.163666
1.046825
0.956324
0.140184
-0.098633
-0.012190
-0.034599
0.363150
-0.290521
0.313418
-0.240983
-1.076691
-0.097076
0.209299
0.188229
0.807721
-0.792400
-0.629961
0.609114
-0.546491
0.964413
-0.394568
0.946067
-0.013859
1.075473
-0.318214
0.265115
0.730606
0.613705
-0.334847
-0.738134
-0.789629
0.863863
0.020654
-1.309155
-0.114823
-1.067615
0.488170
-0.223620
0.450844
-0.958674
0.378785
0.186455
-0.405824
-0.985621
0.478916
0.046091
0.552553
-0.027683
0.337613
0.072222
0.565886
0.933268
-0.280689
-0.476805
-0.542615
-0.136348
0.084709
0.206778
-0.236990
0.299330
-0.062911
0.126003
0.853956
-0.010481
-0.986479
0.439983
0.052796
0.467291
-0.421645
-0.139583
0.877306
0.271577
-0.445319
-0.144733
-0.456345
0.589488
0.303235
0.467494
-0.607295
0.020554
-0.096124
-0.714452
-0.049943
-0.272206
-0.805490
0.248747
0.327753
0.946505
0.631964
-0.838499
0.227244
-0.589668
0.847074
-0.301571
0.261658
0.894593
-0.838593
-0.519758
1.318476
0.521485
0.446948
-0.211198
-0.144654
-0.058900
-0.360949
-0.392883
-0.174901
1.224936
1.043203
-0.027848
1.314651
1.331867
0.231266
-0.334124
-0.749084
-0.668501
0.252489
-0.800090
-0.499152
0.217836
-0.299215
-0.192533
-1.241836
-1.099882
-0.088800
-0.494837
0.679840
-0.524010
-1.403665
0.800725
1.131154
0.705702
1.736731
-0.739055
-0.054648
0.158157
0.584856
-1.159836
-0.162503
0.695155
-0.591581
0.598801
0.178934
0.677253
0.733404
0.628679
-0.775625
-0.634467
-0.888249
-0.189175
-1.091196
0.274837
-0.397802
0.302005
-0.589971
0.583970
0.552743
0.393769
0.413735
0.026602
0.366366
-0.374225
-0.818523
-1.165608
-0.352561
-0.602530
-0.122523
0.062237
0.293534
0.215007
0.731429
-1.105348
-0.469986
0.530137
0.739639
0.318170
-0.150331
0.495844
0.221949
0.417484
-0.193668
0.128419
0.465257
-0.577921
0.046557
-0.021649
0.593783
-0.671624
0.361774
0.260920
0.366092
0.597284
0.346167
-0.739810
0.519454
-0.521738
-0.685392
0.038906
0.850351
-1.045156
-1.146950
0.192562
0.687236
-0.285044
-0.457387
0.742314
-0.540735
0.190084
-0.458380
0.469729
0.485255
0.196142
-0.690659
0.125118
-0.904485
0.252702
-0.462360
-0.385626
0.374776
-0.361771
0.402802
0.408747
0.412168
-0.433328
0.738698
0.720795
0.592963
1.021876
-0.250940
0.362040
0.179151
0.496255
0.521035
0.552772
0.964798
-1.022481
0.874894
-0.020280
0.032646
0.493996
-0.487595
0.034849
-0.027257
-0.380076
-0.334298
0.786453
-0.661883
0.260784
0.025006
0.212734
0.831516
-0.000234
-0.617878
0.716996
0.413200
1.084246
1.198656
-0.203340
-0.004804
-0.009303
0.179745
0.723281
-0.463322
0.195621
0.266168
-0.251277
0.838003
-0.353537
-1.115847
-0.161766
0.468538
1.240033
-1.270102
1.059501
-0.552185
-0.458859
0.227612
-0.837755
1.446725
0.564072
-0.724291
1.327426
-0.086543
0.046005
-0.789791
-1.266933
0.204996
-0.171698
-0.070010
-0.767425
-0.290974
-0.258227
-0.465258
-0.502351
-1.117611
0.341482
0.165990
-0.595014
-1.427025
0.668187
0.368982
0.765904
0.988635
-0.409798
0.283268
-0.347498
0.692704
0.925303
-0.049154
-0.373001
0.344467
-0.662580
-0.958743
-0.097393
-0.092294
-0.467847
-0.696348
-0.426572
-0.080501
0.216121
0.846622
0.189649
0.235329
0.043010
0.062918
0.252151
0.225030
-0.107219
0.442920
-0.014361
-0.321802
-0.043148
0.218901
-0.274131
-0.466353
-0.252022
-0.821692
-0.612353
0.209432
-0.847860
0.693704
-1.286038
-0.598011
-0.706201
-0.211479
-0.343843
1.019645
0.085127
0.725281
0.528185
1.115605
-0.516459
0.777427
-0.145773
0.103352
0.388697
-0.716168
0.023392
0.683973
0.823841
0.284746
0.787090
0.286726
-0.597363
-0.533828
0.334122
-0.785720
-0.539978
0.735358
0.059056
1.135784
-0.823419
0.838063
1.131851
-0.466858
-1.094752
0.544730
0.827509
0.073039
-0.053723
0.149631
0.143878
0.350010
0.425453
0.372005
-0.766175
0.565502
-0.568962
0.451118
-0.251579
-0.478878
0.486403
0.780126
0.256782
-0.568954
-0.241797
0.490767
-0.093929
-0.445595
0.055698
0.242532
-0.165393
1.123973
-0.375381
0.983684
-0.479278
-0.520185
0.389984
-0.558178
-0.294899
-0.010892
0.305853
0.033132
0.333635
-0.589433
0.131926
-0.525581
0.006050
0.354910
-0.624007
-0.040085
-1.380254
-0.638399
-0.429191
-0.004161
-0.780914
0.379111
0.392431
1.295249
-0.596805
-0.393083
-0.299423
1.425691
-0.147567
1.246474
0.477750
-0.209372
0.184752
0.166562
-0.263929
0.173475
1.418281
0.538834
-0.162166
1.511528
-0.105145
-1.004052
0.214906
0.591464
0.069141
-0.595197
0.889980
0.445924
0.454659
-1.205404
0.240166
0.324000
0.663565
0.484304
-0.154771
-0.700020
0.972488
-0.717289
0.832575
0.098334
-0.918853
0.363218
-0.275272
0.522767
0.262147
-0.539588
0.323824
0.668295
-0.404311
0.462331
0.796420
1.294467
0.935266
0.490832
-0.248956
0.233012
-0.293699
-0.385871
-1.390525
-0.211548
-1.081360
-0.282055
-0.947815
-1.113827
-0.666788
-0.302916
-0.479411
0.242290
0.189188
0.589445
-0.088339
0.370028
-0.198650
0.313114
-0.316170
-0.086670
0.829652
0.445467
0.347865
-0.964230
-0.686648
0.866819
0.046397
-0.090056
-0.312029
-0.511325
-0.160819
-0.830401
0.541553
-0.173776
-1.240448
-0.865232
0.006559
-0.920876
0.564015
1.198591
-0.939374
0.467878
-0.721980
-0.597797
0.986031
-0.064916
0.954338
-0.076101
-0.089684
0.967064
0.246938
-0.342904
-0.551166
-0.703346
0.230939
0.584027
-1.442700
0.317852
-0.908926
0.237703
0.007198
-0.570575
0.022785
-0.700046
1.012617
-0.118857
-1.225029
-1.247587
0.237275
1.553170
-0.543530
1.127056
-0.149244
-1.295148
-0.145586
-0.578630
0.298876
0.796027
-0.173874
1.440766
-0.148207
0.098846
-0.573511
0.622745
0.990873
-0.672546
-0.994736
-0.193941
0.201037
-0.415107
-0.793282
-0.674082
-1.150729
-0.527058
0.567833
-0.021122
0.323433
-0.531489
-0.733745
-0.542750
0.473767
0.261355
-0.453694
-0.063316
-0.512273
1.407815
-0.984141
0.929674
0.750400
1.312563
-0.574317
-0.806957
-0.128436
-1.486331
0.903461
0.941880
0.407861
0.052714
-0.328599
-0.491246
-1.222691
0.872295
-0.636486
0.691569
0.574912
-1.228429
-0.423358
-0.696076
0.444535
0.183880
0.749145
-0.810360
-1.263353
-0.304170
0.271231
0.009310
-0.553949
0.293600
-0.095046
0.480221
1.289628
0.205394
-0.220338
0.256114
1.386796
-0.792056
-0.656300
-1.517070
-0.222616
0.482969
-0.076833
0.253802
0.051373
0.181210
1.173289
1.092759
-0.367918
-1.812721
0.131780
-0.659722
-0.428860
-0.595969
0.628483
1.033018
-0.664019
1.087559
-0.375847
0.679874
-0.057959
0.094960
-0.105931
-0.734104
-0.681843
1.403336
0.596351
0.712766
0.535837
-0.237188
0.000570
0.200112
1.548600
0.958673
-0.657273
-0.979664
-0.581990
-0.247123
-0.919203
-0.576206
0.237005
-0.289857
-0.861478
0.845014
1.342668
0.449530
-0.258315
0.096045
-0.036385
1.548930
0.480029
-0.126975
-0.178565
-0.787068
-0.686548
0.555858
-0.027403
-0.705780
0.636442
-0.334762
-0.809129
0.004703
0.285217
0.201095
0.003426
1.083812
-0.346687
-0.202253
-1.151242
-0.209502
0.267707
0.547723
0.263049
-0.119960
0.637984
-0.861958
-0.106659
0.213043
0.272965
-0.022495
0.010478
-0.077194
-0.418509
-0.731901
-0.369554
0.653605
1.073488
0.555956
-0.953107
-0.581365
0.245037
0.588828
0.087898
-0.288878
-0.280374
0.835028
0.541448
0.175277
-0.878248
0.242598
0.551257
-0.457492
-0.216271
1.192125
-0.845553
-0.517521
-0.880779
0.614679
-0.262181
-0.484455
0.834411
-0.779765
-0.073085
0.455834
-0.239619
0.515070
-0.427637
0.550888
-0.764843
-0.636819
-0.044370
0.284509
0.767750
0.746605
0.857933
1.660255
0.398078
0.556852
-0.136034
-0.662697
0.335398
-0.063987
-0.383998
0.580167
0.353337
-0.616094
-1.060469
-0.262847
0.679943
-0.630490
-0.448380
0.824289
-0.373555
-0.973332
-0.919741
0.280604
0.289419
-0.171534
0.833149
-0.046871
-0.317038
0.149121
0.155599
-0.352720
-0.105568
-0.401467
0.306025
-0.333305
-0.345187
-0.015249
-0.968415
0.487750
-0.219684
0.321480
-1.078924
-0.453609
-0.129083
0.708305
-1.032464
-0.530726
0.701091
0.670943
-0.571959
-0.268232
0.284859
0.298274
0.605198
1.058731
-0.606892
0.127943
-0.305475
0.601099
-0.637155
0.536810
0.298315
0.420034
0.125035
-0.280298
0.145184
-0.190096
0.437709
1.714693
0.453522
-0.124711
-0.787234
0.153679
-1.122199
-0.332231
0.734448
1.414750
-0.174485
-0.181032
-0.650605
-0.577069
0.157102
0.820813
0.501443
-0.907770
-0.192140
0.317427
-0.098266
1.266391
-0.607782
0.331759
0.779423
-1.228967
1.150174
-0.662327
0.380127
1.825872
0.870329
-0.147091
-0.796453
0.584337
0.528295
0.824495
1.814956
-0.914300
-1.231588
-1.295072
-0.434014
-0.773680
0.573059
-1.321741
0.027673
0.101448
-0.335060
0.329204
0.754193
-0.291551
-0.627651
-0.018892
0.385756
0.974143
-0.672190
-1.031301
-0.680576
0.944413
-0.699937
-0.935982
1.334618
0.359198
-0.229395
0.064540
0.548354
-0.894290
0.774087
-0.970508
-0.321336
1.096724
0.149437
-0.916087
-0.539889
0.140718
-0.212406
0.003183
0.593830
-0.974100
-1.128474
0.067497
0.390660
-0.165884
0.115754
0.295374
-0.928123
1.116698
0.169244
1.116432
0.970790
0.566722
-0.359382
0.474097
1.122215
-0.451425
0.387638
-0.908596
-0.820852
-1.146541
-0.905391
-0.714143
0.141351
1.170236
-0.528789
-0.073152
-0.629296
-1.216307
1.446349
-0.899665
-0.544052
-0.479622
0.583149
-0.025473
0.361958
0.938477
-0.270682
-0.196197
0.268082
0.927387
0.951725
-0.822907
-0.741264
-0.336434
-0.759807
0.347834
-0.000445
-0.384582
1.615440
0.489947
-0.745805
0.619782
0.454128
-0.481812
0.299447
-0.950017
1.411942
0.507098
0.259386
-0.071215
0.905317
0.532701
0.047816
0.433296
0.161559
-0.091651
-0.975778
0.224188
-0.122840
0.014498
-0.400322
0.477244
-0.081232
0.748892
1.014575
-1.215941
-0.299521
0.300169
0.929180
0.342565
-0.779179
-0.012920
0.676639
0.783421
-1.005001
0.351726
-0.772880
0.892090
-0.373476
1.028256
-0.528416
-1.172117
-0.344425
0.429620
-0.730994
0.054481
-0.178655
1.060101
-0.457132
1.148828
0.284709
-0.197825
-0.238049
0.129432
0.412890
1.042797
-0.035225
-0.300797
-0.054819
0.399816
0.256227
0.495758
0.539930
-1.017231
-0.432658
-0.382729
0.918361
-0.849538
-0.385807
-1.087385
0.306137
0.815554
-0.969942
1.046145
0.272776
-1.418405
-0.555597
0.634224
0.194099
-0.228307
0.622402
0.925117
0.668555
0.437482
0.033083
0.215268
-0.242730
-0.497268
1.091544
0.826180
0.062549
-1.507383
0.120090
0.043396
-1.107232
-0.876737
1.483531
0.072791
0.279022
0.269921
0.340019
-0.451247
0.475675
0.248958
0.863444
-1.033621
1.086283
-0.557831
-0.057047
-0.144081
-0.605333
0.046790
0.137087
0.167996
-0.101194
-0.439816
-0.446193
0.308067
0.180821
-0.866440
-0.915585
0.527721
0.291469
0.363226
-1.957137
-0.028946
-0.065049
-1.023283
-0.279559
0.278756
0.593668
0.686984
1.114127
-0.009857
-0.155875
-1.070172
0.098628
0.267685
-0.247727
-0.437365
0.359655
-0.788539
0.025877
-1.092918
1.166427
-0.507573
1.318524
-0.204882
-0.158795
-1.494450
-1.320217
0.663270
0.160678
-0.452926
-0.722772
-0.334390
0.156674
1.291102
0.872742
-0.119602
-0.656864
-1.169198
0.739225
-0.445142
0.097657
-1.570412
0.699234
-0.846063
0.454226
0.473082
-0.728469
0.555644
0.051429
-0.226086
-0.636923
0.070394
0.143970
-1.360676
-0.775195
0.280986
1.156121
-1.760383
-0.410679
-0.289203
1.496811
-1.587127
1.624664
0.985150
0.140229
1.370975
0.245181
-0.240446
-1.204901
-0.775062
0.242010
0.421467
-0.174825
-0.144319
0.006837
1.328201
-0.364731
-0.594355
-0.585792
0.875192
0.632445
-0.218176
-0.752527
0.587267
-0.361691
1.361820
-0.671147
0.177406
0.904150
0.623272
-0.411262
0.603116
-1.411132
0.161293
0.335847
-1.845339
-0.502071
0.490247
1.239669
0.049732
0.333308
-0.878673
-0.435137
0.510541
0.503037
-0.201191
0.746666
1.245368
0.533354
-0.704949
-0.939245
-0.660942
0.156137
-0.276651
-0.813673
0.206682
1.301603
-0.422641
-0.183074
0.210055
-1.171746
0.955263
1.409664
1.522504
-0.367737
-0.940503
-0.349242
0.926593
-0.017752
-1.080689
-0.201505
-0.702235
-0.218413
-0.593543
-0.516975
-0.410107
-0.251809
0.228564
-0.807249
-1.092653
-0.278181
0.332413
-0.471015
-0.603534
-0.847097
1.149721
0.584630
-0.436032
1.269994
-0.158436
0.440779
-0.635193
0.138203
0.267378
-0.511156
0.711567
-0.240329
0.757701
-0.178545
1.069970
-0.320740
0.239208
0.246945
0.735892
-0.478414
0.364858
0.656262
-0.053533
-0.550656
-0.389618
-0.363176
-0.906931
0.086905
1.238872
0.509679
-1.001538
0.654155
0.902074
-0.125147
-0.559450
0.026427
-0.007693
1.192828
-0.816434
-1.144829
-1.090977
0.164462
0.187208
0.585230
-0.493193
0.981449
-0.113729
-0.718544
-0.808286
0.883235
0.955778
0.112444
0.284445
-0.412468
0.771600
1.059458
-1.537761
-0.223865
0.151785
0.299346
-0.681664
-0.679103
0.719012
-0.923126
-1.117896
-1.059689
-0.639233
-0.478218
0.441074
0.517052
0.490582
-0.335321
-0.134329
0.223197
-0.552069
-0.228493
0.691952
0.107490
0.346673
0.803085
-0.910221
-0.836448
0.680822
-1.121327
-0.087981
-0.245453
0.021708
1.276550
0.848903
-0.841350
-0.413053
-0.475371
0.521796
0.211031
0.982260
-1.195450
0.369261
0.718265
0.378712
-0.694411
-0.623245
-0.047090
0.174377
0.030442
-0.624247
-1.126747
-0.768335
0.280428
0.151764
-0.702084
0.149800
-0.657474
0.407328
-0.017668
-0.383286
-0.765788
-1.177712
0.319819
0.202870
-0.170484
0.003319
-0.008019
-0.212899
0.609229
0.312656
-0.364824
-0.265143
1.257556
-0.670707
-0.689467
0.802431
0.215796
-0.297026
0.442978
0.675093
-0.439560
-0.954953
-0.533674
0.921233
1.661265
-0.682231
-0.817426
0.191299
0.078863
-0.910004
-0.682767
0.307564
0.308048
-0.743534
0.184891
0.716956
-0.570443
-0.666681
0.702587
-0.411404
0.411455
1.048620
-0.022654
-1.677640
-1.484842
-0.136554
-0.698321
-0.031246
-0.281749
-1.023009
-0.171385
-1.749722
0.430097
0.040935
1.068622
-0.776262
1.222733
1.033982
0.733516
-0.156241
-0.455985
-0.379566
0.284111
0.485782
-0.738914
-0.779168
1.118331
-1.147322
-0.047960
0.516632
-0.128846
0.868048
-1.500234
-0.306274
0.008418
0.450276
-1.127688
0.777398
-0.449375
1.103420
0.863950
-0.295619
-0.170235
0.186335
0.416843
-1.468317
-0.517169
-0.806731
0.021300
0.713166
-0.125682
0.796017
-0.731474
-0.233263
-0.444977
-1.011145
0.437543
0.481548
-0.552697
-0.370723
-0.964865
-0.827054
0.086528
0.614591
1.238927
0.026136
-0.986166
0.419277
0.147382
0.347363
-0.273069
0.110480
0.122715
1.316226
-0.204937
-0.162695
0.970004
0.106706
-0.981883
-0.849931
0.671109
0.044557
0.203694
0.830769
0.558919
0.094147
0.153280
-0.316267
-0.496256
-0.860725
-0.810899
0.223983
-0.414839
0.335669
0.531717
0.373919
-0.716374
-0.301347
0.942762
-0.648111
-0.052596
0.547393
-0.488490
-0.369192
-0.198169
-0.060907
-0.153868
-0.534214
-0.699440
0.093227
0.904570
0.198164
0.142862
-0.003996
-0.363749
0.633522
-0.419367
0.152247
-0.032682
-0.632286
-0.426923
-0.316952
-0.367300
0.420726
0.067698
-0.009660
-0.604879
-0.112663
-0.781874
-0.172973
0.782350
-0.261232
-0.321267
-1.141586
0.123555
-0.268958
-0.011603
0.614920
-0.347129
-0.535827
0.817902
0.411339
0.683809
0.899436
-0.755888
0.272840
0.125983
-0.940934
0.558960
-0.684495
-0.581600
-1.112037
-0.180634
0.285620
-1.090521
0.779528
0.893546
-0.071097
0.017425
0.394241
-0.573617
0.023128
-0.062709
0.253323
0.184902
-0.894268
0.135114
-0.576211
0.353554
0.382216
0.062787
-0.377308
0.597248
-0.637029
0.097460
0.855349
-0.670854
-0.566277
-0.571309
-0.313433
-0.976283
-0.374055
1.159058
-0.256473
0.129275
-1.053929
-0.673889
0.009406
1.328252
0.659631
-0.850233
0.265939
0.065194
-0.154014
-0.693326
0.301253
0.482810
0.337261
-0.106164
0.722448
-0.402296
0.340260
0.244412
0.284638
-0.443790
-0.031027
0.896496
0.233745
-0.313644
-0.061222
-1.439291
-0.726294
-0.276580
-0.144503
-0.043367
0.773775
0.889894
-0.463570
-0.132422
-0.297093
0.990003
0.228295
1.479441
1.100053
-1.361093
0.866918
-0.172792
-0.104872
1.327630
-0.419679
-1.953973
-0.920019
-1.481293
-0.697487
0.615530
0.042852
-0.140442
-1.165625
0.760984
-0.811922
-0.011387
0.487585
-0.394215
-0.892677
0.353835
-1.237432
0.089083
-0.084462
0.998872
-0.760653
-0.370259
0.119309
-0.833025
-0.464218
-0.811824
-0.394856
0.030668
-1.608158
-1.007889
0.216810
0.900632
-0.714344
1.555332
0.676368
0.497539
1.117825
0.078498
-0.221979
-0.613486
-0.744310
1.025482
0.183679
-0.251108
0.322385
-0.262267
-0.511698
1.477646
0.081509
-1.210450
0.124693
0.061069
1.128261
-0.796273
0.217832
-0.014936
-0.070770
-0.601689
0.058465
0.344436
0.479778
-0.385456
0.842541
1.456832
-0.520693
-0.315062
-0.027053
0.491023
0.742616
0.457881
-0.749789
-0.153600
0.713191
1.038753
-0.383741
-1.691292
-0.071715
-0.316871
-0.874774
0.141608
0.138309
0.904429
-1.255352
0.170708
-0.200864
-0.748278
-0.084206
0.348760
-0.225505
-0.714590
-0.165945
-0.229543
0.223433
0.393535
1.685052
-1.083999
0.165816
-0.642459
-1.343078
0.547225
1.016109
-0.493650
0.695399
-0.325157
-0.987378
-0.479682
0.599642
-1.140856
0.979682
0.777890
-0.067715
-0.188623
0.344206
1.059235
-0.493304
0.461800
0.371202
-0.760624
-1.225645
0.314278
-0.042735
-0.988384
0.589452
-0.689571
-0.982167
-0.434364
-0.054895
-0.383934
-0.662336
-1.785094
0.149616
1.131529
0.074897
-1.200760
-0.168958
0.193241
-0.616381
-0.437654
0.686082
0.275880
0.901667
1.343039
0.699080
0.435353
0.408323
-0.492653
-0.456404
-0.169301
-0.145357
-0.928561
1.391440
1.000796
-0.269372
-0.394239
-0.432878
-0.187450
0.166291
-0.247122
0.530147
0.848229
-0.645835
-0.830227
0.395177
-0.277957
0.686027
-1.179838
0.063839
-0.211209
-0.079587
-0.247322
0.038654
0.297798
-0.375665
0.291030
-0.309146
1.086190
-0.468733
0.309758
0.414977
0.873779
-1.371641
-0.064232
-0.214755
-0.367707
0.856453
-0.474633
0.105171
0.305925
-0.860644
0.914347
0.377959
1.204886
-0.872203
-0.315988
-0.734848
1.071666
0.194124
0.388129
-0.391341
0.115027
0.876186
-0.334409
-0.907806
1.706715
0.796899
0.362303
-0.316542
-0.611982
0.542240
0.008668
0.545499
0.750215
-0.387133
-0.758295
0.389340
-0.267017
0.583943
-0.921999
0.371162
-0.054371
-0.308608
0.128967
0.100259
0.148303
-0.598394
0.546347
-0.567593
-0.531330
-0.474970
1.119240
-0.417229
0.257840
0.158942
-0.705539
-0.853966
0.837537
-0.704257
0.078487
-1.784184
0.919290
-0.729446
0.905026
-0.937008
1.159927
0.327375
-1.286068
0.040009
-0.111139
-0.036674
0.717951
0.279328
-0.780768
0.697356
0.121358
0.457050
1.257261
-0.285759
-1.070223
-0.452120
0.891662
-0.131502
0.420346
-0.436196
0.794214
0.937377
0.445971
-0.325003
0.998270
1.058691
0.270358
-0.668053
0.300254
-0.762465
1.242359
-1.039797
0.564815
-0.098062
0.636960
-0.018717
0.016960
-0.024339
0.478765
0.599434
0.727251
-0.322373
0.616933
0.911198
0.242829
0.499591
0.060146
-0.912302
0.516393
0.094648
0.023236
0.483997
0.074223
0.835391
0.078378
0.175453
0.265978
0.305449
-0.256942
0.339342
0.037101
0.272948
0.320119
0.665927
-0.824063
-0.106873
0.179307
-0.200840
-0.839161
0.860005
-0.204855
-0.903243
0.543814
0.535118
-0.292579
-0.584500
-0.687440
0.976977
0.254414
0.181804
-0.780033
0.080463
-1.812422
-0.534757
0.569487
1.263717
-0.576179
-0.020163
-0.114883
-0.733444
0.023682
-1.297111
-0.357691
0.429299
0.763677
1.495753
-0.205954
1.204164
0.213317
-0.944631
-1.925192
-1.265241
0.118019
-0.745407
0.009488
-0.041313
0.450367
-1.227723
-0.540337
1.048710
1.462177
0.520304
0.249218
-0.576959
0.279180
-0.609230
-0.524696
0.095214
0.124372
1.234891
0.384689
-0.039866
0.628761
0.910158
-0.382522
-1.346023
-1.065667
0.585538
1.290740
0.016528
-0.892970
-0.353311
0.444304
0.166377
0.434764
0.015626
0.242722
-1.562021
-0.296848
0.687586
0.051570
-1.928695
-0.528306
-0.239594
1.561968
0.209400
-0.390920
0.820449
0.344540
-0.180300
-0.646962
-0.704324
0.007255
-0.613373
-0.834077
-0.977730
0.389071
0.548543
-1.597074
0.896201
0.556697
-0.603003
0.085366
-1.372416
0.696744
0.155255
-1.686715
-0.010093
-0.783187
0.109651
0.018404
-0.871945
1.489577
0.327543
-0.614986
0.324156
0.471782
-1.326125
0.732055
-0.238568
-0.322214
0.682724
0.221592
-1.429853
0.184301
0.015265
-0.580800
-0.540349
-0.723376
-1.114723
-0.647290
-1.385073
-0.099533
0.971131
0.204795
0.647049
-0.938922
1.205884
0.448794
-0.160115
1.501819
0.179467
0.248574
-0.219650
0.266844
-0.935183
0.473685
1.330604
-1.542096
-0.707006
1.113196
-0.244507
-1.291925
-0.472024
-0.784374
-0.306701
-0.815880
0.682692
0.328893
1.329665
-0.927249
-0.623823
0.844500
-1.091457
-0.718985
0.588844
-1.373304
0.055872
-0.863949
-0.832556
-0.984173
0.291977
0.263461
-0.662033
0.416177
0.352318
0.341106
-0.727341
0.225447
-0.186122
0.266333
-1.455831
0.488510
-0.456317
1.166437
0.289313
0.282013
0.454428
0.898390
-0.182584
0.755165
0.018154
0.487328
0.162771
-0.087304
-0.741777
0.018320
0.184971
-0.775955
1.080697
-0.405258
0.767885
-0.007582
0.141732
-0.073115
0.650341
0.936704
-0.338439
-0.067689
1.110193
1.132419
-1.006144
0.743108
-0.164247
0.733435
1.162657
0.658852
-0.315345
-0.735376
0.418228
0.680226
-0.269247
-0.507759
0.411957
-0.284563
-0.038707
-0.459395
0.140402
0.510669
1.212162
0.107978
0.100893
0.053309
-0.752746
0.089712
0.685676
-0.368782
-0.284689
1.632430
0.879453
0.892740
0.165875
-1.763906
2.221878
-3.902048
-2.609557
1.576927
0.066429
1.758835
-2.039251
-3.004645
-2.552296
-1.738470
1.806112
-4.549281
0.741713
2.059850
-0.586738
0.946643
-0.631114
-0.872229
-2.385235
1.575697
-2.482636
1.475318
-0.905533
-1.355419
-0.107411
-3.964875
0.558707
0.682414
1.088905
1.660755
0.961285
-2.316365
1.948115
-4.415199
-2.143981
1.902642
-2.342644
3.508145
-2.765781
-0.861270
1.169767
-1.651891
1.357474
-1.254303
-1.768063
1.468945
-1.218221
1.965662
5.052895
-5.311258
1.191493
-2.961509
2.300828
-1.767435
3.487360
-3.085142
-1.581265
-1.121053
1.948100
2.623932
-1.739416
-2.319136
-1.599905
2.638227
-2.177270
-1.404212
-1.243052
-3.440615
1.567235
0.968328
-1.977157
-2.817755
-1.130267
-1.790786
-1.741342
4.078219
0.290867
-2.612006
-1.435034
-1.532631
0.709321
-2.193394
3.878073
-1.615283
-0.891866
-2.679513
3.764764
-0.864456
-1.474963
-0.713112
-1.954073
-1.132373
-1.224759
-0.464565
-1.272570
-1.049994
-1.416104
-3.730874
1.079798
-1.158658
-3.414040
2.855247
1.715808
0.949043
2.169647
-3.497001
-2.232868
0.394419
-0.172414
3.251978
1.168260
-0.633048
-1.335652
-3.945396
1.641325
-1.667713
-2.684462
0.949004
0.182547
1.936445
1.709811
-3.422931
-4.312277
1.355711
-0.117828
-3.672582
0.699879
-3.785992
-2.557494
1.106678
1.056561
-1.423775
1.510943
-0.790759
-2.945927
1.180143
2.195878
-1.916300
4.997739
-3.280822
-0.472732
0.960308
-1.016334
0.361524
-3.537527
-0.598893
3.190231
-1.496070
-1.440210
-2.940442
-1.798464
1.324243
-1.905263
-2.840140
0.057625
3.081196
1.564177
-2.246203
-2.182507
-1.112516
3.946236
-2.166499
-3.686893
1.006427
2.634804
-0.707990
-0.042268
0.302510
-2.854834
-1.540649
-4.029509
2.472587
-3.771913
-2.895865
1.454490
1.000431
1.400356
-1.089171
-0.513313
2.292208
-1.328414
-1.419048
-0.592547
-3.432027
-0.789584
0.817187
-0.425896
1.207069
-1.379161
0.319140
-1.745631
0.570768
1.784027
-1.617029
-1.397341
2.874582
-4.667268
0.966517
-2.700697
-2.076375
0.798317
2.275082
-0.172294
1.796413
-4.469119
-3.147143
-0.799833
0.795780
-0.630403
0.838090
0.304322
0.465361
0.680732
0.276954
-0.541245
0.008919
-0.377305
1.085003
-0.308806
-0.766189
-3.369139
2.162546
-0.702056
0.553289
-2.873814
-0.938585
-1.823902
-0.740096
0.370643
-5.803865
-1.252496
1.767088
-0.101106
2.315201
0.291371
-2.060753
-0.801438
-1.237585
-2.314632
-1.075123
-2.433551
-0.843964
-1.725183
-0.190587
-0.029017
-0.763532
-0.614413
