0.5 197 26 10
0.862745
-0.838096
-0.870457
-1.063230
0.591976
0.684235
0.738938
0.177720
0.845845
0.970500
0.954349
0.368436
-0.234727
0.312311
-0.478432
0.635380
0.222310
0.097303
-1.055987
-0.141510
-0.633675
0.042099
-0.486962
0.391200
-0.323658
-0.132688
0.173867
-0.225342
-0.896908
-0.523274
-0.917014
0.769846
0.319504
0.132212
0.505351
0.442005
0.166026
-0.096557
0.973637
-0.504639
-0.097587
0.000343
-0.446928
-0.212180
-0.065232
0.506063
0.572730
-0.188193
0.242358
-0.389738
-0.512138
0.148417
-0.110845
0.366745
-0.918193
0.232847
-0.605659
0.810628
-0.477988
-0.316955
-0.048870
0.229690
-1.098131
-0.263156
-0.246288
0.699716
-0.855540
0.634929
0.825253
0.638931
0.456699
-0.119395
0.243972
0.226285
0.446448
-0.590777
-0.688740
0.444454
-0.900886
0.812357
0.052540
-0.413057
0.169470
0.874381
-0.915793
0.611370
0.035700
0.256874
0.008789
-0.940148
-0.123510
1.027965
0.736883
0.363635
0.757134
-0.118953
-0.333730
0.271374
-0.600926
0.283057
-0.350203
-0.113713
0.019753
-0.244245
0.979087
-0.762111
-0.089453
-0.636057
-0.164621
0.736848
-0.221790
-0.213403
-0.109944
-0.456352
-0.300253
0.453664
0.452101
-0.666629
0.650040
-0.313094
-0.695000
1.071508
0.132003
-0.072201
-0.519501
-0.581274
-0.310342
0.715833
0.226861
-0.802260
-0.554300
-0.222748
0.302739
-0.721694
0.472087
-0.647632
-0.601034
0.218339
0.251070
0.849271
0.696447
0.464854
-0.658319
0.146404
0.447023
0.547403
0.036704
-0.083903
-0.536813
-0.576653
0.772808
-0.446544
0.474876
-0.782831
0.734494
0.748812
0.399329
-0.236253
0.642280
-0.788325
-0.774901
0.419836
0.180250
0.355599
0.611295
-0.477018
-0.113964
-0.212001
-0.699050
0.412953
-1.066254
0.644646
0.760568
-0.515511
0.460921
0.547723
-0.961910
-0.933527
-0.608468
-0.920014
0.460254
-0.719075
0.283527
-0.390783
-0.159689
0.176337
-0.774433
-0.078166
-0.698817
0.423832
0.684869
0.773602
-0.086337
-0.658667
-0.244848
0.462802
-0.903674
0.672426
-0.995095
-0.490048
-0.561604
-0.179843
-0.800623
0.125795
-0.296152
-1.037429
-0.731173
0.023267
-0.636857
0.232811
-0.699512
0.544734
0.236801
-0.322491
-0.078015
0.475980
0.368554
0.262572
0.694787
0.801406
0.449149
1.099075
-0.960462
-0.277390
0.519336
0.947010
1.085950
-0.057644
0.410002
0.558478
-0.906732
-0.651239
0.132839
0.202167
-0.183255
-0.629760
0.504845
1.054872
0.895129
0.315030
0.456175
-0.708083
-0.941761
0.076773
0.585650
-0.076304
-0.175547
0.437363
0.262379
0.118034
-0.210128
-0.600074
1.058122
-0.854943
-0.033063
-0.467435
-0.335291
0.187419
0.367276
-0.688275
-0.339525
0.825074
-0.464945
-0.766493
0.136890
-0.210819
0.746400
0.227356
0.255902
-0.774222
-0.208816
-0.007673
0.942486
-0.589421
0.660497
0.415334
-0.276776
-0.054671
-0.732227
-0.594176
0.397374
0.055143
0.717648
-0.712877
0.305819
0.411273
0.647129
-0.050845
-0.067486
0.721223
0.881700
-0.841135
-0.761431
1.000555
0.864578
0.477011
-1.013936
-0.567296
-0.392433
0.336913
0.372015
-0.831407
-0.125491
-0.663881
0.753741
-0.500876
-0.859749
0.787174
0.289327
-0.454317
-0.896784
-0.215081
-0.017427
-0.418071
0.797813
-0.636552
0.880126
-0.783022
-0.968864
-0.373928
0.936263
0.580870
0.845309
0.964362
0.047858
-0.396024
0.398731
0.242598
-0.959109
-0.495453
-0.053758
-0.019781
-0.315246
-0.683330
0.258472
0.268408
-0.475773
-0.840805
-0.899424
-0.769467
0.844660
-0.078339
0.628517
-0.221015
0.299020
0.035626
-0.076615
-0.497581
-0.671523
0.706315
0.861856
0.121497
-0.789539
-0.563355
-0.785487
0.824414
0.991302
0.357055
0.032325
0.018697
-0.653962
0.747576
0.053986
-0.962859
-0.100550
0.535167
0.703838
0.872040
-0.549856
0.544551
0.248933
-0.061173
-0.114863
0.075853
0.019811
0.086006
-0.502232
-0.719398
-0.628194
-0.834548
0.035159
0.391297
0.204807
-0.169011
0.260529
-0.205027
-0.391940
0.469377
0.476689
0.307348
0.591248
-0.063135
-0.178774
-0.655972
0.196288
0.433304
0.179721
-0.349623
-0.760480
0.090107
0.952085
-0.671829
-0.813273
0.234854
-0.886519
-0.410790
-0.142109
-0.760644
0.115998
-0.874952
0.198819
-0.695310
-0.558583
0.262883
-0.703514
0.517254
-0.801214
0.046335
0.665852
-0.780576
-0.060971
-0.400354
0.218357
0.175250
-0.371767
0.198653
-0.367473
-0.516323
-0.509778
-0.334470
-0.460110
-0.843452
-0.328422
0.976255
0.314457
-0.921037
-0.009131
-0.733571
-0.642913
0.495283
-0.026945
-0.390004
-0.194397
0.864602
-1.053806
0.529999
-0.409840
-0.472474
-0.053093
0.444046
0.981569
0.483423
-0.671085
-0.290932
1.015033
-0.229708
0.435222
-0.551594
-0.919881
-0.557065
0.836913
-0.540930
0.633470
0.791675
-1.036563
0.791654
-0.792950
0.718559
-0.968499
-0.427095
0.637912
0.432798
0.665170
-0.732851
-0.602130
-0.931610
0.762301
-0.512073
0.964966
0.518197
0.473928
-0.060119
0.869494
0.438413
0.438055
-0.368665
0.626150
0.871314
-0.408818
0.535415
0.008559
0.523055
-0.598600
-0.848832
0.184815
-0.660562
0.142241
-0.746850
-0.709751
-0.695842
0.695528
0.931171
0.551152
0.897119
-0.752101
-0.179951
0.815659
-0.060375
-0.315089
-0.637602
0.370192
-0.651321
1.050208
-0.916222
-0.831763
0.745294
-0.927487
0.088944
-1.032870
-0.994713
-0.496821
-0.505802
0.844132
0.863659
-0.343894
0.382836
-0.928532
-0.534191
0.186956
0.136210
-0.148125
-1.101619
0.903699
0.546947
0.900425
-0.916603
-0.518941
-0.074307
-0.309014
-0.032687
0.845558
-0.235293
0.863374
-0.820829
0.791005
0.088262
0.097241
-0.332221
-0.391752
-0.686811
0.379730
0.359668
0.129776
0.970047
-0.049268
-0.227359
-0.471998
-1.047629
-0.389114
0.429826
-0.777231
-0.177878
0.973610
0.168571
-1.146526
0.728449
-0.088642
0.433493
0.177682
-0.899275
-0.146024
0.830401
0.266201
0.034427
0.762916
-0.714631
-0.645367
-0.109425
0.691166
0.872884
1.045385
0.756695
0.003695
0.636054
0.004796
0.288806
-0.010555
0.548324
0.134208
0.628476
-0.810175
0.829549
-0.144313
0.855226
-0.028780
-0.453989
-0.468760
-0.362301
0.873872
0.469473
0.063929
-0.388914
-0.193320
-0.715229
0.391228
0.473864
-0.318023
0.875027
-0.390065
-0.611659
-0.797495
0.231322
-1.040994
-0.279268
0.371284
-0.975391
-0.904046
0.937043
0.583763
0.688041
-0.578585
0.161139
-0.478833
-0.711141
0.636776
-0.679270
-0.539458
-0.365821
0.590869
-0.776636
-0.150656
-0.800722
0.195584
-0.312989
-0.873628
-0.557275
0.315875
-0.369811
-0.362937
0.212311
0.365444
0.864441
0.084872
0.642635
-0.265738
0.812296
0.277139
-0.737322
-0.151601
0.333695
-0.141769
0.113136
0.188785
-0.371091
0.589241
0.220266
0.226352
-0.113649
-0.489735
-0.118499
0.885163
-0.317505
-0.058812
-0.590608
-0.259242
-0.217077
-0.878314
-0.815540
-0.718705
0.846306
-0.000147
-0.268780
0.342961
-0.047651
-0.770678
0.452460
0.602597
-0.416264
0.115196
-0.903421
-0.419076
-0.964378
-0.848054
0.245475
0.455720
-0.406002
0.359728
-0.194047
-0.499827
-0.459567
0.841354
-0.632140
0.681584
-0.261791
-0.834485
-0.215554
-0.002472
-1.128833
-0.252380
-0.724188
0.194481
0.999428
0.597517
-0.566477
-0.046973
0.160524
-0.430717
-0.736073
0.739199
-0.710055
-0.358760
-0.668549
-0.303460
-0.925849
-0.929236
0.216770
0.430416
0.239110
0.526493
0.152716
0.594488
-0.585013
-0.962853
0.876251
0.729859
-0.683391
-0.499665
0.746812
0.259881
0.903292
0.453811
0.512454
-0.293077
0.859308
0.084666
0.235208
1.005029
0.611514
-0.701807
-0.132852
0.359911
0.314113
-1.091469
0.465644
-0.106729
-0.127666
0.147645
-0.508036
-0.768180
0.537736
0.131326
0.784078
-0.392385
-0.409438
-0.517621
0.173992
-0.699495
-0.427570
-0.315166
0.970386
-0.464429
1.038335
-0.530626
-0.842800
-0.436023
-0.577384
0.715225
0.416504
-0.733518
-0.553696
-0.400591
-0.705453
0.293274
-0.044161
-0.787657
0.165102
-1.201313
-0.020237
0.227395
-0.242051
-0.927028
-0.114986
0.684550
-0.285969
0.691752
-0.619688
-0.183834
-0.181987
0.418481
-0.274459
-0.355203
0.741637
-0.215861
-0.089080
-0.970102
0.435988
0.896968
-0.858079
0.792533
0.812840
0.078475
-0.183273
0.057320
-0.722223
-0.070465
0.104308
-0.027627
0.733698
-0.064394
-0.926327
0.206794
0.483779
0.497201
0.575610
0.586139
-0.785215
-0.486473
-0.793467
-0.292216
0.921103
0.105388
0.850619
-0.353577
-0.885192
-0.566674
-0.316441
-0.404880
-0.412114
0.858953
-0.723445
-0.929264
-0.704447
-0.332382
-0.844547
-0.825439
-0.890560
0.334322
-0.488107
0.082093
0.565906
0.536832
-0.802630
0.211439
-0.084932
-0.913283
-0.592075
0.060245
0.326782
-0.662030
0.591539
0.549420
0.863756
-0.604269
-0.439011
-0.450127
-0.881384
0.441701
-0.907092
-0.230480
-0.099428
0.888824
-0.857284
0.285909
-0.361705
-0.283188
0.566325
-0.045265
0.803252
-0.977941
-0.428049
-0.906902
-0.656685
0.737272
0.611700
0.186442
0.759994
-0.373849
-0.665556
0.677225
0.290587
0.081637
0.307926
-0.253839
-0.708292
-0.323671
-0.537135
0.152915
0.301017
-0.513926
0.435305
-0.287840
0.009747
-0.138600
0.764536
-0.739396
0.241632
0.157131
0.700543
-0.374279
0.131685
-0.019698
0.386167
0.464737
-0.938090
0.434891
0.583621
-0.652521
0.047750
-0.363270
-0.021383
0.239985
-0.382804
0.816199
0.732036
0.631394
-0.390365
0.277499
0.562079
-0.510760
-0.927299
0.335906
-0.915683
-0.427332
-0.815439
-0.060534
-0.254549
-0.322398
0.935655
-0.006038
0.852202
0.001568
0.752968
-0.554512
-0.016987
0.708911
-0.821453
0.875485
0.708764
0.644740
0.429557
0.854930
-0.249556
-0.885646
0.633807
0.668786
0.465998
-1.035986
0.650311
-0.074469
-0.680786
-0.452660
0.354805
0.889894
0.676913
-0.643002
0.895621
-0.635144
-0.735722
-1.139615
-0.130682
0.354372
-0.662030
0.317913
0.885921
0.740792
0.271132
0.691492
0.771923
-0.124405
0.432798
-0.947761
-0.169077
0.660177
-0.210006
0.307756
0.042109
0.333913
-0.582025
-0.193889
0.787806
0.175536
-0.941793
-1.075946
0.959566
-0.842149
0.512550
-0.803632
-0.234867
-0.507573
-0.679158
-0.642301
-0.954137
0.469893
-0.227012
0.588076
-0.754073
-0.587216
-0.723409
0.074788
0.337864
0.371032
0.069076
0.556990
-0.663785
0.703501
-0.711397
0.800615
-0.084729
-0.228683
-0.914124
0.955363
-0.847954
0.330595
0.606324
0.429706
0.799313
0.539644
-0.415605
0.074999
0.307992
0.013354
-0.362554
-0.231410
0.195162
0.937491
0.254886
0.847171
-0.706615
0.898261
-0.051068
0.265422
-0.080989
-0.212463
-0.933426
-0.158655
-0.938429
0.911748
-0.641998
-0.501496
-0.676675
0.333047
0.640758
-0.050150
0.547951
-0.211706
-0.065169
0.438310
-0.300622
0.692180
-0.895773
0.695038
-0.908312
-0.547634
-0.702794
0.721938
-0.520753
-0.716593
0.894858
0.171654
0.337814
0.785251
-0.434719
-0.881026
0.089179
-0.863358
-0.750633
-0.933316
-0.028979
0.129764
0.714385
-0.553145
-0.005864
-0.309309
-0.487806
-0.615191
0.631864
-0.090954
-0.567840
0.449187
0.221820
-0.291434
-0.582092
-0.162111
-0.774516
-0.815025
-0.282103
-0.544114
-0.129883
0.069434
-0.332358
-0.214511
0.594396
-0.699241
-0.414972
1.059876
-0.067775
0.724073
-0.859410
-0.896939
0.963974
0.772071
0.038630
0.657477
-0.157056
0.041527
-0.657819
0.059205
-0.951310
-0.102186
-0.277491
0.478178
0.374781
-0.194858
0.563110
0.617828
-0.234931
0.682886
-0.643510
-0.650239
0.803424
-0.514900
-0.254521
0.608048
-1.032967
0.580684
0.710188
0.685020
-0.420390
0.192788
0.368066
-0.438607
0.543422
0.513124
0.491174
-0.375312
0.206334
0.899783
0.725371
0.190424
0.672200
-1.113068
0.069002
0.035279
0.742552
0.091670
-0.353923
0.878307
-0.006877
-0.384034
-0.101795
0.665515
0.611016
-0.862023
-0.565638
0.080758
-0.214724
0.111405
-0.182767
0.217156
0.477359
-0.386160
-0.808097
0.495571
-0.348546
0.310565
-1.097994
0.763671
0.365605
0.974980
0.831617
0.960489
0.666254
-0.329084
-0.007403
-0.314264
0.953425
0.081386
0.577673
-0.065841
-0.073903
-0.677726
-0.426547
0.971831
0.459780
-0.143908
-0.180111
0.236842
-0.996623
-0.933591
-0.103557
0.333741
0.352795
-1.051743
0.786767
-0.442671
-0.091489
0.701673
0.058574
0.780204
-0.737881
1.043968
0.856536
0.943377
0.674660
0.216037
0.782257
0.210036
-0.082818
0.251804
0.448000
-0.685055
0.484114
0.559744
-0.520058
0.200664
0.678889
-0.032497
0.257057
-1.090925
0.395928
-0.745053
0.890295
-0.517727
0.227415
-0.029809
-0.936212
-0.406445
0.972827
-0.206839
0.076947
0.365701
0.502086
-0.882985
0.111786
0.649255
-0.141242
-0.345251
0.515090
-0.588975
0.699675
-0.953915
-0.684332
0.073008
-0.633591
0.088907
-0.114370
-0.640076
-0.044269
-0.037318
-0.598082
0.398654
0.538923
-0.099423
0.579307
0.568285
0.976165
0.191693
0.312843
-0.893940
0.184404
0.162789
-0.464535
-0.466131
-0.044397
-0.110100
-0.125696
0.897666
0.789576
0.256432
-0.017826
0.097848
-0.041994
0.198111
-0.582446
-0.967794
0.519317
-0.385469
-0.235510
-0.950186
-0.423290
-0.934331
0.484325
0.844350
-0.989639
0.911907
-0.376830
-0.052783
0.851455
-0.171384
0.294915
0.712860
0.459787
0.626246
-0.787332
-0.010160
0.303276
0.029860
-0.484695
-0.748242
-0.746188
-0.539899
-0.038190
-0.482767
-0.783037
0.036852
-1.044673
0.044035
-0.932754
-0.921160
0.810644
-0.210893
0.163703
-0.036399
-0.373067
-0.337895
0.878486
0.223037
0.008522
-0.517013
-0.615935
0.425237
1.047486
-0.999275
0.576190
0.486140
0.899234
-0.727574
-0.255789
-0.264228
1.082051
0.413310
-0.539926
-0.503574
-0.832111
-0.317522
0.410521
0.087885
-0.161215
0.457121
0.004838
0.328268
-0.490578
-0.796062
-0.421110
-0.683685
-0.952831
0.323945
-0.175989
-0.657830
0.890109
-0.941451
-0.091903
0.534017
0.185520
0.861313
0.401673
0.712959
0.526704
0.560340
-0.572871
-0.651727
0.351477
0.215550
-0.663971
0.398957
0.276197
0.299628
0.293436
0.310023
0.870939
0.637971
0.848324
-0.461403
0.101742
-0.625594
-0.031743
0.348448
0.110200
0.026164
-0.420860
0.890951
0.081027
-1.072096
-0.013014
0.148711
0.583089
0.452624
0.452471
0.358709
-0.074936
0.190541
-0.335571
-0.018853
0.164870
0.917469
-0.821761
0.647653
0.683610
-0.899208
-0.129592
-0.463880
-0.976952
0.129622
0.721399
0.612983
-0.755563
0.619317
0.238571
-0.743980
0.202774
-0.633547
-1.002281
0.222460
-0.600931
0.370807
-0.738072
0.860490
0.626657
-0.878343
0.282576
-0.535381
-0.591418
0.653387
0.575513
-0.486222
0.435968
-0.498954
0.092706
0.055891
0.526056
0.677092
-0.379600
-0.298367
-0.910802
0.151021
-0.036689
-0.553201
-0.322787
0.280105
0.439130
0.048573
0.242423
-0.101007
0.793911
0.012812
0.575641
-0.436712
-0.217927
0.659568
0.213725
0.402722
0.542264
-0.007505
-0.307220
0.189327
0.363265
-0.739976
-1.013569
-0.369395
0.372526
-0.547344
-0.392700
-0.475834
-0.920526
-0.741097
-0.406509
-0.057832
-0.901285
0.837866
0.148123
0.830721
-0.004561
-0.493107
0.959823
0.315309
-0.155347
0.047450
-0.748501
-0.922895
0.166326
-0.497237
-0.479336
-0.369132
0.485579
0.292695
0.520311
-0.312581
0.219471
-0.669167
-0.452163
-0.101982
-0.036951
1.058144
-0.611841
0.411685
1.032068
0.878606
0.731630
-0.120511
0.231656
0.833676
-0.379680
0.470498
0.761599
0.254446
0.890249
0.536412
0.724133
-0.586458
0.670417
-0.174700
0.061651
-1.132118
0.304359
-0.608230
-0.447116
1.001399
0.378616
0.180148
0.403449
-0.739579
0.226932
-0.183829
0.045948
-0.299620
0.477570
1.006727
0.634054
0.933152
-0.349637
0.043086
-1.177236
0.386830
0.820008
-0.752564
0.081929
-0.031023
0.194608
0.358035
0.780363
-0.858685
-0.913475
-0.206407
0.400027
0.344545
0.323883
0.962427
-0.197315
-1.032264
0.496659
0.752589
0.629610
0.760144
-0.668081
0.884998
-0.045744
-0.812002
-0.718663
-0.188778
0.246195
-0.467972
0.389120
0.201379
0.761030
0.086389
-0.723949
0.016453
-0.392171
0.562868
-0.008735
0.631247
0.675248
-0.873930
0.321092
0.106486
-0.766312
-0.687298
0.941894
0.624435
-0.624070
0.684305
-0.681909
0.128737
0.556063
0.446890
0.403611
-0.953346
0.163400
-0.613929
0.294631
-0.703255
0.301098
-0.935070
0.533102
-0.874657
-0.198576
-0.214273
-0.728206
0.573497
0.949019
-1.075667
-0.488769
0.077302
-0.298051
0.219125
0.420891
0.321681
0.885811
0.839651
0.205003
0.131780
-0.850284
-0.465919
0.969706
-1.000372
0.335245
-0.261753
-0.074163
-0.489428
-0.677943
0.710912
0.557579
-0.043334
0.752939
0.663739
0.765002
-0.475922
0.840000
0.114582
0.922561
0.428097
-0.471115
-1.030499
-0.178261
-0.579302
0.585484
0.102443
-0.922066
0.067853
-0.285121
-0.317459
0.828890
-0.486847
-0.527926
-0.336110
-0.816237
-0.487016
-0.506358
-0.730924
0.262896
0.131548
-0.754211
-0.675488
0.063618
0.472578
-0.684314
0.629835
-0.884738
0.538753
-0.524956
-0.383701
0.249014
-0.201303
0.913039
-0.924268
0.561911
0.942084
-0.714404
0.044940
0.736844
-1.094498
0.717683
0.458811
0.417120
-0.686101
0.305563
-0.765091
0.498825
0.691811
-0.142793
-0.167234
-0.901823
-0.275866
0.621819
-0.028523
0.450847
0.840976
0.518592
-1.068875
-0.708108
-0.191818
0.620757
0.061711
-0.276751
-0.472078
-0.942269
0.615019
0.977877
-0.514510
0.266299
-0.171927
0.681570
0.554836
0.306824
-0.921398
-0.050823
0.646435
0.084919
-0.592278
-0.444077
-0.774960
-0.811014
-0.513422
0.903388
-0.992455
-0.883562
0.482507
0.065319
0.062238
-0.334720
0.146445
-0.790332
-0.368365
0.309432
0.769916
0.836823
-0.283479
-0.268706
0.468315
0.702365
-0.885364
-0.793721
0.124527
0.948766
0.790053
0.097152
0.040348
-0.941760
-0.049991
-0.781663
0.743055
-0.577189
0.120413
0.259431
0.566711
0.796252
0.199036
-0.420718
0.594518
-0.611376
-0.195255
0.004344
0.899364
0.603464
-0.933668
0.847085
-0.415623
0.570506
0.765314
-0.718472
0.674527
-0.253504
0.143839
-0.270617
-0.700466
0.463458
0.004121
-0.175569
-0.865744
-0.576267
-0.890178
-0.147414
-0.171993
0.883761
-0.098507
-0.193997
-0.348002
0.980251
0.539983
-0.391550
-0.063633
0.636007
0.216009
0.049226
-0.833577
-0.362773
0.990664
-1.018332
-0.285028
0.203075
-0.885533
0.614758
-0.067084
-0.268130
0.731767
0.376137
-0.349712
0.872463
-0.319151
-1.081647
0.393414
-0.101556
-0.633616
1.182178
0.129283
0.690779
0.081154
-0.211461
-0.216074
-0.040679
-0.885692
0.914260
0.778835
-0.278104
0.465296
0.636290
-0.176795
-0.834836
0.731153
-0.941850
-0.676495
0.413949
-0.598913
1.016866
-0.704832
-0.537846
0.200666
-0.120369
-0.269940
0.218826
0.320398
0.934764
-0.721985
-0.362214
0.008802
0.787997
-0.979203
0.367747
0.690730
0.986707
-0.144233
0.614435
0.907465
0.745547
-0.585441
0.471265
0.337296
0.984980
-0.454165
0.053788
-0.822683
-0.111348
-1.012072
0.780718
0.517850
0.369761
0.436129
-0.519746
0.384138
0.774011
-0.541024
-0.199007
0.572873
0.191184
0.469717
0.419890
0.365333
-0.098355
1.062923
-0.251479
-0.572699
0.598776
0.760525
-0.018002
-0.382638
0.566840
-0.154152
0.036329
-0.176020
-0.351124
-0.614179
0.136630
-0.490039
-0.324803
0.049613
-0.155342
-0.984120
-0.489209
-0.595793
0.875605
-0.120430
0.904169
0.002534
0.128646
-0.737227
0.654597
-0.690294
0.221025
0.093076
0.862786
-0.445748
-0.245485
0.852517
0.845552
0.607502
0.200125
-0.356114
0.100345
0.862990
0.349064
0.324848
0.297766
-0.677324
1.063459
0.227948
-0.930553
0.037673
0.578681
0.776763
0.389148
0.436057
0.648528
0.397599
-0.634978
0.317243
0.036584
0.756691
0.763084
0.504959
-0.945122
-0.736418
-0.062431
-0.232816
-0.076919
0.806936
-0.324695
0.872399
0.608478
0.474529
-0.324653
-0.425122
0.732473
0.204390
-0.115999
0.665918
-0.960455
0.242538
-0.048983
-0.316590
-0.558352
-0.628824
0.760887
0.169913
0.021285
0.612869
-0.873668
-0.505409
-1.039780
-0.686097
-0.172143
0.274646
-0.797332
0.022897
0.904533
-0.792557
0.207748
0.563472
0.316343
-0.939401
0.104198
-0.284113
0.226791
-0.106472
0.207377
0.211298
-0.077886
-0.616392
-0.342115
-0.585248
-0.824996
-0.064394
-0.717670
-1.089725
-0.382172
0.272129
0.554566
0.225335
-0.511215
-0.785657
0.959727
-0.911659
-0.702707
-0.115335
0.793883
0.664913
0.120254
0.606611
-0.015477
0.181196
-0.187731
0.307852
0.449383
-0.163199
-0.463169
0.513648
0.170429
-0.877767
0.898017
0.287393
-1.105606
-0.238574
0.194388
0.326569
0.336519
0.219301
0.624736
0.882110
0.480382
0.921423
-1.056889
-0.493974
1.117914
-0.190585
0.473633
0.172922
0.903606
-0.809363
0.306641
0.699837
-0.544208
-0.810217
0.433869
0.710697
-0.738988
-0.949965
0.179276
-0.495836
-0.028064
0.123726
-0.848070
-0.579853
0.709758
-0.939290
0.097913
0.133516
-0.463439
0.534017
0.849121
-0.546129
-0.062192
0.435580
0.907195
0.182458
0.554221
-0.030490
0.322260
-0.146474
0.534570
-0.705250
0.009828
-0.103376
-0.083523
-0.561478
0.819466
0.604834
-0.004022
0.825055
-0.443493
-0.816811
0.179642
0.598883
-0.758264
-0.645871
-0.086422
0.040269
0.708506
-0.581711
-0.887860
-0.179359
0.291112
0.961854
-0.756380
0.503661
0.296281
-0.197716
-0.665572
-0.558274
0.729938
-0.007850
0.712705
0.717178
0.484732
-0.159046
-0.398269
0.026311
-0.446020
0.277035
-0.009764
-0.615669
-0.162625
0.700284
-0.766056
0.244315
0.597852
-0.643149
-0.053651
0.452164
-0.972579
-0.047255
-0.194852
0.990358
-0.072691
0.804465
0.324291
0.049663
-0.009388
0.260763
0.061906
-0.281333
-0.055063
0.501610
-0.378657
0.112442
0.047169
0.426705
0.472529
0.669446
-0.515076
-0.202608
-0.124133
0.577170
0.464035
-0.554614
0.969114
0.726359
-0.257910
-0.044655
0.853936
-0.199525
-0.873673
-0.771188
-0.469338
0.472329
-0.176758
0.533369
0.560546
-0.158971
-0.958860
-0.412995
-0.312057
-0.220625
0.418246
0.860726
-0.317667
0.329264
-0.850843
0.945672
0.075018
-0.749242
-0.298347
0.032660
-0.905121
-0.026461
-0.387371
0.359364
0.273279
-0.216385
0.811074
-0.497355
0.193438
0.761742
-0.375574
0.299296
0.023345
-0.218027
0.813024
0.802995
-0.921346
0.535397
-1.018087
-1.097715
-0.795174
-0.379672
0.065741
0.181199
0.028020
-0.438016
0.995601
-0.216295
0.000864
0.539827
0.818093
0.597200
-0.459686
-0.799515
-0.060974
-0.791794
-0.316768
0.799960
0.637595
0.677950
-0.170021
-0.682762
-0.768120
0.689027
-0.040852
0.924127
0.260192
-0.484812
-0.265505
-0.319331
0.284117
-0.564633
0.757034
-0.244805
0.082105
0.097292
0.849533
-0.386622
0.286894
-0.772829
0.547142
-1.040047
-0.721336
0.851263
-0.405087
-0.618609
-0.631899
-0.470476
-0.639778
-0.251980
0.038414
0.929073
-0.934503
-0.062377
-0.602839
-0.501941
-0.423451
-0.793532
0.024004
1.020744
-1.026765
-0.439184
-0.136251
0.917667
0.024280
0.799250
0.831846
0.505854
-0.755232
0.292678
0.070844
0.868766
-0.136660
-0.772804
0.450793
-0.052155
0.844454
-1.010049
0.355353
0.384344
0.854952
-0.650070
-0.193720
0.129796
-1.013645
0.207375
-0.899842
-0.177715
-0.866783
0.493145
0.470280
0.888949
0.688768
1.016833
0.196360
-0.164607
0.489589
-0.329534
0.344825
-0.419934
1.032169
-0.950243
-0.385236
0.590125
0.412707
-0.342915
0.808219
-0.689043
-0.663433
-0.017852
0.593011
0.882068
-0.437358
-0.416975
-0.414478
0.917640
-0.508605
0.666091
-1.085917
-0.910122
-0.062940
0.487078
-0.873408
-0.219989
-0.018145
0.447384
0.092456
-0.739660
-0.629984
0.050164
-0.944438
0.519444
0.091868
-0.564771
0.659174
0.200579
0.635410
-0.487893
-0.534338
0.447014
-0.893221
-0.169911
0.571356
-0.444605
-1.102177
0.611857
0.034319
0.808413
0.918483
-0.654835
0.606608
0.051827
-0.136318
-0.953113
-0.731394
0.154958
-0.020716
0.252916
0.774428
0.029824
0.539767
-0.687291
0.593613
-0.427296
-0.208842
0.863574
0.707035
-0.249444
0.228739
0.945088
1.002601
-0.693129
0.051744
0.049345
-0.618992
-0.709877
0.852387
-0.338804
0.387814
-0.553339
0.754730
-0.522959
-0.673542
0.877368
-0.284288
0.425755
0.787545
0.513805
-0.271563
0.148196
0.236498
0.230476
0.299611
0.778111
-0.352608
0.072521
0.291104
-0.203349
0.193323
0.346783
0.458368
-0.482980
-0.786992
0.912081
0.400353
0.908630
0.979636
0.855804
0.004844
0.418237
0.384764
-0.274022
0.112298
-0.261719
-0.739008
-0.200418
-0.939212
0.588611
0.650170
-0.775424
0.047134
-0.471749
-0.467337
1.012615
-0.988991
-1.060385
0.854926
0.072386
-0.619228
-0.944696
-0.755035
0.883228
0.819963
-0.450874
-0.003768
0.031316
0.024377
-0.431150
0.111815
-0.564018
0.621576
-0.882822
-0.542263
-0.508893
0.887508
-0.074778
-0.315629
-0.749070
-0.489799
1.061733
-0.817196
0.265669
-0.955823
0.989856
-0.375796
-0.239786
-0.177153
-0.461262
-0.736239
0.260349
-0.801669
0.425867
0.690824
-0.004238
-0.123775
-0.029010
0.493217
0.951547
-0.083555
-0.175313
0.694243
-0.255772
-0.839531
-0.372970
0.045278
-0.747662
0.869438
-0.906420
0.754559
0.528948
0.596640
0.199798
-0.622900
-0.153749
0.982953
-0.330249
0.576852
-0.736312
-0.465961
-0.578166
-0.308989
0.752930
-0.914718
0.833035
0.726704
-0.781377
-0.655330
-0.755932
0.670801
-0.948256
-0.486833
-0.080394
-0.997742
0.577584
-0.486096
0.599540
0.689306
-0.252078
0.858897
-0.369279
-0.151458
-0.372187
0.669070
0.515066
0.806731
0.250225
0.202066
-0.249548
-0.925484
0.011453
0.268896
-0.326081
0.511910
-1.000945
0.517301
0.771358
-0.054917
-0.758550
0.234491
-0.625060
-0.981828
-0.472585
-0.305657
-0.871787
0.867561
0.741301
-0.839410
-0.312237
0.006170
0.711247
0.549835
-0.496546
0.154586
0.597990
-0.910467
-0.570783
1.038642
0.243604
-0.715283
-0.222263
0.881713
-0.820084
-1.007364
-0.939493
-0.674034
-0.631355
-0.056555
0.709052
0.986774
0.915611
-0.837487
-0.555519
0.708735
-0.610304
-0.894502
0.754740
0.401205
0.741730
-0.126848
0.514189
-0.200999
-1.077209
-0.864294
-0.626492
-0.438678
0.383938
-0.209361
0.521181
-0.360936
-0.184435
-0.059902
0.669554
0.866122
0.673980
-0.119108
-0.880254
0.692667
-0.072540
-0.741178
0.794649
0.701986
-0.769434
0.375919
-0.714900
1.044044
0.583547
0.030141
0.832102
-0.040330
0.010308
0.307027
-0.606756
-0.233637
-0.479049
-0.635914
0.156076
-0.454818
0.789308
0.496052
0.460395
0.696226
0.699705
-0.868121
0.478904
0.782555
0.574708
0.639835
0.836569
0.287684
0.885093
-0.534482
-0.169833
-0.979893
-0.854147
0.623150
0.551055
-0.048734
0.617372
0.426453
-0.326717
-0.025088
-0.925230
0.528758
-0.124818
-1.114354
0.304905
-0.354817
0.795094
-0.759821
-0.181710
0.771783
0.732293
0.678693
-0.349604
0.395203
0.597984
0.587254
1.074772
-1.133191
1.010270
-0.236261
-0.414411
0.358425
0.175758
-0.661590
0.351092
0.309921
0.198638
0.780397
0.214769
-1.116555
0.856066
-0.646102
-0.493492
-0.239271
0.871313
0.343866
-0.007892
0.527616
0.893731
-0.804703
-0.043083
0.272567
0.896885
0.303979
0.887904
-0.206377
-0.917270
-0.872568
-0.325426
-0.179373
-0.336174
-0.710550
0.244764
-0.692788
0.198533
0.467959
0.029180
-0.928135
-0.606163
-0.495311
0.906202
-0.171266
0.528091
-0.964167
-0.561464
0.532263
0.314755
0.964333
-0.599619
-0.100307
-0.695760
1.039257
0.127905
0.240543
0.349473
0.157319
0.819373
0.079599
-0.511476
0.227583
0.979523
-0.823003
0.089825
-0.737396
-0.532203
0.368497
-0.127004
-0.204849
-0.233540
0.681420
0.602256
-0.507013
-0.077873
0.042716
-1.082203
-0.890296
0.348724
0.074108
0.861350
0.499067
0.248487
0.756651
-0.549622
0.201349
-0.446584
0.782295
0.144848
-0.753936
0.288566
0.912090
0.229694
-0.554964
-0.686486
-0.085935
-0.332769
-0.872188
-0.844867
-0.791400
0.177566
-0.250502
-0.173973
0.503167
0.652973
0.203125
0.282284
0.661507
0.514396
-0.551499
0.864212
0.084041
0.086908
-0.056611
1.067243
-0.320619
0.356215
0.515051
0.292003
-0.353878
0.400181
0.167379
0.819011
-0.384402
0.457038
-0.359000
0.369436
1.109662
0.101989
-0.252065
0.051560
0.484189
-0.875543
0.841679
-0.199949
0.367605
-0.423825
-1.075556
-0.636289
0.428730
0.497555
-0.544510
-0.527193
-0.062068
-1.066724
-0.884569
0.601949
-0.896754
-0.132418
0.665711
-0.203719
0.807652
-0.315451
-0.841512
0.336856
0.648593
-0.430381
0.508524
-0.567174
-0.009367
0.234625
-0.062826
-0.947010
-0.913749
-0.213354
-0.774585
0.369538
0.836765
-0.943046
-0.576650
0.531131
0.422574
-0.419076
-0.312217
0.176597
-0.325138
-0.439186
0.458444
-0.555294
0.939917
-0.465182
-0.882610
-0.090186
0.602334
0.316418
-0.742741
-0.888253
-0.067705
-0.224958
1.099408
-0.102163
-0.958757
0.911570
-0.503131
-0.859904
0.690387
-0.762601
0.530090
0.716624
0.234759
0.272758
1.031648
0.312767
-0.112341
0.438271
-0.005090
-0.813882
-0.040641
0.730908
0.585629
-0.976030
-0.031805
0.046124
0.378907
0.987464
-0.778924
-0.858967
1.000446
-0.553928
-0.448758
-0.519297
0.597159
-0.871379
-0.911481
0.314139
-0.186748
-0.051214
0.748987
-0.918605
-0.077473
-0.246698
-0.408583
-0.003893
0.791309
0.037321
-0.141908
-0.211496
-0.003142
0.798305
-0.672670
0.715826
-0.468662
-0.510893
-0.932244
-0.487248
-0.981609
-0.065588
0.836801
-0.666777
-1.036893
0.835410
0.523130
0.423034
-0.225954
0.898726
-0.086321
-0.708199
-1.026347
-0.021956
0.824637
-0.832707
0.561848
-0.453915
0.541972
-0.599173
0.885875
0.171943
0.699806
0.628830
-0.303883
0.030121
0.817207
-0.384877
-0.539434
-0.604156
0.238249
-0.571263
-0.356191
0.179611
0.792830
0.037715
-0.845412
0.934301
-0.755257
0.780616
0.733197
0.164943
0.118008
0.708591
0.322042
0.633117
0.884025
-0.085501
-0.362228
1.073660
-0.772542
0.158672
0.119509
0.016777
0.678272
-0.518755
0.455920
-0.875915
0.724739
-0.616815
-0.413280
-0.031559
0.125762
0.242820
0.983641
1.035869
0.002017
1.179267
0.815507
0.212661
0.696926
-0.193211
0.645010
0.396539
-0.790925
0.163137
0.116290
0.314127
0.872773
-0.437116
0.325997
-0.278086
-0.097472
-0.698859
-0.913884
0.016510
-0.404601
0.992915
0.499960
0.185118
-0.154473
0.615583
-0.275791
0.371697
-0.659980
0.320248
-0.147130
-0.120368
-0.845158
-0.030689
-0.296312
0.412211
-0.605272
0.171770
0.260273
-0.094120
0.646689
-0.524675
-0.991079
-0.846423
-0.896951
0.662748
-0.204031
0.258305
-0.681518
-0.354281
0.546542
-0.511652
0.432154
0.901208
-0.288895
0.185087
0.120670
0.248284
0.230061
-0.240996
0.794747
0.606481
-0.433959
-0.156269
-0.661192
0.393921
-0.288460
-0.579687
-0.027350
-0.752013
-0.845970
-0.773427
-0.421556
-0.139061
-0.826854
-0.860380
0.186441
0.156807
0.125104
0.556440
-0.806697
-0.826041
-0.734437
0.598246
-0.352790
-0.354351
0.565065
-0.501608
-0.433592
0.095761
-0.703923
-0.815839
-0.890394
0.029468
-1.074547
0.296836
0.379166
0.824675
-0.576302
-0.849202
-0.222250
0.867914
-0.771645
0.171724
0.713694
0.593088
0.448231
-0.192852
-0.222882
-0.189534
-0.554982
0.783668
-0.146598
0.515675
0.470782
-0.905439
-0.053101
-0.709296
-0.249715
0.792141
0.514877
-0.365438
-0.829216
-0.117007
0.815085
0.639957
0.816781
-0.364001
0.439360
-0.621723
-0.315121
-0.673073
-0.265728
1.135964
-0.721447
0.030000
-0.179199
0.155631
-0.170575
0.450621
0.305143
-0.270581
0.201478
0.513862
1.056872
-0.473982
-1.118429
0.753654
0.465720
-0.436200
0.619599
0.412939
0.404010
1.102905
-0.825863
0.600038
0.344131
-0.089991
0.000858
0.758293
0.075380
0.729900
-0.397788
0.239861
-0.753844
0.746376
0.452458
0.299080
0.725869
-0.252190
-0.282696
0.031163
-1.147683
-0.952805
-0.758113
0.601124
0.125667
0.574621
0.512266
-0.508265
0.501866
0.228724
-0.099730
0.574327
-0.750286
0.563850
-0.041148
0.371670
-0.260669
-0.511038
-0.557996
0.023995
-0.003671
0.182619
0.046740
1.098466
0.335370
-0.931645
0.395607
-0.145670
0.744794
1.077081
0.552075
0.135888
-0.853360
0.313677
0.843987
0.820644
0.551749
-0.800545
0.486122
-0.525809
-0.424461
-0.189874
-0.760192
0.237720
0.882420
0.533080
0.320305
-0.544710
-0.883822
0.825147
0.100943
-0.087354
-0.214102
-0.406904
-0.732241
-0.196080
1.078411
-0.149329
0.281936
-0.874938
-0.868196
0.369540
0.917535
0.757582
0.351579
-0.163723
-0.252675
-0.830553
-0.896501
-0.665709
-0.044364
0.354297
0.561968
-0.456781
0.277461
-0.050155
0.711313
-0.083299
0.211972
0.652866
-0.337195
-0.091946
0.815490
0.839550
-0.717414
0.784404
-0.267367
-0.033508
-0.811311
-0.957000
0.063873
-0.029867
0.645999
-0.132707
-0.830362
-0.412422
-0.078761
-0.453360
-0.424410
0.289278
-0.744234
-0.667624
-0.229369
0.344147
0.772132
-0.185715
-0.121337
-0.569743
0.351111
0.575351
-0.062933
0.134943
0.809056
0.499340
0.659146
1.025341
0.413420
0.742530
-0.233773
0.364984
0.912325
0.876380
-0.242085
0.644240
-0.798001
-0.267481
-0.176639
-0.846257
0.679544
0.780594
0.373222
-0.793934
-0.951553
-0.132609
-0.792125
0.256541
-0.207069
-0.401339
-0.659989
-0.832216
0.636497
-0.285533
-0.218304
-0.296916
-0.019066
-0.402365
-0.231456
0.715258
-0.802762
0.124581
0.391324
0.608630
0.484663
-0.126447
-0.360795
-0.695659
-0.843255
0.628373
-0.968404
-1.251649
-0.050211
-0.309464
0.252998
0.203855
-0.147308
-0.752823
-0.007892
-0.907264
-0.306820
0.413972
-0.508331
0.281494
0.225672
0.685792
-0.020131
-0.297977
0.143005
-0.390784
0.654296
0.263131
-1.074366
-0.589067
0.901110
-0.370600
-0.941304
-0.513581
0.192922
-0.137532
-0.875652
-0.469632
-0.753360
-0.564877
0.537914
-0.645407
0.829392
0.130951
0.438551
0.232994
0.915014
0.735015
0.346637
-0.233392
-0.632824
0.123346
-0.198998
-0.849526
-0.439171
0.490943
0.626409
-0.027833
0.237788
0.364140
-0.001408
-0.663189
-0.107942
0.570525
-0.232762
0.484766
0.307529
0.101053
-0.007600
0.746391
-0.276773
-0.967178
-0.143610
-0.627823
-0.332343
0.805178
0.525695
0.169851
0.783128
0.483483
-0.248635
0.609503
-0.126339
0.412126
1.059427
-0.330280
-0.074247
0.161318
-0.031944
-0.024959
-0.405902
-0.989962
0.606162
-0.783825
-0.536537
-0.105928
-0.430147
-0.580828
0.615302
0.028061
-0.285960
0.671585
-0.485459
0.306804
0.268734
-0.513566
0.687690
-0.020089
-0.051984
-0.832716
-0.436751
-0.255612
0.738300
0.160124
0.246995
0.269334
1.059348
-0.180147
0.326821
0.637011
-0.539800
-0.750923
0.503777
-0.456000
-0.902949
0.124078
0.349680
0.678174
0.568592
-0.807095
0.315459
-0.689736
-0.272294
-0.408224
-0.246202
0.241404
-0.622096
-0.120688
-0.845684
1.083698
0.347103
-0.805369
0.032648
0.978436
0.509930
-0.304349
0.272519
-0.782165
0.610053
0.807377
0.759290
-0.799534
0.765608
-1.032853
0.652208
-0.083709
0.979375
-0.108421
0.458020
0.288661
-0.653205
-0.107509
-0.813526
-0.672444
-0.102407
0.997267
-0.557994
0.119990
0.882920
-0.343861
-0.114132
0.336167
0.216367
0.879230
0.499621
-0.249224
0.605288
-0.792158
0.511877
-0.981427
0.745304
-0.574444
-0.385461
0.606833
0.288747
0.459686
0.171592
0.483497
0.551502
0.890470
0.344992
0.458085
-0.726461
0.148165
0.127954
-0.389912
0.465157
-0.346014
0.616982
-0.172626
0.879015
0.581828
0.412700
0.826589
0.283488
-0.384394
-0.642199
-0.514216
0.752766
1.015370
0.273522
-0.625557
0.061222
-0.880509
0.914826
-1.107154
0.039554
-0.047840
0.105455
0.912232
0.059914
-0.966618
-0.556066
0.252513
0.758151
0.392492
-0.426466
-0.262986
-0.597589
-0.508243
0.061409
-0.971252
0.748867
0.726390
0.454207
0.273126
0.132993
0.074254
-0.751697
0.074502
-0.481374
0.283985
-0.107096
0.034640
-0.479823
-0.634366
-1.003936
-0.998576
0.668510
-0.568992
-0.193155
0.354027
0.357757
0.698250
-0.595186
0.143004
1.025234
-0.278240
-0.705536
-0.028382
-0.860869
-0.095261
0.634570
-0.265658
0.385419
0.033354
0.731704
-0.533946
-0.854384
0.929053
-0.782194
0.796302
0.734401
-0.873891
0.635671
0.477705
-0.860891
-0.380635
0.860549
-0.163465
-1.007520
-0.544456
0.267905
0.907488
0.173782
-0.140452
-0.033981
-0.384088
0.338609
-0.537674
-0.428342
0.805996
-0.092341
0.162824
0.189007
-0.362158
-0.352574
0.050664
0.182798
0.454188
0.122615
-0.397072
0.729820
-1.055585
-0.357207
-0.122116
-0.249558
-0.000337
0.251604
0.796637
-0.265369
-0.074626
0.875594
1.060072
-0.739140
0.390442
0.123915
0.916080
-0.291463
-0.885633
-1.024460
-0.589563
0.340243
-0.661756
0.411315
0.722592
-0.731114
-0.068063
0.342505
0.774185
-1.040457
0.469883
0.732281
0.681679
-0.219300
-0.908749
0.809046
-0.675168
0.646463
-0.369730
-0.652635
0.989475
-0.555390
0.415326
-0.184696
-0.307599
-0.198356
-0.177387
0.333813
-0.870742
-0.428778
0.088142
0.444041
0.523966
-0.473341
-0.292417
-0.574448
-1.053053
-0.157673
0.246583
-0.556266
0.222341
0.887869
0.938487
-0.207576
0.334019
0.622505
-0.426448
-0.319531
-0.602934
-0.647649
0.049042
-0.907865
-0.395375
0.843923
0.205427
-0.932914
0.755842
-0.525830
-0.344818
-0.853229
0.165364
0.800275
0.255700
0.915349
-0.385500
-0.399709
-0.694289
0.659101
0.629255
0.911264
-0.549777
-0.220503
1.078042
0.855580
-0.757904
0.139081
-0.742847
0.560495
-0.189274
0.279547
0.042806
-0.106037
-0.344556
-0.387608
-0.798557
-0.290005
-0.881883
-0.233643
0.849899
0.867640
-0.132930
-0.736834
-0.683796
0.194527
0.913564
-0.875017
0.125424
0.254679
-0.350613
-0.154272
0.552819
-0.749918
-0.602865
-0.017580
0.329330
-0.613258
0.050744
-0.875110
0.162653
0.421033
-0.450001
-0.421206
-0.816743
-0.697509
-0.180343
-0.615147
-0.401730
0.156949
-0.895589
-0.642706
-0.257542
0.602270
-0.208120
-0.684347
0.173339
0.678181
-0.199834
0.296878
0.296726
0.307818
0.971683
0.485691
0.135153
-0.440467
-0.309647
0.522134
0.842938
0.712645
0.343871
-0.314844
0.347041
0.329023
-0.697283
-1.015367
0.358887
-0.174609
0.895847
-0.495609
-0.888981
0.726386
0.625999
-0.241859
0.897060
0.735252
-0.474962
0.109307
-0.676469
-0.176043
0.743751
0.066621
-0.088218
0.771041
-0.421997
-0.031028
0.769919
0.574285
0.066096
0.890449
-0.170879
-0.836127
0.695919
0.401587
0.526910
0.097159
0.935455
-0.344788
0.538374
1.012662
0.088629
0.958476
0.075769
0.299519
-0.361383
0.557173
0.770339
-0.442336
-0.851148
0.349163
0.771697
-0.272209
-0.535641
-0.708680
-0.274114
0.013127
0.596004
0.395045
0.696536
-0.685188
0.979797
-0.621839
-0.690592
0.573348
0.945779
-0.929670
-0.390253
-0.414370
0.744693
-0.133291
-0.530496
0.990952
-0.463384
-0.589564
0.282267
-0.122277
-0.396692
0.711858
-0.151887
0.829714
0.785281
-0.166941
-0.744329
-0.249608
0.249748
0.660907
0.141075
-0.882750
0.152949
0.285339
-0.435059
0.537383
0.902300
0.740808
0.011133
0.873481
0.743087
0.836115
-0.141863
-1.004614
0.131399
-0.679729
0.467177
-0.001717
0.498419
0.350979
0.338070
-0.286188
0.796875
-0.505400
0.485176
0.436862
-0.849070
0.942849
-0.868957
0.062516
-0.341857
-0.264564
-0.607529
0.021541
0.486308
-0.436118
-0.379628
-0.639094
0.653743
0.525350
0.727837
0.090212
0.268922
-0.816587
-0.232341
-0.402538
0.022665
0.639835
0.015035
0.652202
-0.907860
-0.446418
-0.327398
0.295378
-0.383622
0.863269
0.699008
-0.273938
0.677563
-0.514676
-0.419719
-0.756470
-0.623964
-0.357371
-0.706059
0.958665
-0.165659
-0.802486
0.192159
0.035770
-0.146172
1.022672
0.492455
-0.324399
0.658747
0.275186
1.139957
1.006011
-0.246183
0.133487
0.373499
0.342582
0.734892
-0.902217
0.250292
0.828592
-0.147618
0.450276
-0.310465
-0.542948
0.934276
0.364985
-0.403280
0.197854
0.447184
0.921764
0.565320
-0.007305
-0.269693
0.288239
-0.830415
-0.576206
0.314251
-0.279220
-0.770319
-0.938835
0.065418
0.839664
0.527754
-0.793755
0.001706
-0.990575
0.072218
0.126699
0.738604
-0.316555
0.744161
0.705656
0.770842
0.483564
-0.242850
-0.399895
-0.646360
-0.651625
0.789570
-0.368891
0.123003
0.368243
-0.081715
-0.271456
0.109439
0.280171
0.820093
1.032124
0.134974
-0.786013
-0.608883
-0.846236
0.670901
0.490645
0.911332
-0.911317
0.238897
-0.012898
-0.707286
0.551016
0.418183
-0.221263
0.970444
0.915786
0.394972
-0.377563
0.930235
-0.538125
-0.073758
-0.565083
-0.536942
0.631031
-0.932534
-0.905217
-0.252265
0.161411
-0.561369
0.765598
0.195074
0.575647
-0.701650
-0.215563
-0.283857
0.498447
0.621874
0.697944
0.533947
0.584747
-0.955072
-0.191672
0.715511
1.062124
0.018619
0.616232
0.423504
-0.228019
-0.036912
0.079216
0.466262
-0.720780
0.874370
0.770744
-0.212817
0.885131
-0.017665
-0.826255
0.774897
0.982011
-0.829999
-0.656459
0.107735
0.248338
0.407113
0.882292
-0.966037
-0.489353
0.872910
-0.146083
-0.061549
0.775762
0.568280
0.636911
-0.213959
-0.140854
0.294232
-0.500180
0.444422
0.605637
-0.390945
-0.025166
-0.658482
0.406458
-0.571469
-0.488671
-0.754627
-0.747763
-0.099954
0.406239
0.229938
-0.182177
-0.190923
-0.857537
0.150962
0.574105
-0.992917
0.213501
0.346542
0.756062
0.681092
-0.768429
0.939202
-0.097815
0.483660
-0.192838
0.882767
-0.879375
-0.007223
0.361495
0.994467
-0.808555
-0.910293
0.910783
-0.678356
-0.676526
0.010724
0.642324
-0.941466
0.923852
-0.874281
-0.616399
-0.344721
0.382442
0.155341
-0.452930
0.260816
-0.138747
-0.348857
-1.035557
0.301641
0.151011
0.767328
0.345545
0.619019
-0.383867
0.090844
0.963530
-0.301948
0.699226
0.617907
-0.062949
0.425775
0.276587
0.054162
-0.078684
-0.640128
0.118465
-0.338820
-0.070307
0.640707
-0.698785
0.875474
0.782683
-1.004688
-0.178878
-0.545788
-0.727314
0.804911
-0.379262
0.633606
0.699483
-0.430460
-0.196216
-0.804628
0.369251
-0.569831
0.209235
0.549300
-0.535082
-0.072478
0.684423
-0.531493
0.390475
-0.823969
-0.887492
0.343247
-0.300854
-0.546942
0.949556
0.283026
0.459695
-0.082007
-0.568099
0.729440
0.614947
-0.387046
-0.300781
0.532561
0.059302
0.892159
-0.814913
0.684786
-1.097246
-0.664798
-0.572938
-0.840483
0.714729
0.990855
-0.937519
-0.504753
-0.968048
0.399291
0.782488
0.559080
-0.263232
1.008399
0.789280
-0.775682
-0.552155
0.851296
0.511703
0.670703
0.481059
0.631266
0.887311
-0.308050
-0.705506
0.486405
-0.022119
0.050491
-0.786890
-0.218046
0.299870
0.786579
0.417531
1.025442
0.673196
0.566232
-0.133397
0.262962
0.893410
-0.849296
0.675319
0.076566
-0.747006
-0.228845
-0.923887
-0.105683
0.858458
-0.844647
0.976117
0.123936
-0.048246
0.239263
0.017348
0.076528
-0.153269
0.802204
-0.865749
-0.153618
0.996125
-0.560582
-0.677461
-0.493044
-0.161699
-0.214294
-0.286505
-0.680388
0.849141
0.087639
0.664880
0.171983
-0.886480
0.048331
-0.288104
0.054023
0.389682
0.562606
-0.464271
0.419235
0.040329
0.548674
-0.606069
1.041408
0.232842
-0.618436
-0.605517
-0.740365
0.458832
-0.864740
0.020717
-0.502601
-0.774940
-0.612565
0.364681
0.004132
0.560131
-0.089789
0.160561
-0.354731
0.128847
0.724155
0.068305
-0.174650
0.303337
0.899327
-0.439229
-0.067018
-0.803361
-0.195398
-0.960545
-0.722793
-0.072410
-0.535345
-0.997090
-0.828407
-0.287596
0.037435
0.927553
0.492456
0.139714
0.004187
0.103780
-0.034324
-0.904439
0.921107
-0.276702
-0.408717
0.753014
0.041122
-0.925103
0.883665
-0.774920
0.227048
-0.807253
0.335236
0.770796
-0.345748
0.851707
-0.406466
0.231073
0.084384
0.867372
0.512467
-0.173066
0.529058
-0.674680
-0.681119
-0.022871
0.513592
-0.004770
0.677570
0.193251
-0.193836
-0.445241
0.563640
0.670692
0.762437
-0.818285
0.751765
0.244474
0.690521
-0.642737
-0.287497
0.755609
-0.466349
-0.724195
-0.239374
-0.475957
0.293894
0.043874
0.253713
0.175291
-0.940441
-0.899106
0.541666
0.420144
-0.922572
-0.188683
0.002501
-0.608543
-0.413714
-0.425165
-0.330398
0.806667
-0.915514
0.782340
0.519579
-0.238923
0.922632
0.159381
0.841285
-0.782341
0.405281
-0.650370
0.589421
0.808735
0.297639
-0.217431
-0.926189
0.017569
-0.590304
0.729976
0.660849
-0.388667
0.430866
0.552703
-0.370668
-0.992464
-0.753775
-0.194545
0.297097
-0.211811
-0.118018
0.485075
-0.261870
0.088291
0.150645
-0.042447
-0.475391
0.749162
0.568257
0.983690
-0.528238
0.489393
-0.844446
0.317943
-0.616961
-0.445766
0.356659
0.895178
-0.317848
0.866064
-0.632638
0.808523
-0.644841
1.104633
0.719538
-0.897684
0.250895
0.643407
-0.014153
-0.531721
-0.038096
-0.337083
0.419676
-0.496287
0.681284
-0.871598
-0.289026
-0.110104
0.839297
0.198722
0.318264
0.146097
0.293585
0.746909
-0.480602
-0.370793
-0.388875
0.139166
-0.326600
-1.109028
0.269077
-0.602596
-0.900053
0.482230
-0.735528
0.004983
-0.846985
0.852362
0.274807
0.421273
0.667185
0.177019
0.548278
0.236245
0.116369
0.247398
-0.472563
0.086089
-0.080227
-0.282637
-0.521629
-0.406327
-0.326321
-0.459442
-0.774273
0.753616
-0.007571
0.203843
-0.243291
-0.834743
-0.768790
-0.819933
0.164438
0.084169
-0.944722
-0.244613
-0.511844
0.827812
0.940400
0.969472
-0.617379
0.001582
-0.097191
0.492960
0.960823
-1.014113
-0.190741
0.950344
0.480245
0.619636
0.152329
0.030921
0.686589
0.536695
0.343354
0.527855
-0.411865
0.227016
0.759497
-0.345470
-0.869601
0.562866
-0.638762
1.133346
0.922767
0.342802
-0.305660
0.088782
0.605493
0.962334
-1.304994
-0.917136
0.864343
-0.759025
-0.123772
0.622583
-1.002649
0.668377
-0.106160
0.070817
0.043195
-0.040097
-0.712815
-0.996530
1.095214
-0.860578
0.071748
-0.328677
-0.644788
0.487739
0.519116
-0.653605
-0.332204
-0.085488
-0.580841
-1.028760
0.097019
-0.345031
0.712729
-0.671415
0.260297
0.178730
-1.032312
-0.400521
-0.397548
-0.761709
-0.715546
0.058310
-0.350975
0.435392
-0.915181
0.305573
-0.845400
-0.714812
-0.859780
0.694147
0.631153
0.921495
0.545900
0.758829
0.780344
0.008240
0.103777
0.706023
-0.319876
0.581935
0.354625
-0.559094
-0.626082
-0.541086
-0.837922
-0.416182
0.178779
-0.038305
-0.594011
0.714699
0.329561
0.820953
0.674922
-0.091661
0.041080
-0.192540
0.819556
-0.884092
-0.929548
0.871073
-0.409796
0.624666
0.794895
-0.880549
0.957819
0.002242
-0.539132
-0.498379
0.081672
-0.615601
-0.297292
-0.414938
-0.006309
-0.899554
-0.734456
0.162953
0.311807
-0.605001
-0.643496
0.541038
0.152881
-0.043131
0.790246
-0.445385
0.197403
0.109006
0.524316
-0.544849
0.206611
0.536056
0.906890
-0.463879
-0.028809
0.770139
-0.069035
0.616842
-0.492125
0.627344
-0.722548
0.503044
0.549953
-0.026829
-0.405366
0.244337
0.078311
-0.015221
-0.029378
-0.054724
1.009302
-0.772955
0.879683
-0.624024
-0.208634
-0.802980
0.594716
0.872988
-0.504728
0.826456
-0.357657
0.496058
-0.745347
-0.799977
0.909430
0.213310
0.737688
-0.530863
-0.923980
0.820983
0.696175
-0.452967
-1.030503
0.744173
-0.787781
0.573374
-0.220430
0.302396
0.559652
0.143285
0.766124
-0.308113
0.461342
0.681554
0.739654
-0.642483
0.492754
-0.324952
-0.089385
-0.326775
-0.221785
0.308377
-0.009908
-0.584703
0.638219
-0.794340
-0.652032
-0.653006
-0.567875
0.412950
0.191934
0.300960
0.325187
1.088136
-0.798695
-0.322384
-0.857540
-0.501321
0.659306
0.075666
0.638122
-0.286567
0.438305
-0.483763
-0.660389
-0.240651
0.178956
0.450351
0.081402
-0.115527
0.136058
0.093423
-0.449586
0.389540
-0.994585
-0.459345
-0.945436
0.001580
0.621031
-0.016383
-0.008758
0.372112
-0.956726
-0.956649
0.925924
0.956707
-0.056370
-0.492212
0.208368
-0.443294
-0.321323
-0.143126
0.785640
-0.600350
-0.005245
0.585688
0.701277
-0.206873
-0.083867
0.525344
-0.337504
0.107484
-0.956726
-0.886620
-0.987580
0.126030
0.224172
-0.120179
-0.538135
-0.352922
0.360537
-0.707958
0.015336
0.630355
-0.141795
-0.523602
0.798745
0.200257
-0.959732
0.015626
0.537496
-0.026121
0.774138
0.618670
-0.708090
0.581191
-0.239092
0.715448
-0.125619
0.151591
-1.109935
0.089199
0.414434
1.082186
0.499779
0.299155
-0.943707
0.927347
-0.001642
0.624971
0.222188
0.660750
-0.482907
-0.195208
-1.152997
-0.536691
0.657741
-0.315750
0.660610
-0.663965
1.051480
-0.950354
0.721375
0.055006
-0.867705
-0.246010
0.589385
-1.037609
-0.335289
-0.499258
-0.975417
-1.065733
0.762971
-1.115967
-0.360403
-0.753437
0.741594
0.317036
-0.495690
0.099781
0.687057
0.643017
-1.036936
-0.974936
-0.606050
-0.228784
0.002739
-0.072873
0.362941
-0.702231
-0.659961
-0.414489
-0.535663
-0.016532
0.200308
0.474620
-0.508642
-0.252619
0.787636
0.971173
-1.060144
0.187978
-0.006792
-0.892471
0.754186
0.613041
-0.144738
-0.763469
-0.122921
-0.068132
-0.164837
-0.212006
-0.492963
-0.446110
-0.185051
0.380955
0.884130
0.078299
0.027535
-0.399494
-0.884839
0.660321
0.011256
0.205751
0.334868
0.628512
-0.996033
0.417338
-0.239043
0.776155
-0.327216
0.010903
-0.192551
-0.623829
-1.142192
0.112141
0.748862
-0.224253
0.707652
-0.234691
0.297494
0.236616
-0.575425
-0.842434
-0.171448
0.915040
-0.698966
-0.643010
-0.270329
0.766791
0.661291
-1.008754
0.816305
0.979272
0.322875
0.414543
0.182215
-0.913743
-0.791985
1.000489
0.189903
0.079955
0.604622
-0.561083
-0.420336
0.559346
-0.219844
-0.418667
0.765942
-0.674651
-0.753595
-0.253057
-0.098304
-0.184105
-0.959831
0.185455
-0.640705
0.446316
0.610095
0.099794
0.024823
-0.633439
0.582512
0.057475
0.395854
-0.650808
0.728256
0.223512
-0.019867
0.737304
-0.173242
0.444537
0.762120
-0.552844
0.545589
0.088635
-0.101845
-0.267638
0.359025
-0.177133
-0.352893
0.791473
0.868066
0.218388
0.761319
0.262531
-0.463764
-0.711195
0.399872
-0.516100
-0.799859
0.710199
0.971270
-0.141872
-0.004945
-0.266025
0.518821
0.879697
-0.255729
0.457507
-0.035377
-0.511651
0.079185
-0.657757
0.303404
-0.281877
0.235918
-0.403074
-0.244193
-0.363014
-0.504662
0.017116
0.766907
0.833686
0.221796
0.338686
0.328624
-0.322504
0.714480
0.739571
-0.289216
1.029535
-0.702407
0.469997
-0.154525
0.154918
0.379529
0.504764
0.776560
-0.283062
0.310474
0.908041
0.606262
0.064901
-0.356100
-0.270374
-0.352771
-0.280944
0.001355
-0.612455
0.839795
0.453773
0.209719
1.008802
0.403094
0.415460
0.959412
-0.701067
0.981365
0.102297
0.721819
0.385140
0.687237
-0.443878
0.846191
0.751354
0.872232
-0.526996
0.471848
0.284947
-0.762225
0.588340
-0.587404
0.420557
0.121381
-0.974761
0.254067
-0.707832
-0.945181
-0.022709
-0.596171
-0.495383
-0.373655
0.592581
0.217244
0.557433
0.333958
0.801577
-0.505116
0.320402
-0.589083
0.951330
-0.320630
0.955936
0.472455
-0.899245
1.075597
-0.277460
0.088578
0.626131
0.615377
0.299735
0.414831
0.353099
-0.963989
-0.646669
-0.318535
0.936419
0.397457
-0.748123
-0.492130
0.117419
-0.726911
0.699339
-0.585580
0.798564
0.833837
0.203078
-0.769487
-0.552241
0.610807
-0.650063
0.417442
0.760444
-0.303457
0.644332
-0.325368
-0.498294
0.344397
-0.432658
0.151646
-0.177427
-0.562798
0.260150
0.749924
0.030729
-0.095776
0.541761
-0.902380
-0.024785
0.600960
-0.721746
0.147196
-0.999898
-0.227359
1.020773
0.653735
-0.054392
-0.762299
-0.833846
-0.095119
-0.487473
-0.119820
-0.426957
1.115069
0.303541
0.706597
-0.726603
0.244333
0.821488
-0.779130
-0.146933
-0.189994
-0.584322
-0.310547
-0.594722
-0.739881
0.440683
-0.289728
0.544434
-0.443764
0.809404
0.364178
-0.678349
0.281491
-0.900076
-0.344720
0.806743
-0.112925
0.393029
-0.435015
1.020905
0.729755
0.236575
-1.032013
-0.383146
0.241550
0.579026
0.330537
0.746483
0.058835
0.790792
-0.057321
-0.545759
-0.196218
-1.207926
0.130312
0.568991
-0.296921
0.703950
0.677490
1.018123
0.637828
0.590744
0.561503
-1.047611
-0.921200
-0.906967
0.359103
-0.163780
0.708760
-0.019273
-0.667954
-0.306837
-0.162732
0.664092
0.987840
-0.183498
0.815918
0.280528
0.114046
0.945141
-0.632237
-0.845878
-0.732977
-0.670536
0.645875
-0.818508
-0.831352
0.981553
-0.483230
-0.089256
-0.378022
-0.688070
1.919617
0.526401
-0.687512
-0.767926
0.224599
-0.224450
-2.933360
1.137453
2.025466
-1.529527
-1.746768
2.328853
-1.716607
1.043022
-1.537194
-0.619793
1.174267
-2.718747
0.489828
0.603639
-1.342914
0.481529
0.439248
0.138198
-1.773415
-1.000617
0.707282
-0.863399
1.706987
0.899645
-2.407210
1.044582
-1.897032
-1.058648
-0.828798
-0.401524
-1.795127
0.577225
0.044288
1.263524
-0.044031
-2.661189
1.329633
0.635611
-1.125746
-0.421893
-0.246565
0.197555
0.965545
-0.690715
-1.261739
-0.349428
1.682448
-1.055567
-0.771731
0.474225
-0.852976
0.422684
-0.573114
-0.578953
1.661443
-1.250860
-0.455074
-1.315377
1.025216
-0.581620
-0.466572
0.388456
0.133189
-0.369111
-0.679535
-0.992630
0.674120
-2.390023
-2.170593
-0.063076
1.394860
1.566171
-0.418229
-1.470327
0.240463
-0.066935
-1.740104
-2.171170
-1.349439
-1.021665
-0.270664
-1.044652
-1.779263
-0.242081
-0.840811
-0.920561
-1.337443
-1.207169
0.356216
-0.244031
0.017609
-0.050216
0.593569
-2.944675
-1.810235
-2.257280
0.481785
-0.807022
0.489411
-0.637492
1.116674
-1.025919
0.689611
-0.921690
0.692664
-1.491384
-1.012477
-1.047934
-0.337617
-1.274087
-0.311043
0.515083
-2.689841
-0.336710
1.099266
0.547322
0.447848
-1.565856
-1.746824
-1.457102
-1.398763
-0.135902
-1.704891
-1.111317
-2.050128
-0.061751
-1.730800
-1.462312
-0.385067
-0.555704
1.709058
-3.136293
-0.692590
1.302255
0.595002
-1.549464
-1.862582
0.736378
-1.460200
-0.788981
0.415257
0.616453
-3.750609
1.223912
-2.568707
-0.159847
0.406292
0.320622
0.343150
-0.398659
-1.219398
-0.166238
-1.977867
-1.293421
1.735825
0.505324
0.814217
1.297125
0.267526
-0.930582
-2.841224
2.349113
-0.562934
-0.530673
0.473686
-1.791505
-1.739050
0.314945
0.902299
-1.222229
0.501690
0.286852
-1.851269
1.329345
0.105872
-2.268654
-2.009694
0.881549
-1.479767
-0.710628
1.798571
-2.411800
-1.142693
-1.907328
-1.919506
0.464626
0.881779
-1.496259
0.151808
-0.597892
-0.397808
-0.360304
1.093757
-1.863175
0.612682
-1.550195
0.972863
0.853866
0.395821
0.732881
-2.323563
-1.695437
-0.607684
2.007071
1.349197
1.690160
-0.571940
-0.402734
0.064165
-0.759182
1.572403
-2.506156
-0.200835
-2.273860
0.532588
0.885596
-1.073847
1.164016
1.043661
-0.176558
-1.720599
-1.528761
1.855738
1.797133
0.639789
0.448239
-0.216330
-1.765895
1.395263
-0.476650
-1.180888
-0.050105
2.224715
-1.984729
1.341644
-0.377848
1.307906
1.458837
-1.396270
0.114850
-1.726560
-0.427839
-0.273122
-1.448556
-2.134604
-0.898037
-0.067286
0.171089
0.363578
-0.990975
